1384416
-0.0116959684316134
-0.0304281630774511
0.0207616695788716
-0.00248027153754526
-0.0457281543227657
-0.0149935350879523
0.0200014730012418
-0.0355376159677604
-0.0183956430708146
0.0469921599313755
0.0276585159348262
0.00415869358284653
-0.00650963198500899
0.0194206742506986
-0.0128337871712322
-0.0491528906080631
-0.0385600785001485
-0.0585668016661781
-0.0100111407727483
-0.0247848689315066
-0.0336788296269513
-0.00763343559828101
0.0641538851800086
0.0187075114873844
0.0010867522889669
-0.0398771123118593
0.0273034982856089
0.0448760308649053
0.0112637591229344
-0.00794059116326969
-0.0129530641075143
-0.0325908101011561
-0.0114701881332855
0.0337824480377392
-0.0338518374936827
-0.0324428208043345
-0.00814453221214028
-0.0129353277434651
0.0195097809552935
-0.0414816714844694
0.0485410432232251
0.035438713576162
0.0658066802396291
-0.035065547210628
-0.0426890973026096
-0.00442629327007404
0.0620814536965713
-0.0421440712715105
-0.0312772195531534
0.0231849123461562
-0.027598355662953
-0.0713775398186587
-0.0512965997005229
0.0137721540289144
0.0507500798345604
0.000480336073649399
0.0104898128266149
-0.00398052226592808
-0.0818518465139579
0.023630175495235
-0.00579364190865342
0.0091198028522164
0.0114365316758704
-0.0367971517429585
0.0376773610329912
-0.018206174383798
0.0243460487749584
0.00420832560795867
-0.0585343496534135
0.0494853803115171
-0.011264755456649
0.0385486614647885
0.0381479824557608
-0.0988816150449077
0.0036303508519902
-0.0228739727100677
0.056393693861162
0.0427124468350049
-0.0800564050597751
-0.0186368802059277
0.0473836697455236
0.0799209045378508
-0.0181281850721902
-0.0214345415270053
0.00675606388172862
0.0277697634591214
0.0367063788822945
-0.00810917997915263
0.00446761652960573
-0.00173724808523463
-0.0377149270764772
-0.0528582066162441
-0.0526325748297204
0.0404998747976977
-0.0260137033774247
-0.0243912650690987
-0.0587645707683168
0.0194179324468003
0.0173416522786706
-0.0273076641284072
0.0467888733523593
-0.0359371858278907
0.00620543508926501
-0.0669521336637414
-0.0146427223950207
-0.0519659107069874
-0.0066875601878097
0.0131266280418773
0.0215356792042501
0.00496053961826926
0.00606732359617321
-0.0462617175341832
0.0279353232338113
-0.0899027434314605
-0.0416076571031966
-0.0111867999269593
0.000558075098245899
0.0371696861837492
0.0106795957089499
-0.0136181833776751
-0.0282964647710788
0.0129276869774485
-0.0367708448421818
-0.0214544078228567
0.023286441573757
0.0283731091186017
0.0382517745165996
-0.0152544665311189
-0.0647031386390375
-0.0632272556352853
0.035491713907856
-0.0504195802120373
0.00343619641999081
-0.0308798221900734
-0.00658963416646462
-0.068430654258963
0.014876690573222
-0.0173813607802853
-0.0339332426715141
-0.10522887803803
0.0471907092434653
0.0304217353250624
-0.00509001183929818
-0.0266198291643027
-0.046106639966496
-0.0680751981233491
0.0455063760783535
0.0453307269910611
0.0538783081075538
0.0209931722009423
0.0337759040763636
-0.0264598531373346
-0.0236810700473298
0.0211165328207188
0.010964871428608
0.0439515340890394
0.0211372381184788
0.0327251690194802
0.0672388200202325
0.0318564786038694
0.0430831628748572
0.0439679893503832
0.0179466049695371
0.0581078601515716
0.0340534741293007
0.0549662950391105
-0.0365773036469486
0.0257159783097358
0.00372163048870056
-0.013635167087983
0.0163674599968537
0.0295554877843705
-0.0556122137749048
0.0194004718449639
0.00690531477312005
0.0337592721171101
-0.0177174320120482
-0.00117330609331989
0.0111642650453079
0.00179867451447771
-0.00105578795045924
-0.0311531329383713
0.0057565939101938
-0.0448397142662281
0.00973038863937248
-0.0379334152751166
0.0389731313224221
0.0109267056770315
0.0467182544271357
0.0559604704053059
-0.0249204532653641
0.0505074270335226
0.0636136491575395
-0.0531507598334617
-0.013712180325655
0.0265251959564177
-0.0338348246577034
0.0369791576367595
-0.00586884845204539
0.0544600362245503
-0.00788575998250392
-0.0068452420951114
0.013875863187816
-0.0402975129639641
-0.0260114308616352
0.0249268892063592
-0.0405941877264889
-0.00183314222867597
0.0480930091484544
-0.0369744347326028
0.0110530775632015
-0.00494588658177639
0.0334239802551145
-0.0592113523109749
0.0265648169428592
0.0122743707573604
-0.0135057571173549
-0.00961211687694106
0.0459733387772578
-0.0459079021593502
0.000515736633310243
-0.00440063029963446
0.0595009666274119
-0.0305161449211166
0.00468397305601489
0.0310600548129333
-0.0298099526646445
0.0420198069725751
0.00523045391254475
0.0104388930772971
-0.0474965321526366
-0.0509585531896154
0.0325318897484488
-0.0413512879286163
-0.00434876463283521
-0.0425744424147401
-0.011561952086697
0.0868225635503962
-0.000909707862803234
0.0462984685910863
0.0270388270641649
-0.0304311130100244
-0.0187539993956427
0.089495695201042
0.0560120349398666
-0.0393289118642712
-0.00221052733726829
-0.00114327158419894
-0.0338490137654742
0.0256916566882563
0.000480866379748216
0.0446777119670337
0.0369556441974469
-0.0510366247115589
0.0348053252054783
-0.00101712128510024
0.0125509118787032
-0.00656417225344169
0.00916258115656541
-0.0272798925700715
0.0603125447819245
0.0365684441194451
-0.045043676604616
-0.0049609718619183
0.0161353340666693
0.023138134978885
0.0508178140052589
-0.0434467396754286
-0.00105763689960466
-0.0464053062993656
0.0267892896660821
0.0169452978068481
-0.00435899445332591
-0.00555219309247706
-0.000979190775927736
0.0880521351415571
-0.0125504132991513
-0.0648894357888354
0.0357522885606188
-0.0260253742858931
0.0345717219935809
-0.00504860562508193
0.0278488283644929
-0.0310752369437629
0.00686514452352481
0.0320215173493239
-0.0623932384290892
-0.0467033130139338
0.0482677673351301
-0.038649828289324
0.0177809273597213
-0.0224003166723639
-0.067613770955019
-0.000907361154133504
-0.0668640072956592
-0.0770397670728325
0.0146991870854652
0.0481837085178147
0.0728223722475914
-0.0249604757931736
0.0134894751030948
0.0233017490650976
-0.0200433430664011
0.0233377252709958
0.0313826348063674
0.0537318725625778
-0.0776938060007465
0.0129074443628502
0.0190273365268446
-0.0424010108529257
0.0201318917114585
0.0354057962472661
0.0937553034247308
-0.0279506868329014
0.0197249328776737
0.0293160387952787
0.0242270354033221
-0.00431674956691959
-0.0247012862642382
0.0184212375135723
0.0415351838358838
-0.0986737181501353
-0.0408951911835963
-0.0135814049489559
0.0403268660421787
-0.0155716912284107
-0.00324431854064804
-0.0869829413610363
0.0138386935094066
0.0700155525971106
0.00573571699887599
0.0196340995110264
0.015497940238585
-0.0198439744440872
0.0194520635538917
-0.0412342805344788
0.0251554393275455
-0.0013089704925959
-0.0714606503639457
0.0330769691837506
-0.0334323928422725
0.0620433089657847
-0.0478374362779138
-0.0210282930563333
0.0520912358276894
0.0782587949861621
0.0341122920405311
0.014756170263701
-0.0182945931045103
0.00313790911600769
0.000933206132223159
0.0803375584810265
0.0257594954690499
-0.0341171391639152
-0.00838064494980068
-0.0191579638829607
-0.0215657102347017
0.0332697748058185
0.0587387906944158
-0.0230352180047568
0.0268902137656521
-0.0374644298095374
0.0737873256294231
-0.0320139804237531
0.0385648868656871
-0.00381196756653758
0.0278971781447698
-0.0383829066901907
-0.0126553144620663
0.00644883919513421
-0.0538476832316526
-0.0201792747473235
0.032727780342883
-0.043192797395791
0.0226540223613326
0.0120198360487124
0.0155927558538436
-0.0305387645056466
0.00690598600383989
0.0368911085273394
-0.00953067474895307
-0.015439376238681
0.0166397399322434
-0.0151161433279311
-0.0188167757850683
0.0400664651092597
0.0306807377986492
0.00726848910844294
-0.000567008256559212
-0.0444763605996048
0.00385458752904048
0.0408119711481135
0.030137923921652
-0.0634951341560129
0.00521805653697729
0.017196980409075
0.0237001279009545
-0.0431887346796326
0.0393830542091948
-0.0023823022875921
-0.0433480519254266
-0.0674609622585818
-0.00126656833078037
0.0238922228186622
-0.037766779960371
0.0455779430864558
0.044099770276895
0.00362273367380174
0.0173253776964028
0.0567549842063966
0.00133227215711572
0.004997020371954
0.0904500615388188
0.0092635646548959
0.0343664458689563
0.0128200348819482
-0.00176386722831907
-0.011209436902724
-0.0213355560479647
-0.0468858519832005
-0.00221159602914881
-0.0217902890536981
-0.0737882763470727
-0.0115875723077744
-0.0192517889139504
0.0213393362279658
-0.0691239801564896
-0.00804755360462022
0.00390892598893505
-0.0204853902294931
0.00420833545583841
0.0873689082699196
0.0494517884375032
-0.00861398809817765
-0.0554838693860584
-0.0581936535294017
0.0207818422958879
-0.0082701316433488
0.011363715102862
0.0592045688362548
-0.0131393339061116
-0.00505965420617887
0.00859850007178001
-0.0151216139219972
0.00781368337871941
0.0167205111537704
-0.0120849269669718
0.013328497673626
7.45721843436145E-05
-0.0180352701662873
-0.0175909570356748
-0.0491756882683543
0.0376026404027114
-0.0301774250108138
-0.0572957053342054
-0.0186437597751238
0.0921253028722847
0.0220481757876947
0.00278810032909709
0.00694784711431018
0.0136216217014581
-0.00166711993933809
-0.00999497670391366
0.0106772084146282
0.042686687479949
0.110270874835528
0.0405402211112147
-0.0397713832699676
0.00744573833208606
-0.0182717865706507
0.0213395640008142
0.0243576345195827
-0.026522958365844
-0.0316021943563642
-0.0362040638098481
0.00190763062787614
-0.0345609767524076
-0.0603819178849557
0.0177615228151023
-0.000284622028886203
0.0250931292572563
-0.0474580462893835
0.032642586818387
-0.0207198191411829
0.0173823393135186
0.0375500810935087
-0.0364038347021263
0.0239523362269081
-0.0420881197560398
-0.0102044199291731
0.0224936195383398
-0.0207526587040113
-0.0127897711664202
0.0226791694905778
-0.0600777122058229
0.015434893955703
-0.0564716490664344
0.0216539147996402
-0.00150978183574811
-0.0221535402913458
-0.0325755446693717
0.019082222583119
-0.0279559476976811
-0.0761335460474556
-0.0582676205462012
0.0380845654033135
0.0215750207317451
0.00440653903493204
-0.0274802448744509
0.0181966287879769
0.0299824542794821
0.0223860576129357
0.0137480606277361
-0.0546365067923664
-0.0019205329862069
0.0239220187611469
0.00404560762050366
0.0194043697878661
-0.0067070305826449
-0.0675874733911592
-0.0333064337774529
0.0325317150988751
-0.0607186657640931
-0.00324363416212898
0.0152022972308203
-0.0314385918230688
-0.0326771532107771
-0.0437714102816745
-0.0673009695798141
0.0189274974531212
0.0472648674837831
-0.00550318475179737
0.0565624334084982
0.0251943580214423
-0.0466719199077008
0.0424273667991919
-0.0279036204328844
-0.0347456733747274
0.000863625766549559
-0.0201162503979727
0.0549271514751072
-0.00755871363300616
-0.0602847584540024
0.0271739046975817
-0.0226117923518051
-0.0101857699543076
-0.0193291687753453
0.0286455674408169
0.00900286419691355
0.0314559280704104
0.0211198229058615
0.0215845467132495
0.0210547665990589
-0.0116113705101602
-0.0171488544418504
0.0270091679973912
-0.0105815618050839
-0.0154370474360345
0.0361577091526298
0.0394554323915594
0.0169849853414895
-0.0152729932011703
-0.0193147260814817
-0.0408784237444451
-0.00302304108476617
-0.0205728702201688
-0.0326757145995289
-0.0540714019910231
-0.0211405441882813
0.00415394438216281
-0.0402557878623888
0.071137689989606
-0.0678586802072549
-0.002421848065836
0.0064878995472846
-0.00218316134134758
0.00807500682772178
0.017187294983638
0.000608836541487263
0.00448329420079207
0.0117762298737348
-0.0109204151964958
-0.0196359136209926
0.0292829752113964
0.017702251164407
-0.0123619403347187
0.015209471481713
-0.0186352477554909
0.00896185701711282
-0.00776609553060862
0.0213918908585384
-0.0558575022748074
0.0216830430724403
-0.0082458016002373
-0.0521202994081507
-0.120489150135679
-0.00968238868497691
0.0313500384914632
-0.0447922798950755
0.0385203125251411
-0.0475080396444547
0.0403907468347406
0.0538779666145928
0.0316310256645031
0.0302285037727942
0.0294100736173573
0.0278902428162103
0.0355933817918231
0.00650979975627939
0.0191934436895926
-0.0027601189824137
-0.0738269917245561
0.0137714623904502
0.0432007516313984
-0.0578046779264606
0.0292554465247007
0.0182564473138736
-0.0276072643360274
0.0777934442223747
-0.0250705017001317
0.0110167880279647
-0.02215107045929
-0.032603393452518
0.0538680762413806
-0.0121118245457033
-1.0273313908343E-05
0.0230444608853669
0.0429866132810014
-0.0232265068482009
-0.0260316340860625
-0.0617913095687303
-0.0501308171684888
0.031705201821267
0.0204648750155459
-0.00517983204811182
-0.00474119317902745
0.0360520696852175
-0.00691822314833733
0.0262927804259352
-0.0556954470275633
-0.0424337987763136
0.0205895713541446
-0.0192498579419174
-0.0301986485875764
0.0152321516508288
0.0640982107424161
-0.0395120870593791
-0.00676045570806441
-0.0306470007287127
0.043864200119164
-0.0800665621262819
0.0227192075547185
-0.00433465940392015
-0.0280374662661045
-0.0890558199767179
-0.0180812578793265
-0.0186142586096537
0.0373608538208521
0.0130796223180368
-0.0831259960666021
-0.0220833715605133
0.0327421500845722
-0.000981058883054968
-0.0252685554649483
-0.0190867567337174
0.0266123725343927
-0.00365011270294271
-0.00338457878609844
-0.0484433451417327
-0.034670016776481
-0.0220515578484325
0.027214534225942
0.00747119562920007
0.00123192976940552
0.0487846753717583
0.00943686934756079
-0.0142635927117336
0.0265962142879978
0.0418231379097537
-0.0189034550625758
-0.0211626922159303
0.0102651987289818
-0.032556555069089
0.00828938361378236
0.00662792957790928
0.011632694513458
0.0380033995017784
-0.0199952079198429
0.0364179505862246
-0.00155829978479438
0.0487543304529071
-0.0206476228903971
0.00759673035656897
0.0318973984911862
-0.0116159181249507
0.0565754073521549
-0.000336119397410251
-0.0253056730878337
0.0697097768512022
-5.20472034112593E-05
-0.0113123212061693
0.036255541771462
-0.00533307237876932
0.0407555655693035
0.0114058822842053
-0.0143977398263402
-0.0375909589046315
0.0342502142445292
0.0221637438781183
0.028672557830019
-0.0753291935775194
-0.0654100399661965
-0.0217458683877439
-0.0174673909675017
0.0869733798964977
0.0275241620958739
-0.0323965650353088
0.00415146109721617
-0.0179896460238966
0.010839754811464
0.0248096781897269
0.0492235106869307
0.0150123488334993
0.00428208602507569
-0.0114765808924205
-0.0161245056171033
-0.0187025140713688
-0.0160603678043893
-0.0183744257014074
-0.0183490182457621
-0.00400485868916113
-0.0497928772988726
-0.0384954884259791
-0.0538034060429589
0.0279721937763095
0.0351548767745102
-0.00339364210451671
-0.0403994135650144
-0.00967950286480027
0.0834966289956419
-0.012357088259926
0.0281075226384122
-0.0355984013717058
0.0127875589265647
-0.0147308475935003
0.0785108127718381
-0.0378710892167731
-0.00536263139223234
-0.00409082749953158
-0.0215812449003778
0.0604777214892449
0.0442098696554714
-0.0274625448753385
-0.0717830169781795
0.00982719015490899
0.0204873610366359
0.0133631582645027
-0.0144890882794672
0.0157870583615073
-0.0264924581318813
0.0406885882735909
-0.0120766108477926
0.00552180910469971
-0.0130232570981986
-0.000661759685113656
-0.0181069112943603
0.0416658900102326
-0.0175705968195914
-0.0525971246464317
-0.0351089843461193
-0.0281589198643625
-0.0253010564455459
-0.0475014275983422
0.0270797380486854
0.0429560861879499
-0.0152470826358959
-0.0456025392728905
0.019259527661998
-0.0403647255303306
0.0497232190698106
0.0276056796159046
-0.0255806059168485
-0.0313291623841514
0.0550256052998212
0.00880296180621576
0.033359288999768
0.00885448445868587
-0.046545715858737
0.00136843745066703
0.0457869386656943
-0.0316041954036859
-0.0140276328453263
0.0161736909571152
-0.0390413137381455
0.0013230730089277
-0.0631839953254201
0.04280566404378
0.0863478340587409
-0.00340444405175725
-0.0302691351070216
0.0275263226949985
-0.0523351533984623
-0.0405033727850588
-0.022916227049368
-0.0575434173472188
0.0180583852902244
0.0139884087684587
0.0167665420628409
-0.0329917088790913
0.0325183698975667
0.0210202365239091
-0.00625815436805757
-0.041661452750873
0.0220678349075588
0.0424884760392888
0.0060172420309902
-0.0395715452212602
0.014929554295502
-0.00764406844853423
-0.0332368469764318
0.00660958777276055
-0.0326933302114732
-0.0519161521881442
0.0500976627678886
-0.0136634368720082
-0.00325439416137973
-0.0107978227938505
0.0273688836216033
0.032301697454396
-0.0215050293447505
-0.00572629299863794
0.0233460228565406
0.0216884576793178
-0.0806120586804767
-0.0512157716085647
0.00397843844005176
0.0422644683145
-0.0643286639558704
-0.0646087747053593
0.0176594474510287
-0.00567486523911522
0.00666672547209092
-0.0187721069519714
-0.035016410111945
-0.0607365096758534
0.0159849001987277
-0.0560578346562678
-0.00291882573412466
0.0158360845712007
0.0502271426246439
-0.0244944792811838
-0.0523029827375742
0.0585158777983358
-0.012719309959197
-0.0495017096761004
-0.0905180227209949
0.0313744364760686
0.0572325900490268
0.0248252265933708
-0.0180376602813582
0.0337477299458286
-0.0228979925113372
-0.0594791777030002
-0.0652192027035467
0.0557160601559804
-0.0193619340632164
-0.00415801516369179
-0.011541583829629
-0.0422347688037131
0.018595340593306
0.0183303457106662
0.0291962791064848
-0.0318253025788474
0.00637659247830086
-0.0162775909015127
-0.0270057944326639
0.0337562483146302
0.030688486122903
0.0311204719700819
0.000378010429542684
-0.0712066476643372
0.0418383024697255
0.0166907266021126
0.00532611428013482
0.0287798856018488
0.00169338597464981
-0.0214285243073252
-0.0154822532370238
0.013280777792606
-0.000849518918890256
0.0471342757911944
-0.0901262398701235
0.00300843488022459
-0.0433104437000362
0.0619864051739808
0.00648195687228153
-0.0796349396173811
-0.014148106664799
0.0228564657362634
0.0252473600930526
0.0297202050789814
-0.0197122986098256
0.0287879272132797
-0.0635212618019707
-0.0133005184543574
-0.0193085216228746
0.040450835197615
-0.0113899886277338
-0.00861591092665566
-0.0263817274266347
0.00633364370468002
0.0609969512014986
-0.0470765604329351
0.00465380289587122
-0.026680188254981
-0.0216451616119967
-0.0149295234150403
0.0101758620796306
0.00927336398075521
0.0735984192574491
0.00586217445394219
0.0112333333883372
-0.00777736662257109
-0.0229928606310044
-0.0127315790518327
0.00809194593521547
-0.0202630774972704
0.0373122492564676
0.0564811888499017
-0.0452400243509681
0.00437049188970148
-0.00877094152458673
-0.0581647315429627
-0.0364448935054682
0.0337153633881719
0.0544795903951813
0.0343699222745982
-0.0086726701468075
-0.00786430940854709
0.0468545916850957
-0.00504920054695096
-0.0430235922875409
0.00398901229713461
0.00255769773431818
0.0186722960693764
0.0121382904792807
0.0588952526507383
-0.0122978464131947
-0.025965175039556
0.00558726430081667
-0.0316430851061681
0.00745589403548869
-0.0325673502448748
-0.00829840370505502
-0.0262671603186323
0.0131876072544853
-0.0265133613008766
0.0363364539532583
0.033894488752253
-0.0608212772675673
0.016540483029854
-0.0138949245665932
-0.00161074380119134
0.0521317271084363
-0.00803895151237327
-0.00587039230480883
0.082199063483739
-0.0114311374257048
-0.00102758436658981
0.0267787770046119
0.0183390834991701
0.0472968759818291
-0.038921017960452
0.0623319602984216
0.0343723754731817
-0.0145927484111287
0.0290371572900698
0.0400703753661327
-0.00616424234180038
-0.043467662821176
0.0293766869511575
-0.00834220249035098
0.0267072371959323
-0.0235145288825716
0.00931337942191226
-0.0443550497933114
0.0566364591885857
-0.00102727824335355
0.00758197098088736
0.0264209301326401
-0.0135606893510551
0.023712588256349
0.024114540780723
-0.0229565950309713
0.00545253027642521
0.022495324176925
-0.00708957590126214
0.026342554958548
-0.0218297398917819
0.0176861587108906
0.0338590761334318
-0.00199061264264847
-0.0885027041553446
-0.00983561430925427
-0.0486444536486774
-0.0129122665803663
-0.0420037990534293
-0.0191569928179181
-0.0381575478941155
0.0474957936319621
0.0303410649389977
-0.0055955170122769
-0.0302124710228168
-0.00462967240263581
-0.0123603823611986
0.0609825722925308
0.0368314083972784
-0.00718077442705879
0.0145181044127565
-0.0317240541721418
0.038363881807638
0.0365907623666509
0.00680241382462191
-0.0660762486367821
-0.029496654117681
-0.0193350476047192
-0.0444591499126099
0.037067246865659
0.025282006893099
0.0574083189146404
0.0276382872253713
-0.0154823204980002
0.0264484562476221
0.000794079851400456
0.0736369004103177
0.0250442345973424
0.0411580342888236
0.0289865872886371
-0.0161167186980322
0.06281791625523
0.0258236436749083
-0.0114871822519471
0.0151936617525206
-0.0132024879181408
0.00233578903918411
-0.0487538847092871
0.0328117271174251
0.0581244454291018
-0.0512302967371966
-0.0255339971854357
0.0634829815281313
0.0185576664491022
-0.0286547039210479
0.0639183093978749
0.0645166018394588
-0.0377458038648187
-0.105343161077116
-0.0138285562578278
0.0106177110506866
0.00144956328300794
0.0447694599339014
-0.0322032661436618
-0.0441811415127214
0.0327142395406894
0.0956283181444034
0.0174942440942605
0.0168151498841655
-0.028938127133867
-0.00172636378339144
0.0179865839788061
-0.0533470898862016
0.0092933509401522
-0.0515870408325312
0.0168103144409751
-0.024798108079937
0.12491603001745
-0.0171661569866311
-0.0132980041356081
0.0127017428016883
0.0332676888745988
-0.0491850733874441
-0.0253749623673032
0.0300488292697131
-0.0215639706270342
-0.0380812979335037
-0.0773847602826944
-0.057110901808867
-0.00481359493172707
-0.0235799652895464
0.0109534948781048
-0.0722235657936535
0.0169623660469853
-0.0612766509841225
0.0608705824977268
0.0185468692753585
0.0129855412731481
-0.0686629574804755
0.0101966469076432
-0.0452330823157781
-0.0334261003861806
0.020145518445404
-0.0157434239544507
0.0339916488987364
-0.0145275227260123
-0.00906362138704805
-0.0313906840840795
-0.0247097840223531
-0.0316602194769177
-0.0883689313033416
0.0166184299115978
-0.025503734804701
0.0148059015520944
-0.0799947866844711
0.00943409346715967
0.000543863793728711
-0.0700094370541176
-0.00485030197290448
-0.0141562071125734
-0.0053126786251884
0.00676335399611667
0.0331507531805855
-0.0285142642768883
-0.00737432946615908
0.0162083426636122
0.0297540466776156
-0.0336747430491732
-0.0574214201934519
0.0475871430074495
-0.0552821486085922
-0.0103617525196325
-0.0332340662497072
0.0126116675565469
-0.0191805356096549
-0.00978053988743876
0.0352484739322778
0.0184635031746427
-0.0870955203588995
-0.0103825357429281
-0.0117756832619777
0.0265990187675743
0.0146003387265603
-0.0262102191807872
0.0075973768689098
-0.0333490021583922
0.0157191392054056
0.0315556603169059
-0.0487326919286916
-0.000484781524401208
0.0456680808990138
0.0124877969265724
0.0212137173290478
-0.0641730731629331
0.0313931942827874
0.0226207649698634
0.0142247175686966
0.0578136186790608
-0.0441736756327709
0.0417445810578838
0.0122620818615129
0.0585302318967317
-0.00476945896862912
-0.0103582475310438
0.0173806480718247
0.00763693666795646
-0.0722918751432207
-0.033339733275139
0.0113783626925651
0.0354306581806654
0.0375489807909166
-0.0664905811544514
0.0185264320936277
0.0219608860084292
0.0573626976645433
0.0160363194390786
0.0142395602003464
0.0721075250024574
-0.0544034973481467
0.0188951840712893
0.0451521297615706
0.0661887002845503
0.00685917384999229
0.0425730540504404
-0.000735168928126725
0.0456981511837342
-0.049099220933807
-0.0291955636632401
0.00793797794756286
-0.0211058838043468
-0.0127937046878725
0.0325931428166245
-0.0098700703366996
-0.0448439139332417
0.0157834818487343
0.0435469404373385
0.0435678377677058
0.0104814961927003
-0.0112939976345053
0.0291880325901723
0.00467093272131042
-0.0592929719980271
-0.00372936315297808
-0.0498668080807169
0.0260214782277297
-0.0401221589089388
-0.0274089234475336
-0.0258307618102786
-0.00708178953623556
-0.0404384066613512
-0.0295868182218712
0.0107276935904817
0.0511866047691502
0.0219461910353835
-0.00340786192743864
-0.00304513362279124
0.00706689899782809
-0.0123870006668899
-0.029182149154235
0.051871163565137
-0.00740168644038204
0.137849942587916
-0.030424086864211
0.00296892041456672
0.0108545831843542
0.00937170755233002
-0.0245486132347469
0.0202998135602091
-0.0381309347953101
-0.0264385577805114
-0.0137605336281479
0.0800229882155208
0.0376734787465666
0.0063592520094625
-0.073032516465676
-0.00843194280707605
0.0256774995963467
-0.00773789762150597
0.028201852722115
0.0140355301158508
0.110383048581733
0.00837452480036972
-0.00841777762396047
0.0377815045652025
0.00160426212810518
-0.0664695052698812
0.0410148489459229
-0.0264273194648942
-0.0390372518240716
-0.0076609489753943
-0.00286493205471783
0.0400704230559236
-0.047557128141938
0.0506195552934906
-0.0507742902192095
0.0150285537239867
0.0381558559415951
-0.00343946638711007
-0.0135513304893855
-0.0503960202603765
-0.0183505900038254
-0.00424711666313223
0.0392065837711141
0.0300149674495114
-0.0120541265830574
-0.0897841515770869
0.0342944682303279
0.00281376653716826
-0.00982122318567575
0.0774294041315772
0.0459487861872109
-0.042135597303394
-0.00245773603935304
-0.0226383907333474
-0.0308478822578719
-0.00729767545055775
-0.0191747221612078
-0.000485499860068521
-0.00497228735261666
0.0204539789501991
-0.0124926766719563
-0.022511913038807
0.0199889144336108
0.0389383949911086
-0.0461668212225147
-0.0266258479204429
0.00254871009912931
0.00761222790498695
0.0146394949291304
0.00306600325683988
-0.0126516698216725
0.0144881881752941
0.0172603845389601
-0.0694670109250246
-0.0637609284983409
-0.0468675020196547
-0.0662160922651644
0.0318445651948743
0.00852038810486267
0.016352546526735
-0.00544044267523819
-0.0387280041489533
0.0734750497679429
-0.0283374438277785
-0.0429523693210251
0.0440686635115521
0.056734576126602
0.00989043041851348
0.0513356114498031
-0.0215596256116806
-0.0787963830574154
-0.0184134760794299
-0.0128716832896853
-0.0282248498352232
-5.46372214336863E-05
0.0258235912075064
0.0202350170607137
-0.0315251786061498
0.00332064794301551
-0.00157266488121768
-0.00373865243819293
0.0390432909469731
0.0445467088116574
-0.0279660792845137
-0.018094240615657
-0.0360007384946983
0.00223679005041957
-0.0242353266126484
0.00152661783871965
0.0403890271106142
-0.0380189741119883
0.0065247999083054
0.0496665251851512
-0.0122399444905983
0.0398416560988132
0.0492710127333127
0.0593024753202884
-0.000280544734748883
-0.0347223611572322
0.0716434567237789
-0.0284613824291789
0.0469203483015546
-0.00445347754063502
-0.0469995134941178
0.0455978229957938
0.0489306628865775
-0.0254070237782501
-0.0293661416007927
-0.0178818651519549
0.0420414138456508
0.0299106214418558
0.0447995983426911
0.015724327620462
-0.00993995968628708
-0.0155016602606783
0.00302490642680127
0.0123712737297168
-0.0122962054765709
0.0337815945533158
-0.029597268941249
0.00565978708276952
-0.0190894310235818
0.0598807748424432
0.0384203402809143
-0.00332051137827654
-0.0271470819151596
0.00615227639617457
0.011512198512767
-0.0118754690848079
-0.0673490104112595
-0.0233069956188439
0.0236603606257989
0.0180674047273693
-0.0144302867210233
0.00740467860702051
-0.0403610030312933
0.073541176946523
0.0692067835004154
0.0114223813850675
0.000322249448657681
0.0126222648710545
-0.0152561462321439
0.0350955790140424
-0.0384968113098102
-0.0630510319965183
-0.0735528362372215
-0.00591502850268245
0.00536285175617923
-0.00860899264941008
0.0404910733742596
-6.46921178460017E-05
-0.0518570605339987
-0.00197962749893594
0.0206675815296709
-0.0162129864458522
0.018241737805379
0.0847672402573305
0.0552576518075008
-0.0478811241920379
0.0206521751146125
0.0225839557699074
0.0485497135967952
-0.0378436071273135
0.015982916860571
-0.00330999033971755
-0.0300238840662991
-0.0966778037683049
-0.00948816162287417
-0.0703923485565647
0.0168509273715501
0.0190365543259501
2.56847935443499E-05
-0.00707290086743808
-0.0123017322264379
-0.0208048581361217
0.0177952662138038
0.0102338845074226
-0.0304478541491289
0.0276649042610045
0.0175625563337915
-0.0450614702995215
-0.00447940720342505
-0.052189634460358
0.0814250246437504
-0.0660849901470095
-0.0578617999268861
0.00909240995950676
-0.0610351112250034
-0.0416801901606838
0.0695501865473577
-0.00715054337867043
-0.0537445720756581
0.0612995760518226
-0.0235987407280142
0.0394882285943097
-0.00757411015492334
-0.0553596090038366
-0.00794735756855056
0.0276797645276796
0.0637978719034594
0.00730355444918366
0.0116193644898315
0.0195764239377311
0.0385603294991279
-0.074712566893958
-0.0539678310067624
0.0560907377142651
-0.0615645385283382
0.0448268082471349
0.011721444296278
0.020952563450967
-0.00757041925576176
0.0198373070027241
0.00874957689358426
0.00439849493876031
0.0313606849887836
-0.0310026735768682
-0.00785853350394389
0.0220980831550954
0.0479204113133961
-0.00605940778147077
0.00725059985419028
0.00605830091800896
0.013852984493152
0.00574421950871911
-0.0681804681035893
0.0326668059701922
-0.0352032868872756
0.00532773059207832
0.0474921547228576
0.0344890753804877
-0.00526926001088937
-0.0408806032319271
0.0662044873895883
-0.0156377834611087
0.0949877856589212
-0.00038493878261874
-0.00136682002762639
-0.0269510156711171
-0.0306529953908528
0.044759984849138
-0.00812222196427481
-0.0508855648053903
-0.0020538193386545
-0.0429784302409187
-0.0762380957617351
0.00488832962416557
-0.0400594630411287
0.0114230498450839
0.0749224299237729
-0.0140782826337226
0.028481577553512
-0.0829178929809816
-0.0181501893605029
-0.0535626892051954
-0.0254884222018039
0.029782596276515
0.0255060509009598
0.0145402906920978
-0.0346520351109539
-0.0132079566432769
0.0464930046933012
0.0413767655775429
-0.0452283779539597
0.00397620836535699
-0.0701135091000941
0.0405912247445728
-0.00108216282558938
0.017995550702049
0.00716624169248807
0.00988598142927979
-0.0258966190745693
0.0961468322432872
-0.0267538276281126
0.046445626967833
-0.00997632188932969
0.000134138496540978
0.0451690408659259
0.033085210218716
-0.0358721718560343
-0.0104925057563169
-0.0181813826590884
-0.041216588477991
0.030173485259354
-0.0194697153838859
-0.0411357137899836
-0.0243321022380452
-0.0320976574289806
0.0228343006922227
0.0782739525592744
-0.0175666662077679
-0.0437576283513661
-0.0119149502552482
-0.00440359873095427
-0.0163465244665522
-0.0165694270043047
-0.0340668752504742
-0.00369721724107849
-0.0548923699998203
0.0711038450513766
0.022684810965788
0.012088629209445
0.0205585412136534
-0.000844746822039066
-0.0173577357252343
0.0525548495746441
0.0554738616180464
-0.00236242782379005
0.02093196159782
-0.0276535984356518
0.032172818751258
-0.034965483557683
-0.0181166747719026
0.0153783664860036
-0.0176232838627018
0.0374939660397793
-0.0433800449173949
-0.0173839165082179
-0.00352848754330076
0.0740131011218481
0.0128182131118618
0.0698799712541847
0.0202669303379995
0.0490477167945172
-0.0166163558055785
0.0385242997597203
0.0323871887632563
0.0711309889478769
-0.051016683502646
-0.018856539612536
-0.0760806641093834
0.0263855676830395
-0.0706914949587875
0.0126683594142391
0.0178623679050399
-0.00147656883306193
-0.0780403621753827
0.0502115256529663
-0.00964512745298344
-0.00838076327004704
-0.0338562293037287
0.00249047015023117
0.0541527208170209
0.0216130077791372
0.0109950075677085
-0.0324929975376374
0.0497914906764538
-0.00528237551307591
0.0015683366067342
-0.011020506826666
-0.0393908686028709
0.00830395642644072
-0.0085175771131103
-0.0672749649933556
-0.0753489777286128
0.0387570645904599
0.0264804645311708
0.0373656597491391
-0.0276063636694222
-0.0130014031530367
-0.073122979400143
-0.0374820742130246
-0.0162119133965854
-0.0270989026736761
0.0375065530451471
0.0304960020832978
-0.0118823469024318
-0.0606533486885506
-0.0652294483665254
0.032960578179512
-0.0459783281546997
-0.00947765392867513
0.00538877327535181
0.00759468896869792
-0.0114622030310833
-0.0431958689804087
0.0775893744385629
-0.0130472751245136
-0.0526035845519656
-0.0338807676353382
0.0288192048149194
-0.0502730030408165
-0.0490779727675575
-0.0510834270023306
0.00012971893240499
-0.0552912939065151
-0.00715412736937328
0.0349862587972238
-0.0199321832670311
0.00908193348023119
0.0398008169665487
-0.0805154570486646
-0.0177151394440819
-0.0312637495756074
-0.00336860474086058
0.0299150321358925
-0.0226999052680941
0.00918562228673022
0.036727379482298
0.0126374218515458
0.0638544130013607
0.051623810203934
-0.0166838685726026
0.0133922594631272
-0.0289241561727898
-0.0728485609628923
0.0790121497707441
0.0358272779974832
-0.0510685737319925
0.0839035630429621
-0.0237826919452328
0.0111947411145007
-0.0800932760513488
0.00499587295519849
-0.0189953027392009
0.0345267924803137
-0.0221970268594314
0.0595078052077954
-0.0442020175665173
0.006472354245294
-0.0874639409542885
0.0191878188587569
-0.044725577664803
-0.0142349895192085
0.0201784236254382
-0.00677820048604657
-0.00392603768830001
-0.0165423058005293
-0.0403087324999607
-0.0413917133324757
-0.0167711192122754
0.0514356167745257
-0.0655591487250283
0.00996958891876694
-0.00740859786647288
-0.0154640141654224
-0.0248242283558547
-0.0368224939768518
-0.0179527960291295
0.011718580869367
-0.0434503590577036
-0.00613964040215142
-0.0288446558251095
0.0887220412892738
-0.0543872151364235
-0.0076694468562051
0.0418453545393891
0.0544328716512212
-0.0377749546679904
-0.0482414472518441
-0.0030860992811458
-0.0700089488573983
0.00916610140446393
0.0413800044450554
-0.00478269468538625
-0.0246458735398852
0.00905078760497316
0.0358169430550492
0.0377782652302875
0.0187870945430329
-0.020796337538604
0.0757335087947687
-0.0607504062367631
-0.00920081049835693
0.00659818180746341
0.0240958504917315
0.0392727293627815
0.000489393740522876
0.0188835244298865
0.0832727297070398
-0.0434070306353152
-0.102719165479213
0.00741859750286864
0.0202407152126463
0.0241955459138174
0.0321467494274664
-0.0637482855241802
0.0173982621085678
-0.0167424287546701
0.0209577785665791
-0.0822013304249183
0.0228125319857438
-0.0665650286590783
0.0339498974730322
-0.0271684014703204
0.0421533244574674
0.0521166043370419
0.0622840382149656
0.0275029192056545
-0.00647460076119093
0.00684753632225476
0.0179183980601907
0.0319526605583935
-0.0175442124120101
0.0348878517078298
-0.0202093579153286
-0.034915911852107
-0.0430759141945176
-0.0188707163524839
0.0345810277814507
0.00744799845812114
-0.0222047443131554
0.00108614186410255
0.016663553812947
-0.0301380938525499
-0.00863750138736593
-0.0381952920153466
0.00638556570188516
0.00202859310364281
0.00519116646646072
-0.00600851743761259
0.015409000285272
-0.0037674568164398
-0.0117856092758911
0.00910835689112145
-0.0462572520092789
0.0174032633722081
0.0564697518906631
-0.0313989727008897
-0.0262892025322997
-0.0572638101055188
-0.0812633317379023
0.0106370964180794
-0.0477770414824742
0.0693209661703448
0.0146915897567893
-0.00515923087913454
0.049026880015854
0.0100617253274998
0.0347907213804391
0.00469330985555429
0.0725462582412311
-0.0351433893301761
0.0158022564341156
0.0344004382426783
0.0192634067015217
-0.000105130707664211
-0.00357746284762874
0.0314915856186826
0.0447742930623789
-0.0688997568359753
-0.0424533120409257
-0.0234740094484899
0.0120818527467278
-0.00654167761679386
-0.0123146809754742
0.0460633120607032
-0.00839694605642251
-0.0264832458936924
0.0515819787324366
0.00529490923199058
-0.0299692876601356
-0.0099296525468928
-0.0166304675815915
0.0142618256266437
0.0127399000742566
0.023547817256466
0.0372068964262934
0.0305621426381838
-0.0299312987459731
-0.0179732591006634
-0.0266038896600159
-0.0454148611437109
0.00403407265219778
0.088298835897943
-0.0589482319030959
0.0195865084201721
0.0100316699468253
0.00550540861495428
0.0777524604841322
0.00434548619608894
0.0369839581896196
0.0490247477566079
-0.0202964192802102
-0.0466666484298399
0.0337129259264188
-0.0539855662357719
-0.039851348214861
0.00195331706913675
-0.0333975823916186
0.0217961230659343
0.0154571765502936
0.0280416980225626
-0.0137725586039241
0.0137860612848304
-0.0219589623444132
0.0476030154900315
-0.045253842630826
0.063153571808393
0.0211996279446659
0.000892367628739623
0.0507844490237408
-0.0185601179381635
0.0326877884151052
0.0290960742296477
0.0244837599672235
0.00647600538552175
0.0221363785075132
0.0720983236021306
0.0594622635001737
-0.0178276988636679
0.0468403672141968
0.00709793179192151
-0.00365633982744449
-0.0553014766066368
-0.00625034023798994
0.0485767286717229
-0.0111908539051644
-0.0186944469418895
0.0291399902397586
0.00319647988101505
0.0354231263006059
0.0541298537428844
0.026979322414993
0.0210036537160991
-0.0356377778458409
0.0470234767251783
0.00799611362729236
0.0185490371258323
-0.0242671826529132
0.00141996859165113
-0.0143585564907221
-0.0400253984844259
-0.0314391511489989
-0.0548033924575056
0.031756881809783
-0.0366174647700906
0.0431228778463101
-0.0287286779489455
0.0210875284557202
-0.042595580402241
-0.0201365008882826
-0.0499760369760748
-0.0318417497130295
-0.0362914304197373
-0.0125818014721506
-0.000341126570811272
0.0429537074607034
0.0213506125003141
-0.00511204630580929
0.0100706695121634
0.00156433327536187
0.0641297903296705
-0.0329468030144538
0.007200614610154
-0.0233661045992468
-0.00735256285712137
0.0464791099231461
-0.0322991404320681
-0.0293150654362741
0.0311664316393204
0.0339710708338388
0.00205248024697233
-0.0269928999300012
0.0478009175814737
0.033812895615724
0.00730994827423126
0.0422158063456231
0.00740058035791333
0.00783156461230884
0.0130683579185312
0.00330844828396188
0.00531703957098087
0.00855484519489043
0.0264231349975961
-0.0219235056025172
0.0261722337682496
-0.0426051547275592
-7.92789818028703E-05
-0.0455259248137103
-0.019229910620589
-0.0156823384716482
0.0424185990101736
0.00149325134649907
-0.0420489121051596
0.0642720471534011
-0.0490349169108219
0.0329810660678478
0.00887713401346665
-0.0183548082630524
-0.026017164231078
0.013386632433579
-0.0273263022565437
-0.0417536791776081
0.01057812802911
0.00458684343269945
0.00835760280225162
0.00435107902260231
0.0205872517423699
0.0310502423136414
0.0388370289618759
-0.0328710534563185
-0.0567306271369607
0.0238790853913859
0.05309977535898
0.0330630053140929
0.0291338253857514
-0.037122200096236
0.0181755381943309
-0.0193247896058037
0.025317889404796
0.00947637154561558
-0.011987929663002
-0.0578137518513633
0.0107012822995023
0.0604165743209496
-0.000137462640185665
-0.0189862695883919
-0.00918400922763037
-0.0672278627410044
0.0546289317715035
0.000171775576484044
-0.0517685839793276
-0.0196455612099593
-0.0095871001593322
-0.0575903913323077
0.0228688517019535
-0.0153417155501041
0.00618913720335191
0.00166954575965272
-0.0284782759334471
0.0122369489035043
-0.0622825273172714
0.0539023082794753
-0.0129552948502101
-0.0124941765008584
0.0737975258132193
0.0416360915331718
-0.0342807531092989
0.0222831042088405
-0.00733123096865281
-0.070211660577747
-0.00594919752309377
-0.0995876275294128
-0.0172009236115936
-0.0306093187980273
-0.0155292529363664
0.0420449062256594
-0.00322373614172265
0.00946182204638703
-0.0270393698973618
-0.0783423160932111
0.0259508239922733
0.0133470352416005
0.0283226975498779
-0.0287606085937982
-0.042641550072431
-0.0442970898533871
0.0226812179880931
-0.0276741179257223
0.0119874002985664
-0.0549804551738895
-0.00682962487532458
0.00345964843213477
0.0110973891310982
0.00111688580153268
0.0564733721436459
0.0384034585295265
0.0238263527534162
0.026676871456585
-0.00394520379824491
-0.0338376933974272
-0.0464064987311165
0.0085931537969744
-0.0530262050538539
0.0402997907195842
-0.0635469525507632
0.0306147208049873
0.043247428530881
-0.0680289331139987
0.0500640617992663
-0.0426068912039461
0.0305714313671625
0.0181738345073387
0.0419365118462026
0.0407274706987531
-0.0517480250756377
-0.0239983290896607
-0.0531683192764166
-0.0498548910150453
-0.0154946133810301
0.0126541181679364
-0.0251913827583267
7.29019239351918E-05
0.0282660823165219
0.00859844273244149
0.0528706994277861
-0.0753429468847905
0.0154002956615182
0.0148011640112382
-0.0117867043916081
0.0203247630044979
0.0390997010717332
0.0639713252054889
-0.0707735675105159
-0.0112738080507852
0.0802015581338043
0.0291922518163008
0.0707884499004638
-0.0739523880311414
-0.0346752393715588
-0.0111180031250533
0.0530226532568566
-0.0680288368840562
-0.00972665805777981
-0.0351173087178382
0.0381955029962232
-0.0436820557471788
0.00149110679601782
0.0191367111651823
-0.000976322233522243
-0.0455623851903083
0.0325772833272728
-0.0308209983581956
-0.00567806210475878
0.0338038191603638
0.0336879257921627
-0.0323349922451174
-0.0788569197019457
0.0125031053011092
0.0827316316296638
0.0368003561873996
-0.00951429914314551
-0.0902395811909918
-0.000219039149535142
0.0331903080650894
-0.0301851514408408
0.0218809328596922
-0.0337658143230127
-0.0395685226807218
0.081411023790979
0.0104480462834111
-0.00385648564188045
0.0325178815312974
-0.023353508992391
0.0053742760116501
0.0437541296128219
0.0400756177327711
0.00947011398852637
-0.0117234347568436
0.0449438176126395
0.000861092093523074
-0.0117393213003616
-0.02462066457754
0.0475025312424154
0.0194948236068148
0.0368130126984487
-0.0500750708037589
0.00894289748620376
-0.0023259638575682
-0.0349009230712307
0.00992221966851301
-0.0257631223110595
0.0999058575786837
0.0460964996106901
0.0741371515493238
-0.0234827958217559
-0.0393954599994067
0.0513496283320239
-0.0378897274559874
-0.0142472953978183
0.0434631844119178
0.0371227288555436
-0.0212875018623858
-0.00317537499290007
0.00209405381028163
-0.0544900460218105
0.0233083362706059
-0.049381975989094
-0.0269793613336384
0.0345505598044605
-0.0310360481596409
-0.0309981324967417
0.0525729143825105
0.000495977277730268
0.0246308618714683
0.0114111968378338
0.02771371120901
-0.00820631653591087
0.00748921442518875
0.0170532057340762
-0.0781635682500591
-0.0282799381942172
-0.00118545847592248
0.00894973220293768
0.020342291946208
-0.034396624658121
0.0187254308798416
0.0290200155246583
-0.06017984378285
-0.0645298058567212
-0.0517277607481744
-0.00268959878389728
0.0317642751357812
-0.0316216884353584
-0.0285652206388097
0.075935073984345
0.0158751873921388
0.0154080455831699
-0.0426631869486114
-0.00833780039430487
-0.0119040188877327
0.064518835965175
0.031267683911377
0.00888877679638646
-0.0158547061715394
0.00199782609850558
-0.0553751260878382
0.0250870380215406
-0.000415940127610835
-0.0860341489203334
0.00842749802145769
0.00482092635653696
0.0395786997238365
-0.0414287744115112
0.0258358063667954
0.00825559802536452
-0.0116117393498686
-0.0612045739696441
-0.0288248515986755
0.0298009631888823
-0.0249520655445303
0.00435309938056165
0.027742284430603
-0.00164692157564861
-0.00614049984165433
0.0244724480287472
0.0199352689142417
-0.00198139707609976
-0.0656469012596182
0.0139642063294521
0.0207008729224369
-0.0176550003246059
-0.00126932068680109
-0.0568875153540862
-0.0132631501223517
0.0198619965529746
-0.00328007796043577
0.0375409292852712
0.0600967248013727
0.0778357351666312
-0.00886301809920842
-0.0823131479186805
0.0190707095416961
-0.0171220265702664
-0.0197377760687172
-0.029383517983573
-0.0203336875451133
0.0203825467878783
0.0389153806208777
0.0353096933531612
0.0223747183829677
-0.126233272593286
0.0473257438134275
0.0190745669818634
0.018926698521553
-0.0459970286347152
-0.0280365896987648
-0.0239484737441556
-0.0174584262934462
0.00848459318468739
-0.0521716303894609
-0.0158010950091521
-0.015902137070715
0.0231651074008027
0.0203982581825126
-0.0856638619669741
-0.0709002602167533
0.0412001392340938
0.00880225144615204
-0.0225757960331486
-0.0108456949002424
0.0361781548058781
-0.0487675029905085
0.0361757215533628
0.0586643712193375
-0.0705542710653471
-0.0361186270351713
0.0554434609199698
0.0468828406535686
0.0439112466240539
0.0376516411648365
0.0522432390646221
-0.0365561756672156
-0.0147188755447776
-0.0272849321720662
-0.0300645768538933
0.0144244420462713
0.0137337340964502
0.00991880159082528
0.000210285599428095
-0.00103883699928571
-0.00353527057545117
0.0514089969196997
0.0623759408062035
0.0434891062388521
-0.0215404471588139
0.0141168284871636
-0.0606945522778432
-0.0349265426447816
-0.0789026046978888
0.0700889255802917
-0.00584707836336464
0.0343588250842211
0.0178501828933123
-0.054101873125077
-0.0234189236733519
-0.00754529570136799
0.0037831560741841
-0.050936087359943
0.00113222792075536
0.0254760926886546
-0.00669508157148283
-0.0147493817516571
-0.00174007389719536
-0.0620129374841581
-0.0977394173937836
-0.0469054157626845
0.0252098403220487
0.0134089557368565
-0.0501142077149
-0.0366215981749859
-0.00433738961743428
-0.0131649380148798
-0.0583486258219199
0.00789826583965399
-0.0537068552197983
0.00484056736297342
-0.0568124573172109
-0.0110918458617205
-0.00609700999179397
0.0466661709761202
0.0109749650517777
-0.0189564305705935
-0.0276602950508199
0.0195371785401842
-0.0316335664869703
0.0234359521378847
-0.0329157623304866
-0.0471907414743081
-0.0493659858538925
0.012428388356718
0.008040075730529
0.0390478379017628
0.0186470301357369
-0.0365272024967423
-0.0391289526228541
-0.0229528371231078
0.04472142344657
-0.00523161895170085
-0.00968724847144187
0.0453206894818049
-0.0526892842450986
0.0136345260789083
-0.0630105250266295
-0.024670514894833
0.0432016197536547
-0.00287500112253479
0.0244135589863013
0.0325491392806331
0.00337562661802733
0.0707404744308055
-0.0364354420930549
-0.0326765921416756
-0.0270972341478459
0.032553206989829
-0.051360548151118
-0.00735516731990217
-0.0237686358506386
-0.0214341554929242
0.0307202252308119
0.0129799774712519
-0.0100930415425372
0.0274224830214849
-0.0550067980815218
0.0129860394326488
0.0286033732755447
-0.00175063805645782
0.0284404385718231
0.00931179726926125
0.0132964364274165
0.0668958627135562
0.0565052276172682
0.0236648677452061
0.00993606051596182
0.0301912399789405
-0.0363313000464793
-0.0159059825750236
0.00954013686170287
0.0282233710915265
0.0332748635790118
-0.0266003813920881
-0.0119309934106841
-0.0359526386578959
0.0543794679584331
0.012832281209507
0.0201955200312302
0.0357162816528978
-0.0114370325112461
0.00796114541513152
0.000593524637500267
0.0643170466407861
-0.0894577568806565
-0.0347431837839594
-0.0430816067429511
-0.0639321899469038
0.0021791300411074
0.00919576772103511
-0.0151078759952379
-0.044171345669243
-0.0251675921621628
0.0506980970214492
-0.00393752986397743
0.035305860982879
-0.0209560905570596
-0.000794210323616718
-0.0213217191857768
0.0180403859879954
0.0510056152441512
0.0329365156563526
-0.0132407344184734
-0.0275096090146767
0.0573409981862022
0.0632150345812443
0.0173853167964518
0.0188055869840124
0.0344990460391016
-0.0173817975590981
-0.00712744789775589
-0.0025897532243978
0.0193602707229389
-0.0185986341600964
-0.0179483430215586
-0.0116591683538511
0.0107634171818719
0.0824441552832629
-0.00344970401012563
-0.00841322265864249
-0.00253031522618464
0.0474567802938736
0.0543388960091192
-0.0272851292541772
-0.00707106414281999
-0.0112384833804922
0.0297592407678579
0.0352974916511656
0.0121884526890326
0.00996534410235949
0.0521758801278043
0.00747858995918969
0.0364033997583818
-0.00201202277075152
-0.0330783139148585
-0.0497418044652557
-0.037758547723408
0.0524130194498188
-0.0124966616805944
0.00196741669891007
-0.0266683560590481
0.0698458621296184
-0.0209975698778608
0.0117224266213473
-0.0141818986402618
-0.0105525598769109
0.0230603126547928
0.0301337563603921
-0.00860461291600456
0.0187136157519923
-0.0406526425761903
0.0404681017088833
0.0518374707023215
-0.019164614615883
0.0411937765966034
-0.0399424896142852
0.00984643443957377
-0.00678911070823097
0.00937876502013468
-0.0104932509429277
-0.0348035179060268
-0.0404870202463177
0.0051371556202838
0.0107309333156825
-0.0942043876734104
0.025380121021111
0.0393519606887525
0.0100283787199543
-0.0063686355462489
-0.0540044296179256
0.0361696074934966
-0.031279431671597
0.014772154427384
-0.073859853831069
0.0360523449880848
0.0872184698278209
-0.00367924198052131
-0.0382419182555435
-0.0318297142778726
-0.0619040955760077
-0.00335176452028763
-0.018626150613603
-0.0225015445123639
-0.0549449161088939
-0.0353902953990239
0.0595777776487509
0.0187256594928257
0.0102471752797175
0.100773895723496
-0.0684910933965901
0.0520936659630241
-0.0151793439167972
0.019618216073325
-0.0356876006817764
-0.0310811429030028
-0.00030443640913558
0.0185600659586984
0.0416186601131946
0.0226525469409506
-0.0496524126695848
0.0104401396167179
-0.066124641528522
-0.0108381964534998
-0.01448455420262
0.00507678823588988
0.0225459948122453
0.0203284488347232
-0.00203098574351672
-0.0638034163999123
0.0171021995955037
0.0249935832273367
-0.058251329473741
-0.0562678573493657
-0.00225365590085307
0.032134947100964
-0.0109372490369777
0.055065271669326
-0.0514681352865436
0.0338253409589015
-0.0071482044062654
-0.0419520441735773
-0.00684058081808622
0.0141275130239766
0.0144322087017382
0.00410085125029652
-0.0376134870676113
0.0332546714182139
0.0355649321361981
0.0493334274973975
0.0401914940075596
-0.0234784667678286
-0.0387888479998538
-0.0341939012272365
0.0315088377609727
-0.00715359280710499
0.0053729492984437
-0.0150174769365604
-0.0306304644507947
0.0112364032906949
0.081718517504151
0.0161187963189341
0.0897648757871143
-0.0131948800639246
0.00122236561600199
-0.0623494463453701
-0.0404449598495779
-0.0378653060323515
-0.00952330723121001
0.034281384426309
-0.0121515809582749
0.00957605130379546
0.0255079172069235
0.0284819576836091
0.0488855020802234
-0.00716226252038661
-0.00689771333993183
0.0410051920516589
0.0455361948695367
-0.00341581886626165
0.0414324039883083
0.0486012394118039
-0.0363345233002473
0.105947200309397
0.010833879582075
0.0386556829172085
0.0484561923837771
0.0290554258939651
-0.0656555052768585
-0.00951031711441226
-0.000192931658905094
0.0224340477187321
-0.0225146674791785
-0.0160592630829311
0.0361524720011716
0.0331386069797823
-0.0114420144599772
0.0191065682218113
-0.0311689379960345
-0.000701674536400744
0.0410905869881155
0.0229788976481882
0.00552413083134963
-0.0513823929803553
0.0179939430934406
0.00803674602374453
0.0406582810598131
0.00607371376607123
0.0164715345988983
-0.0344343737934873
0.010575697458248
0.0261916233691843
0.0396048566628689
-0.0321193562798336
-0.0485940016216462
0.0328978687605919
0.0223993654748016
0.0449339027017373
-0.0465127605152649
0.0698862623360445
-0.0177649468889456
0.0253739475838907
0.00124563369557715
0.0282029995149321
0.039550165567514
-0.0140645664423395
0.0593669199276825
0.00696000097392323
0.0317469127192162
-0.0379717735148391
-0.0237210267453852
0.0125599387790794
-0.0206923531650974
0.0203061604828466
-0.0540728250324376
-0.0716504564244593
0.023661839134788
-0.0223140327583021
0.0287233579985722
-0.00507735030934619
0.0292448448289951
-0.0300316239298165
-0.0987900689626023
0.0304806553281847
0.0203474353203718
0.0250986886083709
-0.00907468690133518
-0.0191616115079817
-0.04486011573191
0.0352872194498652
-0.00723856420355291
0.0274244995768652
0.045021483026575
-0.00936364579630861
-0.0170771575545463
0.0454750243390796
0.00697271886063231
-0.0507548478843248
-0.0322996788958817
0.0225362811436377
0.0298243367567844
0.00877742345679861
-0.0391365355127346
0.0390568973297983
-0.0241911057624902
-0.0034313621660169
0.019914061804071
0.0244725921072288
-0.00548257260010537
-0.0267533634761054
0.00277362775795656
-0.00923699094673403
0.0174662639053327
0.0300255040999753
-0.0298689097046014
-0.0547718422787832
0.00922228033992103
-0.0106365295021181
0.070164236599607
0.0320114644820048
-0.00381121302899652
0.0215427222189937
0.0439486771738241
-0.0310070905825451
0.0126834496492169
0.0101443065742532
0.0954567950357071
0.0398014329318298
0.00388869126700291
-0.0576682182526964
0.0150169211149384
-0.0102374475577705
-0.0298262960845792
0.0314881451738186
0.0526974001114864
-0.00582536320997445
0.029858851386557
0.016892244462521
0.0165852445907059
0.0184983956629386
-0.0140331578034598
0.0569388498628791
-0.0621495175651799
-0.00322322392411002
0.0253243786853259
-0.0428470691756226
0.00496243821124103
0.0216589646093836
0.0247162799309074
-0.029845328753232
0.0359683690275177
-0.00163963314142224
-0.0378992524063883
-0.018149614479174
-0.00935676784598375
0.0443493147784237
-0.0186533328980064
-0.00975369675526054
-0.0631769793822669
-0.0297332308290288
-0.0205348109104229
-0.0876203086199654
0.0502448373122318
0.006783131301223
0.0159445828495649
-0.0133022273036479
0.0644852603953016
-0.0425581639503956
-0.026830964097167
0.0664029964616777
0.00173031835864332
-0.0330304100856577
-0.0254253532037617
0.00476531561418208
-0.016570008483477
-0.0554251820862225
-0.0166149676605102
0.0272377383512204
0.0850735291934902
-0.0498409841045608
-0.084061037468801
-0.0385012793241433
-0.0281039259866811
-0.0417309175440742
-0.0010617606610686
0.0414788820613384
0.0363622819862719
-0.01558132528042
0.0651909784768833
0.0108019502045175
-0.0334767596738501
0.00274936406544306
-0.00729944969565801
0.0083903108900803
0.0192902354276253
-0.00223580603637723
0.0243157910103823
0.0590989792196174
-0.0339680172799133
-0.0497754441218013
0.0363770763068141
-0.037431605407107
-0.0196671796757308
0.0179125112536252
-0.0093785032597325
-0.0649995694256176
0.0650927090258602
0.0560540563426484
-0.0212175362895455
0.020283928133998
0.0107085237842724
-0.0188082083494799
-0.0104850201401094
0.0091996049106019
-0.0352155362778433
0.0186225042539261
0.0197550908375211
0.0139390576270599
-0.068530717417768
0.0258500887409216
0.0152569520997004
0.0366565822376211
-0.0272123911558578
0.0242219615928937
0.0232171417419072
-0.0944472610312933
0.0147849842221906
0.0013496748643626
-0.0128571966096429
0.0422013477099134
0.0361323710804619
0.0374638023144013
-0.00349821674768952
0.0400615282239986
-0.0114865125018304
0.0297734724973011
-0.0138765101394859
0.00384044469572044
-0.0525484718125977
0.0407312138485192
-0.046194033650291
0.00716159204095708
0.0136697015734242
-0.0294412147025975
-0.00368699664576202
0.0454706639275685
0.0111140160925482
0.0260575232499814
-0.0286791130562244
0.0223104116090309
-0.0231442297363925
0.0142771664639605
-0.00494566264428491
0.0278729218491645
-0.0417696268089586
-0.0136216947228185
0.0286760746859402
-0.00568746626024418
0.0339915900451964
0.0303937484015652
-0.0676201417230266
0.0371295642489435
0.00721849098141343
-0.0689128198898724
-0.00835570618121271
-0.0485130075914732
0.0371180923217039
-0.00296431708233767
-0.0129975262945641
0.000492843187268374
0.0249298631563164
0.0212340800945085
0.0415681356437744
0.00760002730358278
-0.0423273194614955
-0.00132036953387755
-0.00926225639834346
-0.00735988314826504
0.00411028182863291
-0.0190471834659043
-0.0414503512442984
0.041371170704798
-0.0281135798137205
0.0129610239066826
0.0523836810836349
-0.0466982071912486
-0.0216516358905779
0.0298478499973652
-0.0553632703249462
0.0188780110252136
0.000606160375638894
0.0316059854324336
-0.0358928268283918
-0.0348031018754983
0.00851748286550565
0.0271797204427136
0.0418823154566309
0.029603276537317
0.0219433519873077
0.00836142982366545
0.0475768869234076
0.026095332172609
0.0383427413767981
0.0175952672015612
0.0170252042032944
0.0298580982484706
-0.0337721743857603
0.0280841046488522
-0.00364289954173286
0.0435116265236972
0.0058413648646178
-0.0310383901329072
-0.0307719961444512
0.0473391049819171
0.00375216562568241
-0.0231593393819368
0.00467032427409861
-0.00942752392879813
-0.0340371399203789
-0.0173868027190563
0.0366409756247319
-0.085945557348378
-0.0513755614079676
0.00793889536289167
0.0541955610981653
-0.0221952558457285
0.0245954750981685
0.0504818651064123
-0.008552181544964
-0.0675887469418002
-0.106227860368919
-0.0251350368903317
0.00332895794173787
0.00146999680447648
0.0159875451904903
-0.0695921401764815
0.0446758092140813
0.0289714116287637
-0.00309565979777151
0.0234022888946082
0.0278231253466446
-0.0740157497986177
-0.0221639971570161
0.0192230737329857
0.0380012952237991
0.0262961755057161
-0.0276126058920383
-0.0378834370462528
0.00183343967166316
-0.0427258545919352
-0.02926876165109
-0.021856221607736
-0.0735994869975763
0.0023240204880842
-0.00737749308393451
-0.0407938462817269
0.0301412888161941
0.0022750726888
-0.0248372051757179
0.0640315089361656
-0.0485331777689193
-0.015815339171639
-0.0382247515682746
0.0575684027395868
-0.000831012225232833
-0.00220709965753688
0.0232654194737472
0.0442691768518146
0.00937789858327745
0.0082994991627007
-0.0229190679977566
0.0340715108529537
0.0152343537007585
-0.0497571872448976
0.00210252126285545
0.013662212094653
0.0252255427435111
-0.0334144280193355
-0.0794373740145566
0.0295371847422317
-0.0121199379854673
0.00524065572349845
0.00248839494148753
-0.00717745005321699
-0.00444666019675796
0.00849492016570767
-0.106001766440188
0.0473803762821867
0.0736838885058584
0.0341323077187024
-0.00398050289001745
0.0359393364388484
0.0120612055459242
-0.0188197484370158
0.00066404528944255
0.0825691958896391
0.0394566435876474
0.031714884246293
0.0199508179305659
-0.00905602367655566
0.0466095773596266
0.00636585619915073
-0.0365617989252314
-0.0425512624503373
-0.0115666595630308
-0.0355638030080762
0.076686562200558
-0.0201769886163162
-0.0609518166686957
0.0289195788320249
0.0613828080234122
-0.0372434426499159
-0.00305881064462328
-0.00888723114781714
-0.0204845757175558
-0.0588340484694232
-0.0402025570388785
0.00215300496564705
-0.021852544930918
0.0137578679458958
-0.034354842878268
-0.0124509739875984
0.0276193969387049
0.0616113046071871
-0.0407902775775821
0.0636022310906066
-0.0268776110765066
0.00749507336905834
0.0564709446003411
0.0733353269626658
0.0251306568258812
-4.35371433235946E-05
-0.000539431297745934
0.0309155596199502
0.0515599419993433
0.0671444895339357
-0.0322035154794924
0.0267468138868106
0.0570105235110223
0.0186249247000143
-0.00843393197680701
0.0677328872575069
0.0102385109677453
0.00278251320311008
-0.00223635477497064
0.00200800878047592
0.0189446056028471
0.0344292991292677
0.00734916819490786
-0.0632714844002076
-0.03122783907668
-0.087844163604347
-0.025484286544113
0.0581560478976204
0.00510775093373672
0.00847224806709934
-0.0396599944819422
0.0438765159682906
-0.00600952384636862
0.0794828081067838
-0.0496148143762627
0.0276648565888338
-0.0169866820680027
-0.00384891220265222
-0.0506485254127579
-0.054348890008076
0.0474491008490081
0.0529943074041159
-0.0223275587528257
0.0526772712807841
-0.00994018953899263
0.0110313245424841
-0.0407108887196013
-0.00768429412838161
0.0677579329699866
0.0610878196272394
0.00608738565819718
0.026862151935583
-0.0598309374403161
0.00940255746283714
-0.0399608186392485
0.0435077729382008
-0.0644836573879145
0.0936526058084979
0.0418924027894017
0.00894581985520406
-0.0560216325828125
0.00322269009437424
0.0219501775389276
7.07581230129284E-05
0.0033275453950895
-0.0229177145834694
0.00597383441883346
-0.00389226082527314
-0.0342316528459621
-0.0130258138448839
0.0247394393130777
-0.068496449180099
0.0036527063666247
-0.0374147908987184
-0.0164308043348331
-0.0560368310248354
-0.0347880792970808
-0.0672659576376674
0.0746303382590265
0.0294758045714695
-0.0129616263326778
-0.0390186055440529
0.0353460591839399
0.0892508517946637
0.00819597828132171
-0.0544922060636463
0.0060543265392807
0.00499330910628172
0.0213602557215076
0.0648998164303573
0.0565066167736592
-0.062323973376602
-0.0403372865610307
-0.00360101072806911
0.0104907450334963
0.0308440365805035
-0.0605311383352181
-0.0117221180065226
0.0207314067709442
-0.0611697413552897
0.0323073168889727
-0.0172528102144582
-0.0261732552689086
0.0383976032770907
0.0625911439565592
-0.0804031824287994
0.0591946040146084
0.00890253876193125
-0.0272344252989194
0.0258443650853631
-0.000972574028810827
-0.00262982997490491
-0.0424192219917987
-0.0354780976304359
-0.0403349018545121
0.0267238968945714
0.0245441436217188
-0.00884027388786116
0.0376880641608865
0.0805146922668533
0.0560327795850639
-0.0513573143520624
0.0762166670205369
0.00762921138326356
0.00702156757142647
0.0462709801140866
0.011186750769894
0.0524145743210207
0.00519088067720309
-0.0203276781975224
-0.0390578448133255
0.0541404722171207
-0.0527037170654827
0.013678290222285
-0.0279458923559044
0.065968362861982
0.023449911814668
-0.0227645993711357
0.0424311749009038
-0.0238829736308618
0.0818685435988032
-0.0322218949448786
-0.000583476442352543
-0.0538630857434998
-0.0479891359452762
0.0164272862747397
0.0199141849349757
0.0025922739827606
-0.000651333144734675
0.00854358182229583
-0.0627321275204397
0.0440613342010081
-0.0308130386974555
-0.0267407898808972
0.00377688965056065
-0.00291925054496794
-0.0888543861125869
0.0212159850298618
-0.0371469112100274
0.0422118890193071
-6.31679349555267E-05
-0.0152022297157033
-0.0117079915634235
-0.0166951431756111
-0.0699548396071868
0.013588157564135
-0.0223303709340928
0.0430103093735497
0.0274964410879174
0.071238395959911
0.0339084224684242
-0.015422648830643
-0.00281064718207765
-0.0668245031466339
-0.0823410938944106
0.00849074034456059
0.0021662434722259
0.0172932445483759
-0.0433004697368088
0.00967418167291452
-0.0169930421627427
0.024993684240443
-0.00893465355415802
0.0251105491345625
-0.0438916799035602
0.0176750336782515
0.0106343501173271
-0.0413561533553492
-0.0430901170894502
0.0421747492413165
-0.0115754910455051
0.0290196385074465
0.00721342797539015
0.0567776823862048
0.00323616297627335
0.0626450096615459
-0.0331419298181462
-0.0109850198245931
-0.0236104859550007
-0.0570799726688091
-0.0550626688979285
-0.0221753567276592
-0.0603529564899984
-0.0292971633963896
-0.00277476862501119
0.0204510143063742
0.00696916377344143
0.00640784007782299
-0.00823935717671959
0.0304001284834204
0.00553435698381888
-0.0605009573881205
0.0210695725863277
0.000131904495674027
-0.0199940624325506
-0.00960625048191851
-0.0203592575300561
0.0414658187098863
-0.108889793396775
0.0356158032974035
-0.0129622202161442
0.0364514989478487
-0.028054860925135
-0.0237261032466992
0.0915381630457031
-0.0634509613446329
0.0375786442506205
-0.112298174119684
0.0163110557902805
-0.0181793062868833
-0.0348656353599911
0.0522376565371172
0.0192835603862388
-0.00317086296158165
-0.00141641501884281
-0.0289457627565858
0.017753795567851
0.032897119302053
-0.0598163764794458
-6.63428696967009E-05
0.0371493309462716
0.00871983937478887
0.0880924829407872
0.0138854005575484
0.0304091337425606
0.0178011501668411
0.00621559338388624
0.0432949990496408
-0.0273132702450804
0.00089517851426471
-0.0557740501388532
0.00017464907327665
-0.0406224746913669
0.101460472184732
0.00823820072083473
0.0198305917051623
-0.00447766634393956
-0.0107418033148453
-0.0286460578882107
-0.0125425737189128
0.0261980208195921
-0.00438321249615949
-0.0448425235596273
0.0666118323013086
0.0106806110127033
0.0417378757759995
-0.00143479982502047
-0.00334483081507615
0.0103110391908185
0.0216718322701005
-0.0586392049297269
-0.0226870306774928
0.0463622577198405
-0.0107687943910397
-0.0420443351736599
-0.0353495267165838
-0.00217580668738905
-0.0655890869089584
-0.0119556257806626
-0.0307089013081099
-0.0391196035596326
-0.0387658463531555
0.0421189792311317
-0.0763932047947432
0.0415484041108891
0.0641228941308331
-0.00854643859513614
0.0374383884316889
-0.040722458740184
0.0282701062734817
0.0137545577224952
0.0180393277045726
-0.0206780926473791
-0.0896056021950073
0.0405659476249974
-0.00195965866883162
0.0680453482000114
-0.00112431379355201
-0.0391780108539256
0.0288176068525308
0.0205431667092034
0.0250924432207012
0.039398291298329
-0.00653374551721777
-0.00683780360533949
-0.0606364164259046
0.0485489228033366
0.0105226204803982
0.0665985003174412
-0.0708424519929825
-0.0123927859276123
-0.0244230875739422
0.0289088145868252
-0.0837021765616331
0.00631341945551459
0.025201766196
-0.0354350922601873
0.0575370734870675
0.00532500731171879
0.00494588951485675
-0.00899661204293844
-0.0468415421298411
-0.00462495623416395
-0.00826278218921708
-0.0204599385098175
0.0153742058424888
0.0153492623763819
-0.0059257998948344
-0.0271502406742124
0.0619773336853171
0.0358000425547042
-0.0175419134225213
-0.0236796411724411
-0.0180761586991616
0.0244704576307297
0.0113576743375064
-0.0230563727913814
-0.0698838709021495
-0.0299918573180058
0.0620813247952931
0.0154270233656186
0.0355973809378143
-0.036946255776444
0.000472452332834608
0.0285737688904214
0.0495585529298462
0.00768160423759533
0.0885519640837931
-0.04838656649606
0.000832040359341
0.041608244665795
0.0162733706122192
0.0298347439354166
0.0717074667023599
0.0213242080775546
0.0112376436337275
0.0643396923058901
0.0155537546741786
-0.0299401125504166
0.0107120973533084
0.00642316436060938
0.0303599485756719
-0.0322041737319686
-0.0430068115880345
-0.042688089819303
0.00402683337336871
-0.0255442234346096
0.0387114038653657
-0.0644683605862888
-0.0167304522158321
-0.0461577817869372
0.00114363342407244
0.0356603185649836
-0.0571871686374483
0.0343517161428335
0.0139285688325375
-0.0216021157221811
-0.029595317922506
-0.0335572856047429
-0.0289358795407099
0.0267311604910161
0.012318100604497
0.0109432299239131
-0.0141026522656462
0.00574998372721155
-0.0230144121885427
-0.0356484184134244
-0.006705982477374
-0.0287941896197824
-0.027894845292947
-0.0449405558341926
0.0191775964208856
-0.00272761949116006
-0.0591305504322382
-0.0166849096683656
0.00269188409638269
0.0155188855517364
0.0391102197405701
0.00477834225883939
0.0415120870320981
-0.0265860427453805
0.0151239697578445
0.0168121677257897
0.0315957239348461
-0.06516204614781
-0.0171531841347128
0.031420327719874
-0.0400146113909019
-0.0081401376589274
-0.0188736303534392
-0.0187217505221733
0.0183743372187066
-0.00441869331940265
0.0434857935650394
-0.0189276176632686
-0.0670603315974105
0.138040148542674
0.0161458629875551
0.0489800683757215
-0.0174103840564278
-0.0529444799054861
0.020038014918569
-0.0247558802158653
0.00508449090123236
0.0189593705380419
-0.0434933501318848
-0.0600930949246732
0.0137868169895745
0.0663231258722995
-0.0394520199897023
0.0252718483677506
0.0296536106950759
-0.0341006073624787
-0.00981285782473517
0.0324810469555552
-0.0328379288486797
0.0527656759831207
-2.33227981449359E-05
-0.0088637548081834
-0.0545517123653758
0.0251288249619735
0.0327926817975221
0.0504321041807741
0.0360760767049694
0.0290464148972484
-0.0580431259460333
-0.0178856794367082
-0.0510134042146102
-0.0238481050743153
0.0174658716262693
-0.0191862480995122
-0.0211943362425922
0.0154944038217845
-0.0227606336732685
0.00841437443500449
-0.00744656454784086
-0.089795346069046
0.0485973086806692
0.00616619922657217
0.0865698611170056
-0.0580851824493033
0.0163711124097638
-0.0330438455283178
0.0897204521588117
0.0582027563658428
0.077075673946879
-0.00880871119192243
0.0187747987070349
-0.0106419239105242
-0.00496046804315953
-0.0468557452882188
0.0340240962309956
-0.0273148055536892
0.0310518031719202
0.0185104406946912
0.0261879872673459
0.0393741406419183
0.0568444033515368
0.0158249654685614
-0.0229991246939362
0.0323847362966055
-0.0283193179173457
-0.0291202510163376
0.0174023702486505
0.0179303367495193
0.0472908099211584
0.0319344453580615
0.00148316595632252
-0.00170754966731641
0.0247067823762239
-0.0146463708831107
0.00552735865983033
-0.0489031966085344
0.00298226186583174
-0.00920353205939037
-0.00748775525416444
0.0500848138862807
0.03856456168454
-0.000846981460503614
0.0372526397067069
-0.0151578671080243
-0.00336645226520674
-0.00789725567569419
0.079383164474795
-0.0337686488130789
-0.0196845611617121
0.0193628225140021
0.0115446333777683
-0.037129240865282
0.0426406712316184
0.0239474047255184
0.0540547677773965
-0.0513909261987133
-0.00482650069689108
-0.000541771107075616
-0.0320551564905499
0.0249412799908425
0.00478923217625519
0.0201376631010675
-0.0473546954831046
-0.00649820290219582
-0.00335065045858235
0.00563509136063931
0.0309663694512519
0.0116657832573394
-0.00940370213926833
-0.022937186390174
-0.0464539411233108
-0.0285453174220467
0.032384362681941
0.0179250625341759
0.0195859333376762
0.00892117700831656
-0.00729470414089455
-0.00798759285236054
0.0151469253868152
-0.00568469088875003
0.0354554280530923
0.0219991996989979
0.046268751523426
0.0248380202387424
0.0229569439535655
0.0765044626420466
-0.0461597941934297
-0.016357701170849
-0.0550942277681245
0.0467891319553771
-0.0558444532905231
-0.0230773578827477
-0.0404088953337652
-0.0804881645578001
-0.0195522501121287
0.000408826524559029
-0.0160418678643915
0.073467377035643
-0.0340048640488466
0.000328159414440519
0.0157327064831096
0.00636937371872586
-0.0159030450733464
0.0499541308774427
-0.0022720077352358
-0.0203001748003313
0.0524396130561829
-0.0119436954453683
-0.0144563285605654
-0.0297350040540417
-0.0246965602384185
0.057147613827858
0.135185664721888
0.0248487077126468
-0.0406089081598818
0.037398223445154
0.0248273323980565
-0.0638915218189714
0.00224688843878177
-0.0408611703820908
-0.0367249936769989
-0.0243669567685883
-0.0149970657132797
0.0201427174291164
0.0214546355937096
-0.0088355163889888
-0.0456244780917693
0.0108564450769243
-0.0351777412706832
0.0180079234625544
0.0426236665742247
0.0229903980217822
0.0205496282835889
0.00891315916830904
-0.0742860642070915
-0.0135593323345823
-0.0691745170555467
0.045371280378102
-0.0184737500765444
-0.0108659831364607
0.00391403526767964
-0.00120637738297172
0.0175627293906131
-0.0630844441142389
-0.0494778501622683
-0.00895006804483862
0.016646444556784
0.0443208994733617
0.00822419575136498
-0.0861563270154153
0.0721943652577434
-0.00453649603662882
-0.0653424729158995
-0.0102313643410104
-0.01306655876809
-0.0295752699227867
-0.0374845996852305
0.034309948060973
-0.0382775841873274
-0.0215670479572963
-0.0418492104790834
0.0143477454906086
0.0410118980830225
-0.0225970200584982
0.0436150107688229
0.0665733167487962
0.0214622730698108
-0.0251717593111138
0.0163461807363471
0.00621893184480841
-0.0252684852564704
-0.0400515229264375
-0.00296857278584153
0.0209700557210866
-0.0206309373304205
0.0186704547802181
0.0181557109370598
0.0280856106635124
-0.042808747780872
-0.0758170825454254
0.0210577083682441
0.00054896307052378
0.0488448709321184
0.0215512392318822
-0.00960515855003149
-0.016228033358877
0.0295375405525308
0.0945390674736923
0.0235241818689535
-0.00367650937606835
0.0113597409666772
-0.00673998997104688
0.00226787012926465
0.0325732480821867
0.0334869672431665
-0.0900240054900799
0.0191313079075187
0.0827353026871353
-0.00617793604418168
-0.06145417110529
0.022779092989977
-0.070339648379509
-0.0408750834153035
-0.0562161280497512
-0.0203978335618232
0.00391139249718489
0.00883617534479483
-0.0154546349529617
0.0331745644999559
0.0198356112820213
0.0327413231434614
0.0114027767771251
-0.0396600313175535
-0.0251174741334569
-0.0574613228413368
-0.073518905145828
0.0300474663729968
-0.05156667105985
-0.0624408611202815
0.0212985659648293
0.00718406843451559
-0.00693335791820211
-0.0130711710548684
0.00501426735680568
0.0612928425772672
-0.0250380261402362
0.0235395019300617
0.0338284123794262
-0.0139252119789886
0.000916715416669221
0.0361815319871886
0.0103651614078082
0.0379783892024124
-0.0131027268126867
0.0244762606276815
-0.0248000935291292
0.0697128683815513
-0.0347326652350789
-0.0428381018625166
-0.00152914494600843
0.0117733432572158
0.00499189174343344
-0.00528466171197544
-0.00311602039480027
0.0336094052001116
0.050176196092957
-0.0408701776968867
0.0452437847391561
-0.086409031777027
-0.0394138271204508
0.0283780210016006
0.000912648898800805
0.00967191298598804
-0.0508325323034167
0.022725659217663
-0.0142243226971881
0.107960216811982
-0.0252198278623147
0.0219011958438407
0.0190284523351074
0.036296687548709
-0.0113681092583183
0.0457629345168497
0.0393116182191953
0.0887424278386862
-0.0276211476026902
0.0695609065858533
-0.0146404487340989
-0.0370454613428327
-0.0177172290363073
0.0211404043531965
0.0139386308696454
-0.0255454392545909
0.0596155169253248
0.068741085599095
-0.0310148943386999
0.00538991115968071
0.0352656998616781
-0.00685470983707745
-0.0290003810390566
0.0205442039264406
0.0296436161026328
0.0410861040553044
-0.035374274453447
0.00499980539483324
-0.00532930986706477
-0.0144449760202093
0.0533463965929569
-0.00599499715007817
0.0497533558395309
-0.0347111799244407
-0.0576839179778984
-0.0129326767078243
-0.0414636504316482
-0.00208022696716648
0.00584270797198594
-0.0365368303609109
-0.0411093802812361
-0.0170530308026859
-0.0114072809340455
0.00437468083243241
-0.00467518842373867
-0.0508712662969883
-0.0463185939065231
0.00562163651059472
0.00190737406507771
-0.0164897582379759
-0.0306245817840232
-0.00881167723821904
-0.00326737726122219
0.0211862185270626
-0.012795832870457
-0.0215303090866141
-0.0271700945539766
-0.042706763272798
-0.025104253196167
0.00774484944062759
-0.0487082811083417
0.022975425045349
-0.0415626401942072
-0.0442988054398871
-0.0253919146623796
-0.0334936399856203
-0.0328441614673942
0.0739516653236226
-0.0302762337728163
0.019735443366487
-0.000876120544890467
-0.0148732227263498
0.0101799660195652
-0.0373854475792704
-0.0276848242924402
0.0159146047537354
0.00132849277269786
-0.0255685422480344
0.0020492204465199
0.000469137299539161
0.0704017899891871
-0.0129586279462195
0.000434789813387236
-0.0516139476477952
0.0154155176838394
-0.000790721657022624
-0.0940987709300238
0.0448910630098183
0.00528167687797839
-0.0588482224817082
-0.0260717305962338
-0.0415109928525541
-0.0111884943571628
-0.00407380297619361
0.00788210789444872
-0.00196403322356591
-0.0348129365293185
-0.000300573506257063
-0.0292435165589039
0.0250689500825687
-0.0507753456817187
0.0499917889627123
0.0241405637463447
0.0338110421939307
0.0233533412139066
0.0153493151818156
-0.0289946155978483
0.0140629571867525
-0.0313622059739913
-0.0540361955689465
-0.0447323000437749
0.013233225243414
-0.0733257939525268
0.0166804474077799
0.0146056897333643
0.000182883899818919
-0.049861569557932
-0.018358386757239
0.0471818521122369
0.0827949991934543
-0.0781910422753114
-0.0193879398704171
-0.0243857984888075
-0.00683714063052532
-0.0394914264468396
-0.052754784469597
-0.0354720719896844
0.0875507993395194
0.0270862115789893
-0.0415440858074382
-0.0268821802746571
0.0397816422967017
0.0434569745000039
-0.108094069745123
-0.00682575196100042
-0.00634070893761232
0.0211341244124526
-0.0215803904295969
0.00953867371385186
-0.0038327485633261
0.0125906721667368
-0.0340524586606803
0.0532516304075213
0.0250470496802519
-0.0063709767902464
0.0753640297892661
-0.010807776032382
0.0221912452734355
-0.0679555322411808
0.0665945772012508
0.000537720420198592
-0.0118277849309568
-0.0325981016954026
0.0546763427419609
0.0598149399048135
-0.0280769421454847
-0.0398770120887282
0.0146320491780244
-0.0590918767068926
0.0569602518635177
-0.0454198535656303
0.0674002862987651
0.0141300142199467
0.0400431995689185
-0.0328595612466383
0.0411944566474067
-0.00294779971624595
-0.0195712287095549
-0.0379379711883702
0.0714862560328201
-0.0077290418851051
0.0560711717197465
0.053328384257778
0.0171430036241205
0.0158591108539895
0.00971364414258447
-0.033431120746743
0.0019639146120998
0.0113692918336386
-0.0144215958724524
-0.00626829270949069
0.00121876751267071
0.00956717247889083
-0.0276638884186669
-0.0141280079111949
-0.00803153174984638
-0.0273988867080482
-0.00969982656114016
-0.0409006860704752
0.0674878873070424
0.0543692416855301
-0.0116072956474108
0.0177393640496203
0.0290027710291306
-0.0204900333037699
0.0632448752878384
-0.0299497153023887
-0.00507363995282303
-0.0596424088027161
0.0322274291872911
0.0118426838771706
0.0114442957376568
0.0245844140304354
-0.0248885690984389
0.0518481605297224
0.00325697600692248
0.0570958952797565
0.0364760242986867
-0.0360558335820357
-0.0213443536945558
-0.0206357045568274
-0.0457665110461317
-0.0122967740063337
0.0145529429760022
-0.00584994198773907
-0.00481588296057724
0.00102516369852114
0.0332299053532187
0.0224962087780618
0.0481997093476387
-0.0380850485908602
0.0127807588244547
0.0278774633315563
0.0050041484502322
-0.0476531388708869
0.0226782865236986
-0.00284346984458819
0.00571711601963167
-0.021021223095958
0.0222221455201887
-0.0766313490611532
-0.0200058819681527
0.0380673278518124
0.0425528515631733
0.0262338869487375
-0.035298449539405
0.00796417791759027
-0.0309315034341121
0.0220167197408718
-0.0386748129078841
0.0280017562567445
0.00727187813201265
0.0142419695389239
-0.000744394074468024
-0.0136000922915756
-0.0264096889020943
0.0145699526836511
-0.0369121754103823
0.0100061242665646
0.00538797216277251
-0.0215731380433462
0.032077323861998
0.0156641144414482
0.0037743592186165
-0.00660177739464926
0.0580179746768928
-0.0454369569188633
-0.0383149031821257
-0.0110709346974814
0.0838503346115956
0.00267173111513676
0.0127196865954676
-0.00104829914774406
-0.0088273587555207
-0.0530366123688176
-0.0361638518225643
-0.00464204815383776
0.0476158633711233
-0.0177778693738589
-0.023387713008922
0.0159766340196643
0.00781939423194636
0.0553484885443463
-0.00638099678509983
0.014016209465571
0.0319688172968599
0.0265589326458987
0.0274908475150949
0.0289610627729126
0.0412736936879658
0.00729364472504281
0.0540084434543595
0.00208429665686031
-0.0362540966707929
0.0334048155854104
0.101193613570728
0.0042896704068997
0.00247171150146753
0.00640107442122766
0.0193535627172361
-0.0110579593121292
-0.0193150493561789
0.0468089111174791
0.0265309428630715
0.0378716365928206
-0.0274522355117749
-0.0264072144263642
-0.0348428514740072
-0.0228146799142543
-0.0967139881527204
0.00930876303394577
0.000338859788804437
0.0327159080249099
-0.060970922348608
-0.0315402303232561
0.0398249566599615
0.0433877526779051
0.0379858248533797
-0.0183436566342259
0.00986989462551582
0.0272309604777409
-0.0110240822501159
0.0107130320493848
0.0306941163149163
-0.0191766587617819
-0.024072067551823
0.00836809547185728
0.0360511944151403
0.0272671122924269
-0.0476475180190704
-0.00271540860168058
0.0581161327826978
0.0334769747087163
-0.0135168621751098
0.035550829834156
0.0357820381956596
0.000117095160367706
0.00242319309316479
-0.0280078489009536
-0.0034975877005675
-0.0559643435089053
-0.00490117080264752
-0.0544742152240411
0.0156447333360232
0.0357966027476789
-0.0357018463776813
0.0650486830507354
-0.0182966686135258
-0.0232693502456622
-0.0899583660356834
0.0510492375529822
0.0476198984001859
0.00193129984278863
0.0182525883556255
0.00416815697995302
-0.0348267419018846
0.0209162473070947
0.0331461185562871
-0.0158261480642299
-0.0100905222904021
-0.0488030517816259
-0.0460423329544455
-0.0189649536519581
0.0230654769982266
0.0695230743560901
0.0422944798146633
-0.000231882921663179
0.0152273572653515
-0.0260510341928574
-0.0379794886949485
0.036229595559058
-0.00286656033234146
-0.0315029933193356
-0.0739312759460111
-0.00792220442848717
0.011983646763149
0.0284751204236455
0.0165474894022463
-0.00958004694735876
0.045605244734494
-0.0510701077682301
-0.0476256011630939
0.0237934436812258
-0.0798608397866575
0.00832507695492914
-0.00232478280929238
0.0472975080556828
0.0115877780035838
-0.0390441606979932
0.0334754655805212
0.0283034821947717
-0.0124938404098918
0.0129689144549986
-0.0243100622148711
0.0291015056236936
-0.043688840224739
0.0328250179091609
-0.0441490430053356
-0.120427785484224
0.0189774714407008
0.0184796191200169
0.0654193270123236
-0.0209657715157864
0.00231949594004993
0.0249617449227107
-0.0316128719537003
0.0460139551396891
0.0205033531149736
-0.0123618665787612
-0.0383838358510224
0.00730604565696363
0.00244001042353798
0.0257382125883461
-0.043107307707392
-0.0182172042792541
-0.071660984096912
-0.0999596786524154
0.0438783574737274
-0.0348060307383541
-0.00191765109178097
0.0107970878496138
0.00792325661075155
0.0474287181056097
0.0459565403957441
0.0114968444955389
0.0217619673827933
0.0428692804368243
0.0417656138381305
-0.0439675565390957
-0.0330765212681043
0.0200133696143999
0.0199719376565928
0.0238117248668598
-0.00667800214032553
0.0109013591224624
0.00726227798738243
-0.024277118797764
-0.0233504823082866
-0.0118929883200408
-0.0687287461695635
0.029626202916879
0.014326369759684
-0.0257718904503042
-0.0688108825738541
0.0361133937805128
0.0128630459322248
0.0236497015806484
0.055893021073094
-0.046426667887928
-0.0617713665766987
-0.037254911752049
-0.0509359405673149
0.0101125242925878
-0.0437493567489813
-0.044936962715442
-0.0286569672253489
0.0309044822405921
0.0124962918731268
-0.0142002875801538
0.0148790836645449
0.0495714762066171
-0.0578941051787964
-0.0575456915847443
0.0140092398005421
0.0161015298891848
-0.00516743738836387
0.0414671105667051
-0.0499634816747526
0.0190371782213469
0.0188369378493815
0.0353433015495516
-0.0174428908768371
0.0231843747839175
0.0352247899747239
-0.0440365662546148
-0.0167546382687096
-0.0620821743314001
0.0422233524919738
-0.0150301810747365
-0.0373102073685429
0.0168741039449207
0.00975451852907855
-0.0449711255961387
0.0364144384178404
0.0148000228339669
0.0338329489639111
0.0214037252014668
-0.0437697291500137
-0.019553272835719
0.0320065685387103
-0.0280722986119503
-0.00872321133848417
-0.0384999718585772
-0.0119808758217009
0.0118232589867411
0.0666522479521485
0.0241891104231943
0.0317543404488686
0.053916270721961
-0.0510448003691331
0.0363436169395735
0.0452930236998141
-0.0099619495189557
0.00252404816904473
-0.0203973708043164
-0.0261085285080647
0.00681999425174312
0.0143351504891853
0.0662189141351925
-0.00344106343950571
-0.00789505679628653
-0.0428355798639931
0.00653509304994075
-0.0129897973987013
-0.023755154455986
-0.0090726810942795
0.00987231670675444
-0.0397698051298074
-0.0439877116170591
0.00235967787221354
-0.0210647005687792
0.0115912946135994
0.0308978797966342
0.00467044434404921
-0.0255143775206558
0.0340226994522056
-0.0223650719680347
-0.0100852686384187
-0.015845328018678
0.00234067298189844
0.0152471928434768
-0.0331770155941538
-0.00433193061315871
-0.042040036879496
-0.00558454560332365
-0.00466682547407993
0.00670282869456164
0.0286647672716117
0.0075845220239147
-0.0754947961462756
-0.0524363960204129
-0.0522177367229118
-0.00622529012246154
-0.0279337111504293
-0.0343015104489054
-0.0002379654533582
-0.0406048750056821
0.0364209148842008
0.0922496988290404
-0.0536654488086665
0.0204378420279756
-0.0227207201735426
-0.00311173355208988
0.0345900250654636
-0.0974737373978745
-0.0153900540933629
-0.026043137017798
0.0103862641326047
-0.0587651920408573
0.0072659419359216
-0.0688420858562657
0.0415472643816714
0.0129035303678988
-0.0180224565564662
0.0569680336197884
-0.0657613119975629
0.0121611076317123
0.0103690456520941
-0.0231480986940381
0.0575474571840959
0.0616234925945806
-0.0301967875815172
0.0346189657718529
-0.0859328603056765
0.0152854259441933
0.0704301783142475
-0.0434925310071026
0.0109902900384226
-0.00151479220505348
0.0302123321912071
-0.014742351460186
-0.0672381053959619
-0.0133386774331311
0.0333108932191256
-0.018581827756912
-0.0339908753175488
-0.00973606984318073
-0.0486276326716182
0.000811148034643893
0.00161848534061533
-0.0278662981987908
0.0014534581347213
-0.0310979302275481
0.0298508989854678
-0.0267516466020103
-0.0308659232877513
-0.00869293651282511
-0.00950987826845063
-0.00585132127814988
0.0583541793660739
-0.0244943425666669
0.0075523206499443
0.000793924257162254
-0.0287850169298686
-0.0329746936061804
0.00377890023780511
0.105178914221834
-0.00866817051537835
0.0324987370827572
-0.0289007735417395
-0.00946736783245216
-0.0302575182272119
-0.0286682093215767
-0.028435316410712
-0.0342697964593375
0.0190540137368514
-0.0582903547741476
-0.0092510350924863
-0.0352387898747435
-0.0518494816979284
-0.0234919448292816
-0.0332978716338705
-0.015477193185199
-0.0373607674330263
0.00708246394688672
0.0523225924767333
-0.0291175903761497
0.0331662480947536
0.0469176897928559
-0.0127701453070847
-0.00461493216960542
-0.030318902927956
-0.0305540396264553
0.0725319195146616
0.0220106929231368
-0.0885494333361352
-0.0171940045714423
-0.000810278045641454
-0.0148908871477379
-0.00121421948339532
-0.00889533175474013
0.00710883985363076
0.00451707399583868
-0.0276384651727295
0.0191939414410018
0.0056035108463056
0.00408623677802959
0.0163545088514996
0.0169566358429646
-0.0102754736148521
0.0246685647733396
-0.00433542596715141
0.0497417179802353
-0.0437350297797481
-0.0489608010764678
0.0366878858912607
0.0395143709579999
-0.0394841849596902
0.0609252160014437
-0.0216106893291179
0.00656381597391356
0.0238364689635301
-0.032437223431297
0.00888125902106806
0.00752303867987946
-0.0197050668450228
0.00400529553263699
-0.00136572993440257
0.026974835485369
-0.0122945754096933
-0.00391229098114425
0.00815173567464858
-0.0141923603432156
0.0273152644385182
0.00319382979692177
-0.0457496755047437
-0.0368883004296267
0.0315805837345016
0.0551042012182086
-0.0423304670736754
-0.0419691424238522
0.0231944815848254
0.00180173707326686
0.0858979972905733
0.000914896033178246
-0.0418316353153107
0.0324680013597416
0.0336506357351754
-0.0643557211131009
0.00754271481672479
-0.00727950123012529
-0.03839448568427
-0.0699827617199677
-0.0375938045899471
-0.0199190167458014
-0.0116500596901035
-0.0165719935029508
0.0428985294460227
0.0548455978178864
-0.0265214691857673
0.00931603506920977
0.001663730617735
0.0893823152016251
0.0271503741961639
0.00193828661315523
-0.0305868759721299
0.0485300830003727
-0.0341963825896376
-0.0385999139372813
-0.0114054554032788
0.0154057352348049
0.00563770935156033
0.00166095901266029
-0.0775215135630986
0.00773737286709322
-0.00242610085763615
0.0888699493798862
0.0230513503103427
-0.0159906610794717
-0.018215319677108
0.00071317014503298
-0.00668534997304177
0.0460185320998751
0.00871052264632818
0.0314122131098133
0.00309319682707906
-0.0526622890198585
-0.0277359593771173
-0.0491712359508585
-0.00454394822438992
0.00149544667404392
-0.0763778484942269
0.036913291304746
-0.0139380935999562
-0.00775239055933994
-0.0203884954043109
0.00135101664978743
0.0263570843241888
-0.0349003715443081
-0.00580262382871035
-0.0464272802646191
-0.0189349565947368
-0.0109435735372028
0.0197815820037415
0.0165264435358091
-0.013605421449291
0.0654303249755833
0.0187223139616285
-9.27912301419594E-05
0.00645896481320057
0.0207010571700452
-0.0581385499784324
0.03865084350726
-0.0338596810756818
0.0529981701502769
-0.0123356045444257
0.0717093186896396
0.0113725170837956
-0.0180087795557852
-0.0370385340677416
0.0230346800221231
-0.0490472503410145
0.0189936085097636
-0.0451895304136565
0.0398999020844727
0.0042738358619617
-0.0388046733761844
-0.0185839416664445
-0.0487203495143001
-0.022740901002454
-0.0802947094181905
0.0737780184128309
0.0490747891403649
-0.0128754038333472
0.012423671626087
-0.0566121235125137
-0.0385610471797758
-0.00400135675688583
0.0184954583470907
0.00846825008158081
-0.0069021431748547
0.0167371205818473
-0.0552518718950685
-0.00533509441903586
-0.0313310398282499
0.0688553811424564
-0.00430341428772795
-0.011878121710858
0.057396032575265
-0.0359173274426055
0.00359730221936341
0.0267635833997744
0.0589164912375066
-0.00285756289085512
0.0424253743928089
-0.0175530477506654
0.0228669712282292
0.0106479758782741
0.0176240487661907
0.000441691059764465
0.0177703516726781
0.0342066085524629
-0.0638590557670952
0.00915761771903754
0.00718798153937739
-0.0205504999765924
0.0166687773971581
0.00133405764547682
0.0537330404036764
0.0109909106288643
-0.0247978146488064
0.00140815440516722
0.0188059232963652
0.0178110601491305
0.0023495831618989
-0.0103376487793293
0.0365797194820751
0.0135409729273976
0.00573024613950814
0.0720584934525905
-0.0240804328866713
-0.0197521062919156
-0.0165355237228523
-0.0011573461458727
0.0108820882448307
0.0419687887100067
-0.0604656415891893
0.0239975000321036
-0.0215787798593076
-0.00678989125932136
-0.0175558240445054
0.0109829087011415
-0.00178398138170857
-0.0225769391932301
-0.0319219234363774
-0.0225400687359396
-0.0415070781731813
-0.0238449809720665
0.0669746018045788
0.0197978423883916
-0.000675614168880665
0.0201441329840895
0.0329135344243863
0.0217251128467071
-0.0443673854499314
0.0550642395431142
0.004843372527126
-0.00670929754148918
0.0342181165936941
0.00614324699887678
0.087987181525447
-0.0584133557266371
-0.0136665301939025
-0.0215228622320445
-0.0545487077564873
-0.107354340102987
0.0217768996858393
0.0265189088724265
0.00872648701666192
-0.0498129174153015
-0.000369170268845487
-0.0455870578215208
0.0298711249959686
-0.00675000548214531
-0.0303321433297159
0.00344130557908363
-0.0530125296224677
0.0204650795617466
-0.0201023774306002
-0.0190021850809775
0.0264314914633556
-0.0259915693827154
0.0323597272880828
-0.00122063152047629
-0.0391093674353753
0.0141374177217157
0.0127815199888589
-0.00528369837088249
0.0128084026600073
-0.057498632725748
0.0722357175300067
-0.0482994681315276
-0.00073610307191531
-0.0359997283236899
-0.0472382137718423
0.0414721576314983
-0.0598886604532197
0.025931002722005
-0.0283539046185824
0.0755230504195891
0.0436470320489023
-0.0183417649069222
0.0129400766770544
0.0684774778165083
0.00497641545580397
0.0238622828259601
0.0185801527213975
0.0241915273961459
0.0197557374275484
-0.0556575469343078
0.0190488382702656
-0.039358820830876
-0.0281002490382078
0.0208263402432929
0.0848782235918473
-0.0593651932854988
-0.0193513278845805
-0.0177256860357891
-0.00092859224920531
-0.0488788804826646
0.0185304847096101
-0.0195366715239765
-0.0120865410467312
-0.0329010615725385
-0.0608638129520357
-0.000146019581381128
0.0183581927270533
-0.037396670868305
0.00219254665353469
-0.0665458363593217
-0.0153200348285851
-0.0378644941689603
0.0241082405361747
-0.0365127815126517
-0.0125388429773898
-0.024784240725385
0.0462350111564971
-0.0144983625728027
0.021865658319433
-0.0123559069957609
0.0187940052086002
0.0757236229600203
0.0092003534646624
-0.0177587308292434
-0.0456226859639816
-0.0109171261771767
0.0359999043451751
-0.0191026948920761
-0.0507819600118018
0.00713871996354101
0.00797380442187754
-0.00568729478148475
-0.00302939675321581
0.0218313801590445
-0.0162438226011014
-0.10469970222724
-0.00738732285962207
-0.0193307127580173
-0.0154080949858114
0.00289885748381713
0.04083076894717
0.0259074729725382
0.00845528651859904
0.0165303768552726
-0.0020164745938
0.0418563814432971
0.0208298726637454
0.0294910296038223
0.0269963115182844
0.050010846714365
-0.0399897115005794
-0.000631305392071648
0.0205473470731252
-0.0260293782607957
-0.0123929142707214
0.0821464114966586
0.0339217508591697
-0.0246071170990435
-0.00864334589841623
-0.00455921603849315
-0.00864687465300591
-0.0479462515146847
-0.0404890678896858
-0.0728113669176711
0.0131103796066458
0.00955289710583768
-0.0468175259659784
0.00527219826115735
-0.0195734553299693
-0.00926284314053392
0.0195735669538683
0.0747779295759468
0.018368879705633
0.0062707748112268
-0.035177090402339
0.0595132174379014
0.0199835207658076
-0.000116207478494751
-0.0265455300698989
-0.0305460112512084
-0.0366521678628953
-0.0167383771965444
-0.0261047499607363
-0.00960839578078098
0.0415454226866389
0.00379567897077642
0.0246420817091699
-0.0109490663165157
0.0337424058429361
0.0095938478264847
-0.0438432522728159
0.013486895918056
0.10224357908879
-0.00021900395562377
-0.0205293324638413
0.0698599463090901
0.0287414984292577
0.0300028538024113
0.0185100884418088
0.10172598100956
-0.0549624898149738
0.00496417943757736
-0.00643101700654206
0.0273568819215056
-0.0101853279109341
0.0374901262017636
-0.0328329035464004
0.015613082723026
-0.0389548530076538
0.00379484325568722
-0.0182630874068676
-0.0723324817187019
-0.0569015169342192
0.0303301506795214
0.016592928144971
0.00100927626717233
-0.073214702303047
-0.0268550537474516
0.00902646958617628
0.0380416434124975
-0.0349093577489774
-0.0342277877632678
-0.0503890899057565
-0.0225154764605298
0.0154127131891641
-0.0152492518403883
-0.000142873315643514
0.0321953363094251
0.0240127041005298
0.0115151760603347
0.0348871281083445
-0.00253634894090835
-0.0170336558488479
-0.0380386803971631
0.0285199758944382
0.000560343943972759
-0.0179513581592405
-0.0375296397341289
0.0253731874691204
0.0329466294433668
-0.0556237966660344
-0.0329524945934366
-0.0405746230544786
0.0388411249299431
-0.0721108627565764
0.0134833336260093
0.0132668946404273
0.0207228703745437
-0.0397453462012621
-0.0375498034867815
-0.0216044468921042
0.00491119333877515
-0.0323293986629539
0.0692862119964683
-0.0369287558549901
0.0041577973149856
0.00713046602465592
0.00739880414896794
0.00984331257789166
-0.0392630826847585
0.00555324558284057
-0.0197748973773268
-0.0390827872527563
-0.0283139147534025
0.0255865417805589
-0.00803720022749366
-0.0221178185529799
-0.0259568991459945
0.0259136455431602
0.0128849653373072
0.0183402635981018
0.0255520917017732
0.0258946392406726
0.0566154362830735
0.0384803119253261
0.0287733438275685
0.0108817190968001
-0.0520819470492558
0.00890768949343164
-0.0482667572789475
0.00553740827354065
0.0342097461882775
-0.041098747188645
0.0182765153864518
0.0233068432809287
-0.0126100486342066
-0.0186732273188263
0.0531872976496925
0.0269832794525853
-0.0274094809774416
0.0210753810730669
0.0510199581212843
0.0208378862127409
0.0463016309988196
0.0249241009667527
0.0240440585097277
-0.017409978267075
0.0210979003445083
0.0396475527755914
0.00848400475212549
0.0217808776868012
0.0244642935519715
-0.0473088923017271
-0.0570975989823178
0.0375254715600057
0.0143012374896477
0.0223777171072761
-0.00297563243868782
-0.00141506000055352
0.0314638507538301
0.0431985084155314
-0.0312809659600144
-0.0375081220530901
-0.00687677193796677
0.0196911231287668
0.036108893817212
0.0470710496582824
0.082141227371648
0.0398377127844537
0.0183496293213131
0.00845926068509706
0.0139862219044945
0.0231540562618187
0.0287349214070934
0.0269554861397363
-0.00946568107103883
-0.0342016375388125
0.0438349061180593
-0.0320446437240573
-0.0176278460609091
0.0300578076735433
-0.000910946717538916
-0.0236567548763138
0.0467533731396835
0.043589692976116
-0.00915166481810336
0.026170558028124
-0.0442452175176544
0.0624569858761416
0.0244154550617852
-0.00783425321104929
-0.000182323893695336
-0.0468705012211451
-0.018803944509799
-0.0689865807259613
-0.0265570023334973
0.0355554782402716
-0.0453316226043545
0.0395416462648785
-0.0112344915515451
-0.0123220351140274
0.00578160274859846
0.00990984303328731
0.027791224761574
-0.0297028672703459
0.0370277004356719
-0.010756896331554
0.0547712584625728
-0.00261424345238324
-0.0351831411089342
0.0379728525021105
-0.0559171109943041
-0.000668139208224081
-0.0478349057413088
-0.00744404809794947
-0.0480189689923051
0.0964942771503234
-0.00227081977447724
0.00211871286223369
0.159242962191068
0.00526638099368494
-0.0500830537998348
0.065356871775426
0.0246294284653295
-0.0107416298693166
0.000989737726757292
0.0419213099293064
-0.0434066518445397
0.00143440844658704
0.0100337585307034
-0.0326077320352863
0.0377889096879694
0.040896746525494
0.0216380935169652
-0.00923879859243643
-0.00657450289560633
0.0188859104133009
-0.00814805621789745
-0.0695991052837172
0.0031115482063941
0.0195968534391279
0.0352652182810693
0.0183619442130692
0.0584802605598963
0.016779250787006
0.0657342363500406
-0.106959264204544
-0.00503677663538033
0.00441939951006037
0.0658677063116241
0.0811521638729681
0.0145196146289435
-0.075493053748884
0.0383582082965064
0.0241478503125623
-0.0183062751219743
0.017480746584453
0.0261975646232154
-0.0644683586958888
-0.000361271076391369
-0.0354693018591612
-0.0371402555279662
0.0404807356119535
-0.00265605544175038
-0.0615198403920525
-0.0396103009305413
0.0117388827082375
0.00902728651142567
0.0372648426826926
0.0115507758662958
0.0235874445104743
-0.0135596600589872
0.0411745010649136
-0.0288918109911748
0.0389415307727808
-0.0735495010343298
-0.00513035063933562
0.0242942197068269
0.0252571278511791
-0.0517662673436955
0.0078009981394169
-0.00309262773549458
0.0565508389941603
-0.0135625310984511
0.00452546039658725
0.00512799442029386
-0.00585373865671423
-0.0293524832154328
0.0342019825922633
-0.0644767957904437
-0.00297090976493416
0.0295054197423913
0.0133989759167432
0.0580063673278063
0.163128255348684
0.0251394138712625
-0.0411209153999798
0.0431921064580878
0.0508341693790162
0.076403107332225
-0.067624197442397
0.0421449158559685
0.0122989445529984
-0.0119253229218305
0.0330319774305619
0.0244698192110887
0.0364772328886875
-0.0275404993890983
-0.0675497244514488
0.0685081387027542
-0.0458549971118612
-0.00843426293598683
0.00722099135705352
0.00434558015645524
-0.0726157818945923
-0.0524810390951992
0.0186628995172216
0.0233148133492191
0.0461789283701833
0.0136158313082069
0.060263984024958
-0.0874126625583596
-0.0170435600159556
-0.00758205622474563
0.00771526547246273
-0.0378995237333987
0.0390726125786902
0.0358342865216959
0.0191556941364401
0.0130135130290228
0.067760155730363
-0.0367866447402693
-0.0156473354650324
-0.0318143512370625
-0.100526209327762
-0.0165084981628591
-0.0464369665197486
0.062115240757756
-0.00158196279762885
-0.083468004803292
-0.096104105062143
-0.0578571815830498
-0.0522197774426844
-0.0259825446654109
0.0405761999032794
-0.0211670938419644
-0.0212178159803606
0.0290655514325452
0.0402909729941483
0.0767299366303875
-0.0233293387947879
-0.00118200698925979
0.00300626883529717
0.00914530124660213
-0.0116525754501328
-0.0373606581081875
0.0610943403235236
-0.0533440742750011
-0.0244423143394141
0.0242294034765107
0.0146888683103536
-0.0495466139390562
-0.0366014300975063
-0.0278729650267618
-0.088914441911304
-0.00643980244455856
0.044802871696532
-0.0211360971419908
0.0827448036462952
0.156332983673106
0.0497296925650536
-0.081089718746499
0.0291272560217748
0.125858205756235
0.126742444594362
0.00759130786623353
-0.00332396236725927
-0.0331508942277254
-0.0865555929505672
0.00666657564846806
0.013490153815585
0.107602964597047
-0.00200883986134114
-0.0220199055202774
-0.00538480145552576
-0.00569299347077451
0.0159263413357772
0.0203037978210844
-0.0467047305430155
0.0215745594786621
0.0943522672536632
-0.00158450862657551
0.0463092325302521
-0.0196396124741628
0.0222017917656764
0.0379774973657515
-0.0686173437010294
-0.0616846291480075
0.00631484011527795
-0.0387095461811588
0.0129713320858371
0.0275042918523659
0.0384122757839004
0.0105162429800445
-0.0102275142149568
0.0246809233473577
-0.0510488750386107
0.00496878331044822
-0.0132932802815293
-0.0102274805242524
-0.0106826708856217
-0.04822971223627
0.0660324996156243
-0.0814631365724425
-0.0790792440267113
-0.0807690101918755
-0.0409605328520625
-0.125608807053565
0.0350752663732592
0.0210448620707968
0.0162520268937361
-0.0706383990729466
0.0695181895572238
0.0356712495499727
0.00712813540561318
-0.0901825775191696
0.0340746194363007
0.0775989278585337
0.00388357749908309
-0.0311344347506875
-0.0513738990968802
0.0265800939309722
-0.0416298969408672
0.0158319869092425
-0.0451589154302421
0.0971211873015076
-0.00868749757865189
0.0218619967162825
0.0107386972529925
-0.0886752365559979
0.0196708738925219
-0.0291230059738123
0.00568114558892474
0.0465687711087878
0.214893723564939
0.00841861020451869
-0.0792971070438742
0.0358942883062803
0.092794402511878
0.0401118906928822
-0.0265674403385176
0.124494280018269
-0.0281163806360669
0.010723330616479
0.0530147185223718
-0.0389041783147323
0.0698031330955225
-0.0397484445615712
-0.076911154212427
0.0677714461588347
0.00284701412876588
0.0704658379772243
0.049648572810102
-0.0179962583995135
-0.014852961088196
0.113790988262276
0.00259673076447723
-0.0526767114196877
0.00139226602027248
0.0379101504573956
0.0760150989042154
-0.0826438180499216
0.017958276183691
0.0985691224124629
0.0247919270430074
-0.0150224848021235
0.0607242578752443
0.119140044645869
-0.0141950870608587
-0.0742753565174937
0.102155223004062
-0.0150307798246755
-0.0281729784518075
0.0243216264327724
-0.00849807094618634
0.00699190690790876
-0.01553965252308
0.00531638556528628
0.00932690898258303
0.0368700061130298
-0.0700037642110447
0.0479120775844365
-0.0512261747517179
-0.0451466507353096
-0.0417509657681108
0.00472605823850667
-0.110442939965675
0.0511943202893888
0.0287677721393193
0.0504318143766
-0.0165411441978331
-0.021099192887723
-0.00263797805775551
0.0510843249170378
-0.0164944893098327
-0.0117908035962862
-0.019179451284713
0.00391474322733678
-0.01612448271954
-0.0585252025900853
0.025096845518108
0.133797782385953
-0.00585067684416351
0.0647658062695269
-0.0858534840610793
