1017160
-0.00257017552548497
-0.0111929320946414
-0.0259122552197987
-0.0370283740469218
0.0298648477745356
0.0243934501955616
-0.023209445048955
-0.00248116159578396
0.0544379155136575
-0.0125193191529313
0.0374171036868212
-0.0268938403517496
-0.0411353933412853
-0.0788800118637865
0.0406073277308837
-0.0150876661895244
0.0322880521404374
-0.0432200169992109
-0.0208744227597236
-0.0434169454114141
-0.0378092659204375
0.0159942968113414
0.00344953882848035
-0.0405651845802566
0.0109663827715222
-0.0264727483328253
-0.0010994628407921
0.011474245255562
0.0256343542743157
-0.0472947705979693
-0.0353131405233813
0.057084958837312
-0.000881876418812071
0.0244877339575976
0.0230814546889366
0.0499592443953251
0.0149489651277573
-0.0458663247085526
0.0273261564247412
0.014175008348682
0.0122687876366394
0.016044896591097
-0.0615021356466977
0.0463435695465028
-0.0170985401728984
0.00807924283677245
-0.0431100240262075
-0.0626609960257504
-0.023222129354139
-0.0306855770474544
-0.052376817042062
-0.0162315037833788
-0.00255435924691354
-0.0494486925633332
0.00231493328212026
0.0246891439056899
0.0396282959406239
-0.00137923444425868
0.00724467802489989
0.0271572876580297
0.0114272390899096
-0.00940033315102738
-0.0280185780336779
-0.0156967210147111
-0.0368133802927453
-0.0575746512328865
0.0120423635759341
-0.00240625189744347
0.024172113915581
0.0550390252509119
0.00286792377385663
0.0247386348559361
0.00998366781550772
0.0542989719978703
-0.018085668972139
0.00118741714852179
-0.0130739509147556
-0.0643047879545621
-0.0127230636290537
0.0044933544564688
0.0394771910208705
-0.00876835771643659
-0.0127074602047899
0.0372927217494835
-0.0384971349329301
0.00287442572403871
-0.0136605343670317
0.0292238731062722
-0.0170335914931295
0.0324841867568762
0.024195304018515
-0.0530050865820876
-0.0334986144548048
0.0562846515722695
0.013879387278881
-0.0405215883154466
0.044948234433278
0.000108458158182927
-0.0129233540267534
0.0345800407371549
-0.00360252441641378
-0.0352106649620791
-0.000873710204264747
-0.0157155695299616
-0.00337053130297455
0.0599669279493846
-0.0342049099101803
-0.0265273573749983
-0.0207474271791705
-0.0144298721705034
0.032682395025843
-0.0480670808508616
-0.0130393644511865
-0.0477811631964736
-0.00816697559139001
-0.0411613259977288
0.0127928866634162
-0.0660442616026509
0.0778820526648552
0.0167121239751904
-0.0716304349148386
-0.0136431094198479
-0.0739333885998731
-0.00276825890715357
0.00451086973433788
-0.00185464221913128
-0.0259704531401453
-0.0224118318503824
0.0127646206023409
-0.0251092456560764
0.0210778400978899
0.0335595548790697
0.0293003936762159
0.0263347728969746
-0.0233143333935932
0.0107305242719294
0.0675411526490217
-0.00909916186370723
0.013208500435975
0.0218132024475317
-0.0269706964649584
-0.00879589487630424
0.0104755234906328
0.0181298403444353
-0.0165961926878219
-0.0652129036386791
-0.0605007352094234
0.00750112388716431
0.0695356902450129
-0.0478219888645818
0.0168999588125825
0.0186520752697995
-0.0476793529252674
0.0217168734326213
-0.0265900736575548
0.021722373021849
-0.0189279632426998
-0.0366753899663774
-0.0530313514662984
0.0194242534069065
-0.0155873203789112
0.0584321494795206
0.0355022508475571
0.0127059884513453
-0.0392199990745184
-0.0211211182371401
-0.0548608445901487
0.0228774354238159
-0.0212745468632652
0.0244361378328824
0.0421112451181822
-0.0130219078559245
-0.0196622437152728
0.0119190766986606
-0.0313849072985373
0.0134218084667543
-0.013265604873213
-0.0245103205878435
-0.00846846378668021
-0.000338846759183795
0.00134149928680915
-0.00799265057927509
-0.00350680332408982
-0.0513598312989219
0.0650911458449017
-0.0560293217304292
-0.00635363588912127
-0.0877069188340564
-0.00857152478039027
-0.0386398231052767
-0.0465622363961724
-0.0509404079828085
0.0431282736884957
0.0220638769612625
0.0181518310428848
0.0230319917655435
-0.0832495598519466
-0.0121153936201613
-0.0437912879669999
-0.022721409923623
0.0353301853113174
0.0332126226383615
0.0168960105376573
0.00244617829397002
0.0183724179590705
0.0168220054154766
-0.0467089688747644
0.0118119869551253
0.0313239230658892
0.000530949541900068
0.00611634377289869
-0.00239119086747994
-0.00557848270827332
0.0369472493286579
0.0219979359071071
0.0144908570076354
0.00976489420899788
0.0296697657378573
-0.00274812199188652
-0.0238047883462819
-0.00999223169308931
0.00116660762816963
-0.00844858739105512
0.0246937714203046
-0.000666864916867632
0.0340485746429412
0.0200694343553394
0.0182175333675703
0.0529632469675902
-0.0313932959031015
0.0329750013714044
-0.0295318965548477
-0.0437365568377952
-0.00246754849865525
-0.0441459906944603
0.0143534196639448
0.0282825884915765
0.0350105312398883
0.0113819663637108
-0.0479492308108334
0.0515177659037412
-0.0643281197394306
-0.0325607014213975
-0.0311928670230235
0.0178260279723957
0.00843587321915164
-0.0252177052325339
-0.0563544057097053
-0.0737758621193794
-0.0136486908626028
-0.0469476127431399
0.0530547050933749
0.00114299352664184
-0.00955895952566064
0.0184607446494995
-0.0187552472506066
0.071516608455592
0.00894926764579447
-0.0324485319589873
0.0575630876065059
-0.0518727557440582
0.0404611138068508
0.0261277352486039
-0.011647099284745
-0.0123517248331581
-0.0622214615910986
0.0603223081501767
-0.0232266366215025
-0.0772790487907442
0.00361179528727904
-0.00167014458884005
0.074806230491708
0.0602276175172249
0.0378280851751275
-0.0645541140424151
0.0336336593324111
-0.00495961926583098
-0.00257626461325832
-0.00224562297201008
-0.0266597108643219
0.0307463961719529
-0.024254021413287
0.0466250960232718
-0.0279719552368066
0.00393645994085552
0.0477499464377298
-0.0634584370511203
0.04423432087865
0.0106998364627322
0.00286139334831351
0.0201217979740718
0.0417253660295668
0.0136533941107986
0.061555300148113
0.00278836743847382
0.0227572783888211
-0.028416250132188
0.00602443608932171
0.0489049639971605
0.0484702892345416
0.00164725576833821
0.0347777871838408
0.0486734383191418
-0.0480143581077738
-0.00685474212781752
0.0237544140140037
0.0771488109629846
0.0179231802493314
-0.073725224854793
0.036944476744424
0.000664373206894003
-0.0389552528942011
0.0198044086717004
0.0719549715595384
-0.00757709890849682
0.0675215178420364
-0.000823847949790409
0.0196284699885795
0.0221438019873081
-0.00357383536006554
0.0961925513850377
-0.022423872986203
-0.0276001111674631
-0.00328290502648074
0.00774075053050218
-0.0143539346007023
-0.00880007076611459
0.0744741855899497
-0.0846279777900107
-0.00220037680066159
-0.063148024215638
-0.0179412615153395
0.0231822395554836
0.0544829000025173
-0.0493670888994629
-0.0561381605587108
0.00215116592960877
-0.0690540322230665
-0.0103140237928703
-0.0254580448716793
0.0475445033706222
-0.000525861447855772
0.00513042347930592
0.0242350097548479
-0.02121843865768
0.0394687487667432
-0.0187258967041496
0.0244253886151885
0.00956004070770444
-0.0440615711181719
-0.0334061333250109
0.0348380647624619
-0.0151043814606766
0.0135757201120996
0.0240503060866809
0.00804070412126631
0.0051342162229038
-0.00178140124779746
-0.037339549768163
0.00766892997854439
0.0120642808887032
-0.0384073221044295
0.0262668334216584
-0.000190432474122745
-0.0167532045832057
-0.0134764474687425
-0.0651215472461796
-0.0506894027581839
0.026975770795585
-0.0249717014467931
0.00780417194036897
0.0302647065481859
-0.0609381657906909
0.0754901081842139
-0.0614603451661885
0.00457494922676479
0.0650032292127478
0.00978164623245401
-0.0649555850846685
-0.028313297489787
-0.0324514268774267
-0.0215751554764058
-0.0489843869340514
0.0522541026577924
-0.014434835331259
0.0465328884807297
0.0585805334682109
-0.0356577828205565
0.0141919487535316
-0.0320036610435914
-0.0599715911128974
-0.0140966988007216
-0.0425432107510108
-0.0306134185652622
-0.0134983771609036
-0.036454136277822
-0.0321360331232031
0.00512285068600252
0.0146788561770368
0.0166313941494038
-0.0412429737998021
0.0739624144619375
0.0163238054672494
-0.0174411584141938
-0.00674991361768675
-0.00317622026746349
0.0274014604513946
0.0059131334748784
-0.011326199547541
0.00236798440527675
0.00333345838913019
0.0303800273153994
-0.0086755132477793
0.0147516902959585
0.00803249945172692
0.0148850323514898
0.0307085588877643
0.0583715508039963
-0.0149256582846551
-0.0426728559404593
-0.0768957325108929
-0.0156392256021804
-0.0109861744957383
0.0329197403686581
0.0584631236613017
-2.10114395901715E-05
-0.00605395033632554
0.00319447292606871
-0.0533980348027027
-0.0127520508206888
-0.00339118937443815
-0.014175562276358
0.0233072435593918
0.019050800744288
0.0108072615391552
0.0279483629662927
0.00522123069231745
0.0469844076645126
0.00129106223643077
-0.0458805044805593
-0.00310638468085504
-0.0688745237534388
0.0289821325119358
-0.0176040673775211
0.0244920840178382
-0.0941165822798848
-0.00775789914202888
-0.0219710127101511
-0.0113857003749743
0.0419438230362971
0.0247490320997177
-0.0409434741795385
-0.0305868780979748
-0.0700567066819946
0.0627475176985757
-0.0561780133263327
-0.0209308231867338
-0.00206180289027464
0.0233664846183435
0.026328712636379
0.0494946049499197
-0.0380503375310841
-0.0531045917371937
-0.0320367147824672
-0.0148684415013125
-0.00944106424896986
-0.00468971150244298
-0.0420181506869621
0.0662231186144725
0.00626949827359364
-0.0016732049441277
-0.000254835825279434
0.0130404776186902
-0.0516813994192314
0.0328657860870814
-0.0527838626477055
0.0586018832771298
0.00885646983621407
-0.0144569104168829
-0.0179673920443594
0.0736280865823933
0.0190123990829604
0.0206754734461757
-0.0175855633864604
0.0298850485253618
0.0124179384440984
0.0120068841277744
0.0274702684232924
0.00604275309729888
0.0135674499976115
-0.0358507028665721
-0.0542664680448482
0.00783277105482779
-0.0196970496084545
-0.0104674147329442
-0.00701561641658142
0.0244380081229276
-0.0317897571766973
0.074628657263218
-0.0307306268970236
0.0499973796833097
0.0599529262504215
0.0230761570022762
-0.0038771632494732
0.00653063524831442
-0.032318430214792
0.0182079331526827
0.0467766126367235
0.0713002802895634
0.0257808000120327
0.00214257329269083
-0.0134552230307858
0.0410111507668643
-0.0539073641260624
-0.0242213655736936
-0.0105041252914732
0.0441087839970525
0.0234327525949284
-0.0221566652654745
-0.0395641308656009
-0.0300646669864255
0.00414925863361229
0.0102164525716562
0.0143617931975013
0.00839906315717164
-0.0233247660561926
0.0302416907929204
0.0451570609936474
0.0378763381515087
0.0150874394956213
0.024532196526033
-0.0144077201016683
0.0474370932341992
-0.0199642575541756
0.000299440819560567
0.0229218492145335
-0.00715391562369107
-0.00647711467535034
0.00780315180105272
0.00209190599169573
-0.0222011746691545
-0.0202988807611137
0.0372349058240251
0.0137428091776294
0.00900247179027699
0.0113752295175734
0.0673150275639743
0.0161748439159005
0.0196114193994191
0.00864322769583944
0.034535235364778
-0.0167514532797116
0.05510803187768
-0.00483396854251989
-0.0464139773870448
-0.00394958622072769
0.0314759468165547
-0.0275206183950883
0.00925940431452582
-0.0308118124384413
0.0546928015974014
0.0308272046845399
-0.0617195470611903
-0.0785775988130887
-0.000692475838342092
-0.0174796827478573
-0.0726004222769909
0.019076015061878
-0.0208597522222518
-0.00121761725487892
0.0183758000378457
0.0267499864164916
-0.00176816978192715
-0.0364818951356873
0.00293628407762396
0.00472765644779435
-0.0109095398822313
0.0238292618632465
-0.0149474245776728
-0.0177870252831752
0.0632142544112158
-0.0138721982330007
-0.0112563401715156
-0.0022706147352326
0.0233034169308142
0.0171058345502655
-0.0804338915245324
0.0485207675864361
-0.00138062590598437
0.0413740274945889
0.0735639153352048
0.0199581419009589
-0.0326255303209909
-0.0124074711652634
-0.00204504833949863
-0.0153217680149555
-0.0706453224628174
0.0182815741429306
-0.0515744900630392
0.0359653786197174
-0.0205747924756955
0.0353313095245208
-0.0289310789743178
-0.0597350330985732
-0.00379467784112412
0.0102043781526084
-0.0501459820458927
-0.0127535149252206
-0.0692747430938159
0.0468658761998885
0.0466986183878635
-0.051918141674688
0.0192105201780786
0.0574107695237499
0.0170219420783284
-0.0156885554421559
-0.0546145521828765
-0.0402421853922066
0.00655262651787496
-0.0129231695262169
-0.033058815531886
0.0184279463415614
-0.0143538536332471
0.0265400221697554
-0.0500170901884741
-0.0786411943118219
0.0204124729851919
-0.0590142392979876
0.00260323022087865
0.0459387442024891
-0.0303055338020821
-0.0124469042222997
-0.0195445915798916
0.0103562310381898
-0.0119225512845127
0.0109275492847084
-0.00016302551203061
-0.0119447603161034
-0.00484505996574184
0.0620373416737607
-0.0142595781124602
0.0202282756603469
0.0600934289821465
0.0311239803008641
0.0189721474035628
0.0540554015944887
-0.0124866162913766
-0.0147106865243744
-0.00030038571392299
-0.0155825072221151
-0.0271752830154618
0.022225206180285
0.00574524244829985
-0.00356897033905061
-0.0322715972565411
-0.0176664594126209
0.0489178296845214
0.00905992518293123
-0.0159651009338683
0.0119653407600813
-0.0462560201552573
0.0203061361926286
-0.0188810478949758
0.041484309524407
0.0161134965077456
0.00418366311938553
0.0238040752788545
0.040428698319987
-0.0854918260055907
0.0479627057586638
-0.0298807615934628
0.00476212343802295
0.027211604433139
0.000349452439769588
0.0416898477329932
-0.00549207368627485
0.00866731823217488
0.00535271603214036
-0.00783095105008435
0.0130995119355495
0.0163839896575442
0.00556547678174937
0.0229048277024377
0.0841036113981472
0.0167761485307011
0.0430752947979028
-0.00885004045268142
-0.103890193910396
-0.0133098025793874
-0.0369565508406541
-0.0211930620242143
-0.112079494629511
-0.0374133353845814
0.0135921556072177
0.0160655048021636
0.00271178915671457
0.0588785301257912
0.00524385142373451
-0.0278378695685062
0.00956275634340035
-0.0635786321160398
0.0266090050497233
0.00285360684718152
0.0429982244072582
-0.041432122130537
0.0409521025145623
-0.0880414149456775
-0.0478674068550944
0.0523206179578962
-0.00230011911204412
-0.0334955757754297
0.0272225165241321
-0.0052304816633426
0.0131929104415099
-0.00639223844020208
0.0654800446143005
0.0122413669885936
-0.0277347311166396
-0.0305048624668142
0.0120304700617562
0.0365161535844173
0.0557608766213352
0.0515787301482338
0.00248595983553696
-0.0105940632818838
0.0174024207730543
0.106447048887509
0.00864937185925968
0.0430944392096084
-0.0545873617796962
0.0381588050679461
0.0440377485892446
-0.0400617447855656
-0.00102860869896137
0.0142795835780877
0.0179874472999239
-0.0450343811942954
0.0319505762975116
0.0361343651944066
-0.0621949984296055
0.0141278571811189
0.0304243232741815
-0.0546018037754443
0.05566478005636
0.0667880234789631
-0.016353334995784
0.0326531658947283
0.0336824383662841
-0.0674637997253785
0.00291503872778505
0.0142166108345707
0.0109187563367711
0.0944340872209962
0.037643105412907
-0.0340666772077879
0.0231089104340779
-0.0575971461322291
0.0399929226876093
-0.0142521695995243
-0.0788471261097681
0.0388780153878943
-0.00485660644195883
-0.0692583639376605
-0.0182816658555601
0.00307151635830221
-0.0516005349125934
-0.0245323054954811
0.000941831636890054
-0.0613329118152227
0.0102249824243397
-0.0288792087972917
0.0140888031948507
0.0395275145477754
-0.00670598743485527
0.0571362468040874
0.056176389954676
-0.0113141167841908
0.00658483248059093
0.0271969315424962
0.0391292683095356
0.0315271106583601
0.0429891372288422
-0.0174764822914366
-0.00654291739243163
0.0192235911403563
0.000727851882836369
0.009783257508149
-0.0620753972070775
0.016967378571012
-0.0138897354741087
-0.0149830194830894
-0.0264306485248768
-0.0588980671565408
-0.0494431000080256
-0.0154118721617137
-0.0401200504952029
0.00561410373710097
0.0330791917649459
-0.0104322902880176
0.00308814749661642
0.0400420634649249
0.00290353141671263
0.0462432754645182
-0.011370893485059
0.0247629414760753
0.0160983500930038
0.00915815923567942
-0.029478783657253
0.00763282180952134
-0.00876931365966146
-0.00881147613358052
0.00929601108379145
0.0378495222685359
0.0154369485374287
-0.0019451852054935
0.00726450122343394
0.0172271242575116
-0.0304348349087122
-0.0390466460797492
0.0208917863676661
-0.0155264434711827
0.00758087917925028
0.0191714996354786
0.00261051990593077
-0.0131651205545504
0.0328452091992461
-0.0266152187449773
-0.00932291266840591
0.0463251365326459
0.0282623237573386
0.0159209451067657
-0.0696795413724868
-0.0544411811688468
-0.0417210772801443
-0.069951800013617
-0.056770367698702
-0.0842757770234945
-0.0137293362676266
0.0421859939594318
0.0480837845372883
-0.0171332740163928
-0.00250287221357725
-0.0261896416166433
-0.0471011978982587
-0.0505019135105113
0.0582715981954717
0.050916741330498
0.0121945478514837
0.019618971352513
-0.0391462563275726
0.0164031769795898
-0.100334322893722
-0.01587401523615
-0.0524042760237718
-0.0181484532228194
0.00287277697069269
0.0180679743837866
0.0071745294110535
-0.0244844748006862
0.0502012841426731
-0.0354174744561215
0.0413515510229395
-0.0312362973596355
-0.0373657569433357
-0.0272366045944155
-3.56889632007012E-05
0.0178240453940765
0.0307892017421508
0.0386670256454317
-0.0326703198743744
0.00594800676828336
0.0627382177342221
0.0465901474327035
0.0145595432410962
0.0176216261698266
-0.00594167011870351
-0.00941932112110276
0.0491914065662572
-0.0236431391486684
0.00401498989132637
0.0545779110064153
0.0380380127827125
0.00285281280119346
0.00992302326151433
-0.00920886100268306
0.0385089022607425
-0.00409171332127093
0.0109613324198679
0.0142828270717612
-0.000611228678602342
-0.00808839437355982
-0.0384690559387791
-0.000583284294876068
0.0578117082121556
0.0260233487842895
-0.0532071511149699
-0.0062348617777433
0.0158209726654944
-0.0146500787214591
-0.00748997054970323
0.00716095624717212
-0.0679679333590411
-0.00840835587914055
0.0070013108892671
0.0379868208215026
-0.0343206086154501
0.000818786459024841
-0.00899225071380225
-0.0558117922808278
-0.0183128260534333
-0.0389012810820907
-0.0273010806781859
-0.0498502420950512
0.0285196157618192
0.00972951380629064
-0.0625810685322555
-0.00763101797038968
0.0667230789851363
0.0329882421913696
0.00343709032968795
0.0217695183807127
-0.024651584684911
-0.0315288293611125
-0.026868367881592
0.0216130016085914
0.0600073221607533
0.015432814295069
-0.0340669875072287
0.0286568256833399
0.0366093374540103
-0.00862013204176461
0.0436843428475896
-0.0626986412566194
-0.00197872851865907
-0.0170093911614694
-0.0685772290729277
0.002526907386497
0.0368186078592169
-0.0153867606547024
-0.0445082284018352
0.0872143863868365
-0.026741069997306
-0.0141666249007324
0.0143999810902952
0.0208939578641534
0.0355924584818317
-0.0142729946145317
-0.00167163035713929
0.0105425752163943
-0.0372912426932569
-0.0950187847308394
0.0348555304264211
0.00170877707899525
-0.0378145765649908
0.00129502384162412
0.00479686421685335
-0.0284465854820693
0.0659315067600656
-0.00756599520467543
0.0363709031004082
-0.0130960323862035
-0.022309759675623
-0.00857143764351183
-0.012547563674948
0.00693326537660069
0.031851341508456
-0.0751403602427967
0.0290211739224807
-0.0110455587920436
0.0158344484921217
-0.0511618023987999
-0.0365136679893745
-0.0146389353145067
0.0372132463001332
0.0249613154790825
0.0625682493049203
0.0138133750996883
0.00108509384874457
-0.0200985902290737
0.0422730826053294
-0.0360966479773926
0.0221632331352166
-0.00502413398705461
-0.00430795661984973
-0.00152529972698714
0.047452974435649
0.0162354280323282
0.0663939660672026
-0.0728453422246146
0.0340497091444336
-0.0494102092697698
-0.0349847388414493
0.039114111441671
-0.0228066724029488
0.0554508748935992
0.055686354790827
-0.0373320679873067
-0.0146551475606076
0.00635238965975037
0.00282172559750006
-0.02051124445868
-0.0615273302976393
0.0288063815363914
-0.0422837606496891
0.0384556411084169
0.040890814087103
-0.0612012628871742
-0.0190608336582741
0.0418715764005736
0.024625815561405
0.0201426634591682
-0.0326097754153773
-0.0123055893536172
0.0217093224420314
0.0357876408450381
-0.0156920323888448
0.0691094173100251
-0.0256498723424141
0.0257750876147017
0.0297510583640598
-0.0297193999493881
0.0260725747902604
-0.020317057659025
-0.0456864772600113
-0.00315789477117415
-0.0732258407519095
-0.0641477749224193
-0.00321055617141968
0.00572542860023467
0.0685089308566552
0.0487606430981609
-0.0394939252074302
0.0127420093400521
-0.047755412199917
0.0209514881462089
0.0307744072447042
-0.012856862406188
0.0374693773150545
0.0133707535717994
-0.00319996054334544
0.0172303516862579
0.054912110299708
-0.0496221355922893
0.0123608411550427
0.0478169656204514
0.0115948676018318
0.0365090378776047
0.0207671868074497
-0.0208933334103356
0.0221900651784745
0.0363625087810259
-0.0318075588257876
0.00402600172012584
0.085321304466929
-0.0407100694117249
0.00527846624728738
0.0229414258337713
0.0477769333208669
0.0861228709551727
0.00594586730592692
-0.0252723129005145
-0.0361653585049757
0.0582882661423569
0.0226757094140407
0.0316082862951564
0.0515011234602146
-0.00137765639124103
0.0213492860289422
0.0171260766069572
0.0303561403733596
-0.0277206345060095
-0.0708218392077796
0.0140254635979579
0.036593688965444
-0.00328027762970665
-0.0265870175432225
0.00573507696444234
-0.0166585194976159
-0.0202459257567862
0.0332566562266989
-0.0556524114510341
0.079306502596685
-0.0200506758244061
-0.0084595027484475
-0.00611457853735219
-0.021134296183251
0.0402930859392032
-0.0156894469321581
-0.0277713885640439
-0.0053733800052681
-0.00130086065485428
-0.0120683089542765
0.0236300306755573
0.00213406662465796
-0.0263270620983732
-0.0368833697974332
0.0146662419806092
-0.00142544318070691
-0.0121698545659547
-0.00502266343138404
-0.0177972526240724
0.00290809221395242
-0.0138983294761659
0.043773981307018
-0.0590161140845912
0.0109347415511535
-0.0189337378270625
-0.0348019729706516
-0.00723430142118813
0.0338254104733734
0.0299009513295682
-0.0548684326361134
-0.0277269347392145
0.0202147921305076
0.01517030123991
-0.0494151238205927
-0.016992651848542
0.0297974624687523
0.0148246753321461
0.025259471661953
-0.0168512361781383
-0.0408867550968858
0.00323023312011062
0.00770954758536013
0.0266731945820275
0.0152805742188809
0.0376230148396121
-0.00970142542480331
-0.0469428252420206
-0.00103713700322086
0.0183266390013519
-0.0111456082299778
0.0241090937685205
-0.0218751906837985
-0.0131982770897326
0.000973989748774818
0.0177694737402732
0.0592348915286188
0.0165269039801072
-0.0067200636182663
-0.00785719901138555
0.00639962591848433
0.0182418390808771
0.0579857653219942
0.00335825753953322
0.0138792391171239
-0.0224893374057482
-0.0469844099163889
-0.0225737865206798
-0.0450204879839089
0.0154039729381602
0.0298239657837486
-0.0237964886720426
0.0642857449933703
-0.00726721415993484
-0.0247430672871028
-0.0111798836979133
0.082098086101582
-0.0126709496490873
0.0259233227096722
0.00187685570847557
0.00740590714127304
-0.0201364077584566
0.0566966573871727
-0.0557053460851391
-0.0258495076728205
0.017581178685459
-0.0582882614027762
0.0141373245600923
0.0326772242682929
-0.0168534074164055
0.0569533811412987
-0.0514855747316552
0.0244070689269658
-0.00481481794064553
-0.0107841397729142
0.00054003263156388
0.00615312421051085
-0.0415723734029263
-0.0288140718086056
-0.018096266333343
0.0362902781579955
0.0566682120430976
-0.0107036174285302
0.042255882928499
-0.0436661907092038
0.011388440226081
-0.0481229496313376
-0.0313325880411197
0.0159010347906054
0.0329137129477579
0.00565602042935832
-0.00699546809727211
-0.00390003461274571
-0.0524835336006615
0.0331043764029258
0.00600329914632121
0.00360382874387463
-0.0254030304378234
0.0686708888659325
0.0177997247130864
0.0318940749518661
0.0255768917328353
-0.0060433854464319
0.0672440005655739
-0.06368403546812
0.0167105154497882
0.00511502142886155
0.0563448532557323
-0.0296279709452837
-0.0309744972228003
-0.0114628047097251
0.0146372793082141
0.0204938641004656
-0.0116673684839789
0.0366731390076216
-0.0101393756641472
0.0330473820415657
0.0296191312348209
-0.0399067465845203
0.0137247450441515
-0.00300962136749025
0.000672237578338486
-0.0176635050724691
-0.0369879708857728
0.00655095483315415
0.0181054775351302
-0.0026804579687389
-0.0105498441732565
-0.00791473845405824
0.0119059222672345
0.0253818298380938
-0.0118535997649985
0.0557641321940859
-0.0189369430041997
-0.00831158622123412
-0.00751736489850156
-0.0141686141145395
-0.00663992669932349
-0.0175374102902799
0.0317827254903794
-0.0257223684241551
-0.0787492469857576
0.0132652552847334
0.0342121299943002
-0.0895982792603995
-0.0270966633934294
0.0282133182638957
-0.0290690643032037
0.0857528398009165
0.00538213101035694
-0.0155561500935331
-0.024953895869093
0.0337499641753322
0.000714817132225344
0.0104097660792681
0.0430980036700957
0.00138261934610023
0.00063033234372128
0.0080649651220442
0.026925496418273
-0.0257651626719064
-0.040428173394144
-0.011521141479548
0.0261911267167689
0.00956501317091058
0.00125002592845823
-0.0189209700529004
-0.00810432565052973
0.0832742422078605
-0.0536719048253285
-0.036332057554517
-0.0180292652680019
0.0115367354459712
0.00424043578813484
-0.079327000650761
-0.00605080674224742
-0.0255118373653405
-0.0491112394057264
-0.0815871754792373
-0.0335536573945108
0.0277585636398552
-0.00627294282431536
-0.0337596766404684
0.0488892263754944
-0.0574530016620819
-0.0445553527581314
-0.0763616232145504
0.0163011970615595
-0.00910656577574847
-0.0253168281187861
0.00808211406818433
-0.0529989619865552
-0.0319710632334895
-0.00533480275840617
0.0310068780671547
0.0421896168092796
0.00145425175254909
0.0307780666076554
0.0627117204649798
-0.0154129414655411
-0.0817450103214607
0.073480671524843
0.0462381627310952
0.0136302677478737
0.0958223571481554
0.0456271208630648
-0.0183773509125391
-0.00105725493783779
-0.0073703528043538
-0.0168204682769709
0.0465415042358808
0.00761135932077174
0.0534629778424687
-0.00470255584519056
-0.0387790593781586
0.0129259835055952
-0.017762655152062
0.0194969078946769
0.0353999165580337
-0.0255979216734809
-0.0292947841711223
0.00574555634479999
0.0594816964187048
0.018757784282664
-0.0168885566997028
-0.0319606880864098
0.0492472203453713
-0.0249629855549284
-0.00348519777164561
0.00982303473426809
0.0457261942162346
0.0238783658739557
-0.0516466111551873
0.011220939876908
0.0126798067459455
-0.0305924739395421
-0.00863944694199143
0.00397795536188965
-0.0295585695975813
-0.0412646041255587
-0.00459456311977141
-0.026616270842057
0.0346212934866675
-0.0824606564857865
0.0201370159945485
0.0292666297747326
0.0717842779896359
-0.0161314153856222
-0.0115374458294867
0.0254106607771285
-0.0447712126686629
0.0317640878665051
0.0601999589030658
0.0377871149060075
0.039565750288806
-0.0451230821869361
0.00499869803735876
0.022540376927296
-0.0215015409996773
0.00164193152890363
0.0284434394850256
-0.00208990835899329
0.0118007094839506
-0.00415795288423746
0.0242911732966171
-0.0236299255031016
-0.0651849222544437
-0.031242784748744
0.0342957335813443
0.0290641893106205
-0.0051204784000248
-0.0400816930559298
-0.0562560900680693
0.0317410155438635
-0.0326789905817247
-0.00245822101963225
-0.0234376400567017
0.0306500379423938
-0.0285590245814774
-0.0173260950751836
0.0342343332674511
0.0157876823905899
0.0358283516059477
0.0056988598108212
-0.0419504164412353
0.0236297817886433
0.0216156155852868
0.0309491386983544
-0.0047019155787667
0.0369660727483038
-0.0848460706317441
0.0123842085431487
-0.0600950937774196
0.0521474254473536
0.0429009967141852
-0.049666707575857
-0.0170813989950367
-0.0119701509786807
-0.0328848631448322
-0.0834762269131608
0.019986273955494
-0.0284019376366458
-0.00660002550639283
0.0221067367064154
-0.010340489671844
-0.0149940806586568
0.0289920487973943
-0.0145177996160058
-0.102333051911881
-0.0282961719030657
0.0472996193482191
0.0144732021084294
-0.0443995075389164
-0.0226457028660141
0.0220565772897032
-0.00342683080649646
-0.0434360902967887
-0.0414245807488305
0.0063004526574635
-0.0401027527790793
-0.0106230035252844
-0.0258908365416608
0.0465400675904417
-0.0553173928472278
0.0155594467328557
-0.0327837250776339
0.0315608758832829
0.00180967609013728
0.0042865186865674
0.0321921191834849
0.00525421622858979
0.0211496146601903
0.0114592198137043
-0.0384307543683443
0.0246499093601644
-0.00511930474466087
-0.0414174761785613
-0.00140353851531319
0.0273294378161061
0.00663259741394462
-0.0406366666122723
0.00635870867375274
-0.00958745018707825
0.0415134694739197
-0.0023466750922257
-0.0243498339522928
-0.0501131460473394
-0.0277136819413982
0.0128073443884951
-0.0292501905629241
-0.0102430083885449
-0.0515322188933497
0.0234570026207207
-0.048425529122354
-0.00617326310381797
0.0231472986257069
0.019343866658003
0.0174609850277265
0.0430783664364916
0.000929235690498542
0.0142020497612075
-0.0318475688500159
0.0216173952125665
-0.0169734171022445
0.0593274537881362
0.0312959981408885
0.0435265750151897
-0.0539543098259836
0.0324826902508033
-0.0795123056785952
-0.012553589685023
0.0719475938396822
0.0518390185927466
-0.0477940605817899
0.0219080806973901
-0.00510556340866582
-0.0192041535269172
-0.019680426814174
-0.00631832737508128
0.0172721321859059
-0.0296793780411267
0.0105507121994077
0.0019294839783954
0.0209889841379198
-0.00319477266267657
0.0128497355755222
-0.054532528880651
0.0509082630360879
0.0914070024386791
-0.0261020589387808
-0.0831663808489302
-0.0201216432699607
0.0254900522694483
-0.0446145925841892
0.0414317358676778
0.0223902708463436
-0.0438845662077741
0.0294271928217745
0.00904553375754778
-0.0157375667111901
-0.00750980543131544
0.0157064046084612
-0.00205458978409441
0.0255547890932825
-0.0105250574877591
-0.0027691214597524
0.0782776179147106
-0.0614046295395032
0.0726921249490369
0.0398754980163628
0.0223414956486315
0.0029085265971511
0.0303742612604719
0.010006344769167
0.0317499753454176
-0.00694817649157537
-0.0550808818943399
0.0119243376855622
0.00329653083472366
0.00374505043215803
0.0116313721161464
-0.0334376686157518
-0.03596218420076
0.0186442113099798
0.0211014175786586
-0.00205958770907689
-0.0335513887309887
0.0295224833914195
0.059533866942892
-0.002148630343424
-0.0233698240895046
0.0462548229095363
-0.00845988534696343
0.0277412924922484
0.0796995157123422
-0.0534861296485717
-0.00393827469700783
-0.0407336465780031
-0.0248823224200557
-0.0224335356654215
-0.048080966144359
0.0224289009574561
0.0132266504381429
-0.0366318879341447
-0.0408886402349115
0.0218791566495141
0.0226147557239642
0.0333471625928625
0.00415805575797271
-0.0131298815396918
-0.092351818758379
0.00310871115120859
0.0551232076134174
0.000240056634684258
0.00232639673563348
0.0186447829926112
0.0192131117102997
0.0420251371314183
0.00673433504497093
-0.00531563099004257
0.00973030985086743
0.0483273359484962
-0.0444227161113353
0.00793152319153223
0.0553613346579961
-0.020744461900778
-0.0100060767346193
-0.0276289092390679
0.0192186948205924
-0.0219919825168633
0.0263841459986092
0.0269336567225696
0.0398237419832129
-0.0165204974724136
0.00346975564923075
-0.0605955094795928
-0.0054206697803838
0.00116385249041688
-0.0367898191694956
0.0327881039878825
-0.0119353990928461
0.00405323272158553
-0.00307285005611213
0.0409939448960093
-0.00766869535522598
-0.0244950309186922
-0.0156939549482745
-0.0144319564201098
0.0251601694747144
0.00502892441158003
0.0467052152905489
0.041787426610608
-0.063291291517622
-0.0208297763570602
-0.019804953286063
-0.0490713574500562
-0.0207196863716719
-0.00908345678682512
0.0238204237731664
0.0248158226395214
0.0184208481650161
0.00354007547929001
-0.00660786196536203
0.0282010210283298
-0.0524374101748149
0.0425016193892651
-0.00023303741658915
0.0300887454642127
-0.0144281307839817
-0.00290486049454228
-0.017542338100233
0.0369680309381522
-0.00315051801562399
-0.0226303289155772
0.0435861218883156
0.0621045070987281
-0.00486632019630912
0.00986261219735951
-0.00749665766316152
-0.0292865510950773
0.0754668960494602
0.00238674964556911
-0.062296184753853
0.0125651988243622
0.00256160176352919
0.0448913394083709
0.043452632791943
0.0253684472237798
-0.0503568046718797
0.0860209480980989
0.0458322634926703
-0.0216189050333782
9.48505541156192E-05
0.00134971466656054
0.01465481442954
0.0238662310196408
0.080673744578795
0.0395921144756164
-0.0169083325190273
-0.0136189534621894
-0.0282429056503741
-0.0373277109554005
-0.00773610746389513
0.0170530898194245
-0.0190298019935213
-0.00464423296372574
0.0137649515692093
-0.0208956911168807
-0.00461829331148783
0.00554496469657997
0.0125842401377947
0.035192685193924
0.0218570911919827
0.069447095847503
0.0113205447629548
-0.0169946331293427
0.00259958283854337
0.00755621986063068
-0.0578805662179052
-0.0063793813130028
-0.0711298607120751
-0.00977200123900978
0.0438552519721964
-0.0538892948750791
0.000789923329834141
-0.0133188439613045
-0.0293284322795799
0.0231664920805237
-0.052065072148474
-0.0453002730767198
-0.0206201304042671
0.0429796851656978
0.0506331755826987
-0.00258023632718674
-0.0289034133411811
-0.00181914945343885
0.0423134739277583
0.0253618850137689
-0.0202223412948708
-0.080503158607103
0.076633678379633
0.0560942593594983
-0.0415596611813095
0.0114935989261832
0.0262975986784494
0.0656320755901347
0.0216799060093809
0.00497739630720549
0.0303138252353675
0.000668133099642142
-0.0345306545907168
0.0475361853854493
0.0199103377747746
0.027635904817324
-0.0368980059749902
-0.035805817697137
0.01316223997304
-0.00103759446329587
0.0220749747940379
-0.0164241937745531
0.052029992762816
0.0162031669578248
-0.0300716214885613
-0.0287490015530797
-0.0211714964776096
0.0317984788076633
0.0250935474010809
0.0508919207576794
0.050599198729097
0.0145575978447042
-0.00506200909738464
-0.0213125681280574
0.000942456806699426
0.0299859475241524
0.023283185922226
0.0806208926192499
-0.0110062483962546
0.0229570555001586
-0.0136090716531536
-0.0269710915164309
-0.00290283967826468
-0.00520028298087172
0.077421558275111
-0.0326586881854675
0.0380621939666915
0.0420351189574976
-0.051729612281533
-0.0211033233552088
0.0105290911641938
0.0379187962364753
0.0526134336679974
0.00910195246765382
0.0315049954507651
0.0177734578962273
-0.0490469463925406
0.0350378339886836
-0.029067193586626
0.00153124147864695
-0.0695890179076462
-0.00970130714151656
-0.0210965181069
-0.0777532070361445
-0.0187507229151004
-0.0094116668966947
0.0208080890783713
-0.0169630531768633
0.0424579281203627
0.0253540949307688
0.0865038016480437
-0.0469045303028276
-0.0178234657011191
-0.0336680146239131
0.0381719740629852
-0.00296335823302938
-0.0402561571592355
-0.0434168155833517
-0.0339836078826181
0.000731583867173462
0.0569497412769772
-0.039630940078852
-0.0218925159710714
0.0234465378133096
-0.0195780180154145
0.0226930153732023
0.0155262233337938
-0.00346510973072479
0.0122824372482099
0.0931362404821562
0.0180886717320966
-0.0651069993122307
0.0275898035197841
-0.0364495230975975
0.0318103112048035
-0.0119529333295597
0.00535310484235094
-0.0861230029950676
-0.0193225782568476
-0.0331546444664438
0.00806085568165725
-0.0237380907283775
0.0407813027452406
0.0459499594815191
-0.00412870588893823
0.0564475849416821
0.00694605896367631
-0.062812524278672
-0.0659275925599723
-0.0100541952204913
0.0334295960123898
-0.0231370797885216
0.0505194997857215
0.000119588684378692
0.00865009096448778
-0.0610272111850962
0.0165561037431961
0.036547808065118
0.0135082295186343
-0.0605020183354549
0.0562079459410873
0.00484761200523558
0.0239566357958228
-0.0144665222237434
0.103083937520396
-0.00742403243716537
0.0088024478262634
-0.0538777807586752
0.0413722485207336
0.0556589106765992
0.00608222087091711
-0.00216565941700815
-0.0165862851760043
0.0114955526501073
-0.0372956514787442
-0.0605069778078648
-0.010863940768146
0.0137619400310748
-0.0377698835103317
-0.00880765499670895
0.0187295544676124
-0.0559395052542461
0.0229284220011532
0.0217434687480007
-0.0430980407454647
-0.00700900087326118
0.00753771093728548
-0.0425909002883983
0.00704638025088696
0.0200509585303323
0.0699363792680797
0.0515120715215357
-0.0132721420510648
-0.0209670974224251
-0.0353962286818315
-0.0139672090936368
0.0559397867126752
-0.0166624454492455
-0.0354021649980927
-0.00155920043377873
0.0189744776056967
-0.0655199682321318
-0.0405382024774497
-0.0138756476741793
0.0424755363638168
-0.0421499276588601
-0.0198739649121716
0.039512169835986
-0.0716340777444485
-0.00955976988105017
-0.0626011088191054
0.00121062898498101
0.0456335548052589
-0.0574507111074435
0.0598040537735482
0.0433958119573009
-0.039489405947981
0.0529043002069907
-0.0754257234438041
0.0342087241513416
-0.0512797468887174
0.00684051519429163
-0.0415730965403606
-0.0108734269985716
0.0155159972516433
-0.0430867504041552
0.00312350813920373
-0.00328872819808575
0.000487497428018479
-0.0016320792358521
-0.0397856732084593
-0.0637789822367518
-0.0205094712177307
0.0124908053697854
0.0875395221345299
0.00715601093688743
0.0636139864468429
0.0436461081744338
0.0745514278858576
-0.0221536754285492
0.00174501643434668
-0.0067346016790345
-0.0185522638703775
0.000852204989290271
0.0125895622519154
0.0619387582740265
0.0311712627955145
-0.00880455769574918
-0.0347591624516444
-0.0308438347769747
-0.0400422618387437
-0.0434560030516214
-0.0230771063992622
-0.0302661102395424
-0.0444122151986885
0.00756714469405271
-0.0460518720099055
-0.0107259079784892
0.0245256164869815
0.0511413439716259
0.0676901894977649
-0.016298631742557
-0.0226841216676444
0.0260882605237925
-0.0317976190816518
0.0237981092837271
-0.00380086204062365
-0.0699174557437523
-5.84551323093876E-05
-0.0119221110648527
-0.0238889854940298
0.0216740663199103
0.0410698826392539
0.0145057209258495
0.0343877724305757
0.0230795446153543
-0.00876052985392949
0.0627340469930681
0.0629898970627167
0.0489019183073358
0.0208123781020283
-0.058446642926932
-0.0246611274027893
-0.0129069806896235
0.118165269353668
0.0505260738902232
0.0219073907011671
-0.0761154445385503
-0.0216858941644534
0.0847690589296833
-0.00550553007451766
0.0132358342348122
-0.00438423810686536
-0.00910214416870599
-0.0593109942244586
0.121489997325252
-0.0544549464073694
-0.0276101736152939
0.0319762552273559
0.0124412827584544
0.0303905936939082
-0.0177052999913447
0.0150080220707252
0.0158964151572099
-0.0348913726854118
-0.031439679032516
-0.0220131078422934
-0.0534291045514814
-0.015193811702073
0.0227658808055908
-0.00830177365088705
-0.0189954506862605
0.0568180276786641
-0.0382231960407925
-0.00297220520392084
0.0215617035287538
0.0309429968294804
-0.0131737578304124
0.0206531545415817
-0.000271580312293323
0.0174812654091366
0.0385591398051117
0.0682870136510023
0.00679649334819328
0.0335167881748793
0.0799615150828749
0.0161996125721484
0.0154992576288176
-0.0183273510408089
-0.013435607826445
0.0502172438230198
-0.0170805997587042
0.0481136792030323
0.0220568653062868
0.016493960649146
0.00795944341526961
0.0593935884758212
-0.00472807906492818
-0.0285758488745243
-0.00710544427856888
-0.0375803014344456
0.0693956405199235
0.0179855445163841
0.0122974050960192
0.0106256418802465
0.0359857958271011
0.0343726877080971
0.0593938532324329
-0.0207791791288788
-0.0188881882646677
-0.031682222786747
0.0292524545003358
-0.0143530191644553
0.0600764434123273
-0.0329705614137112
-0.0782685087945834
-0.0689870401976794
-0.0226256387875095
-0.049756083769444
0.0470049035380914
-0.0588454683461481
0.0437968390152226
0.016778530203169
0.0853497326836008
0.108556668178676
0.00199648312968618
-0.0242855324001074
-0.0112544724013987
-0.0340237383793623
0.00285883011965036
0.00612510081548158
-0.060148149408958
0.00127773202129736
-0.0110942548372377
-0.0340322719462257
-0.00377103507427055
-0.0488879595182047
0.0337905631861163
0.0355177650495749
0.0121506702161716
-0.0422711395877824
-0.0954294600248775
0.0030111381838164
0.00168343110981849
0.00785692740072693
0.0317269054589981
0.0338103910841527
0.0550483156010643
-0.000246192762160686
-0.0527586075372837
0.0421173230476496
0.00901348319747695
-0.00494598581048253
0.00163788844202561
-1.25207313903345E-05
-0.0696192185869698
-0.0207500803491513
0.0333297111119399
0.0221308799871476
-0.0156762525697537
-0.00280511382741057
0.0301334581340294
-0.0261052290936286
-0.0161769126989147
0.0224814470720467
0.021846437331605
0.00520659787610932
0.0341314949387418
-0.0183972509521793
-0.0663083854960589
0.00121392667666559
0.0626126692100698
-0.0171333723431413
0.00438499316883965
0.0377335285237216
0.0661607801538989
0.0440355122509498
0.0341658112128688
0.0371447705300247
-0.0313503871207376
-0.0749240968757898
-0.0377600809216522
-0.0152858633082018
0.027587905721883
0.0616950662434024
0.0390217629974312
0.115335410378955
-0.00359011898612557
-0.0215871429003348
0.0225002514446828
0.00440262367733988
-0.0320859130754065
0.00801998403589622
-0.00804563266695193
-0.00684565334639686
0.00516404956589903
0.0244180148340657
0.0164111842124374
0.0224917367901292
-0.023100646611369
-0.0251105226352592
-0.0378332362668891
-0.0157063597452193
0.0551762941104716
0.0131491258785028
-0.0227111394135174
0.0407260927001577
-0.00414119162359998
0.00214853127278344
0.0111808008038855
-0.0691053132346714
-0.013329037432428
-0.0560826960262817
-0.0370741689611604
-0.0145660614376038
-0.0149024564013109
-0.0102291605500483
0.0013547891663064
0.0684355525069345
0.0428091532952452
0.0209450082684647
-0.0114130529151571
-0.00544393979690556
0.0150849837030152
0.0131681592539524
-0.0242756527540841
0.0346711206078084
0.0182265396181261
0.00437651924827876
0.00256461919535597
-0.00895990665112332
-0.0311542583184707
-0.0731620405458209
0.00268274585271448
-0.0626796128990144
-0.0619003294990487
0.00413237315302512
-0.0613116275224414
0.0555974739093352
-0.000306774325620946
0.0256258169708303
-0.0697823679460757
-0.0199358096258198
0.00219492227199215
-0.025074055062932
0.0244191546166945
0.0730406132482083
-0.0323328841925362
-0.0495338734924574
0.0763458838777208
0.0199436090773997
-0.0210649888182307
-0.0442212474641736
0.0828099982742704
0.0211607578464117
-0.0323104395880001
0.166800280504445
-0.0713007885966942
0.00952715516037431
-0.0588087756039428
-0.0373330444816972
-0.0594890466492252
0.0252510558093012
0.00508351264543356
-0.0600472771934316
0.0057171290113375
-0.0717036508096813
-0.0293172357090591
0.0523241656660393
0.0602046293214851
-0.00921685304403221
0.0683121149659596
0.012446090211457
0.0192716228140659
0.0285712891799489
-0.0120902656032695
0.0151997195068066
0.0280413592634318
0.0380611196103817
0.0321342498201549
0.0141509958837795
0.0620939431246802
0.0171245315428524
0.0345389724202338
-0.0198044901203681
-0.00805388340481192
-0.0156213285571676
-0.0261281531503156
0.0340071039243664
0.000613787033127365
-0.00636774871732834
-0.0315632884184701
0.045713922797115
-0.00747634290319385
0.0129682846538835
0.0138128116475027
0.0324235758779014
0.0178449945728703
-0.0252462142229618
0.0038160426897762
-0.0267910406290884
0.0266041810525857
-0.00846281901733459
-0.0356365055444006
0.0245373904937721
-0.0107518150511554
0.0128610923437582
-0.0727839490576637
-0.0296581150131893
0.00646458036959137
0.0568786506348719
0.0323097383400101
0.038090663502275
0.0320396092842962
0.0912987957430116
-0.0065727941832049
-0.0787135031943598
-0.0770403639275734
0.0600310202260037
0.0475445836345836
-0.00510600495243296
-0.00521793150114807
-0.0140911102826234
-0.0120823805448836
0.0302546594663826
0.041492616155965
-0.0459826083611571
0.031652202959231
0.0353315807865072
-0.022271017516936
-0.00837126781960396
-0.000404233537806805
-0.0766232590821928
0.00786351901993184
-0.0270038842461646
-0.0443325237137524
0.0116392169791811
0.0228423351991153
0.0265464694433239
0.0360779334439216
-0.013549356636015
0.0044839817351516
-0.0226375195217052
0.00326477862397466
-0.0772327982748198
-0.0145115537016485
0.0227097861373901
-0.0725812014780015
0.00531062166686179
-0.0266488656904626
0.00641245057689368
0.00251127760842588
-0.00462734325414644
-0.0621342498224434
0.0331607824955542
0.0558595212820208
0.0535856799897984
-0.0342049192453353
-0.00366453456834022
0.00736498594070156
0.0918328817553114
0.00676120086897578
0.0507087304564469
-0.0446578831811017
-0.0513480483335377
0.0143960568191477
0.00833281159064997
0.0555535529515237
0.0206637898641484
5.0352576628267E-05
0.0239855025069608
-0.0539716621202923
0.0510402547013893
-0.000243475673655787
0.147362334705005
-0.0323468975696192
0.0629713780954456
0.0159378396622802
-0.0283059572352753
0.00431332380613757
-0.0236240387504385
0.0261874521902239
0.0627474731308293
0.0542862581607065
-0.0174003258618812
0.0223936038816357
-0.0281257585260627
-0.00744790584828639
-0.0114317091228248
0.0400453944117643
-0.00113588601176033
-0.0321159852680436
-0.0254013201008284
0.0390103697729598
-0.051872719561761
0.0312871622764981
0.0339094842865789
0.0395958464060582
-0.0469705962325186
-0.0420671620585929
-0.0182115271275406
0.0268772389796777
-0.0333726458499911
-0.00248895690914751
-0.100079519273466
-0.0344281637648447
-0.000736734929680822
0.0272079172449734
-0.0553886210652089
-0.00644691870352417
0.0109622764651078
0.00868799241793468
-0.00763377826298347
-0.0171003380262977
-0.026490029318203
-0.00433689035322822
0.0401487301410479
0.0116186197933189
0.0153950423538866
-0.010703909789406
-0.0095023051937055
-0.0199866820687529
-0.00471670086022398
0.00695048505006465
0.0614025183051615
-0.0259223003641057
-0.0144952587028519
0.0160459802495133
-0.0194269401960252
-0.00130669452011992
0.0581264701482909
0.0134931500272239
-0.0497478654878613
-0.0400828933921577
-0.0270921403642296
-0.0228133041924174
-0.0204667134895286
0.0042940063679206
0.0338892237441708
0.0254041805859756
-0.082705518264915
-0.0385183034359408
-0.0290428447860327
-0.0428302593524206
0.0368969496791102
0.0739342713772389
0.0462654981971811
-0.0223109125061489
0.0279227678890567
-0.0185150140857973
-0.010232006073388
-0.0537683092561056
0.0330192633919128
-0.0435614333965363
0.0588576613410357
0.0690386824841369
-0.0127041750881303
0.00164466527950821
0.0124352351789179
0.0497221418277964
0.00985762153790621
-0.0348231476087143
0.034679592811308
0.0480639403368122
-0.0179807432375856
0.0171707996586472
0.024660840681659
0.0352509387266741
-0.0027919779767444
-0.0616567762844682
-0.0147077280856086
0.0482431134303379
-0.0259949235123644
-0.0578020379992722
0.0500651431210556
0.0353636376370114
0.0253137848450822
0.0551816793734686
-0.0235512045685894
0.0391871494496751
-0.0290511301047952
0.0157464638193632
-0.00798180927084445
-0.0395072494330139
-0.0493650235111685
0.0358913250831468
-0.0571352387995585
-0.0520255976492417
-0.0595113688623431
0.0197759332643269
-0.0117263968801748
0.0082176619468447
0.0642342597810028
-0.0384078258239683
0.0263182858018641
-0.0386280627989007
-0.0478681775566223
0.00590027339340105
0.00263807631720792
0.00332313143842664
0.0143778194197971
-0.00460907425798456
0.0367666097563632
0.0452700797012833
0.0191433560594957
-0.00792656063364203
-0.0211711720521375
-0.0103514421515048
0.00460580609605924
0.0522971506020086
-0.0646322854264637
0.0400583326020858
0.00961911222200288
-0.0323073251155014
0.0204624066209889
0.00482420890451694
0.0069953292481325
-2.8339788931483E-05
0.0326539164052988
-0.0773728271148227
0.0446361780263638
-0.118389055685602
0.0192145726872109
0.0389481663406809
0.00222900038271024
0.024630088076933
-0.00780237343855954
-0.0420658824461578
0.020289123277094
-0.0362273811718197
-0.0350425796173117
-0.0294482478424161
0.0466083183375122
0.0217927726776565
-0.0498138773474432
0.00491535071185201
-0.030472655913718
-0.0767358472757257
0.0203345877402137
0.0149558503778944
0.00938503899443482
-0.0294964486800394
0.00318402902095366
-0.0219220587852949
0.053766791324954
0.0195964040039485
0.0420983522216594
-0.011300316864922
0.0370928398765062
0.0733380185873486
0.0313459617572574
0.0580337389956849
-0.0596934246872465
0.0593611716723828
-0.0406711374389356
-0.0163408928012843
-0.0191537095565471
0.0145926183282732
0.0448191712849248
0.035623312625093
0.105286850808676
-0.0154828473623209
-0.0120851855098162
0.0769161736665672
-0.0226970204513445
0.0371510542778521
0.00673697693802787
-0.00538812432235182
0.00223944034445721
0.0325601944179743
0.0512164964843154
-0.046079528211574
0.0109947283602575
0.00946756110930921
-0.0217186423357043
-0.0522240257656652
-0.0118655974388219
0.0422925059843984
0.0279009704620558
-0.0582617883537225
-0.0302086222446055
-0.0267196346215801
-0.0365466921063388
0.00614023440611232
-0.019072358409304
0.0685307950820541
0.0208363929752158
-0.00712760670478039
-0.0638574610625647
-0.00987049181019998
-0.0229802758092712
0.00973177138993402
-0.0542329902771767
0.0168257724957702
0.0700985494357608
-0.0183070864719951
-0.0109185283040194
0.0113950877116243
0.0671572454993773
0.0134750880361503
-0.0297109404266141
0.000983988839742865
0.0317753442493325
0.0295259362404845
0.00419549278005658
0.0211533724849792
0.00869485436080032
0.000119687281758837
-0.0287657763656907
0.0280387699747864
-0.00704875289106267
0.0091450082518468
0.000175442915692171
-0.0444392588564182
-0.0042481903133188
0.00159678522733604
-0.00685921817733469
-0.00127158994378987
-0.0320169161180253
0.0520555150193928
-0.00351065333626937
-0.0437075088804504
-0.0146902475027799
0.0511947386569693
-0.00487676466739462
0.0101315773036563
-0.00027262997326484
0.0355841505453737
-0.0212507927754965
-0.013637853474672
0.0312721580277608
0.0176568211003257
0.0300021102000111
0.0498129244976482
-0.00309365284252638
-0.0471456397918527
-0.0255702091986936
-0.00436358238102639
0.0369727511180436
0.0188293092146493
0.054907874134395
0.0177354591798539
0.0226192383070146
0.0212107409045788
-0.02176123253075
0.00200355176390818
0.0543095804133154
-0.0153068971618035
-0.0512925520694721
-0.00836943075548116
-0.00828014356574707
-0.00507428087848696
0.0135533864633237
-0.0215464376620902
0.0175575656826185
0.011811039142545
-0.0391135924375562
-0.00544298049461371
0.0256829508417281
0.0262673036833049
-0.0356993081248478
0.000612233630513615
0.0220323366677873
0.00397208730953615
-0.0213398140764076
-0.0623033487844386
-0.0428834116759299
0.0402211116246347
-0.0367650321485139
-0.0829323637305043
-0.0372269051760327
0.0368706422604571
-0.0692268447373803
0.00607699066719936
-0.0344489236568519
-0.0342255296019253
-0.00683347077072394
-0.066201428000643
0.00391307277125189
-0.0397535346912003
0.0467796478701649
0.0149167548620305
0.00886195045616002
-0.00176144745626281
-0.0329000611877127
-0.00478631671389478
0.0305015070822718
-0.0254091586813113
-0.0349409629968617
-0.00304582382982492
0.0365398011553305
0.0648805006035301
0.0231091322480109
-0.0263590855985687
-0.0316325006212197
-0.0532068831945267
0.0182482986692745
0.0504688306499513
0.0570107102563337
0.0174469106483005
0.0222634560657297
-0.0520178814255716
-0.0251031624379422
-0.03217997910903
0.0170283487143416
0.0342353332970088
0.0760823584916159
0.00286872904101124
0.0622746513996149
-0.0257292281138534
0.0488497769870456
0.00126865940928066
0.0169517236756434
0.0234593622147718
-0.00538140139815268
0.00804059465301946
0.0765858996969936
0.0394394117473621
0.00959703690265721
0.0266812115837989
-0.018800629859077
0.0142238506008855
-0.0499466101730644
-0.00618467351976105
0.0211020820112712
-0.00102646643502916
-0.0233542090509949
-0.0174840589222742
-0.0451555901341715
0.0390493126770366
0.0215164665965266
0.0632367725939777
0.0128165702241869
-0.0566673664638775
-0.00276418901389732
-0.0651399265844246
0.0167370121186281
0.00621621040605208
-0.0566432992583798
0.000602805375002914
0.0317351656956166
0.0176278902910966
-0.0350368595870692
0.00668789691716581
-0.0208868900965247
0.0260057531187322
-0.00500839464200206
-0.00740926917393111
-0.0106974177192741
-0.037044927151491
-0.00312428408121854
-0.0288739378361585
0.0445766809829685
-0.00140611016789885
0.0707393208994831
0.00565672917643218
-0.0176346827016582
-0.0199718596917341
-0.0243337756622744
0.00340522321229001
0.0318649289210669
0.0360926115421777
-0.000156881296146109
-0.00162173940380912
0.0278329363233984
-0.0301840169612498
-0.000423501834139276
-0.0147522439692019
-0.0227447465435063
0.0415526448163457
-0.00890441174059394
0.110988439031635
-0.0584244974093644
0.00668961822463783
-0.0778361700206869
0.0171709208538129
-0.00939417914363173
0.0115400985692791
0.0227891348391817
0.0699199399064914
0.0348123212276803
-0.0499352530735814
-0.0283006402651882
0.0328417776318965
-0.101894578867235
0.00938897164185811
0.0205738179256187
0.00248306043062653
-0.00876407698705479
0.00344275987694703
-0.0247081186494948
-0.00675814514195945
-0.00993447071687192
-0.00584668736511252
0.0243201429204525
-0.00343382764372982
-0.0267889442335136
-0.0463696493492498
0.0275492470162529
-0.0192847585016736
0.04162779080396
0.103121496399568
-0.0156137249437275
0.0291912670083697
-0.0206388046200292
-0.0518112243199133
0.0878217082016549
0.0248560269726011
0.033885926661697
0.0245183255305801
-0.0290975824731993
-0.00683163360109648
0.0179234873948036
-0.0227856522358964
-0.0454824251422082
-0.0088409138945854
-0.0170818856926413
0.031753850938876
-0.0110954861050443
-0.093280316773381
-0.00916238704443723
0.0184705828931633
0.0711484994846598
0.0306472967684881
-0.0572334456588216
0.0416748905193552
-0.00892499661859114
-0.00938966383496672
0.0176899599190672
-0.0207915173060827
0.0107206825705318
-0.0220738365952371
0.0536057659449884
0.0137142022410563
-0.00805244077673711
-0.0261695938552172
-0.0155754793849561
0.0437274725417077
-0.0224224543824007
-0.0373719281283423
0.0244814462137367
0.0252494279563058
0.0136371370042918
-0.0778273321253679
0.0103111601326035
0.00913733801801324
0.0197785387573517
-0.0217747503393245
-0.0392232836195511
-0.0474208951154844
0.0142622196072229
-0.014259784829657
0.00927480207027084
0.0921741846861862
-0.0475611801146448
-0.0225380111813634
-0.0107233589815131
-0.015412090906058
-0.0341193722533815
-0.0208547233560554
-0.0473180644567249
0.00896822882942857
0.00118610576924451
-0.0206211388972288
0.016926620286347
0.0348965279467514
-0.0628295412474441
-0.0143945748713692
-0.0472110805872166
0.0136559505236981
-0.0453400924575765
-0.0325258710112354
-0.0324525934225193
0.0277447894695471
-0.0320585646434589
-0.0494151527172103
-0.0518593920044781
0.0255744312403668
0.0249578767920424
0.0128548619970453
0.0235771288479015
0.0321447764074896
0.0519790769427594
0.0244772234838635
0.0101976299708088
-0.0400506630649709
0.011441180967278
-0.0105119096348939
-0.0330218148168416
-0.00575829675336347
0.0330051574998868
0.044901383210361
-0.00675220527555514
0.00993292781153586
-0.0410029922199982
-0.0176974285512955
-0.00922835306745848
0.0558962959210609
0.0498113884715638
0.0197520858441724
0.0605656430017524
-0.0191353520475256
-0.0118039437429326
-0.0410372502246727
-0.02870269773635
0.0143366614906283
-0.00963037218817616
0.0131610986227535
0.0103796300453792
0.0457624126626767
0.0404667100146593
0.00577371384877141
-0.01586998612315
0.00451209008402131
-0.0449753467917301
0.0300617935813615
-0.0556350333740415
0.0249857683078569
-0.0154548902107611
0.00540119513495134
-0.00546402387972854
-0.0117387039979325
-0.00405912181263945
-0.00627815820592884
-0.0139316833298358
0.028385709969398
0.0664657477002311
-0.0279392920280347
0.00155890645255743
-0.0141853313399107
0.0209508401706969
-0.0271410496915304
-0.0289661279245098
-0.0423096237615057
-0.0560912846639317
0.0335268023032217
-0.0443138665787713
-0.0018726094050835
0.0335820626780826
-0.0070725552842802
-0.0599771076233554
0.0583512146007435
0.0139749510292176
-0.00751302514487458
-0.036111885709035
0.0321121417926302
0.0279083966184857
-0.000471248887594291
0.0223664999905256
0.0145162757453777
-0.0206162173475455
0.0146719258753847
-0.00732132473311855
0.0156611443112776
0.0263772197221101
0.0166038212475802
0.0383304873253857
-0.0321764428390344
-0.000412171446805865
-0.0526206727150828
0.0186927285619484
0.0440580648000144
0.0774409711882447
0.0316961504423406
0.0128046455162133
0.0163851630569765
-0.0415372589664519
0.0132208716311585
0.0682030278968212
-0.0101257917711088
-0.015971397993522
0.0296684817427737
0.0289103453848422
-0.00618303139561487
-0.0179550045398388
-0.0331730522565028
0.0159622459436476
0.0240689457167183
0.0137913827504811
0.0847921328210944
-0.00413530431273913
0.0406040940176805
-0.0143598276653041
-0.0431862757480073
0.0570784610205673
-0.0248320707221186
-0.0119258437955705
0.0535831076398306
0.0672884128256692
-0.00824160224756513
0.0161602206320075
0.00996061997640113
-0.0124436589384098
0.0067580440721228
-0.034801675437688
-0.0178527851653176
-0.0677884096871572
-0.0466850821803365
-0.015097092285482
-0.0551201816839161
-0.00439973712193467
0.0326855088251801
-0.021352433530765
0.0605445140261004
0.00281296409871075
0.0388951178121131
0.00970155769483064
0.0257956459939319
0.0331166340535331
0.0302417400045103
0.0430862218938212
-0.0177245422433557
0.0292698761217871
-0.0322247576560956
0.0321905574791923
0.0564856674766759
0.0274876064865531
0.000620107941640311
0.0120919479025533
-0.0146553315248575
0.0430320260075378
-0.0435495806694823
-0.0531698863992237
0.00863504879615026
-0.0547011168257889
-0.0160142437635252
-0.0119822672463532
-0.0480310072028942
-0.043031453834601
0.00221296884484632
0.04677702281727
-0.0530582134453532
0.0410959905978546
-0.0741551078359696
0.084534681406036
-0.0102535354134601
0.00531500041429453
0.0159805889866927
0.0729571718474276
-0.0454060410066502
0.0324904783183547
0.00891958275588486
0.00495226640818262
0.0129372087350084
0.0276175922281781
0.0429840376863614
-0.0503429798537488
0.0554337984482172
0.0169303460530065
0.0454431707918382
0.0325876530995526
-0.083951426471311
-0.0375629597183916
0.0794127517102472
0.0708007893145429
-0.0299398555501487
0.050699792955444
0.000772916863404112
-0.021852703702196
-0.083522991410051
-0.0245001678693935
-0.00782725328820235
0.0161106468639414
-0.0213496237495948
-0.0202561807090888
-0.00901213523293507
0.0917491173600818
-0.0385881391464204
0.00608585568522313
-0.0726079083859113
-0.0271442766892524
0.00090936542095488
-0.0361783930412131
0.013746330325512
0.093425134703751
-0.0160298873741587
0.0204120000122644
-0.0194956452681117
0.0469529217595584
-0.00160908612672374
0.0459774311811934
0.00442726797352425
0.0197089247471856
-0.0197259172635783
-0.00159294589027236
0.0154644275138619
0.038067895863754
-0.0421298414353991
0.00195377061927696
0.041775579392122
-0.0510795278590348
-0.00815488499276067
0.0126141942855098
-0.0410814100058541
0.0234425059642732
0.0344420637712132
0.0627242705198024
-0.00215006817819159
0.00145209370890756
0.0251584398082567
0.0110174776042293
0.0576784893080466
0.032944222107425
0.0494269818721543
0.00722653050580455
-0.0202747837354047
-0.0234597842783113
0.0335748293527748
-0.0092647112364241
-0.0177791200374695
0.0139787030936501
-0.0212645030060615
0.0173915725992906
0.0384777113540926
0.0082193711537363
0.0112433220298294
-0.0123803045687674
0.057735966653486
-0.00718689929627333
-0.00680160256272661
0.0355454474700885
0.033757233978855
-0.0333091113054863
0.0473859597674644
0.0365788895432549
0.0533708145756895
0.0137056533815933
-0.033568968519199
0.00948919586827082
0.0219308924678049
-0.0126765832147204
-0.00539306064381666
0.0330441112835517
-0.0337471616244753
0.0118446075215247
0.0387755326211472
-0.00628390480202106
-0.0307411224544811
0.040778549747786
-0.00864536088683617
0.0717711964954094
0.0137838629315155
0.0331957430136123
-0.00644333418881157
0.0265811770084165
0.0400081805982292
-0.0241773280380744
-0.00551467244518358
0.0211065436512223
0.0281465688143164
-0.0409335127755656
0.0154905594843578
0.00214946851367201
-0.0295464887448912
-0.0311115035332937
-7.84928254747944E-05
0.0318942481442739
-0.0703095674435743
0.00321045404028575
0.0512422625596097
-0.0163263166982722
0.0387477300393169
0.0146736255181462
0.0453945633973065
0.0512005233160309
0.0673157276032646
-0.0261601561909512
0.017256200888411
-0.0429780759013844
0.0359894612385411
-0.0374362918777251
-0.0151138083779495
0.00198248610093651
-0.0194869941323304
-0.0260820016439059
-0.0321290454585233
0.00198943918601307
-0.00622840027500126
-0.00725909525775437
-0.0221755631398262
-0.0119906658796921
0.025328701494086
-0.00411188102524782
-0.00498478580523363
-0.0296400561956657
0.0378992183394889
0.0222722800156554
0.0117801461154667
-0.0408389678152501
-0.0440838128316532
-0.0439671664109104
0.00163121142319892
0.0207086460737925
0.0103317434780688
-0.0241990326249609
-0.0152258353837487
0.00667325240275509
0.0325028889505478
-0.0028268398817539
0.0178221772795327
-0.0605516151110064
-0.000911677200854503
0.0136513965747974
-0.0628974918648348
0.0315027003808963
0.0555746664493414
0.044321624309405
-0.0729191957802218
0.0260398533966149
0.0180371572491658
-0.0190381051381003
-0.0218437245708092
0.0344281812835545
0.0203912830444832
-0.0346853729015475
0.0686462009173806
-0.0299852943454159
-0.00675840872364934
-0.010331754704001
0.0087341590594038
-0.064670127345658
-0.0422692525821974
-0.00389153178408531
0.0310280422948114
-0.0112695653271793
-0.00648266045149301
0.0411181061175445
0.0187198244839027
0.0813488762728262
0.0322820236507097
-0.0124658631141483
-0.0303590990103973
0.0166589618473679
-0.0123428001536816
-0.0127561774069703
-0.00423408985385421
-0.0136457833268208
-0.0523164923674184
0.0251982884829652
0.0324676120073169
0.0144238001995505
-0.029940023970428
0.0262500824056474
-0.00690068667463053
-0.0568960601132901
-0.00599323866604101
-0.0999873823627472
0.0339154427508999
-0.0212065880874448
-0.0281054757233335
-0.00490966857739786
0.0742909695551154
0.0100223807653732
-0.026423771359967
0.00639781321755568
0.00152414865951666
0.0437241974257173
-0.054008269781384
-0.0479571378663216
-0.0126230469005048
0.0324719888667262
-0.0264141675709974
0.0244804697045827
0.0216306249760335
-0.0521857522740641
-0.0527042037677643
0.0183230410550389
-0.0191113862258747
0.0428809683730273
-0.0211347544471589
0.048233889361248
0.0379405793444736
-0.000354825766114519
-0.035542354188994
0.0262856032400648
-0.0733676242800961
-0.0158679936162494
0.0299569611236248
0.0104690577100725
0.035123705432494
-0.000321745292017495
0.0353062420375843
-0.0170131623187988
-0.0466455697162005
0.0269502656309519
0.0306940367197601
0.00184511542143757
-0.0351197551667977
0.0146530561169627
-0.0338152390733742
-0.0325909647410422
-0.0493821042649752
0.00993324929011009
-0.00619254441089665
0.0512183699340154
-0.0447385080203553
0.015409420083089
-0.0366992026972108
0.0246819942921971
0.0404846679919302
-0.0126859109124059
0.0380704941533551
-0.0159226607382817
-0.0155962950978326
-0.0703236738747498
0.00170968633426598
-0.0141764968979488
0.049514247481143
-0.0261579230203089
0.00500557285860139
0.0123216695431262
0.0393339082272911
-0.0173155189433844
0.0057211820793356
-0.0596562802754917
-0.0760433111594104
0.0207963987685653
-0.0249354432510051
-0.0327953677567853
-0.0108572658853731
-0.00525094090584168
0.000956809381958643
0.00602515482419957
-0.00617589161395261
0.0515729183486564
0.0627533300105438
-0.00842880078776827
0.00376247354442663
0.0204168588499456
0.00261411845645898
0.00951474281085657
0.0166967329478056
-0.00477247311028866
-0.0885747759232316
-0.0582346114052495
0.00953780056694217
-0.0276759729238098
-0.0746243258759655
-0.0211766856669538
-0.0855394373313673
0.0142782798620812
-0.0419798072884836
-0.0415293073748708
-0.0928597442086597
0.0197552843642224
0.102746418562414
0.0117953933530347
-0.0374813180654565
-0.0200277093093466
-0.0326338181612713
0.0128177015112523
0.00498165900665687
0.0497255329918707
-0.0433813360130064
0.0497046035382431
-0.0266256875180781
0.0157718628804219
-0.00535877046538653
-0.0794477292543709
-0.00164488184349325
0.0217265460679947
0.0503912899143976
-0.0169910013484367
-0.0131596306102795
0.0404858811583987
-0.059631020933067
-0.0301887280122221
0.0710059406891958
-0.0178366255930545
0.0158948501809566
0.0354216499565415
0.00226081201472064
0.0650916690073915
0.0251726377896881
-0.0372730223531784
0.0145948437614987
-0.00208948931034694
0.0589800533578774
0.0226836860371512
-0.0142330618328467
-0.0243439449162844
-0.0258121852085659
0.107573668031487
0.0310357773224903
0.0338021752488526
0.0668281999019075
0.0264166607182555
-0.0315003656097266
0.0460442856173571
-0.0449027816668689
-0.0211537747572849
-0.144281791156443
0.00565491955757976
-0.058400717367204
0.0938967066753275
-0.0275304134882665
-0.0627330650166094
-0.0805571693178876
5.346464248217E-05
0.0244368467055704
0.0722263153931979
0.0570298441164815
0.0161309735801681
0.0159208619287174
0.0518451938604647
0.124902869320242
-0.0194639830796423
-0.0876787881453776
-0.0369104866039529
0.00581377667138022
0.0212969597024373
0.0537085445415759
-0.0800681441830525
-0.0313339740833474
-0.0408245141184148
0.0304020940263876
0.0409969008191812
0.0376429281294344
-0.00382740623317437
-0.030580586236497
0.0286684923146708
-0.0127249239132172
0.0872611650228214
-0.00659581284486507
-0.0922938927000462
0.00424691779103038
0.0582965653647251
0.00190556598081748
-0.0493232320154029
-0.00603595790619361
0.0279846294260003
-0.0141778333609777
-0.00931778738478364
0.00269496342081422
-0.0438818245313404
-0.0322803487998975
-0.0320400713956643
-0.0154039780818392
0.064119637152805
-0.0798583955161724
-0.024917119170668
-0.0782957592587365
0.0293486512346744
-0.0353300176026056
0.170879063791087
0.102322559365659
-0.0831148432599107
-0.101387461685446
-0.108523934435546
0.0881354854338687
0.0599744341465353
0.0118886507516211
0.122328565456816
-0.01515477299067
0.162353826622426
0.202167913773859
-0.0598624843854853
-0.0133280807847771
-0.0679149466702031
0.0868328466167268
0.0110895568635298
0.0839985762560369
-0.064807671565342
0.0343560028699779
0.0536939044640074
0.0144179658258878
0.0230929966557752
0.0266981925537869
-0.0161312491661397
-0.0354720489853859
0.0577691683498226
-0.0100755131107104
0.00754093874743103
0.0352857156802185
0.0724914226400572
0.0125821005988425
0.0318588788443047
-0.0826159779657679
-0.0735795719399955
0.050179852910478
-0.0562180539735212
-0.0306077989563757
0.0504917189638171
-0.0758381686093326
-0.0961803888817593
0.0613545548497254
0.0629515251834131
0.0633888795045355
0.0592224953024821
-0.0804547887273021
0.00907242017120035
0.00799822896529957
0.0229984816882811
0.000486577218157948
0.0791702129529104
0.0290927166998987
-0.0967139619761909
-0.152397266444254
-0.0467946237272582
0.0727204821922767
-0.010848561264086
0.0677669460822214
0.110313638465291
0.0408273557548374
0.0910195708777167
0.0996331881580807
-0.1093303485131
0.0206847886125367
-0.00454903411662149
-0.0120764149531856
-0.00485820390695117
0.317551130708316
0.0107836759155977
0.0282818688340149
0.041001047509663
-0.0426111076472846
0.0235225144240255
-0.0011219949741867
-0.047605054944597
-0.0343361248354284
0.0699699455673662
0.0233758571612249
0.0306423738180257
-0.0693809774302206
0.234668895884981
0.0751508736014602
0.0577927864347639
0.027108388014492
-0.039750104576045
0.0434623271301267
-0.0614389240921419
-0.0213994064417923
0.195174158065669
-0.000828547608156815
-0.000315552699899997
0.00421859166646655
0.0978966226362931
0.0248545381095719
0.0738107828042286
0.0219867753843663
-0.0232874609804941
-0.162293565750015
-0.11263907991291
0.00903678727229766
0.1739613644676
0.0501527135179749
-0.130494653640252
-0.0646705829758236
0.0382190988308354
0.0159905451789266
0.129091460781327
-0.00915259673531922
0.096710144929323
-0.0598898305942108
0.113344745921528
0.0619051753104192
-0.0884789919322148
0.0407582372762891
0.0637978278510686
0.00393063367803353
0.0289610438411656
0.309327692339354
-0.0950641689596044
-0.0570928383886242
-0.00601947882077457
-0.0248270651528606
-0.0469151348051283
0.0230388065536167
0.0552453808598614
-0.103909063108876
-0.05402028233834
0.00982715256341206
-0.0619178035009639
-0.0401465657080784
0.140442834025619
0.0569120473029813
0.0235087823511694
0.145211026705778
0.00136358058956148
-0.0211011170825877
-0.0488182201283588
-0.0577749547664915
0.166935526840423
-0.0203060612066902
-0.00301550555551085
-0.00592516536216215
0.0533186144089406
0.0507177218981132
0.0906350953233825
-0.0873141614511569
-0.0479658921658829
-0.148349472061396
-0.152915127709441
-0.0534835753207711
0.0808914653497096
-0.00222388412836493
-0.114026808965307
-0.0260867286926921
-0.0959122784507278
0.0314117150604581
0.0763678480391616
-0.0112198662301773
0.0428336155640439
-0.145784847152977
0.125071435896192
0.0657165198994472
-0.102665709300593
-0.0130525975186841
0.0580498005396895
-0.0569553402526558
-0.0381507219973385
0.200982620436175
-0.110233218595909
0.00541356220647335
0.0166826676140873
0.0509486151769507
0.0228404805510156
0.0128515927636347
-0.0125291843106312
-0.0981343528575516
0.00651141230244795
-0.0447658756784364
0.09092174106335
0.0416768604373811
0.042892455083779
-0.00521678655731004
0.00347634630482229
0.140804303903733
-0.0508951239899292
-0.0773182731444934
-0.0573703014763497
-0.0478676474601894
0.014322121563875
0.0536459535454873
0.000872091700826095
-0.0389658810718678
-0.0334461395074334
0.0900761987287662
0.103272776323586
-0.0516661946869408
-0.00246947502871488
-0.0628526683478639
-0.0337833469046179
-0.01804947679417
0.114516204892892
-0.0622934764884617
-0.0720430963862789
-0.0551605865925053
-0.022682444522995
0.0368762688346459
-0.0253557097156294
0.0478818812728453
-0.00604476676790453
-0.200363490879788
0.102275200716323
0.0450047717422508
-0.0394592861953984
0.0118919771164062
-0.00323575790058308
-0.00420480458937866
-0.0172903887129577
0.0731337057384103
-0.0117367002733032
0.0382076799057087
0.100014780680669
-0.0244005053995258
0.0209805948204556
0.0414271579192282
-0.000158393957790093
-0.0791886772588965
0.0443461076194566
-0.000903032533979938
0.131374559889213
-0.049603988338237
0.0498881176908732
0.0359128174341661
-0.0549222601581825
0.151848675624635
-0.0523689197904828
-0.0742417728425413
-0.0730008620017353
0.0325693412257083
0.0364350651875563
-0.0247048881997446
-0.16131325556142
-0.0296357925890293
-0.0172393127056615
0.0311267243420536
0.00899161604247969
-0.0606813960745588
-0.0123926620037495
-0.0386103175744071
-0.0126990825936563
-0.0187385051287748
0.105324988708243
-0.012445293826236
0.0733623772528543
-0.0905735781282517
0.0419019738530593
0.0694887759381685
0.0502858217618574
0.0163298225660059
0.0513147520957586
-0.0472128067446032
0.115827618113014
0.013494542307874
0.0449427582967794
-0.030023706811157
-0.00474895590592486
0.0400434563255945
-0.00135678816738358
0.0692380579816998
0.0966715378482898
0.0332818836287581
0.0314172115851957
-0.012995288888131
-0.0519599926100326
0.0437881229261757
0.0332252839755707
-0.0482132203701262
0.0713488787933034
0.0385272248363003
0.111305141916175
-0.0527876415474048
0.0690289240663386
0.111354398797659
-0.025808060149979
0.153094117252944
-0.0305412312044283
-0.0672743847468489
-0.0896030555797474
0.0040113418208224
0.0268103580352057
0.0289942559647235
0.0439830152758955
-0.0628210159359051
0.055595316843151
-0.0525096355092378
0.0730686316773663
-0.0886173247672747
0.0273867261216875
-0.104582589535784
-0.0440124744296522
-0.038474265308718
0.139530109405066
-0.0272460115743344
0.0886976350306427
-0.128365916200821
0.0652902374591817
-0.0208204274151576
0.0916403234535544
-0.0371042136378765
0.019444500607517
-0.0942081803141333
0.0646421013106175
-0.0241543534003877
0.0233434220197695
0.0648645395151878
0.00529856776206607
-0.0244239148187623
-0.0533990585507287
0.142469391778034
-0.0828168974349615
0.0521223666518636
0.00728346243540444
-0.0192273102337331
-0.0961482466670755
0.00395470497822438
-0.0223160956314627
-0.0247745427159058
0.0320017511135684
0.0111435087183394
0.129559165358174
0.0165833122795032
0.163821695971152
0.0668663490759947
-0.00662340430586718
0.24464291228059
-0.0607295337240728
-0.026388118537431
-0.0282253008346535
0.0315571209494723
-0.00132120704532438
0.0441039467890159
-0.0896176421843818
0.0328032194657979
0.0383531873869356
0.0187850364036807
-0.00549451418453344
-0.154826268239146
-0.0822957174361473
-0.124983537553318
-0.128754835483397
-0.0416705058497159
0.0723050101211078
0.0595106471392549
-0.0188026982733358
-0.0330718681681895
0.000603038667281901
-0.079747373674407
0.0367666938842372
0.000201934723838234
-0.0144939977930844
-0.161700239510182
0.151261495926124
0.04862562456131
-0.0531866154526553
0.0148640014072908
0.0353160127759488
0.0265448250369484
-0.0212985936829266
0.18297132289335
-0.126716119463096
-0.0105662522828625
-0.00631581686412205
0.0568232741607067
-0.0755343743439437
0.00770972530527369
-0.064591793951568
-0.0346928100697
-0.00330402077006148
0.036909709495853
0.0813790183534455
-0.0263097829528418
0.185097711452293
0.126758278704839
0.0533345976468261
0.083828153261105
-0.0589343374112755
0.00461801141532681
-0.03874218998787
-0.00135133129494337
-0.0464487299941487
-0.0206101567973839
-9.01479665672718E-06
0.0425674678666101
-0.00947716411698964
0.0350805164534172
0.0698773584402093
-0.124072219881118
0.0174391955371915
-0.0698782402862087
-0.102991643008422
-0.0194477482185146
0.0838752318989385
0.105354969409656
-0.0154009900872172
0.00586914855697466
-0.0051146268649997
-0.106500969974328
0.056229252426804
-0.0116611434150744
-0.0529896162933012
-0.0136620320379788
0.00275325169701667
0.00809344548113084
-0.0227561137285384
-0.0651916516160431
0.0268346868846328
0.087078343589961
-0.0220434070963748
0.188951953171134
-0.00694328795850128
0.0229768866610474
-0.116785216579982
-0.0115120108400033
-0.0148308507518881
0.0197480591990175
0.0522105255368131
-0.0408017004014745
-0.00359538665268014
0.0335846960457963
0.00690221026367166
-0.0341885299743085
0.0754701263142705
0.130851741029112
-0.0083557691905272
0.09270402586099
-0.0664729426149829
-0.0428228946697414
-0.0825154917457579
-0.0286917903128993
0.00262922204955662
-0.0300401189901858
-0.0195771870349605
0.0542248132292422
0.00808509105721383
0.0968995924791943
-0.0321384650124887
-0.0031147832535545
-0.0595703693404144
0.0645134142041954
-0.084193230709438
-0.0585990936674866
0.0578668280946051
0.0323679056545482
-0.01250204253519
-0.000940180497724816
-0.0508043254106447
-0.0364205270012977
0.0597169875512989
0.0332540427078102
-0.0753290822918623
-0.0155995076597808
0.0175584558746531
0.0426071086795692
0.0155926849418807
-0.0135737681720819
0.0965261793052365
0.0274791416866848
0.0210904622695282
0.132721971452235
-0.0988662398773502
-0.0235971724636811
-0.0460154286216288
-0.0480077628294398
-0.000232602792000894
-0.00653581110652848
0.00376230094878444
-0.0124057616071993
0.00656374268794341
-0.058711784755561
0.0884153361492131
0.039806889371267
0.055206523525404
0.0554185178965439
0.0324650293562608
0.166958829951392
-0.0392131712709462
0.0411240796337993
-0.0713456957272218
-0.0138790440909233
0.00500640897022188
-0.0453258134176123
-0.0135018617842006
0.0386748283939899
-0.060831908974911
-0.00915229040835238
0.0162560417904057
0.0140035129895606
0.0469681900051493
-0.00783600977496618
-0.00227997140892058
-0.0578331950987641
0.109364688953417
0.0633208918587999
-0.0218502479023905
0.00854574678387252
-0.0772265833592279
-0.0310356752557783
-0.0288395668670228
0.00493947053104087
-0.0139838489324489
-0.0380303098164514
0.00616450454685065
0.0106759736032863
0.0365340123237162
-0.0778683976971419
-0.0297528314544241
-0.0228689389290555
-0.0228907574352629
0.0432472331203229
0.0505061800767014
0.0568951242313296
0.0216406544476718
-0.00858846990262135
-0.00362561951081787
0.0744066308524094
0.0055363939663976
0.0314426094973806
0.020732783587406
0.0637053787501599
0.0871115952785223
0.0448325419751488
0.0434993443737456
0.116445553466378
-0.000450899173093631
0.225350795334974
-0.0121920592986035
-0.0398240151713979
-0.0505373144754792
0.00298890395109857
0.0200713361449532
-0.000946820526172553
-0.0533277425178672
-0.00748288210238353
0.0623206172152447
0.0335026326098399
0.0187465447568034
-0.0291921491220188
0.021394146653474
0.0192054347413333
-0.0689655806693135
0.0340083978172543
0.083751749796519
0.175745978150294
0.0150171251419906
-0.00454460882559819
-0.0659441492402464
0.0051428106837451
0.0270717521122716
-0.072361059867623
0.0108648409698393
-0.0393222389238632
0.00352287190444158
-0.0154845394742562
-0.010718540545031
-0.0143900983405813
-0.0375591892172025
-0.0319522886504523
0.0415019834186125
0.0649338649417938
-0.0330422056878354
0.0514109045453151
-0.0147311254193898
0.0821144608785103
-0.0247283549795983
0.0113575798793876
-0.0691081769189173
-0.0167477021171762
0.0083861429024661
-0.00311727841233383
0.0754828712785764
0.0370741758487105
-0.0395045117530544
-0.0352849455979656
0.050654613418274
0.0440885895413994
-0.0101567384776293
-0.0176520466683892
-0.023486888137655
-0.000792367761366576
0.0331817363469837
0.0420827718148023
0.0303419147316716
0.105041103465394
0.0206138503355338
-0.0125239158155678
0.00277053042048459
-0.0119621368407451
0.0348938248573704
-0.0337810795174808
0.0243578831532013
0.00326656642341919
0.0376373790996531
0.0783565283364847
0.0535516203648288
-0.0404124984356997
0.00178980774892556
0.00181533660902276
0.00953516976010353
-0.0896232807940687
0.000998868812374298
-0.0308135804625805
0.0559416056197499
0.0283853400531423
0.022743760234668
-0.0273358979291627
0.00220051150422462
0.0154096122793738
0.0236882943372466
-0.00145898416806521
-0.0112817586477707
-0.0282887137329895
0.0235165417555123
0.00783617115016087
0.0011211482374612
0.025403475600035
0.0505382057157391
-0.0288229063549386
-0.0105250499322326
0.0322564378353903
-0.0095171406891878
-0.0364770859166074
0.0576542234699688
0.00372913228502317
0.00529440815134598
0.0288442450854583
0.0163502796398895
0.0138740710427679
-0.0167018224675212
0.0527982904237299
-0.0373022993278307
-0.0473346631356775
0.0464221735633146
-0.0129470156932527
0.0087463009436543
-0.0445555909720498
0.0128640346440648
-0.00184132553607507
0.0533537964280563
0.041179406011102
-0.0476097458081057
0.0245923209474165
0.0410188095870199
0.0313636783220091
-0.0225331995303738
0.00803753355386057
0.0362992097178568
-0.0115513184216547
-0.0380761080963535
0.0484301195112384
0.0187817157805075
-0.0337584254955068
-0.0343421261494859
0.00860994334314141
-0.0394715288267907
-0.00561722129460472
-0.0237547592137897
-0.0436285609200692
0.0411052835702124
0.0575087891372506
0.0542035912423901
-0.0609305126528351
0.0650873221638895
-0.0266054584657348
0.00591479386821613
0.0306366691227069
-0.00671276149382065
-0.0498562710972211
-0.0469035902255098
-0.018250583161097
0.01144814496311
-0.0428573082336828
0.00152069778095573
-0.0225904786704733
0.0835150197742433
0.0369159611547028
0.0359323327936205
-0.0137182947878893
-0.00249728362047306
0.0144689469160765
0.025763621703025
-0.00196148229926478
-0.032124033925804
-0.0406765843588791
0.00121746914740414
-0.0518749954316492
0.0201605593460206
0.030009628894115
0.00819800696408193
-0.0138629620752859
0.0222592339199942
0.0383599930213641
0.0391672564872806
-0.00894813964829223
0.00375364725642864
0.0543831292663857
0.00302366540045024
-0.0145050150733276
-0.0238347260090679
0.0163845695140877
0.00282796565615946
-0.0231457323776674
-0.0165012415947731
0.0445487100513153
-0.0242743136364993
-0.00411674977739116
0.052985793681401
0.067182455033594
0.0127512125316438
0.00701236470047627
-0.00876415376695262
0.0163627917196579
0.02143877763933
-0.0242703442663189
-0.00531412138524889
0.0115550152108139
-0.0350654089688145
0.0312692740731668
-0.0193476937736894
-0.0319128946444827
0.0111999660324596
0.0134371733520372
0.0249573917627485
-0.0300671918417481
0.0876942288460777
-0.020081133418317
0.0134438864910988
0.0571544982397446
-0.00447069425643374
-0.0487747908344358
-0.0146798664769124
-0.035339081570466
-0.0593282107483612
0.00672787693868491
-0.0437566422835127
-0.0189131720644862
0.0133639326738674
0.0186830746828172
-0.00843031288416199
-0.0178946236225474
-0.0179116943834805
-0.0254331187747168
-0.000948591398374597
-0.0732950969096621
0.0111550220382011
0.0744514627533533
-0.0222864215005232
0.00765879240810235
0.008737903281629
-0.0816065214800431
0.0472683049490033
0.040476055450561
0.0476711545127869
-0.00142624674091405
-0.0704736604490541
-0.0504119335825054
0.0327076872047921
0.0168628157102946
-0.0844176274386863
0.0198924183190519
0.0327114484828841
0.00983628059831479
0.000900743855592369
0.00349713266730399
-0.00979726411021704
-0.0393693209940487
-0.0422057456941659
-0.018440348231802
0.0381672610976928
-0.0583867965385451
0.0121937861225917
-0.0143403755514378
0.057794747298687
0.0197646114872909
-0.0132013025419755
0.0175292068424461
-0.0432904057144971
0.0890276387852854
0.0101610018863184
-0.0186992419607334
-0.0027540643734233
0.0209078769434279
-0.0214116947952242
-0.0627442323437545
0.00522877923099429
-0.0304937073742789
0.025461954861491
0.016967548079831
0.0173270573886179
0.0131377380762417
-0.0337061977796062
0.0363856433577136
0.000432433995636869
-0.0286535804246702
0.0255633886145002
0.000481715608790818
0.0253962088088311
-0.0134919066079013
0.00581358000436909
-0.00860226340141569
0.0521465472766188
0.0271791470078633
-0.00487118971496338
0.0309382066396226
-0.0187012386112815
0.015887010266531
0.0328073305188485
0.00394443589220474
-0.0278169977325829
-0.0517358099750449
-0.0423273643656952
0.019848883949786
-0.0175519188452409
0.00808322676086143
0.0305676006602486
0.00274695185848667
0.0185709017335176
-0.000123531210234835
0.0485238916944194
0.0225723249875002
0.0461957646255809
0.075419650540535
0.0304360558696718
0.0364037082843154
-0.0104678511570884
-0.0371219942511692
-0.0249179306951138
-0.0217915412119547
-0.00463832899170793
-0.0493222551427934
0.0356914332946952
0.0417912134303392
-0.0291417560464959
0.0202096031011534
-0.0616599930709536
0.0640807382679527
0.00867613764749172
-0.0217626760898067
-0.0264559767257738
0.0124080174029676
-0.0615493300387628
-0.0599452957913484
0.00903082864299278
-0.0142219754223583
-0.00563129442101424
0.0474418323720015
0.005375211681147
-0.0185002090300973
-0.0111823296795557
-0.00857555567882806
0.0188775841699622
0.0685531205535481
0.0216060048760052
0.0358329537185648
-0.0376182151164029
0.0966731280067241
-0.00761004025623032
-0.0209157891851355
-0.123912348048407
-0.00734420957552765
-0.019690144607442
-0.0537931761811939
-0.0321946957298211
-0.0573781342008939
-0.0511436570173793
-0.0246947860933204
-0.0341433697848481
-0.0259771375294608
-0.0310609933553418
-0.0171037456747005
-0.0686892727376389
-0.0048627531816208
0.0254383814773667
-0.0132384394643073
-0.0364010843528168
0.0156980439070543
-0.00834598549202557
-0.0602106854370921
0.0285312300125284
-0.00830043904555386
0.0157382739220748
0.00764554977830866
0.0545566590278908
0.0181514348915247
-0.0206417528410001
0.0406580338733915
-0.0138405824136398
-0.0279158553219167
0.0527136977238376
0.0670526105767615
0.027293612441232
0.0129687979451428
-0.000740740406814801
0.0224394565469458
-0.00935599036914527
0.0254102470037913
-0.00091991403047988
-0.0204890791067574
0.0383593167135539
0.0205966898036801
-0.03544779715261
0.000221808476603246
-0.0419552327928859
-0.0492605412174647
0.035840535165816
-0.0255689292632379
-0.0416664554028216
-0.0357119050293237
0.106074020408307
-0.038714294438209
0.00553079226930006
0.0344817839126502
0.0473704079866084
-0.0367655446761922
-0.0232895407762892
0.0245289879809741
-0.0406779509477305
-0.0768717840384575
-0.0356597540129188
0.00894655880831857
-0.0420554168806121
0.0152212356874953
-0.0295602111382347
0.0205350440552898
0.0234743349502067
-0.0254136105978784
0.0144549303122855
-0.0282449289393541
0.0222410662334709
0.0794699399005642
0.0284883284847252
-0.0185012497628278
0.0372698211341715
0.00534592286168914
0.0283317536283088
0.103754176909494
0.0454571153232566
-0.0435828768430525
0.0362181667679548
-0.0240783556032963
-0.0267558783006542
-0.0206453340279179
-0.0012343383324831
0.012650979158483
0.0781088906330499
0.0320537270919666
-0.0285450842251417
-0.0254380835327586
0.0619202004685946
0.0238237274929251
0.0514037701951484
0.0103464757423807
-0.011313931008064
0.0416194814226765
-0.00305332254398256
0.00202590098192982
0.031873512136647
-0.0146983585050895
0.05119868664997
-0.00925856228803301
-0.00510547752220291
0.0471447920805822
-0.0156067697811924
-0.0270607973542156
-0.0216387130169586
0.00381282081463904
0.00568869060615135
0.0157663998506269
-0.056058063727757
0.0197426037685185
0.00454715087664532
0.00987028530066681
-0.00979314078472219
0.020726715233064
0.00512476981989281
-0.0352140049234772
0.0550234651853067
0.0232219207838008
0.00219926816104469
0.0249697473690641
-0.0649011897054841
-0.00816787075085806
-0.0556534561226142
0.0364777745670435
-0.0294017337679191
-0.0316625486921926
0.0669983118793665
0.00935205002395084
0.0609743168042087
0.0647626525606104
0.0243515796436794
-0.0202485543326526
0.0213263755263392
0.0594924100878949
0.0265136081526118
-0.0667194025121538
-0.0416924473075734
-0.0296268062252713
-0.00917480618559995
0.00893640003046612
0.0871190843393705
0.0191838700831161
-0.0111836387354255
-0.0187229590046368
-0.0701665400619692
-0.0429819189946286
0.0515162735483532
-0.0340959810986542
-0.0365887016977847
0.0140679029146665
0.0390894544646536
0.0298663793748773
-0.0343526290118682
0.0235156118839376
0.00155835672938581
0.0812446512632327
-0.0388877946347737
0.0166142676022875
-0.0350800258542265
0.0513232637475606
0.0487620780604941
-0.0454707349552526
-0.0173812830952009
-0.0439685183594387
0.00651748915250991
0.00773387416914471
-0.0113291897042218
-0.0109747822111944
0.0198595429984207
-0.0373804887750584
-0.0179093206036817
-0.0109352026164787
-0.0263437784798007
-0.0623359363472139
-0.0016460785555827
-0.00407888930510996
-0.0162119006550768
0.0198862212015848
-0.074493933428596
0.0369000081011211
-0.0478867326126826
-0.00309834554627359
0.0305862624892101
-0.03077401610047
0.00859732451295716
0.0202789388516674
0.0672042264247104
-0.0351285493460525
-0.00735721408114102
0.0374213353106224
-0.0421917614624605
-0.00288675723856016
0.000522171285163241
0.051079441998468
-0.026449133325395
0.0207575941987391
0.038919761486716
-0.0272193190600951
0.0228151748338027
-0.029356763339163
0.0347339757901988
0.000809610383449539
-0.00305259534521872
-0.0444886950951809
0.0167918419650387
0.00179156390137803
-0.0439020065910937
-0.0350717566437865
0.00616921557752862
0.0140309841822582
0.0161954933444347
0.0107573955564561
0.00474312296468997
-0.0144772334643709
0.0210152279731548
-0.0170206322782176
-0.00475433220543131
0.0182766902727135
0.0246175889484614
0.0447921856852071
0.00573987244385484
-0.107506525228166
0.0118028479326938
0.00500535149899797
-0.0250595571188859
0.0258690571046627
-0.0116001717848645
0.0185879295974227
-0.0781813227077574
-0.0158252067941352
-0.0235559295966187
0.000353247155919062
-0.0228890784511792
-0.00455936300980539
0.0191106622703473
-0.0175803669671737
0.097281883724318
0.0184148386568898
0.028974424054251
0.0711234120948485
0.0404280405904919
-9.0207693882257E-07
0.0433738425921933
0.0694648788930846
-0.00103702103198596
-0.015667861572172
-0.00309233191132066
-0.0107205022811286
0.000412252878535414
0.00114827126445629
-0.02816077218445
0.0135818566654334
-0.012126347564594
-0.0292148704251228
0.0616876951926686
-0.0329562902864237
-0.018731127745282
0.0444006375701236
-0.0264815835006995
0.0409387203430512
0.0242017803785433
0.0488338324496773
-0.05189582293421
0.0190876494152998
-0.0119749594319832
0.018604896946665
0.0390821755212322
-0.00125135135792771
-0.00162445376757692
-0.0351417473498874
-0.0259513170345815
0.0491651807596877
-0.0502449628590183
-0.0603084091531978
0.0388965405638569
-0.0555003774613111
-0.0331205957628236
0.0262854238824075
0.0386545013578492
-0.0258975799315063
-0.0209012195125147
-0.0142555614128634
0.0180233669465311
-0.0299207118800633
-0.0367784625215368
0.0259068439600909
-0.0142837261718793
0.0792089315497898
-0.0469727760317155
0.0696377609301219
-0.0148105754202003
0.027157126094431
0.0355941427008975
0.0206037109562253
0.0106515131746852
-0.000184837704857266
0.0771857065493304
-0.0739998078886567
-0.037197544011754
0.0266646850160248
-0.0398955531440654
0.0371361274684971
0.0147622195789323
-0.0401263392474934
0.00596996607311377
-0.0419829747506962
0.0169023572459368
-0.00836796024906807
-0.0361882656039854
0.0370714675590266
-0.045265067960001
-0.00714342743453971
-0.0218688242612954
0.112385271511928
0.0129166943003458
0.0141753393983179
-0.0925329649698288
0.00428181227821297
0.0205477879748486
0.0443660355347433
0.0675077466931279
-0.0251616772374321
0.022635136969048
0.0276248812979507
0.0241084548032889
-0.0267005645465638
0.0402766764451797
-0.01344276091236
-0.0182259450216371
-0.0680608024792429
-0.0805679623234817
0.0208258761464351
0.0286680991330958
0.0324577143689588
0.0558857090292295
-0.0912181270141604
0.0277743731866601
0.0494183765978731
-0.0376067433069235
-0.0537439572983317
-0.00782804283408982
-0.0650921331735112
0.00978249016161766
0.0394759916016663
0.0122594500664434
0.0494987441463352
0.0264723108282349
0.00207780050592476
0.0475679335595515
-0.0316627025222347
-0.030028930242106
0.0181261702184577
-0.00649673378741939
-0.00306927472379581
-0.0796867585721244
0.00366381566637374
-0.0101908138603971
0.00972356043106774
-0.0317955118632316
0.0946664807100012
-0.00978239726748148
-0.0214357067022151
-0.0202125111785683
0.0474406510704534
0.06080848068465
-0.0250415193444258
0.000476416353300005
0.00995309549689809
0.00411320918280232
0.0313390145055515
-0.0430695906990949
0.0555698109643482
-0.0171121001761782
-0.00964221408889966
-0.0219199022845021
-0.0112005379628128
0.0599902197033
-0.052605813377175
0.0623262162222436
-0.00786846589166964
-0.0622634852725031
-0.0540642693386828
0.127214431718586
0.0652865344272346
-0.031114584640063
0.0191847134983502
0.0033369981359608
0.0451389988831882
0.0715806188082429
-0.0279354722116599
0.0543492163507234
-0.0176386909004455
0.11655836617266
0.140799885654754
0.0205093789550704
-0.0156133066990026
-0.0668236796186572
0.0476501873191434
-0.0441428594425532
0.0344496062076905
0.0480829414966411
0.0449495070280497
-0.0104378058450706
-0.0538601888357644
0.00497016389805401
-0.03216045066136
0.0420157538499644
-0.0279105712986025
0.010742729579494
0.0731782112397953
0.103621349902024
0.0196659214982235
-0.121934402352517
0.0279107912564576
-0.0265990879412248
-0.050879412913642
0.0105529861353585
0.00446306202616045
0.0259980518847536
0.00608333605396239
0.0911644074909323
0.0630589690475594
-0.0495639336754502
0.0160016103279676
0.025959066180194
-0.0510239829190309
0.129097329697256
0.047647003723471
-0.0104736848902844
-0.040503641370673
-0.0487442215773849
-0.0714723566416897
0.128980284186179
0.0520302585493288
-0.138577431940739
-0.0715186892351888
-0.0334801860333143
0.0166628058489811
0.0460157549627257
0.00228875741026009
-0.000165546394625622
-0.0705380337344183
0.131537120103346
0.00385547243960386
-0.0857513489702934
-0.0219979379013938
-0.0507482428827053
0.0923551939608789
-0.0565408928240644
0.025182207786206
-0.00162382810556642
0.0725795151747519
0.0107557025227311
-0.0652968567282517
0.0153815495785237
0.0285760122384363
-0.00726387090891833
-0.0617487618611039
0.0386782287486237
0.0691496823298408
0.0854485045546801
0.0791857537162493
-0.265581858390641
0.0898064157281655
0.00882026006474201
-0.154735534678267
-0.0199254988924448
0.0755848440483196
-0.000970105324833535
0.112338844224304
0.0926820005960673
0.0802704569852807
-0.000288597332451909
0.0134465131378404
0.142922500689152
0.010826541570927
0.130517568780704
-0.111675187499358
-0.0445110897999922
-0.00433704851759188
0.0421611676132689
-0.0536334984958528
0.211357767258531
-0.0516761251025418
-0.166414809807016
-0.0513791766620815
-0.0885022238039148
0.0973013684892816
0.128976523554437
0.109155308073134
0.127596291085093
-0.149716428532867
0.130168261272084
0.231043985819082
-0.0238778383217494
0.0930966403420555
-0.0949118234251
0.0291391265546985
-0.0224875590280975
0.0989196117193139
-0.00805173281131516
0.0456332265817128
-0.02425480003996
-0.0997886660339438
-0.0115037948244597
0.00411560258943322
-0.0307498040600957
-0.0764708499433806
0.0202782623669371
-0.000160214778638459
-0.0102435330001889
0.0111682577266475
-0.239390492914686
0.0425963673143697
0.0171600045426004
-0.110362008164373
0.00743039352536883
-2.41964024855715E-05
-0.00895372916961293
0.025699894284607
0.116312837531082
-0.00259280663645818
0.0109402555269769
-0.0320228000960706
0.209233937720012
0.0317676185907326
0.106612464516067
-0.0527188713051354
0.0130357104358467
-0.0530998590072523
-0.0116494214594422
0.0379426977863655
0.279130635640621
0.15644528841093
-0.191739764060273
-0.00647861782386456
-0.0449921165905013
0.00261475116290561
0.1424041976544
-0.0328815303723227
0.115848583089163
-0.0991057631020995
0.267238982771364
0.117749897176597
0.0450722590052097
0.0287022943600292
-0.121815153848915
0.116645053835704
-0.0301851498302282
0.263833873523538
0.0640845681024626
0.078103169824547
0.0559329623889904
-0.00856015697899242
0.0496151972492185
0.0153182253156186
-0.0221374013011529
-0.00385559109572386
-0.00933183893431706
-0.0183185135139661
0.101088941084261
0.0252122769006174
-0.189646572315189
-0.0954515573041946
-0.0104936877497491
-0.127308521777568
-0.111113454627121
0.0981645274111502
0.0734684157657653
-0.0151066723557574
0.175194612896702
0.00508022933144859
0.0375527674290572
0.0429569898661201
0.2562846249401
0.0130996544931481
0.0546866047760163
0.00667460558281308
0.000569051157603853
0.0531793437503499
-0.0437370530870893
0.0153244752983607
0.210691975340198
-0.0890064985586795
-0.227405544291864
-0.0476340083868946
-0.0432594018330337
0.134259462431541
0.198100219758483
0.000638665588009099
0.137910863461681
-0.172684034048639
0.356461917789806
0.0760978522667364
-0.121422220753451
0.0608143414861095
-0.0519818401548669
0.175518379093008
-0.0248118002503692
0.337103879727002
0.0923571456582578
0.114996220132276
-0.0191727078544817
0.0152705091494312
0.0731403742669458
-0.00384825783481414
0.0274129153723422
0.0111521022502933
0.064727506409982
0.0366940408272153
0.0113652256243369
-0.0976604996952804
-0.135963163749253
-0.0776442418194294
-0.0541505810432046
0.0568930460572376
-0.153792234161064
0.00349647265654977
0.128578569782972
-0.0611533337788898
0.212989671402919
0.0380071840821681
0.0611221804715211
0.0613629110345747
0.234329413160663
-0.00404902775569777
0.171261072962254
-0.0355381601182849
-0.10236705141964
0.0915561739558833
-0.0622701955883713
0.016283714764336
0.294737978941525
-0.207485087376696
-0.157009301092659
-0.140345694438881
-0.0900891910060354
0.0151402269751727
0.097389050009492
0.0485142981995763
0.101113127017785
-0.11134736264794
0.283273489616383
0.097319385260988
-0.133709113522762
0.132778419896937
0.0295886352980217
0.0696036163074296
0.0275111592218276
0.286214083102691
0.0112431047516359
-0.0176545458367156
-0.0370085192865615
-0.0602337879493913
0.124412095236491
0.0385633004620796
-0.000646174048053439
0.0988928137560394
0.0110264626232196
-0.0693143997489171
-0.0497163589591926
-0.145746419869222
-0.202855484423327
-0.0997205978347636
-0.0407234693902659
0.189606000919411
-0.107196381271501
-0.0586467581825753
0.0497979315288562
-0.0139557858274443
0.246358813601797
0.187252833723278
0.0679749655985073
0.0373371952059495
0.248899487505548
0.0758359160744558
0.233579992076292
-0.101235545218898
-0.0699629282092799
-0.144593157441232
-0.23093237844706
-0.0485715201875819
0.382057486097072
-0.214145995676498
-0.272147449647498
-0.217399150586222
-0.182183361740088
0.219893703151222
0.188916174034964
0.0154770574870489
0.166300584283267
-0.151786548414045
0.491931105933464
0.202195225029722
-0.171984429341517
0.217089556278921
0.0498627432473988
0.02384805854519
0.0379670465427357
0.155893200593379
-0.0726751214198998
0.131785270563957
-0.0724297129812709
-0.0534470934872238
0.0870242501723649
0.0135291389467684
-0.0539954504938911
0.26517149972926
0.0444983111240527
0.0424453636089483
0.141993530607545
-0.122926209591623
-0.305240577311068
-0.00922180522271365
-0.0966929947745434
0.273924779593315
-0.161821443087395
-0.0486194583407918
0.0204033778904232
0.0105470714556237
0.159731411995781
0.123599896287755
-0.05037608989861
-0.0111575466709197
0.141088179125599
0.0283292522953012
0.26320521943887
-0.195438841609714
-0.175736710815405
-0.13808018681212
-0.060268131533273
-0.0677708709772167
0.44709167835255
-0.175656169077244
-0.136881327810268
-0.0949566186059977
-0.192454340634833
0.265445347718509
0.110871105892199
-0.0626712314310988
0.205362568744482
-0.143574828628937
0.384249798377799
0.151650898757442
-0.113190003877033
0.0856805114195204
-0.0184086562433658
0.0450740774822384
0.00435982509266431
0.160258388573442
-0.0375156044756647
0.172838849173358
0.025296142845759
-0.00318820928154301
0.0410283429113947
-0.0280779434345199
0.00444866442085238
0.281305433888448
0.028290139989912
-0.0820168018034197
0.143405648794114
-0.12953769245327
-0.357269261308519
0.0587902248948981
-0.186094920001224
0.28273592961286
-0.199320370155025
-0.0401954635803505
0.0141759101040421
-0.00546803391773214
0.0234927728654135
0.0919168989059939
0.0515065856463241
0.091952227715989
0.185130631920217
-0.0103372470805288
0.173339942188532
-0.135731592687077
-0.0763710342772837
-0.303547529801673
-0.0551427111314303
0.0231987003007323
0.397318924838825
-0.220338639700087
-0.069150208718553
-0.154381423571646
-0.241108622180489
0.0936912344619122
0.108800014430884
-0.00346192205905492
0.168180606883445
-0.198237833095616
0.222842374259997
0.173066327513317
-0.143904532480582
0.0889916385108209
-0.0980824380164239
0.0600128026828569
-0.0250472855542686
0.198987189946572
-0.0106392924452402
0.132381073550254
0.000977735977559394
-0.0222683025559169
0.00676846583119842
-0.0217720446007331
0.0184309049409759
0.0830902919505634
0.0161911409241413
-0.0470378252436563
0.0884951578565913
-0.0896895347151239
-0.0579733711750001
-0.114171810587814
-0.17598889471595
0.389296331777184
0.0225765660127619
-0.0929182429849242
-0.18012259991518
-0.0130259998969331
0.0093659021278198
0.122663492288717
0.112872080938516
0.139987563688765
0.11016687926044
-0.0346501621292588
0.0483018138272936
-0.161662179746836
-0.126816235047766
-0.207600448561908
-0.151215901244337
-0.0457552098987303
0.323945251410191
-0.131907916635547
-0.0886151464025164
-0.147712123573991
0.0519885899460392
0.0218366978106915
0.232034980103531
-0.0159790717087427
0.153200325534767
-0.0970294377975544
0.118087802352872
0.0212607627675097
-0.157379595095301
0.0871508920234387
-0.00621629983341439
0.0664679815422402
-0.0566584879439473
0.205085667866629
-0.153240739015848
-0.0347260919834523
-0.0813516009275259
0.000173466161687685
-0.06675865295992
0.0179263384024339
0.0126096707268264
0.0248109087238012
-0.0375857971006747
-0.0319259488202277
0.0462314782473557
-0.0166910975484152
0.207306554388204
0.0450587600541715
-0.109680114482259
0.374621745522213
-0.00202755737518803
-0.0668683871254556
-0.18813004904293
-0.0256868940740889
0.0189999339178744
0.118549112575187
0.0449027433932382
0.0855865563661875
0.263536817249775
-0.0564460111007138
0.0331401101948016
-0.199623946749464
-0.122518045970275
-0.0862207758053928
-0.202480023974761
0.0338583690209298
0.0759602322893992
0.0272995440948215
0.0299981480460952
-0.113501301622202
0.00315854665799561
-0.0107363887926186
0.298560907153049
0.0285582108338378
0.161402714263441
-0.0795346092645625
0.150588466486179
0.0563656829370192
-0.267600501013803
0.0201414402158301
0.151172162488874
0.129612236040533
-0.0634650184607239
0.184161516114934
-0.0690949771514612
-0.0942052558131602
-0.0687883062761113
0.0218456090992531
-0.0936608572391822
0.0536982361837336
-0.0247721069960741
0.0751490669848415
-0.0574101811774877
0.0184639102833022
0.152906401822872
-0.0223939324485529
0.121628120882527
0.123318399481534
-0.00698046438255693
0.208694023242312
-0.0419097955577564
-0.0646607591088708
-0.169713433857331
-0.0529727170350198
-0.0144186216325786
0.0346827337263117
-0.0332095282920284
0.0818483506771574
0.0716545785271468
0.0318755058059983
0.0594826620796765
-0.193476561269971
