1040048
0.0287567513954998
-0.0440104138281672
0.0439213019707095
-0.0136893901119456
-0.0212294366790146
-0.0546059447507335
0.0211363226344797
0.0441621453611222
0.0321120840068805
0.0211962044898805
-0.0055555059506168
-0.0153783240326887
-0.0236788929042116
0.00556836413038212
-0.0802978229155612
0.0549642543141194
-0.00192633740320118
0.000308008903602419
0.0906996176527529
0.00408313237495889
-0.0195149404658975
0.0260912639253155
-0.053055299134234
-0.033148442715878
-0.00238727560581182
0.00199316467418704
-0.0087640801252853
0.0300700213642341
-0.00958764644779003
-0.0318372553391913
-0.0193000282690708
0.000380173826448021
-0.00364027279691487
0.000582403488550332
0.014364650087496
0.0594626325390906
-0.00724124998471308
0.0420204913416453
-0.0209389624912555
0.0073081044699557
-0.0146960205148056
0.0945009558758938
-0.0127655125844342
-0.0304735677264717
-0.0469835252090077
0.0590694921589217
-0.0354949972137283
0.012427573035885
-0.0149051962874149
0.0225850279380178
0.0248111038745443
-0.0158732921777636
-0.00119079794964756
-0.00910846115896827
0.0363003656327728
-0.00264756297369862
0.0416609016131271
0.00475107819126154
-0.0240577670791831
0.0157366262874423
0.02354897849228
-0.0489585558762208
0.0293872566851789
-0.0346455850527977
-0.0159193634764129
-0.0153860335786976
0.0101048781052836
-0.0256839237741505
0.00860777885497086
0.0107893756492658
-0.00420076226888246
0.0250076833245193
0.048140033344752
0.0115922642659759
-0.0175813941246051
0.000943761401822611
-0.126361401966481
-0.021298251684862
-0.097511469405976
0.0403720779016316
0.0175146280544126
-0.0303672852643474
-0.037201235474215
-0.0172134544921869
0.0417295479525494
0.0208590038425225
0.0186719319971751
0.0231016871543718
0.00892055297359414
0.0422072802551201
0.048550249311572
-0.000486997325817779
-0.0695873843167042
-0.00527152734352038
0.0218917136962431
-0.021790678897715
0.0280782242916791
-0.0314553755280382
-0.0303304406489535
0.0340152288876708
-0.0199395525007197
-0.0889744134356931
-0.108319161238928
-0.0502564465650669
0.0609616796473893
-0.00713746412709428
-0.0124057858107614
-0.0830761122549293
-0.0172477055399481
-0.0326370732480382
0.0170395224065117
0.063524599497532
0.0180016834857205
0.0134156975482937
-0.0157618863902145
0.0170387775266575
0.029447640622161
-0.0172880673046587
0.0561940575620465
0.0185096643363565
0.0137949812708654
0.00928624640673893
-0.0510497045212965
0.0440953420112305
-0.0389695731103811
-0.0231811949938383
-0.0520564328708355
-0.00539276993315951
-0.0353164805577893
-0.0200465864869156
-0.0182613123389127
0.0587882586069286
-0.0280811546394642
0.0220710984584319
0.00378310459444069
0.0375254940631802
0.0159544157663584
-0.0475406326919874
-0.0373629975639724
-0.0144573214966737
-0.00925527822676873
-0.11097162155954
0.0322248332171125
-0.0341661933216132
-0.0243096532093873
0.00692356390782621
-0.00627640290441629
-0.0352653160466625
0.00312321970849051
-0.0989279258095646
0.0395841115786645
-0.0177289772351674
0.0345826814556808
0.0391878043683203
-0.0504500808937889
-0.0108151101382716
-0.0109508587679386
0.0512458771860767
-0.00104771606954129
0.0217766957659925
0.0130630053508282
-0.0460906160088983
0.0361013114583782
-0.0331571583219444
-0.0366014986234166
0.0617155816534432
0.0218030408203693
0.0559676520011048
0.0147144768359136
-0.00359489789282457
-0.016787801261548
-0.00324588402878746
0.0109953414315867
0.0446525643828401
0.0590974030880379
0.0170664787662067
-0.011665947188193
-0.0209510293314533
0.000748564657948007
0.0413293389080677
0.0240658183331403
-0.0240064611779512
-0.0269000428072169
-0.0784451162174118
0.00338204643392412
-0.0400508339275337
0.0583385757313735
-0.00813206395089136
0.0101547433391057
0.0174166352052692
0.0118556442502813
0.0331759314880269
-0.0247712986703978
-0.051050889210953
0.0104037731900976
-0.0473361278168279
0.027951383157649
-0.00631346075335064
0.0130077808423375
0.0256434567269348
-0.0823211155050552
0.0160760390441373
0.0239484747974564
-0.0605628454340976
-0.00345126784187295
-0.000187817867031993
0.00200163512291944
-0.0450579245507472
0.0253433513303924
-0.00738188651775634
0.0371740624564115
0.00420579542014089
-0.0297586990317425
-0.00914652395523296
-0.0125311768081287
-0.0601727480460801
-0.072913003307143
0.00486732647417135
0.0400870389038831
-0.0237160065947416
-0.015811904181028
0.0167734279347363
-0.053070700701343
-0.0361828115723778
-0.000941103506504679
-0.0080833181623551
0.0438248668460634
-0.0405954552679235
-0.0123206514953386
0.0200928083995744
0.041516104007245
0.0101033015306472
0.0268242862894691
-0.00219555370389861
0.0134883387934232
0.034947915099229
0.0139043120228104
0.00531972916088599
0.0120322821003984
-0.0183187625935028
0.0786790311576879
0.0567773761780854
0.0372946140010879
-0.039031448209984
-0.011287645417709
0.0706238311238053
0.0178080182679102
0.0374002311078848
-0.0527032543910404
-0.00390591896701616
0.0227417496954403
0.0558802957669959
0.0439968566700359
-0.026161342394719
0.00145272806129436
0.0213566853948291
-0.10801594148636
-1.42734384049433E-05
-0.0366308830375229
0.0238095494330362
-0.0161624252989368
0.0460664530612035
0.0544902101999308
-0.0202012016779582
0.0162327482049416
-0.0160654275526311
0.0299624612511253
-0.000429313827970641
-0.0429396132912076
0.00352051544110352
-0.0341987444539317
-0.024916798759746
-0.0656358244372973
0.00457010393137449
0.0400050846472494
0.0150662994929605
-0.0285588704803098
-0.016828740441142
-0.015296651652917
0.0648546511354139
0.00266745413859663
-0.0674967829418396
-0.0275115338368587
-0.00621750214206695
0.00235853321483778
-0.0226739130222082
0.00830362449932906
0.0187850444910712
-0.00683099181563194
-0.0734848538316043
0.00299435357765752
-0.0130340361251967
0.0332234528537245
-0.022271625867561
-0.00787226815720826
0.0612601043238027
-0.0347880169683661
-0.0387899550572889
0.0300273626025944
0.00203682508794838
0.0175371662060995
0.0326358173513845
-0.00249260767689712
0.0393843994809968
-0.0571426918073841
0.0138531223647068
0.00198993345709839
0.0157558921147154
-0.00987926780471543
0.0463448592256011
0.0223459043807519
-0.0103756999402187
-0.00366346601902848
0.0161015128489297
0.0292840863948922
-0.0275691749210484
-0.0282975252059479
-0.010951250903687
-0.016741530890719
-0.00168780696917061
-0.00703172008053337
-0.0296076962912684
-0.00540442435550915
0.0129061148571444
0.0169743520304191
0.00139928499860764
-0.0543930782469998
0.0192886931905605
-0.015317947343182
0.00432082090922427
0.00277951975421205
-0.0141122366576875
0.0174828616481127
0.0322002357195545
-0.012995422861667
0.0194840354000081
-0.0104084562649783
-0.0200714251340739
0.00242383578297722
-0.0457228803977615
0.0691147219646214
0.0208725203394418
-0.0326767144579136
-0.00653360590672038
-0.00684311342698048
0.0194493684010397
-0.00883804742642144
0.0206152498916438
-0.0427469553368303
0.0136587700453203
0.0438648444827075
0.0307225377829177
0.019480054959208
0.00190815065456891
0.10248442276672
-0.044602007125222
-0.0592139888802587
-0.00574835651574199
0.0644642000448518
0.0426522176993655
-0.04171989572034
0.0167267796376591
0.0145480401028393
-0.0309545662940449
0.0279591503313835
0.0477038477609248
-0.0208603746821769
-0.00703454595183254
0.0264890043990367
-0.00299770758306403
0.0566767834078166
-0.00461028775205835
0.058522427420556
-0.00370800770600075
0.0808219862063706
-0.0498162436728113
-0.0386249691898339
-0.00793210766092341
0.0214330424468912
0.00762689857905177
-0.00226451172687312
-0.0265724575342879
0.0193513669206198
0.042435647668913
-0.029416266446743
-0.0180314938467955
-0.0452698637402533
0.0196058360854501
-0.0175858728633595
-0.00387692883739885
0.00842941214711698
0.00389909648928365
-0.0279874081125215
-0.0107353044424693
-0.0710855914361016
0.0381047890558373
-0.005216823673675
0.0279221480838951
0.041204547753086
-0.0130628550245393
-0.0294025403263502
0.0395434281008248
0.0367824405838438
-0.0388028439962745
-0.0233184470949922
-0.0184641252674737
-0.0375664338627141
-0.00520263977319738
0.0465325778359063
0.0284451303076875
-0.0483039178074063
0.0533966853137818
0.0174521888805083
0.0626727433114234
0.000883136729231016
-0.00952684991095521
0.0155843021440573
-0.0175177338005248
0.0722739689993232
-0.0884124463592149
0.0880991632238723
0.0190159926041016
0.0185263453716746
-0.00107620657166478
0.0212972549840669
0.011552362399947
0.0139316354773361
-0.0285676092549227
0.030136424683446
0.0108113447138801
0.0382002195105284
0.0345624993441354
0.0167149288269774
0.0226126897947005
-0.00749023026638654
0.0238541105461406
0.00853043809544431
0.0194994060666608
-0.000211455428582338
0.0541634652656273
0.0139345758813704
0.00402041260845763
-0.0243252954604591
-0.0746624254029833
0.0165348716507308
-0.0125767221099103
-0.00140327706051055
-0.0248311350043156
-0.0144521346624815
-0.0465171573957288
-0.0122968950152448
-0.0137921616207443
-0.0283857480574228
0.0038154333561185
-0.037943766611852
0.0107244931972933
0.0176693457993653
0.0359902387991188
-0.0480923297494266
0.028380448112446
-0.0205970107394719
-0.0012749495426223
0.00146210758560813
0.058331705801633
0.0298956624813618
0.0182240794123311
0.00194484348542198
-0.0399662092036956
0.00315792735967635
-0.0470450641020748
-0.0259842783096848
-0.0413609093278552
-0.0258007807881961
-0.000775022807557149
0.0315370250944315
-0.00158702499116083
0.0165465175069483
-0.0291572020563412
0.0214933689453983
0.0672868763502661
-0.0348182526315263
-0.0159096778559982
0.0410334358492691
0.0142719331290658
-0.0109254273621078
-0.0402932617255242
0.00552072932676197
-0.0107936657575559
0.0443155778965201
-0.0125410477524531
-0.0487942777215065
-0.00396970262930063
0.00927930254320242
0.0209827521938513
-0.000562459748608461
-0.0228147940604157
0.043282031002368
-0.0166242820150145
-0.0139571427477614
-0.030954126546892
-0.0832537965967798
-0.0313495646093199
0.0168892977579271
-0.022511174732773
0.00229756221372322
0.0337906076868535
0.0134011498684901
-0.0252721749733918
0.0209983527149538
-0.0465773432523704
0.00526013907898182
0.0149778005332441
0.0414465347072491
-0.0237620959334456
-0.0139300432786855
-0.0259753007526221
-0.0265874663967603
-0.0344630182791479
0.0608104703715951
0.0295671226041042
-0.0305665452611276
-0.00845631944394165
-0.0502293610526354
0.004468688805142
0.0379500152749369
-0.0321554267391444
-0.0202415225396073
-0.0645381355877119
0.0323243141256397
-0.0346480708410502
-0.0774166115937348
-0.0094042746621215
-0.0275315212220525
-0.00553041723673369
0.00502673814498812
-0.0254467228102242
0.00909346693437158
0.0013979648526271
-0.00199760289126479
-0.0283878823524431
0.0183576963493271
-0.0289801169705115
0.0298534148188709
-0.0292147132619934
-0.0113943793004038
0.0341769454459426
0.0359517719556873
-0.0427091153040197
0.000541992774395779
-0.00194938000408235
-0.00332964770987472
0.0156450610810914
0.000470967366979458
0.0106804936800097
-0.00300990395828398
-0.100105531926358
-0.0120606812572672
-0.00999987326723921
0.0405103081012657
0.045877930946887
0.0946348243112212
0.0101696657465264
0.000563304960113188
-0.0121555166221046
0.0183812284462634
-0.0307498830530287
-0.0143174173669455
-0.0421961380386004
-0.03579623718358
0.00297824207198416
0.048129880404079
-0.0172883815338765
-0.00564947386951229
0.00848192839734709
0.0492755743879261
0.00302727875833958
0.00983519633430382
-0.0102204724598271
0.00443315989322997
0.025179945725982
0.00879012618013279
-0.0406530531435476
0.0121662519763335
-0.00935910175999446
0.0228702955970702
0.000692594269205176
0.044385217509584
-0.00371305898404588
-0.0447477098470284
0.0601341723892319
0.0459098083906445
0.0252992530196016
-0.0310957631566919
0.00558842415449376
-0.00970509166005507
0.0128479089619384
-0.0651895759184689
-0.0726711195427326
-0.0101494337806344
0.0177543371357937
0.00582305349480663
0.0466304040818427
-0.0139504608062687
0.0641393079752153
-0.031824958264932
-0.0126131266325866
-0.0087771115856176
-0.0799264069695946
0.0079568112808602
-0.00669785094234873
0.00733437057594059
-0.0125247624209799
-0.0329622937155085
-0.0489973620624921
0.0630190958049735
-0.0152605999300136
-0.035374875781847
-0.0332241940172203
0.0178496422825861
-0.0118702872183464
-0.013257892717064
0.00158187607125316
-0.0561780112092153
-0.0428847543391123
0.0291945209026469
-0.0160132792142726
0.0269422172524666
0.0102780430374652
-0.01278847262128
-0.0296363117656022
0.0195607992735649
0.0680254282178789
-0.0305155197558034
0.0080316102049378
0.0516263133928646
-0.00539065255860059
0.0456838147275643
-0.0193822752669762
0.0225393057285903
-0.036961026136294
-0.0323968208877826
-0.00175422839410019
-0.0393010433251403
0.011735597093589
0.0206009624114648
-0.0190204770273644
0.0409962062965426
0.0771780260096229
-0.0475299355479357
0.031212376258543
0.00424256041406344
0.0370571702612479
-0.0583998666906504
0.0190085800956144
0.000795332584418034
-0.0280800217087922
-0.0258773635706317
-0.0292027788665086
0.0470655619363743
0.019425627901514
-0.0312474644618553
-0.0453062560757029
0.0312437346266923
-0.0416736990306756
0.019611832571234
-0.0395206916785787
0.00926406331328269
-0.0109302972080747
-0.0731099161784697
-0.0286588325416917
-0.00324985297235781
-0.0405583387082258
-0.0161237560131906
-0.0169434532026402
0.0469012748571094
0.0136495465628618
-0.0636322287953027
0.0617362003176479
-0.0195213352304071
0.00303554591728585
0.0241959688151158
-0.104117734711124
-0.0242455939244409
-0.0687997736810844
0.0127079149109941
-0.0195804813049852
-0.0213338482997915
-0.00574750987532647
-0.0656079131312208
-0.13332412522127
-0.0167287950347723
0.0348015283423818
0.0323995125267949
-0.0182055932458683
0.0380701755528375
0.0173359982799914
-0.0589528592347234
-0.0230779952946209
-0.0385815394928672
-0.056016916093148
-0.0173779285056905
-0.0475899117181229
0.0487899344414319
0.0264366763724314
-0.00302627339550334
0.0167936041277717
-0.0130540285846467
0.0485373306077616
-0.0334000084196936
0.0117468754496143
0.0591591058460859
-0.0391821667540188
-0.023953964856217
-0.00463143719384655
-0.0188100162048515
0.00592941421720222
0.0516852491513224
-0.00827609843579352
-0.0403875629624891
0.00297120841833683
-0.0123978674328274
-0.0295699854211972
-0.103268273899067
0.0532094689075635
0.0488409610685864
-0.0488926144178996
0.0766523894415867
-0.0335376600413539
-0.0233490426053116
-0.0607446651680272
-0.00365073525594407
-0.00935693627633301
0.00606936117558088
-0.0255561202420613
0.00141919018268496
-0.0253946210556508
-0.00275450557516557
0.00913438720679414
-0.010485207256108
-0.0221851708011354
0.0513156452415084
-0.0130400377457017
0.0618113368284977
0.0399744222883559
0.0291902615662516
-0.00734304365007428
0.0324696663280934
0.0271259551206957
0.00421272304657349
-0.00639383236696952
-0.0625603000408737
-0.054110741211104
-0.0116124608458324
-0.00103260921120242
0.0643545054082875
-0.00891576697757052
0.0082009842755995
0.0459814091251676
-0.0123348916709495
0.02879773574592
-0.0138375629622669
-0.0673630806530744
-0.0247276356219496
-0.0498188701525582
-0.0664792357723141
0.0315577662976055
-0.0532622942522918
-0.0234045839623812
-0.0487150098471621
-0.0430885265420412
-0.0366713823362674
0.0397736497329998
0.000190819994855084
0.0312535271164332
0.0207516574263565
-0.019883176811522
0.0193916155618318
-0.0108198895428923
0.0188633732826925
-0.0871172266877098
-0.0416198147946815
0.0404693555945818
-0.0373947146562448
-0.0264746730611754
-0.021098660267452
-0.0366530197573773
0.0155158282996689
0.0139151452338148
-0.0287764189399941
-0.0322789745425869
0.0336494008775127
0.0194111903883673
-0.0720098776038313
0.0171052455668175
0.019344617204499
-0.0754884140316324
-0.0070017837172818
-0.049531913439544
-0.0407736341320818
-0.000885061054036217
0.0361555892401501
-0.0237909409244061
-0.0149764668490072
-0.0478024475303228
0.0291997435128313
-0.00368675257603345
0.0265494701668082
0.0414237378346209
0.0254556290798081
-0.0611040529140215
0.0376665303086197
-0.0599225391811545
-0.0119165492382857
0.00671345789008957
-0.0103091480465527
-0.014996214628376
0.0243160119339177
0.0592171298804356
0.0131440670184165
0.0312896272467655
-0.0363478909572311
-0.00977322242837093
0.0340335128390498
-0.00854167863501604
0.0520842959605751
0.00657317471839858
0.0439436024374788
0.0302939625347221
-0.0173643265018544
0.0590381813162522
0.0288521356898423
-0.00109024203642762
0.00789816817693966
-0.0363256320733795
-0.0202520516095814
-0.0346096029763556
-0.0648623102220721
0.0528718630238819
-0.0217240033878989
-0.0349261896317589
0.00843657240076166
0.00929476172345033
-0.00220254010070944
-0.00133340556966849
0.0207609010427176
0.0472421682150129
-0.106443733903947
0.0139322789650455
0.00866587023544665
0.0534630514519787
0.0208779825603178
0.026553927093664
0.0662025654619286
-0.00860007695556874
0.0121706886508735
0.0322935971983845
0.00138719373764883
0.0318856263332949
-0.00506629440092417
-0.0309876513923198
-0.0400454122024145
-0.015323779081061
-0.0208220555941108
0.0289515179707776
0.0916377400327008
-0.0486987891894465
0.0123469023157236
0.0125217050729759
0.0164346300099926
-0.0349636400189098
-0.0246199152886849
-0.0284805210377298
-0.0201882420611197
-0.00898920583953086
-0.0257560254582934
0.0361306207337963
0.0391175343163357
0.0197077579661349
-0.0416409324650151
0.038089979950903
-0.0128677670380394
-0.0266350920354477
-0.0119272323817036
-0.00269212498049778
0.0347072904183008
0.0396337608453895
-0.0419246752587631
-0.0523834284715063
0.0677657029093578
0.0391621417381201
0.0157195935573384
0.00949443301557719
0.00434881052147738
0.0565195347691932
-0.0200428354208046
0.0122162037568104
0.0248651141847217
0.00625860155424161
0.00333733349608096
0.0126461694621459
-0.00799728192823027
-0.00971842769279537
0.0219296921221822
-0.0483342730635077
-0.0412462629198131
0.00601737997598822
0.000297850531549626
-0.021328366514804
0.0319153934052485
-0.0210212641148674
0.00622068823113364
-0.0248286036426779
0.0337833478280539
-0.00923909867675797
0.0771830889291991
0.0282518084444721
-0.0601523101845762
-0.00209868965706316
0.0648308263932549
-0.0614521797899156
-0.00481711524630635
-0.025484066398957
-0.0213836631898665
0.0394704879738775
0.0370667066078081
0.0283008433002255
0.0651623042198068
0.00486490794237633
0.0179160149278888
0.0290803161428384
0.0466395995930263
-0.0298533743217523
-0.0247514366779376
-0.0378142216033402
0.0446027765442293
0.0151081370636236
0.00787991052381778
-0.013064908356377
-0.0677365299678453
-0.066969247164071
0.0185832595075388
-0.0150628096647806
0.0400333586578832
-0.000423954609001997
-0.0188614686799807
0.0332608282005228
0.0144247166322449
-0.00530409152453537
0.0025724843314907
-0.0326837491480007
-0.0211942917898928
0.000879620844742986
-0.0240871057725781
0.0373461591013858
0.0128155106024573
0.00396945446030365
-0.00473740374231781
-0.000668905869481659
-0.0280098710675667
0.0420525421633906
0.00177209723498378
-0.0727538450340005
0.00938541182614545
-0.0508886857581955
0.0187288232571141
-0.0142296340746191
0.0470120582151803
-0.0185610283642402
-0.0253339767112647
-0.0290706075729301
-0.0147319971334311
-0.0314307768162203
-0.0479026877414793
-0.0650224150694949
0.0353071875348952
0.0195747768021692
0.00781878412134148
-0.00780657170222306
0.0359670065454236
0.00413281288241917
0.00239877857772789
-0.0110798184072129
-0.0393615198175872
-0.0739790331888071
-0.0107920086652594
0.0129330424018784
0.0196854702125142
0.042818880145826
0.0473541681343413
0.0549103149568549
-0.00344499934779768
0.0318244253790763
-0.0313084424882623
0.0292640187187331
0.0144758515461361
0.0291607061765486
0.028924331187137
0.016767646840598
-0.0434559763373142
-0.0300750089043208
0.0241990282063967
-0.00644008070386935
-0.0153549540658061
-0.00241874603056227
-0.0363847346423264
0.0648538011813313
-0.0173254910429576
-0.0292896105801685
-0.0120303228659864
0.00482832860184444
-0.102066359789771
0.0204564379618029
0.0213425296308016
-0.0143872063381985
0.00260156343022689
-0.0245949999877182
-0.000746469302512725
-0.00292735427275087
0.0282578060907357
-0.040370053590423
-0.0206546469104299
-0.0114797240257779
0.057116862191001
-0.00566522922863082
-0.0270146566878661
0.020758216562812
0.0562844479425667
-0.0124238667519287
-0.00201374740737705
-0.0213157937510469
0.0122878146202675
-0.00728276125431049
0.00170573738612106
0.0265218827647038
-0.0780947259284917
-0.0528805656896364
-0.0440408708323104
0.0146627181699729
-0.00440529295031122
-0.034468403433353
0.0221281837487823
-0.013623115699712
0.0203187910084695
0.0218896314146135
-0.0259905305216154
0.0249251557188473
-0.0308280778288401
-0.0329277116580189
0.091095252280784
-0.0326540194148437
0.0291488270337694
-0.0108376203984165
0.0249366894269065
-0.000670453153399716
-0.0431958918995024
-0.00196150315842302
-0.0409007577068964
0.00679469301042578
-0.0171450865243643
-0.0174051372712365
0.0963822363436181
0.0186745445606152
0.0268934764248417
-0.0567731016318922
0.0456116098841486
-0.0785783990145314
0.0457852109581779
0.039776901780558
0.0132295953493844
0.0160511620397699
-0.0182312872605114
0.0327361954049466
0.0204735619966632
-0.0311106605936721
0.051951010189002
0.0124793820480247
0.00706925169560869
0.0121015062554265
0.00365438323815197
-0.0104660526402274
0.069828804499575
0.0530154193333087
0.0347139709749887
0.00275831088092874
-0.0130005980371017
0.0416809003931081
0.0339651858947461
0.0257348727084429
-0.0341184220382676
0.00269778084638977
-0.000404723799663354
0.0400177113603783
-0.013842048268488
0.0563606549571622
-0.0256708123747493
0.00356094838573144
-0.0664951216723911
0.0425974500755306
-0.006153406455066
-0.0138465919466485
-0.0407792529168829
0.0385015230419883
-0.0198477982782008
0.0364756339949503
-0.0255795407209551
-0.0226812992370763
-0.022105482249292
-0.0506076296723184
-0.0162574420183665
-0.0170352794074461
0.00409379147792602
-0.0400923753038871
0.0117098607175356
-0.0639156811109568
0.00774344845980264
0.0584393618776963
0.052569870674975
-0.0826563222188707
0.0194051518260268
-0.0460703083911583
0.0297458974050479
-0.0306510575728556
-0.0165935554530341
0.0403219356412449
-0.0309009388413577
-0.010405968722653
-0.0451795892776407
-0.00689306503602133
-0.0117499633622499
0.0533664447396455
-0.0336763486272154
-0.0473928459331427
0.024684076674787
-0.0195521404704559
0.0277351977307602
-0.0493766550426855
0.0141105532336806
-0.0650762375480035
-0.00333065480766255
0.0691731254624862
-0.0545652825026032
0.065580557550765
0.0302302009810933
0.112184220139044
0.0246725908623886
-0.0385065373895056
0.0199731092881797
-0.0677456346507874
-0.0143427300441478
0.0017723388527094
-0.00504722779493096
0.0193630065197113
-0.0460659332505185
0.0313625384255009
-0.0217139905261801
-0.00348087552399559
0.0359409219662057
-0.0774135897346148
0.00435569312059349
0.0124020163168351
-0.0604292125463382
-0.0445510381260678
-0.00598334684843104
0.0106429098295553
0.00968552364594498
0.0116279260338482
-0.0317563660847617
-0.0791457201918127
-0.0939962305712392
-0.00675959812778545
-0.0183388264853101
-0.0224283103460283
-0.0501432803343484
-0.0314512426777073
0.0711424199167982
-0.0422129227560154
0.0109359897504634
0.0193616611871302
0.0110790178877088
-0.0190562284992485
0.01600976723391
0.0575985370147577
-0.00630057783442009
-0.0307572972231776
0.0837106245498171
-0.0217263589097009
-0.00596852967046315
0.0418226161118037
-0.057666925998526
-0.0326492279815738
0.0541341524456194
-0.0330336539199083
0.0132256536437949
0.0256002659361277
-0.0537030609478397
-0.000165225854047423
-0.0534123695103202
-0.0547994318482552
0.0319834192994261
0.0347683186212858
0.0173951929114382
-0.0328235890930241
-0.010122758608765
-0.0161386935015036
0.0311275632051034
-0.0374058598505008
-0.0387687017922049
0.00423738413628928
-0.0142839564007832
-0.0240095116986794
0.0175768170680817
0.01614354480646
-0.0221475188220569
0.0257691435524024
-0.0174712448973364
-0.0134875079155132
0.0881472109673459
-0.0450338881585514
0.014296822646767
-0.0413592289582198
0.0463011677079363
-0.000178058210479673
-0.0373944317414048
0.0406267397662206
-0.0562669177607726
-0.000114944360070036
-0.0844725704702087
-0.000609573391046051
0.0192005607368558
-0.0641880847349662
0.0156164078412647
-0.0774135082235625
0.0286846127772131
0.0349729971052258
-0.0287455426824251
0.0044090406585758
-0.018238537106252
0.0312568252613276
-0.00750961229507543
-0.0468521554258662
0.0452298876726494
0.0587242802057631
-0.0375920150739807
0.0120483599911256
0.0101368566533733
-0.0830686447233665
0.00636177510666505
0.0235323574103939
-0.0510837936569771
0.00168459930479163
0.053048404558949
0.0144430835947992
0.00575964898045967
0.0116473100949957
0.0705388381830556
0.0323260601912444
0.069167691121837
-0.023052027715648
-0.0394100024634135
0.00510560983671588
0.045167796370432
-0.0182243907853991
0.00117508349052979
0.0170803518495893
0.00999715305165318
0.0626866687285239
0.0165567204456891
0.00499387494398401
-0.0324479195076654
-0.0637067007699213
0.0217616498346485
0.000996573192647191
-0.00653422411736266
0.0317850305881166
0.0454343528528475
0.0854339698173496
0.00889438709829326
0.0142369844209633
-0.00210686078055636
-0.00698561565753417
0.0259411654168256
-0.0376065857409006
-0.0758233189578743
0.00376008119976834
0.0386019304344779
0.068235184333777
-0.014353744732609
-0.00113749473389843
-0.0176439426497157
-0.0255968467757662
-0.00769794785708201
-0.0186521442268324
-0.041625536092014
-0.0204665379151942
-0.0161707950737452
0.0245994857692964
0.0430010616959096
-0.0279312345072151
0.0010916191659978
-0.046576802190957
-0.0294320376059982
-0.0234855451650947
-0.00760938155933671
0.00721677869599827
-0.0214985269905331
-0.0673958963007971
-0.00724288602891885
0.0331592341049562
-0.0359518751625526
0.0498326895938452
-0.0487658913585745
-0.00605547500369316
-0.0743080205517104
-0.00430383866800132
0.0575114254542546
-0.00653632036417009
-0.037420944293404
-0.0280709993240982
-0.0026137641566062
-0.00430641827816394
0.0458540956338147
-0.0235481934668504
0.0358883504492913
-0.00401331664093789
0.00450847365188211
0.0389502989368735
0.0678647576627478
0.0274497863630391
-0.0761738333489014
0.0250847621806124
0.0188873275753041
0.0228270790620079
-0.011699076052048
-0.0512852830560319
-0.019797850212617
-0.0101596054300014
-0.099328948973937
-0.00234399571523614
-0.0394431269512179
-0.0436644084390209
-0.0244345604974138
-0.0169936668837289
0.00828820603706601
0.0344556784999527
0.0492626799697366
-0.0222290891259304
-0.0139753374127273
0.0447927948297751
0.0326517723279593
-0.0111980708242898
0.0893351620678971
-0.0474623773241614
-0.00253991272479827
0.0796418009958417
0.0233011512824488
0.0441023891658365
0.00709174135457437
0.0409522170584338
-0.0113389240187465
0.00167874434202779
-0.0331117238618456
-0.0296123058852327
0.00932822347151663
0.0101308143006677
-0.0464583854656158
-6.45251707338424E-05
-0.00406914423759181
0.00616057871466941
-0.00240376546057277
-0.0619367641652146
0.00872789295960251
-0.0240857344410497
0.0443687497342967
0.0400061127262386
0.0979765350017987
-0.0500944867043097
-0.00773554076546353
0.0154542484953324
0.000799216268155365
6.04498757993784E-05
-0.0449267804123023
-0.00451860094448413
0.0397454763163575
-0.0569807282402038
0.0181076172844575
0.0362948022210242
0.0196410042089942
0.00596407863874628
0.0192484834430222
-0.0202069950749662
0.0286825035131323
0.0409800127427378
-0.0358707530292039
0.0322101292324178
-0.0187098872428537
0.0423679943171854
-0.0717296110598363
0.0356661466601298
-0.0338723811689103
0.0113064760853341
-0.06165477258898
-0.00356494354737764
-0.0119748746827575
0.00384158272501876
-0.0428660311717298
-0.0353273297029891
0.0532457579548029
-0.00313332679497993
-0.0652939567065909
0.012085168330768
-0.00502668846601783
-0.00624726499674491
0.0380743102045055
0.0676155620760776
0.0221668064483815
0.0232534305257256
0.0428244653328429
-0.0402166451353453
0.00527365437962362
-0.037873724283802
-0.00374088232675405
-0.014875007168189
-0.0407146930482937
-0.0535470166392977
-0.00681602200829695
-0.0155655449711294
-0.0199068490257237
0.0282774948135707
0.0211131174322728
0.00598100056465172
-0.012025124401898
0.0602449007478176
0.0862765665446966
-0.0667510480270364
-0.000156893520843693
-0.0265596136029128
0.0603089730398629
-0.0544922030397824
0.0291525439800271
-0.0436494110934389
0.0113318923490487
0.0487538385957793
0.104020890594333
-0.0297635930624712
0.0352429818484461
0.0372345572015754
-0.00464717062146889
0.0108613803448909
0.00506764680242134
0.0122930836403896
0.0189110253458927
-0.0304872295241577
0.000746315726537689
0.0381353203902716
-0.0286177888380188
-0.00896566398868191
-0.0235496942828602
0.0413974160618569
-0.00750161627330913
-0.0581019070693559
0.0351613833270384
-0.0620451531041973
-0.00552079017596655
0.0364461665715779
-0.0300797692925777
-0.049631688276058
0.0645566131062149
-0.00883439180202845
-0.0121466890409637
-0.00598730504856301
0.0105149679420967
-0.034624582401895
0.0605069311837007
0.0438269868533181
-0.00943786552940081
0.0291478072232156
0.0467179835125866
0.0134725448015199
-0.0450831953842701
0.0208499435210639
0.00643025058775137
0.00475471788712758
0.0397167275451895
-0.00315581140739036
-0.0264238044299055
-0.0247689957277099
-0.0376480136496159
0.00768277413753213
-0.00539000443779162
-0.0386560718685953
0.0487556321685489
-0.0223523577917722
-0.00869282973455
0.0116944153848409
-0.0022256580990873
-0.0171239115269477
0.0254408894400084
-0.0245670792111783
0.0505318778950874
0.00241345553756806
-0.0308380660299305
-0.0345434375887304
-0.0610476181359809
0.00326468441074554
0.0272539918537246
-0.0229419880480604
0.0315275566228825
-0.0208308351829405
0.0272417384265054
-0.0131411507114178
-0.00476257974140439
0.0265781086214415
-0.0251701865565494
0.0167831550707005
-0.024781205729008
-0.028790725469892
-0.012275926171926
-0.0717110990919509
-0.0218037616486066
0.00820489182819671
0.0209870356431794
-0.0248815632886481
-0.0206823201103859
-0.0311198755889748
-0.0160634145104275
0.0251638690521708
-0.0191255775286421
0.0477545690798031
0.00381538773525646
0.0106685351744437
0.00118274064190512
0.0378868669317758
0.0168230958889622
-0.0561899493619661
0.0713477934577354
0.00566142179697162
-0.0529497517969332
-0.0379432227972552
0.0124840305665303
0.015957537294104
0.00713954041460263
0.0107443852905131
0.0364044029441857
-0.0598612612973402
-0.0437951970405857
0.0332003020493083
0.0332005110128974
-0.0369321880869599
0.0231388603441404
-0.0170018050777142
-0.0352542426766703
0.0363716385595162
0.00046844264371406
-0.020190425293881
-0.0555635555800255
-0.0285875079199365
0.00623186984068995
-0.0270250078549551
0.034214106072013
-0.0134265617063694
0.00357235693727408
0.0372489225919911
-0.0392433116311655
-0.0556855480005742
-0.0379307735476968
0.0035976612504643
-0.0561293546999124
0.017091516311697
-0.0358982903869082
0.0186251422560841
0.0173642926933618
-0.0194719953132802
-0.0420172306433461
0.0470677655477108
-0.0148749096488322
-0.0143854422707421
0.0377412623639087
0.0240947193910506
0.0365036305258155
0.0161814478375954
-0.00197569065498234
0.0522857746789279
-0.0125936777491193
0.0198987596446666
0.0588327183344646
-0.0774160127666348
0.0031079128278934
-0.00486892601632745
-0.0127690748143583
-0.0297943984216679
-0.0441108488668926
-0.00845984164384067
0.0084774501171067
0.00301237843014966
-0.0721198975480321
0.0134432976122015
0.00733340897235575
0.0356090162010946
0.00197225672782758
-0.0036548274947148
0.0787515134872046
-0.0377175333236488
0.0330038586794404
-0.00602576345162575
0.0223373535738676
0.0413119644113693
-0.00898559944488597
0.0219370669241353
-0.0772676036175999
0.0443751842778179
-0.00459188996737927
0.000810052154851055
-0.0389037359998036
-0.017565726588473
0.00551961980132944
0.0468170105690714
0.00739388415316691
0.0297786865587857
0.0210773724976435
-0.0348184046403184
0.00258395432326685
-0.0152796569468788
-0.0308271985943321
0.0063548804848145
0.0162344591589726
0.00533142884774139
-0.086064090969133
-0.00494309454478602
-0.0439556059014028
-0.0628947542564013
-0.0126090118801647
-0.0857417633944179
0.0256977636162292
-0.0174270138816176
0.0206399409501947
-0.0319977340998346
-0.0277236826063054
-0.0195392702693194
0.010358052439556
-0.0615156723130604
-0.0421032635935501
0.00285540943106193
-0.012846371789269
0.0663281345647773
0.0347408610818815
0.00255319395282163
0.0636289743994192
-0.0539962813283124
-0.00552696709505125
0.0292843727319422
-0.0253836537103064
0.0160958856427687
-0.00533728310828677
0.0128214987309844
-0.047799407311154
0.0569494979609917
0.0297494626201164
-0.00333350196280377
-0.00720167362343551
-0.0093373419844208
0.0693545858614448
0.0567227867438726
0.0221404999133266
0.0454829892351351
-0.0158770849282321
-0.00754977993803731
0.0141649498069281
0.0153736241581207
0.0189667202765736
0.0179180477755678
-0.000528508177484603
-0.0155306882613239
-0.0169425003176593
-0.0342200102054084
-0.0195536536286747
0.0491766475465694
0.0265046637771124
0.0494228076023156
-0.0134596195337364
-0.0162483612589016
-0.0458055079536409
-0.0405653399371444
-0.0226615840924067
0.0425027889065615
-0.000915206756318897
-0.0459217405254524
-0.0603465614108215
0.00996174345405221
0.0528348498776525
-0.0605883267666939
-0.0150336757664271
-0.0124389244767542
-0.00952881462491668
0.000638614692824351
0.00434561490207946
0.016449503290818
-0.0191501781566138
0.0182503480010212
0.0299509576732682
0.0731443249342947
0.0544603772711458
-0.0027640561598863
0.0569690385733886
-0.0491920136225169
-0.0163392722019661
-0.0230532588177097
-0.0421298933755519
-0.0206356003120455
-0.0261198207460968
0.0588098181366661
-0.0171429031747497
0.0546443888535468
-0.00229038815070229
0.0339253715717859
0.00276797258033403
0.0293321395745905
-0.0140954486189712
-0.0174261838678982
-0.0168040092508041
0.027735744193032
0.0637837432449966
0.00492960361591333
-0.0279417446400761
-0.00249437045065845
0.0590495325787853
-0.0462466866275395
-0.00510634368448036
0.021795020706031
-0.084791217351642
0.0475295664870857
0.0171423262705723
0.00113167341449611
-0.0422746965932798
0.00726854567799935
0.0483762451312287
-0.0735500242928073
-0.0130638324788636
0.0158674104647165
0.00606186103227998
-0.0264042291259528
-0.00272280277838476
-0.00846490457212095
-0.051831443787333
0.0424807773600154
0.0222098506143301
-0.0119173885072264
0.0407392971128398
-0.0264310355146763
-0.00517940221089715
0.00600140602601339
-0.0124548246766925
-0.00161115080872501
-0.00871204505245242
0.00109826323361043
0.00810061843174447
-0.0116263568706137
-0.0919543924431058
0.0482758516406649
-0.0480338576803013
-0.013074000675972
-0.00705689681821246
0.0832551567983846
0.0130430845361002
0.00126357595756369
0.0305022183414172
-0.00160289686546639
-0.0324654503147409
0.00897657813177141
-0.0176144978199864
-0.0250024831153037
0.0246450227707272
0.0608455295422142
-0.0179779411356761
0.0060474377478079
0.0751236596980532
-0.0322013302161144
0.0521780730603634
-0.0268669788048987
0.00581466675911878
0.02959778424683
-0.00042253527159409
-0.0316260363454389
-0.0173217831194268
0.0086480468500777
-0.0510839688694072
0.0179789850023692
-0.0685897973659729
0.0222355082180368
-0.0533607145848822
0.0125481973862317
0.00241628246391454
0.0402134266645362
0.0347516329966882
-0.0152743661799638
-0.0113178384478814
0.0569255179067626
-0.027408698270497
0.0272640456300004
0.0257060726425169
0.0238477006568651
0.00447820509450633
0.0680099928959366
0.0350120915026576
0.00175724017260743
0.0202965226635051
-0.0511369271296229
0.0499636097546592
0.00530612379700787
0.00994428749262641
-0.0569442608315909
-0.0136940982294955
0.00946432456967707
0.0216318303525479
0.00629403244515464
-0.0354744227883847
-0.0118795160894115
-0.0230912349657904
-0.05658773572661
0.0126137140075048
0.0274536285680734
0.0190553025505753
-0.00472559943244544
0.040113716162201
0.0788781006061288
-0.0273779552745265
0.0294608026287923
0.0358353589928071
0.0128581158551916
-0.00980007051503725
0.0442160746707799
0.0333666578273563
-0.0291310624424618
0.0179785985774239
-0.071547382987046
0.0832755617715743
0.000369826673377603
-0.00989501603286461
-0.0969134824491255
-0.00258762846082308
-0.00101236155541408
-0.00191083239995199
0.0136127652701761
-0.0289204698707058
0.0178096027328867
0.0415725025576178
0.0248089746454218
0.0279805507303785
-0.00394154258679342
-0.0113152194571138
0.0165672139706127
0.0622725012779789
0.0290925899907689
0.0338122192949515
0.0629084695425912
0.0387064186009547
-0.00693460405075887
-0.00957247549561343
-0.0706947721699539
-0.000617393511179495
0.0342090969836478
-0.00311230499356353
-0.0403651641933588
0.012977163358169
-0.0116920829557737
0.0101984895430465
-0.0790640266044107
-0.0485209216591019
-0.0259606375773024
0.0466640387204882
0.0096826892509032
-0.0312246700820834
0.0172121568651074
-0.0409315436560113
-0.0429242016089422
0.0377333633153249
-0.0546378837475575
-0.055373146184697
0.0354153146694858
0.074362246132181
0.0106824612673154
-0.0206282152298656
0.00764025533729254
-0.0375927381576852
-0.0208745071314166
0.0234122728367664
-0.00149575588652888
0.0757436786795072
-0.00949038066864243
0.0551402564711024
-0.050622135266363
-0.0299615817053724
-0.0594086276403652
0.0634049201374478
-0.0169989724020305
0.0481213583358979
-0.00961260049737706
-0.0165038979427131
-0.0403951869075647
-0.0528230710230389
-0.0160146934606111
-0.0506821441302645
0.0729774557613904
0.0384230368836759
-0.00977266514648581
-0.00917108196421538
-0.0107010004261444
0.0660739785925537
0.0167462676416159
0.00195751301301284
-0.00573087612238133
0.0518157096777149
0.017575351587194
-0.0589643603873633
0.00585394393353263
-0.0101752769591369
-0.00318099897425434
-0.050810933568492
0.00356182540771797
0.00448877675840558
-0.0566045174513734
-0.031632932638434
-0.0301657813179902
0.0214663640605301
0.0126702826155745
0.014901959769392
-0.045678919004556
-0.0139293562167435
-0.0340339303777813
-0.0852564247470226
-0.0051382399187457
0.0241653297282529
-0.0137375626362231
0.0031859367615451
0.0419261248639222
-0.0515892796519696
0.0200664502920734
0.052742739628917
0.0126806453673019
-0.0358606489649667
0.0544384469286215
0.0198435986089547
0.0294081235797855
-0.034241063274299
0.00903869100687274
-0.0357622783262787
-0.0030891529634609
0.030776036999634
0.00028248487225952
-0.0464216191540696
-0.0268571900967026
-0.0236204232802001
-0.00200195505311805
-0.00962568853709175
-0.0248731467431569
-0.00726741991645816
0.0439090347254976
-0.0380653661207297
-0.0674512240501804
0.0220010407984816
0.0488188537487365
0.00678736339299952
0.00122713327697556
-0.0232870518087294
-0.0491385329258748
-0.0667354338094955
-0.088151891644077
0.0470572293596135
0.0347135908626144
-0.0690225981430119
-0.0453279590083517
0.0407784817927749
0.0212802780616149
-0.0395582444501163
0.0466562261370934
0.0324915948910288
0.00715618857600502
-0.0103808306754396
-0.0172845356935701
-0.0137839998128766
0.0504542442472146
-0.0332591291013766
-0.0320686476612201
-0.0121479808015593
0.0472868524734485
-0.0530641522233763
-0.0421345269725271
-0.0252430188641522
-0.0551985366159667
-0.0514751421903346
-0.00186238002391646
0.0501181820726553
-0.0505679874755858
-0.0227840855240535
-0.0265642929987144
0.0174966541966899
-0.0167468163677978
0.0423535639988553
0.0604311001503246
-0.0155617275993355
-0.040548368881106
0.0256038455930565
-0.00549984260585504
0.0156625636656578
-0.0334054279669361
-0.0044275220058705
-0.016361699947382
0.0362190877813111
0.0145297898953581
-0.0383712044801429
0.0799484398632712
0.0103282928285551
0.0213795041267514
-0.0322420873976925
0.016929163298754
-0.0377521301041712
0.0105124678304873
0.0429207719685508
-0.00342978371988014
-0.0627473597413844
-0.0116676984019138
-0.0643419534832379
-0.0814512998857976
-0.0192034738309555
0.00784684862543781
-0.0487004960417112
-0.00455697049420044
0.0190268462461194
0.0380180676607083
-0.0424396896076166
-0.00456652918475002
0.0149736103559369
-0.0546128123574991
-0.00521111336710839
0.00575334133237364
-0.0694277191872878
-0.0685859992930035
0.00826375122982407
-0.054932302121497
0.0152494422305855
-0.0319079913529316
0.00365425224828006
-0.0828635309711762
-0.00207660610678753
0.0110902594737076
-0.0148620172567837
0.0149868506435338
-0.0272681901398915
-0.0180899137668922
0.0459331803882256
-0.0637433825643455
-0.000597860895106021
-0.00738506708790027
0.0223951025894313
0.0340356511336012
-0.0376519988127166
0.00695607065500253
-0.0521392635606841
-0.0676680959487626
0.0108443101614943
-0.00168793422416571
-0.0346747258686542
0.00962998309196073
-0.0495862418069915
-0.0352764355215318
0.0281277726746254
0.0537154979242535
-0.0169295475879543
0.0136019408260452
-0.00636041933230222
-0.0734525769366901
0.00622323267479618
-0.00934152367947322
0.0359281550610493
-0.0694502342596896
-0.0157346150903286
-0.00643915145631119
-0.0385829494785315
0.0587947323728995
0.0233634521904094
-0.0382162503226785
0.0240051672755868
-0.023736216549658
-0.0285075429124713
-0.0329332332283904
-0.0689833302947311
-0.0424640345138272
0.0505864200927183
0.00360998916001142
0.0294603351865153
0.0855087048674922
-0.0273688167772577
-0.067436769393317
0.0447754435973585
0.0152096404964441
0.0195517637829673
-0.0223631705418787
0.0473154655203731
-0.00141498052033746
0.0271886376490093
0.0118880353381501
0.0170033432027999
0.0321019373390307
0.0205036659006502
-0.00557031153280011
-0.0210342384792834
0.0286824650450185
-0.0628290035841537
0.0441868300439286
-0.05403994475495
0.00537427337842312
0.0198080389639839
-0.0321685323487075
0.0215843435620211
0.0540361916638515
0.0532380443138712
-0.0510481967511196
-0.0534527408928781
0.0206295418690893
-0.00675591278132819
0.0924983747033254
-0.0128251029189375
-0.0345274407068795
0.00587151613951518
-0.00598550528122359
-0.0150155350689702
-0.0150196051593476
0.0097493308898096
0.0336268661362615
0.0272652886432397
-0.00820682659607432
0.0333295168736056
-0.0159043839464779
-0.0138030610252564
0.0686695097220049
0.0619709580629162
0.0239880781141415
0.0207744194396864
-0.0149502671417756
-0.0105803648447737
0.0220649244801467
-0.0266643145273942
-0.012972293521166
-0.0018744514881075
-0.00956930293936269
-0.0525850577003043
-0.0642823503745907
-0.00223199498211193
0.057607891853038
-0.0492958749774309
-0.00270782625909307
0.0468969749921783
-0.0428962473472795
-0.0311734363103978
-0.00440450926737507
-0.0275854869486776
-0.012068496242206
0.0146936902688367
0.0139120845977815
0.0414121711306789
0.0177068197900511
0.00469749861683902
0.0403404184312342
0.0726757448848755
0.0895109572187438
-0.0112271166547543
0.021345656889056
-0.0320309026717332
0.00619607904628793
0.0152436933126746
0.0138500874872026
0.011679708082924
-0.0222268782783562
0.00837711145057309
0.0302867817880461
-0.0257231697455023
0.0035808676108775
-0.0379422465369251
0.00965875912503561
0.0302926855735566
0.0237462499469249
0.00211682854641168
-0.00812496648061593
0.0613371705199212
-0.0103736502789268
-0.00343793689454026
-0.0649778200462908
0.0333160248962137
-0.0270888850944423
-0.00647621403708228
-0.00689580244135595
-0.0279051875692016
0.0128118690490708
0.0186518222025326
-0.019828768629652
-0.0232317379284324
0.0392676175989018
-0.00535265556929452
0.0425823035927951
0.0224201831089022
0.039730652318553
-0.00688811985102749
0.0417558542175015
0.0317723273188957
-0.00702817136259647
0.0230433833024153
-0.0215749990848907
-4.42331236698763E-05
0.017960730406929
-0.00519439805373991
-0.0447085722164435
0.0302545201546348
0.023848774986925
0.0275279859566651
-0.0117483954286717
-0.0426301989560152
-0.0213905030914704
-0.0700744773920763
-0.0870571894003675
-0.00099178382573174
0.0297898051755851
0.00637302016635458
0.0335395724591605
-0.033534344827549
-0.101676567185959
0.0187620207823912
0.0429289270084612
-0.00626429525877592
-0.0112015209499515
-0.00342024156921596
-0.0114384866358004
0.0500816934087684
-0.0219554570386796
-0.0206590780808865
0.0195315499082247
-0.0034477481729669
0.0248028135634831
-0.0347753333793519
0.061829013374091
0.00919496310312174
-0.0197079440051486
0.0568148950378397
-0.0231285463434717
0.00114577136862623
0.0314474153311853
-0.00611878122381349
0.0214357070689489
-0.0309441284122974
0.0568261515403038
0.0208281844934247
-0.0106291892903987
-0.0330820326970835
-0.0106125427856632
0.0266349005543296
0.0274574055410643
-0.0341225464535806
-0.0343214440050817
0.059036047205572
0.0390829446945786
0.0218413657971273
0.0410532912719885
0.0141652790078986
0.0117386247020123
0.0466070597021839
0.0244950720930672
0.0123622402843864
0.00254986433113192
-0.0322244177298018
0.00316979437479085
-0.0353709520571
0.0664550581884122
-0.0330483968596142
-0.025775117994072
-0.011020455897752
0.0163987680082617
-0.0417662647764196
0.0244202200032587
-0.0586484911946479
-0.0465352327253053
0.00956418482882929
0.0386378747341283
-0.0451929411095888
-0.00989349560663183
0.0137592644817297
0.0392930492422264
0.00515903172265989
-0.00795051388155858
-0.00402804267247406
0.0257335991377727
-0.018481636601583
-0.0394751716931829
0.0749858698086992
-0.0127060535592913
-0.021177001774199
-0.0375991218043777
-0.00204558046418496
-0.0270148173487882
-0.0452141926055471
-0.0126809417369397
0.023971998178032
-0.0512843632981427
-0.0415226125594042
0.029408260906537
0.00123251266031897
0.068070252403712
-0.0118242225065194
-0.0338840152907312
-0.00862338259499003
0.0623387259036063
0.0310707319597527
-0.0820798408868059
0.0181565453834388
0.0390605668407752
0.0319444488724405
0.0508953117950805
0.0593306792090617
-0.00480943818591962
-0.0149827222000998
0.0599604164164347
-0.0362683627054517
0.0188633683742309
0.00602340810215663
0.00979260403988483
-0.0611895840590681
-0.00762354821256199
-0.0287432663852968
0.0111098074963317
0.0813237778641018
0.0479209574204796
0.00729371498440988
-0.0142234697046477
0.00149309130227103
-0.0587854022245517
-0.0248581504160652
0.0547435218353183
-0.0200175253179756
-0.0233889188454283
-0.0301570699512013
-0.0856735881333682
0.0273015214270984
-0.0316414041782397
-0.0486064974452212
0.0200808328911007
-0.0649657100083682
0.0139081378940457
0.0239181931816172
0.0173770110508496
0.0136522170888628
-0.0322323762222749
0.0153214484391462
0.0160591468339055
-0.000606973415572129
-0.0117896415519481
0.00604895434251829
0.00253809766356645
0.048006586001983
-0.0252512334933041
0.0361538317319623
0.0300183219321005
-0.043161102100733
0.00729317270140581
-0.0537796348396175
-0.00323736807790388
-0.0183402829713915
-0.00132099468736666
0.0142746195217776
0.0147318226161211
-0.0417722646062888
-0.0175886279058777
-0.0247066067061832
0.0282532950325853
0.00771297667029256
0.0571104131260941
0.0446028677349683
-0.0171320591368185
-0.00274192421468275
0.0174625513408545
0.0369652507255882
-0.0040498439493373
0.0167946930809671
0.0201107933579954
-0.0110987955234004
-0.00964292458151405
0.0329021831344342
-0.0157087132448096
-0.0345336211109034
-0.0308581891653542
-0.00381975586217268
0.0566639084403925
-0.0391882717353476
-0.0612969429782682
0.0609541230497667
0.0299973938150635
-0.075315806845661
-0.0232424598476642
-0.0307712888566862
0.0764152584794688
0.00452482952035884
-0.00899981387868406
0.0409232339779214
0.00855509071179228
-0.0465751585512735
-0.0746715603055842
-0.0717518950775923
-0.00133428184551754
0.00331430216960532
-0.0119603547882708
0.0521860809259596
-0.06548716482243
0.0283190724483639
-0.00589758540805275
0.022666332043671
-0.0179864993854911
0.0215098082558924
0.0192081901902126
0.0177249591913339
0.0298725387759226
0.00335293500420426
0.03307049760606
-0.0336251647414878
0.0410022828397309
-0.0690780819490181
0.0256628879211795
0.0353908821740345
-0.00733457447032851
0.0740619517393199
0.0503361382959565
0.0469798499514568
0.0427251534418277
-0.0156719730078582
-0.00159993492861204
-0.0726800795802683
-0.0384670775013911
0.052000730836783
0.00437306395741278
-0.0125509171184677
0.00457171842126278
-0.010735156793257
-0.0444587111647339
0.0333248054812918
-0.0516480108184144
-0.0560888084106155
0.0613944640003714
0.0528889964394682
-0.107779704123141
-0.00450494344682116
-0.0602581687618367
0.0164687526237024
0.00900060474226445
-0.0109366246300239
0.0829496210665233
-0.0696645471162657
0.0194852346499543
0.0324342104581805
-0.0378191234214225
-0.0290775931133016
0.00748882035274209
0.0388145217477867
0.0268245465426366
0.0133589498745813
-0.00664661469714758
0.058912430834652
-0.00798233190838836
-0.0321672671242182
0.0301335245761224
-0.00642242535773154
-0.00355121571065697
-0.0190420920610258
0.0109960007134847
-0.00469921528651277
0.00590917323336112
0.0227645171409741
-0.0527791411035997
0.0566386722039878
0.0530206888172068
0.0212849950847292
0.0182312713917354
0.0185462055323477
-0.0318270009830809
-0.0573032441800314
-0.0264819247061175
0.0213537643173125
-0.0443496692207068
0.0534180356584844
0.00495007316845437
0.0193575890695564
-0.0461204363394616
0.0324433151894268
-0.0406692099206506
-0.0773892500510215
0.0169657524644333
0.037227119108586
0.02267438656345
0.0452932819205549
0.000416192831632734
-0.00284861989694472
0.0285349143085354
0.000270755640165166
-0.0454170382365902
0.0122257104428921
-0.0253741443405775
-0.0318787815386352
0.0234244658952876
-0.000484056938629683
0.076593975866151
0.010790173808445
0.0179806269439792
0.0528931228585312
-0.0296666511545777
0.0413214493822696
0.0339944057532466
-0.0154362718896656
0.0406395516669682
0.0119932207859765
0.0167708269035884
-0.0160947882353236
-0.083037373052759
-0.0355446592690653
-0.0387553052306208
0.0234050975267382
0.0434366975783071
-0.0597810338682656
-0.0615303319678973
0.0283056764589892
-0.00134364290589411
-0.0246040621864502
-0.0182939460441414
0.0162241882993549
0.0376548150614602
0.0164140812497858
-0.0354395602534841
-0.075005497918093
0.00252430232853968
0.0775827194330264
0.0946206809716929
-0.0513214860945279
0.0230929006824326
0.0117917189233121
0.0242091183280663
-0.0137518276447492
-0.0305028040440196
0.0734435208410915
0.0151582315340032
0.00263304862228048
-0.014887117076869
-0.0188609581926942
-0.0707440948678786
0.0165094154965012
0.0736350997145692
-0.0192977942176724
0.00620586510061741
-0.0670470980444444
0.0314377655661085
-0.00242335874780673
0.0407994976754021
0.0398238220013808
-0.043773466930745
-0.0345409986834847
-0.027071308594482
-0.0223201774016358
-0.0525879223745702
0.0491494993637065
0.0186686977847179
0.00945217841558648
-0.0404506994786484
-0.0442982016184706
0.0214467936920077
0.0197004968142766
0.0423903565840075
0.0096477684831746
0.0334101693153776
-0.0330832619778435
0.0371430612198215
0.0385487159735763
-0.0448009903456477
0.0288069191842093
0.0628738830340354
0.0254389251853338
-0.00877269467890409
0.0119358252215349
-0.0252719315838896
-0.0344367795680902
-0.00645142157703675
0.0376822453285079
0.111454504976643
0.0325500675700236
-0.012468683603202
-0.0828062883261903
-0.0396102958451208
-0.0292269939543619
0.028705580410884
-0.0229931873891401
0.00535481893701028
0.0378900376284236
-0.0431734452870155
-0.0403882142166698
-0.0483687368810169
-0.0195805661473903
0.0215669098709607
0.000458519803461847
0.0316078857540719
0.0412861027664346
0.0391218240639794
0.0394537939312182
0.0265085300258401
0.0206131520177184
0.0481452600625925
0.0275340064628515
-0.0417762600080003
-0.0160760216218871
0.00358531473029871
0.00588845676574878
-0.0684845307227047
0.107681883928366
0.0041123615462797
0.0202157228550806
-0.0640312146045523
0.00632754852515128
-0.00567468713573655
-0.0656060895852627
0.00607145956139506
0.00218640027870169
-0.0949858337049179
0.0442574620120719
0.0321190373115894
-0.0200088533196352
0.0229985480995024
0.0618680309368529
-0.0316588393825772
-0.00913006061397869
0.016409270322682
-0.0386338575944933
0.0400624221058827
-0.0502566285165066
-0.0155024645887847
-0.0279390244022606
0.0139143330797808
-0.0319592237071453
-0.0576744925800908
-0.000948746769588273
-0.0280640047285891
0.00429344121244856
-0.00733089146091853
0.00460671947662091
-0.0197688390618428
-0.00345637429255383
0.029099249111
-0.0173974326561758
0.0147696862299041
-0.0620019837968863
-0.00334759737937884
0.0171980379833912
-0.00964933016984439
0.0431214690479306
0.0411289644919033
-0.011235108771235
0.0230795710563092
0.0303641372063294
-0.0663964786529289
0.104397574985986
0.0221841089395457
-0.0640131930444851
0.00387045924323748
0.0666079945355948
-0.0246741339240116
0.081585397731735
-0.0310187676579846
0.00419030758080046
-0.0814919005990988
0.00674362378903276
0.022518748133459
0.0206670994974944
-0.0443924441826032
0.0331200763558932
-0.0132369132707629
-0.00396591378559821
-0.0794735134427528
-0.00290833259472436
0.0468113488532558
0.00956043306707155
-0.0200817352645345
-0.0341928555761156
-0.0124410525256359
-0.0156777090297765
0.0563947638460829
0.00837888805619193
-0.00875487120738145
0.0381376047388945
-0.0147131922269388
-0.00563050477032374
-0.0515058763320436
-0.0688783455380831
0.0238054762969153
-0.029227278159912
0.0281286453871943
-0.0310437036917569
0.0899023729090212
-0.00306862941958369
-0.0317473264134927
0.00691011265510891
-0.00441712213517653
-0.0104784746295212
0.0282802995273756
0.0144622434396035
-0.0610034309213562
-0.100253899886926
-0.0223934172517704
-0.0120922549381429
0.000581334220055388
0.00522769053814051
-0.00857213838401622
0.00606694555827543
-0.0224294031894643
-0.00524065016240386
-0.0057717471700877
0.0307913157235559
-0.0446828750899046
-0.0182916617991048
0.0972731841204599
0.0137310337756317
-0.00565901559336066
0.00851332921461631
-0.0338097554562804
0.01657122778461
0.0231594779539568
-0.0318836644253279
0.0258129399227443
-0.00645617334103675
-0.0427810502778346
-0.0130652658365758
-0.0135892033553902
-0.0250360188729728
-0.00130328294221751
0.0716969543596649
-0.0343632460215621
0.0143384569781375
0.000109810909641144
-0.0129119175697646
0.0237739301144441
-0.0195926971717472
0.00617880190716215
-0.0328828968881913
0.0279934642146827
0.0419945533784557
0.057781469763272
0.0709324587497003
0.0929596782644434
0.0129053217021868
0.012952125747279
0.0229546613858317
-0.00779665259708627
-0.003263058614568
0.0547962657063083
0.0227979325425638
-0.0496001979200651
0.0187383129865833
-0.0493667410932554
-0.0484987674992136
-0.0325607891836401
-0.0125561048616302
0.00887985631105364
0.0516482748205727
-0.0278364397102557
-0.0409056708472298
0.00710206002556484
0.0386464930521871
-0.0206400620124528
0.0955731940245381
0.0663908468995968
-0.0552042217518384
0.0577054876457188
0.00612326084878335
-0.0519562802731908
0.0284590682141565
-0.0715093317106377
-0.00639476528114203
0.0293589878053959
-0.0387875297463592
-0.00521074424312646
-0.0331278047142559
0.0619917588039615
-0.0223244966715269
-0.0395589469467377
-0.0485023276916916
-0.0291995963292673
0.00740323059181846
-0.0437119420820286
-0.00369745643890268
-0.0735913773282645
-0.0239750624885883
-0.0374336496328955
0.0382568647358081
0.0360630147903478
-0.015395421705233
0.00705642375532201
-0.0133333444779934
-0.0117095885505514
0.00736405093778111
-0.021345986541908
-0.00900918695343566
0.0327294092687021
0.0135227541664718
0.0111591553168414
-0.0366173984802736
0.0464317359782023
-0.0412017271099679
0.0683622474409549
0.0702689544226111
0.0188925400919788
0.0510299426857647
0.0131102119740164
0.00613057316552571
0.0689713652213141
-0.0426622301700359
-0.0608516427016934
0.00954430476249498
0.0202690529858587
0.0357926799369055
0.0210183493666849
0.0533059108453874
-0.00436287221232976
-0.0170171034065343
0.00177314692211355
-0.06073993675322
0.0293107082692755
0.0173181564902773
-0.0354052177127929
-0.0163968313539165
-0.0158394161722962
-0.0563919607767385
-0.0207088919723903
-0.0391943954520724
0.0501264516996503
0.00786923023783435
-0.0252100269314259
0.0321414212137736
0.0187702874776913
0.0173625356152443
-0.0965482750301008
-0.0794511993780063
-0.0139502303360388
-0.083593712682596
-0.0209424061561077
0.0022270079596837
-0.0198360870414887
-0.0234431930325029
-0.0059431220499272
-0.00891691935129389
-0.0454559146176086
-0.0257702697836796
0.000263382360650274
-0.0104457307711114
0.00481709945188474
-0.0111472215857752
-0.0221695699521217
0.00215437333024451
0.0117357559111075
0.00111029013824111
-0.0284062620815833
0.0340354827661131
-0.00969058044781554
0.0267901129013227
-0.0413839818791923
0.042419043012265
-0.00116643191073803
0.0306433344453083
0.0863371961244584
-0.00568960756281047
0.0212435654190086
0.0824622189000235
0.00609596825162381
0.0260597933765612
0.02123696148566
-0.0845984026728781
0.0173026049716628
-0.0485743459552452
0.053757112523672
0.0200684155018586
-0.0235200225300853
0.0194729565048745
0.019626572798108
0.0076802657650179
-0.00842042265909607
0.0237781199116321
-0.018611115893986
0.00383231831970874
0.0293305093158481
-0.0167246860222719
0.0612548429963157
0.00815469009613679
0.0224911246092667
0.04362537520819
-0.00269020431159104
-0.0702941259802279
0.0306690647715306
0.0194313106787184
-0.000905681586294884
0.0384292396575509
-0.00228697433387709
0.0422664380359302
-0.0210779787847506
-0.0805139257405933
-0.0541818248780279
0.00362984001199025
0.0212771068222221
0.0450547441553989
0.0176065852823188
0.014203596937252
-0.0101129784799095
-0.020940597870469
0.0258668345732596
0.007314450986926
0.0102513809971931
-0.0261230575168525
-0.0256686701086825
0.030630810434299
0.00594815598249722
0.0273694134643322
-0.0513986751748129
0.00619081308435026
0.0225660741755741
0.0202666785128154
-0.0163629828732748
0.0334846203527716
-0.00495966719051959
-0.0303802020543831
0.033651527680306
-0.0195278965248901
-0.0427451030880334
0.0575156223536112
0.0913861910739154
-0.0587645488406661
-0.0315059472541083
0.0452754370117221
0.0159854849256752
0.0558607906537844
0.00898956675552939
0.000870241571355731
-0.00911149510097767
-0.0371511224935779
0.020897526363444
-0.065651089902364
-0.000130112472132457
-0.00615835878653986
-0.0312904680509542
-0.0258480671912321
-0.040172313675286
-0.0457226273234748
-0.00735481212289287
0.00363090410037102
0.03816941294103
0.0247892552510942
0.0182729505385202
0.0124759101620729
0.0282125074188132
0.0121272121996441
-0.0126760999703056
-0.0136465328818712
0.0121272656665554
0.00790088652741614
-0.0355819482650534
-0.0231939673182274
-0.00256953005270648
-0.010459583181532
0.0254870461687158
-0.0171149756088535
-0.0281181994968282
0.0540791793767989
0.00999323218656659
0.0118943276963754
0.0933299316274432
-0.00445690339071636
0.0584594433237898
-0.0120066720807603
-0.0164043991865412
0.0323575221659231
0.00341753583018048
-0.0185363126265552
-0.0280853885974577
0.0630733808765173
0.00721670567381026
0.0136350960648171
0.0415212699513386
0.00707300053111768
-0.0350606956946527
0.00991056506725761
0.0110008630516496
-0.0357820134477027
0.015117928618976
-0.0105183368902982
-0.0231907232711403
-0.0906407555026063
0.0296355890541682
0.0196072132115051
-0.0162988895482751
0.0244542606633222
-0.0142416491705568
0.000216070727432837
-0.0457489375994964
-0.0420556569747189
-0.009504223694675
0.0575112399536996
-0.0468741951737351
0.0186922386804479
0.0304007180725068
-0.0126152841237813
-0.0072987395296247
-0.0134639812066901
0.00670239178188378
-0.00775102451935278
0.0069299347397992
0.00350250321745738
-0.0573239661364124
-0.0403947623174417
0.0181467888118627
0.0214509353503164
-0.000541497621423085
-0.0263222761836158
-0.0144752051435292
-0.0169845558389388
0.0222681064195986
-0.0628541690109096
-0.0193993550797635
0.0646031996998378
0.0125142802407573
0.0613524936366253
0.0162890468981146
0.0500746818747603
0.0666543406243795
0.0114214814306594
-0.0402342262920193
0.00234380879826601
-0.0768971613577759
0.00201710832850583
0.00280743248452982
0.00660727544922586
-0.01051558658683
-0.0543812008672104
-0.0426751345983352
0.0274378826919132
-0.0187698138082115
0.00495256797387616
0.0079049450063201
-0.04729466681941
0.0186513528011952
0.00527418748635054
0.00408037815472295
-0.0344336893910639
0.0206177415323841
0.0172020314539474
0.0531316297361441
-0.0270067715990745
-0.00601921483643696
-0.0389172177265622
0.00591390788501347
0.00641392690097824
0.00440796579528776
0.00578513108922491
-0.0165407605295521
0.000824890639854065
-0.0427799929499808
-0.0133729835704707
0.0194218793796023
-0.0456930572301569
0.0286844735628432
0.00388247461406223
-0.0152017172218355
0.0813116366812008
0.0170873842490909
0.014597846295318
0.0079523169993282
0.00983886621340997
0.0188715761792862
0.00625167214139567
0.00873793835175811
0.00557496142474024
-0.0480949857795595
0.00803304331156036
-0.076942296789298
-0.0398998700204702
0.0143764025821182
-0.0169204373164964
-0.00517954862841403
-0.00827762283362564
0.0418545935703549
-0.00981671744597577
-0.00405164493821548
0.0941234870832638
-0.0150053724659721
0.00533136855555355
-0.00893744631206108
0.0384610849865006
0.0231511216616296
0.0164748459666406
-0.0517529956161325
-0.0336293768838942
-0.00540294269270648
-0.0336706177872735
0.0221041529937819
0.0119276086818586
-0.00266064238849814
0.0608730227921272
0.0669877392230779
0.0147534593484369
0.000222243610351774
0.0412449893090048
-0.0145568682350886
0.014004859622914
0.00328582823774407
-0.0538048486675624
0.0528633732740817
-0.0178373991402004
0.00509600179163412
0.0154152912040425
0.0548501520197781
-0.0389967739782761
-0.0537674339026243
0.00666814729163286
-0.0243603416386694
0.0533078731647066
0.0282190285214578
-0.0484859835179161
0.0388220097027595
-0.0198734589609817
0.0921048867345239
-0.0160807052567822
-0.0465012328711855
0.0550114792723656
-0.00582417925629225
-0.0526229400742017
0.063095329923148
-0.0505072470280124
-0.0524698701196812
0.0437803665144469
3.13079427880336E-05
0.0063640858394375
-0.01863235582282
-0.0572918391340259
-0.0751474476868433
-0.0336404652878015
0.0425990739003021
-0.00820721591465312
-0.00721341481133561
-0.0343927768344211
-0.0366634000283924
-0.022964048387706
-0.0190386297190434
0.0586851945219366
-0.0480734978477381
0.0250245678848229
-0.0650580399799616
-0.0039786300688454
-0.0336406975280104
0.0854006088664215
0.0124376958124029
0.0423600203234384
0.0142758367668555
-0.0486789852675061
0.0523428254032014
0.00532570782321471
0.0406887536717537
0.0284048660434367
-0.00877181692125684
0.0351090334290469
-0.0244553651701523
0.000818125090713207
0.0386244695606311
-0.0167000367822039
0.00671985317101739
0.0201617255448028
0.0391600667246043
-0.0357653599258526
0.031858331488574
0.0170009338390208
0.0437971444996525
-0.00891982149896966
0.0613303826961901
-0.0210024819691107
-0.0259208630098017
-0.0118365155204791
-0.0192621532750444
0.00102852141548055
-0.0252354956198953
0.0600037388144239
-0.0324015712721407
-0.0389240766078278
0.000787359850532412
0.0120847396613217
-0.0627795344609078
-0.00112207420996267
0.0383015707686357
0.0215091998665986
-0.00975431441890058
-0.0551553834695114
0.00850705356788397
-0.0447325961809369
-0.00724252688950831
-0.0380005420147189
-0.0206883029625058
-0.0384592990341315
-0.0194437067897006
-0.0254961302299117
0.00464650770283184
0.0768044897256974
-0.0469747529674839
0.01804604874945
0.0049498742907615
-0.00768798352917234
0.0948342355520568
-0.0258699267195105
0.0494293297344202
-0.0838443953016157
-0.0602158349397827
-0.0902606659360406
0.0302678050908304
-0.0178366605575447
-0.011086149857459
-0.0223766447652339
0.00724857596382454
-0.0381198617922517
-0.00110980439368774
0.0340580091335251
0.00586347559133405
-0.0843750888059984
0.0165087042275744
0.00774950168661985
0.0111689232458189
0.0275848879143262
-0.0568779543955064
0.0590414799777338
0.0868783047387744
0.032291970385093
0.0322747320453837
-0.0127885955134622
-0.0145306786828054
-0.00279785808465858
-0.0213745462845825
0.0633019460832786
-0.0180497886037411
0.0540050964514155
0.029553719810746
-0.0512721123348854
-0.00500697127065076
0.0416928517956446
0.0117292722455251
0.075535471388137
0.0126945655783775
0.0156782699568883
0.0232104763056549
0.0154952756629502
0.0642345025646718
-0.00603508743243902
-0.0578446481290366
0.0210978423079061
0.0436235449566266
-0.0446950196270562
0.0537711932999399
-0.041088426908744
0.0216738964425449
0.0150851444453514
-0.0467362101281729
-0.0345763422391159
-0.0377026207463258
0.0186673920005766
-0.0261019672910366
-0.00348081360057503
0.00701982388719256
0.034126999345326
0.0668109938620705
-0.0190001013437503
0.00602051029822807
0.0136187700386899
0.0778599746311184
-0.0236358368686481
0.0135223922894231
0.0284792328701271
-0.00176272614313984
-0.0141910383924628
0.00851640648116286
0.0484489656128287
0.0742689509151052
-0.0815862905519074
-0.0527219762420992
0.000107988619644502
0.0225364920468041
-0.0358570222347542
-0.00289847043084557
0.0217846428643194
-0.011211057986975
0.105187131454029
0.015165599642066
-0.0189244552501952
-0.0105130603878915
0.0199677002622104
0.0228878364280338
0.0447335141781118
-0.00783159234780221
0.0149695606116752
0.0417943535996506
-0.00858885571735843
0.055843129183888
-0.0331554484735519
-0.030758633443478
-0.102520460794322
-0.030405604174278
-0.0224364460299835
0.00177029591306456
0.0142362072879146
0.0245455470758215
-0.0306262918903398
-0.0119809123715151
-0.0469547918473137
0.0311950734183549
0.0363010586463403
0.0125209066100294
-0.00601560738080086
0.0203163503770118
-0.0141218714018368
-0.000997398008834299
-0.00367302501394485
0.0604601869003179
0.000984770626094225
-0.0147379840649701
-0.0812688199838116
0.00213011568418538
0.0303419784450583
0.0271487535236588
-0.0805637580822153
0.00528974101113165
0.0371591870969525
-0.00612366598591307
0.0595603659549799
0.0803872969564109
0.0103870038170767
0.0033511120301293
0.00293021573283368
0.0293754491681715
-0.0459919880154258
-0.0240921040976474
-0.0350562213382944
0.0140089510333171
-0.0177548334867351
0.0434545383372906
0.00703330378541272
0.0808391085394193
0.00314614102035884
-0.00444910796679582
0.0247536879927893
0.00121968929560297
0.0418572568041455
0.0406609923149547
-0.0312100961431866
0.0126599603822413
0.00990946755386459
0.100346265860187
0.0125777352514281
0.0469007570401678
-0.0233695484854259
0.0122215919249426
-0.0113573601945084
-0.0222520925839228
-0.00981133009645433
0.0230987095595549
-0.0145952196535283
0.0333814807084022
0.00788034033223965
-0.0583670363680137
-0.00581712872607278
0.0269512276189944
0.0709585800543434
0.0161091969059676
-0.0380190308766819
-0.000611157340421705
0.00377395702264889
0.0100196520875552
-0.0141144166037739
-0.0338087024503925
-0.00767995300815345
-0.0599442504494702
-0.00915401093501486
-0.019837112328745
-0.0349626806958924
-0.05767401301097
-0.0198371176513536
-0.0147074778820601
-0.0101001854240503
-0.0476392882520039
-0.0523352082202966
-0.0214045800263724
0.0360899948147383
0.0424830755072042
0.0775812764912671
0.0175146211942768
0.0270508394677079
-0.000170961056869028
-0.0281950285443644
0.0398832886378992
-0.00232507966871162
-0.0197696679531447
-0.0132586280863769
-0.0481681646982478
-0.0189340060965502
-0.0260960213750265
-0.0114963126424045
0.0287599343605549
-0.00971616347329758
-0.0639623239905289
0.0554681558681178
0.0216035862798343
-0.0471909138639482
-0.0668192694091562
0.00849159776938025
-0.0430241086946618
-0.054539566068625
-0.0274062331628901
-0.00396298815953855
0.01380730349056
-0.0226025016599679
0.0391527690386233
-0.00897873203909589
-0.0671018081901933
-0.00620472158784002
-0.0120347645354802
-0.0239114894742181
-0.0713333820379861
-0.0189487035048334
-0.0462660524192534
-0.0392469264947574
0.0305033439474637
0.0156963647203627
0.00141327912620173
-0.0657276804691757
0.0261828656627255
0.0203027172420064
0.0010142666079981
-0.0110799812807267
0.0543586898087948
-0.00723536222138815
0.0013856698642796
0.00960643521702125
-0.00381057099648495
0.00573301806551402
-0.0933159615065476
-0.064797094557456
0.0251376344505813
0.0089660000940775
0.00157433615250581
-0.0137008622972639
0.0113656614966864
0.0566630904965133
0.00333693378280983
-0.0252308142552946
0.065208958480117
0.0523908107401417
-0.0462854278294083
-0.0263945257866857
0.0182038740342888
0.0113478258915639
0.0178219669130139
-0.0105768407440725
0.00669248779355067
-0.0459347438100757
0.0432406136291765
-0.0382769147062338
0.0101718757773697
-0.0580869059256969
0.014024144945112
-0.0227436194442086
0.0131612499393442
-0.0106563698618299
-0.0324578102895063
-0.0193940246016035
0.0445670188101161
-0.0128042706960243
0.0226066472064763
0.0204343743362431
0.0545413818863903
0.0744635910214712
-0.0638861940554037
-0.0206820923015811
-0.0106014475604112
-0.000853464578711956
-0.0171692748462196
0.0168812185044418
0.0428934560636323
-0.0381059789210272
-0.0254329879347525
0.0369040115756804
-0.00591981862208844
0.0515888586102863
0.0495789954100035
-0.0456848879356108
-0.0411716797422628
0.0165476854805563
0.044429199758641
0.0180948746160547
0.0019608322239641
-0.027290384880857
0.0500328263958218
-0.0217624754820493
-0.0512937672556385
0.0594270738816481
0.0212815954678097
0.0711124805897351
-0.0239319446215091
-0.0192001817260562
-0.0337719897609148
0.0293453087643074
0.0211639916857368
-0.0160593076008317
-0.00545227603063485
0.0136951318070442
0.0215751479784384
0.0300438516716625
-0.0293644719057015
0.0140472696524795
-0.056490625214926
0.021577155167466
0.00329642280194604
0.0730128886826253
0.0342244532427575
-0.0186180549035561
-0.0182554462349001
0.0111146663826705
0.053185827939567
0.0318548128934436
0.0459530800375133
-0.0584777716165025
0.0540166760064881
-0.0350703568131308
-0.0016885522538099
0.0177996851661181
0.0836149705488534
-0.0245482831827897
0.0117400837156054
0.0582793421072866
-0.0467928680846972
0.0126020948004138
0.00289974525673578
-0.0350971933729795
-0.0206670473399308
0.017956375859425
-0.000158933896606242
0.0620716427064697
0.0370452066652664
-0.0684114384632794
0.0114142436025736
-0.0143077242605217
0.00356609299172985
0.00217605250473476
0.012306554556389
0.0347462287154571
0.0620440976000893
0.00191242569348845
0.0252672520075606
-0.00034260015123397
0.0449207898916035
0.00378069680902074
-0.0475813520381117
-0.0204159864387823
-0.0862590675493138
-0.00364689258776985
0.000348095648864015
-0.0103006549192986
-0.0198970676707853
0.0272530625444136
-0.0155720941421405
-0.00223393460222115
-0.0273035505151064
-0.0438699972746935
-0.0271912443604695
0.0319505144239258
0.0456494559240033
0.0138860555724513
-0.0317142340423475
-0.0418631474205527
-0.0010998747943394
-0.028650290059715
0.0573950785279366
-0.0129132016316026
-0.0212980889813219
-0.0105926300079447
-0.00692474880124496
-0.0254026806676387
0.00184462095798683
0.0390457821907183
-0.0189602241062886
0.0201928205688904
-0.0472372764527415
-0.0252712879173487
0.0207077045224273
-0.0278785062542903
-0.00638653641639133
-0.0328070880603436
0.0389209388338104
0.0125353304338125
-0.0219313124973163
-0.0141893297351338
-0.0424118031738414
-0.0287121939003819
0.00786467453193478
-0.00348321128726943
0.0395175180343677
-0.0721259857082539
0.0532870628464007
0.0164682741397545
-0.0464894980048822
0.071377340497136
-0.0190508245356928
-0.0331154564928172
-0.0292068126026471
-0.0173468509144887
0.0436158986828066
-0.0144722172042647
-0.0175671624425929
-0.0600831863246694
-0.00160115713971758
0.00921771374978262
-0.00884177954350945
0.02744921055026
0.0127246435207497
0.0490922232159132
0.00286259051722017
0.00169239284405503
0.0160190404361447
-0.001840281090549
-0.00641481824275203
-0.00464848396027935
-0.00413354386680508
-0.00348228428083182
0.043902086820919
0.0296474014969963
-0.00960341984726257
0.00755842105922475
-0.0066273545180551
-0.0173557058631528
-0.00123416601143315
0.0681350372178498
0.0423071149213389
0.0167036262472586
-0.042003353255017
0.0502076839448078
-0.0499230317921913
0.0154308929424284
-0.0631209509024811
-0.00333031374298727
-0.0294397714012266
-0.0051469175932203
0.0426698978775605
-0.0219830488324987
0.0157400974782576
0.0173540839025532
-0.0372753583888403
0.0338094730030293
0.0152692061668688
0.0406208931110053
-0.0250448413810506
-0.0412919239473703
-0.0107417940101023
0.0182787184169362
0.0637982730516994
0.0449694656156695
0.024951130041602
0.0693862317966246
0.000587207936346196
0.0256547169880768
-0.00900817397878402
0.029160211266074
0.035998463993747
-0.0127262177006158
0.04946031869787
-0.00883235808609049
-0.0325620721257228
-0.0279080960395626
-0.0133151353650709
-0.0308315706196193
0.027803314520199
0.0175612412376261
-0.0219353338456312
0.0435971094468886
0.0288043527737939
0.0184145458807633
0.0359128276368726
-0.0126094412422549
0.00627928995776784
-0.0280992695772143
0.0234641436489794
-0.0601419685842487
0.0467215715032722
0.00725268046149011
0.0278480607997051
-0.064102502405133
-0.0121902201601165
-0.0549960786101847
0.0500132410201852
-0.0131489195837876
-0.00659611878063023
-0.00840066289637727
-0.0247979572160944
0.016132528519509
0.0535216401816881
-0.0428367761464531
0.0116946639967521
0.0130878717920731
0.0973827212235956
-0.00859679487330639
0.0965099208503058
0.0374576931700072
-0.0478524724962803
-0.0250914300777617
0.0344399905531389
0.0528337882566037
-0.0189742052760272
0.0316054814155676
0.0522650084880014
-5.12915303861356E-05
-0.0114025396909379
0.00946719919304456
0.00817549029307905
-0.0892437083570639
0.00274123279732958
0.0138021088298997
0.0542309929778582
-0.0339969610448945
-0.0801360860442064
0.00424622726030887
-0.0549335039120602
-0.0110076305884748
0.111470758194975
0.0700975956295207
-0.039157924524183
-0.0406882822038001
0.00567705364837865
0.0171021177959559
0.0338826868998415
-0.0531363147706594
-0.0271155526850891
0.0175928525290423
0.0064547312732914
0.014291334158345
-0.0306556280322484
-0.0622493338911075
-0.0307747699493812
0.0126169787640341
-0.0026994004899474
-0.0432235217209418
-0.0473213355141475
0.0178246958809267
0.0203319922146243
-0.0256711375403164
0.0318711000216359
-0.0336012739237231
-0.0272170233823786
0.0414260951745297
-0.0689732524110326
-0.00622014098170396
-0.0489666735145912
-0.000525580209747321
0.0118962309430756
-0.0150902739919149
-0.0642203364195191
0.00420388922179272
-0.0207695859764263
-0.0281777482808782
-0.0384306947058941
0.00249538007887459
0.0334867808481687
-0.069826284760046
0.0291559789254008
-0.0431902306282456
-0.00677648127831237
0.0108742218700361
0.0170701421012452
-0.0113671680959004
-0.0312401441495903
0.0503044565189579
0.0233560202189076
-0.00405052393781881
-0.0673628911677432
-0.0634280670662444
0.0252307892683236
0.010760897065227
-0.079612982580034
0.035438377294838
-0.0111357714814402
0.00585260784776283
-0.0179810975646561
0.000576767881556037
0.00923612544926441
0.0196351650357271
-0.0294383216024153
-0.0520040127214822
0.000821681002815304
0.00901855611933279
-0.000273985544277815
0.000198980336515978
-0.0433223241203493
0.0531439568111288
0.0118309786913074
-0.0692337463945683
0.0031427424088328
0.0108807050122341
-0.0543512280590958
0.0416852814453623
0.012783828592866
0.0177359835580659
-0.0131412240860212
-0.0208654830072035
0.0673587458276992
-0.0221001926836747
-0.0666466367036536
0.022031536323524
-0.072505336489419
0.0435143401080111
-0.0352705442231844
0.0381958208007253
-0.0132562441290766
0.030221395050144
0.0670833163445637
0.0159339889298702
-1.68292090122007E-05
-0.0010187213456401
0.0139735107050352
0.0693526558927599
-0.0364181505176413
-0.0736038844893053
-0.00905217267567828
-0.00316439404098113
-0.0115881769259251
0.0113643407968072
0.038312027578217
0.0212374595568338
0.0462133461752514
-0.0463964823803818
0.013159491899205
-0.0124779120072672
-0.0364742477045531
-0.0290646880533329
-0.0158130364605102
-0.0499306899075084
0.0319597655254594
-0.00738953605508046
0.0179730992001299
0.00580943349674565
-0.0457193314836366
-0.040103062895844
0.0471745509847488
-0.0107763126858052
0.00789844715554613
-0.032861596858251
0.0528695504188242
0.0104195746302998
0.020069836433207
-0.0419211790825268
0.003376469925866
0.0596397296219915
0.0645120405836682
0.0357212916376405
-0.0367092511896063
0.0404317766442119
-0.0347149848166867
-0.0164236925122779
-0.0136347318244608
0.0281517580039251
-0.0158769875979208
0.00859700573166321
-0.0567358378140378
0.00762936114187138
-0.0554240944569341
-0.0283553389787144
0.00888670922543528
0.0406212971637744
-0.0383477543679404
0.01535023621563
-0.0253840431998686
-0.0306233847105113
0.00891156330913604
-0.037646988619669
0.026425292199501
0.0526133115259306
0.0360842351251822
0.00774032869695275
-0.0579459266978873
0.0172190442945359
0.0220496439697112
-0.00470718367890711
-0.06481427563952
-0.0474420641124172
0.0626891979186818
0.0622853870751648
-0.0409802919688398
0.017038759873308
-0.0100106850325374
-0.0334011038186999
-0.0716338918796381
-0.00950861519026361
0.0267566513665417
-0.0430609555851159
0.0117375941278023
-0.0661890373219913
-0.00439719644999158
-0.0352983575352663
-0.0277858374153448
0.0277722028848223
-0.0871762461706342
0.0322678475703688
0.0464462536667462
-0.01411038238968
-0.0302650684121954
0.0431132541948515
0.0651130838206486
-0.0168321250385378
0.0182720934107817
-0.0781309601539069
-0.0479761857863706
-0.0431699468610911
0.0448652236846851
0.0194321413366771
-0.0456984512064381
-0.0412422580401315
0.0618546401069716
0.0200759108194722
-0.0648310241962644
0.034958942792519
-0.0394175096047903
-0.0827539709779412
-0.00842828673546091
0.0183060508009704
0.0201567807398286
-0.0464796419956632
-0.00913435883182595
0.00198029467322262
0.00892996853305737
0.01579619152165
0.00516892589915851
-0.0468559394379039
-0.030564166300123
-0.0451230279352945
0.0137418173089213
-0.0108136767959068
-0.0426404999437178
0.0273408428550623
0.020842238706202
-0.00617565708369165
0.0132600912877452
-0.0117001125763049
-0.0350692909894625
0.0627393851539542
0.00516580052282682
0.0133676991342396
0.0179535363673026
0.00468899970230348
0.044152013225665
0.0479588550603706
-0.0252544445590727
-0.00357951407804055
-0.0381653450190325
-0.0440975006657949
-0.0150761589209053
0.0232008562802075
0.0361292162826886
-0.0264833045707692
0.0143047954270716
-0.0456654836018157
-0.0474591434510583
-0.0142959987421827
-0.0421934191040133
0.0144965715092241
0.0660385337541133
0.00961569749975282
0.0684097528350643
-0.0266123341005543
0.0737221027816386
-0.0467653002616009
0.0394674628624971
-0.03349769978451
0.0301885696696294
0.0179664636632305
-0.0165076979155507
0.0143667985473695
0.00646218292749008
0.00193411732181764
0.0281142674425476
-0.0722435122716692
0.00501473822980376
0.0175127052131652
0.00912377415214754
0.0473738845732311
-0.00262391839467949
-0.00547521675129687
-0.0735633158165494
0.0243735774114342
-0.0117911319453498
0.0600718208065472
0.0399026625415598
0.0454872388148963
-0.00659432818069112
-0.0442738488644025
-0.0507219182153533
0.000681095535922331
-0.0547173541709159
0.0225159727738349
0.0323978482836941
0.0837406975822467
-0.0102732225896442
-0.0216447330412911
-0.0526140925784653
0.00436585821130213
-0.0688719669970672
0.0135182766576285
-0.0119011137696404
-0.0132404428172136
0.012494747693708
-0.0433692777727283
0.0245819757702722
-0.0173395387635303
-0.0325976626591535
0.0143998111086521
0.00190688855295457
-0.010611704166029
-0.00110184974836209
-0.0503903363968955
-0.0356094812767953
0.00757948283602608
0.0139716232514455
-0.00129979500016179
-8.96440040545437E-05
0.0503082493217546
0.00610467202720513
0.0276897538366677
0.0225793018908763
-0.0476027107851633
-0.0137965426698817
-0.0503390821251462
-0.0155650240631209
0.0114636097448961
-0.0277437551947075
-0.0526300322118065
0.000718258767021904
-0.00701311938993848
0.0395746310075149
-0.021481260706782
0.0230290885753534
-0.0749781350414098
0.0378700645924143
-0.0435713333021398
0.0540945726486424
-0.0223477034880512
0.0027821388776274
-0.0180285956702817
0.0448047266829452
0.0161873908586046
-0.0109312442333008
-0.0189569235060618
0.049178045845652
-0.00803861552561146
-0.0573037126485515
0.0143631781724232
0.0245126342478296
0.000493672868385365
0.00498293780302722
-0.009659836685262
-0.0122447460928771
0.0222370433437418
-0.0261651670138805
0.0776851932373492
0.0705652808947019
0.0437262674918643
0.0194954104482515
0.0130536413269091
0.0264477627761578
0.0230702268457889
0.000145536256673839
0.00131172225763103
-0.0368217843552726
0.0805932330069321
0.0241438960306587
-0.000860672711119487
-0.0807331065616369
0.0400375901862178
-0.00324648820994138
-0.0414031662363205
0.0157571140941579
-0.00770811909454551
-0.0043226963083178
0.0106473636916517
-0.0321577687928171
-0.0458037887708207
0.0145926542056446
-0.00416674866695789
0.0108147618591666
-0.0265719615815358
-0.030620751834465
-0.0329440127950958
0.0150630385262033
-0.053549044428906
-0.0240656460611676
0.0506838688816446
-0.00823639751554234
-0.00594645854970094
-0.0237929082803333
0.0146196525969556
-0.012578412707636
0.00252041716991791
-0.0173623712971554
-0.0518275215368843
-0.0179114276537064
-0.0418770221130298
0.0262740367123295
-0.00336252607670011
0.0188598060000825
-0.0165977483722604
0.0524065655333818
-0.000980038129888031
0.0450367554718641
-0.0377554073596358
0.00774835605214806
0.0117523631163331
-0.0283403339889007
-0.00630847429153853
-0.0177468996703708
0.00154227271060221
0.0504431303202713
0.0105554741081668
-0.0505968615068733
0.0171760026238563
0.00894031831677321
-0.0211039684596227
0.0619203567410979
-0.0201141967029871
0.00104690923316635
-0.0229319875914957
0.0133264975843173
-0.0307155037156912
0.0145984429853129
-0.0351834233992379
0.0441936728419594
-0.0233773630995073
-0.00409583156796012
0.00685578635688707
-0.0174921355544163
-0.0245275947050219
-0.0467873514187764
0.00216622094675664
0.0370983696495516
-0.0261598393627366
0.0141431127452993
-0.0159299703768144
-0.00947255792524603
0.0288662017242676
-0.0119259351951562
0.00800927449443182
-0.00317953140687357
-0.0124296497037342
-0.0431172074912133
0.0487437714011402
-0.0330239304258772
0.0684533705880553
-0.00258442035160866
0.0413399072848372
-0.0147911156202241
0.0223506239840029
-0.0104990843317825
0.00419357801242123
0.014264743026318
0.00851935759438096
0.00789049286249362
-0.0207021261675814
-0.0160305675250156
0.0260257228757452
0.0257969794533234
-0.0342763923364736
0.00656886782369548
0.0476498251464483
-0.0346263959804343
-0.0172019488637263
0.0443003312915338
0.0145739136505101
0.0391912545715624
0.0300491774956958
-0.0604421410280123
0.0198525144854382
-0.0109353195155765
0.01486400367649
-0.0194147046857511
-0.000294665379002078
0.042261147304532
0.00985762002492491
-0.00841823794767527
-0.027989426317021
-0.0589426073894387
-0.0216196061705731
-0.0196175706148422
0.0466223166341502
0.0241330857478264
-0.0889286916094214
0.0341582239754465
-0.0420218930841999
0.022912116473227
0.026842169063365
0.0567163948532214
-0.019662946280248
0.0104807227926605
0.036681566831178
-0.0159500321217626
-0.0522378633579466
0.0176349485429869
0.0639020915322206
-0.0816865141139244
0.00119958201975482
-0.0200088784075932
0.0404209847575328
-0.0390990873312015
0.0134789986313847
-0.0164590954817784
-0.0476629485453128
0.00793836839579905
-0.00529590165320524
0.0109249042615786
0.00308863312272007
-0.0450014430069427
-0.054505308493172
0.0155111194906915
0.0142956588599338
0.0113205183562007
-0.00932396208678123
-0.0606236012592703
-0.0314416879228377
-0.012402403478205
0.0197007902297538
0.0259140445924123
0.0454237879127363
0.0240277970299644
-0.017919727111876
0.035919500060034
-0.0196394354271705
0.0268611985314492
-0.0092993476970685
-0.0426884484319599
0.0360067199173494
0.00108512184547894
-0.0686539659696604
0.0135974226505462
0.0360610884760339
0.00357587561368583
0.0523366447680697
0.000836793956762157
-0.0303525432366544
0.0216559649521026
0.00314545782288844
0.0163559488779413
-0.0191142773331694
-0.0263346613116195
-0.0301688228985129
0.01157938805919
-0.0289117723168642
-0.0631827899570275
-0.0346959407364987
-0.0208835569638034
0.0454515833886053
-0.0196894140132187
-0.0321627482048923
0.00157543075727445
0.0125861915171148
-0.0809278428128846
0.0394476240548422
-0.0215849646776632
-0.0444703430069569
0.0323949789877885
-0.00323954392452287
-0.0281304134356867
0.0674752462199991
0.0236010616797342
0.0714092369097328
-0.0369682489108852
-0.0247315008069637
-0.00376835668258422
-0.0233737345654438
0.0996238030640894
-0.0125205336838107
0.00630347050543838
0.0269478898507623
-0.00338326466557519
0.0533269819518652
-0.0176509332285584
0.000571467479001605
0.0408088626715276
0.00523509739196893
-0.0407578021776254
-0.0236350735171503
-0.0154064914819543
0.0212822459718646
-0.0415218804687658
-0.0372211773431641
0.0233156085486924
0.0117228301226023
-0.0202591371333428
0.0783814850952515
-0.0636798508294115
-0.0457133182218485
-0.0785602244166183
-0.0122554343225621
-0.00132676508473444
0.0248425705254314
-0.0353655572852976
0.068886698443215
0.0362304021722096
0.0292951701352337
0.0213984244743984
0.0596123471757991
-0.00630851533528799
0.0698087688545345
-0.0198422476525193
-0.0311387824365146
0.0464327052022326
-0.00564394218676359
-0.0213324863551017
0.0209710239077988
-0.0693785257771836
-0.0294357750113471
0.0635882652780533
-0.00454158014005526
-0.0481314410173166
0.0182286243563
-0.0145191476886701
-0.036035963392302
-0.0157326400047005
-0.0124729573367605
0.0301377673786014
0.0284789361081246
-0.0170311716376075
0.0467771652774332
-0.00534884329779835
-0.0177682177647197
-0.0229212753936929
0.00308295203399943
0.0204997858250846
0.0567479669271889
-0.0392982752360399
0.00317122493145973
0.0194297619555499
0.00636431385375283
0.03527482464144
-0.0177064580591755
0.0195636030780165
-0.0390709330661331
-0.0261704679156731
0.00936800099235887
-0.0906727433717687
-0.0230242534677062
0.00585936954922079
0.0295973313240215
-0.00661629345923991
0.0623826852725984
0.0325689615956836
0.00779856795185046
0.0477355353542627
0.0014054962962059
-0.0274681159910669
0.0125782600257249
0.00523606371440235
0.00653903736760979
0.0685112245409615
0.0169943591828102
-0.0346300650078013
-0.0234325538536412
0.0198026356933483
0.0228983848827659
-0.028642702885616
0.0117714427532804
0.0234436420966641
0.0737433426069099
0.00856203742247763
0.0423703928990518
0.050946845806869
0.0281902936677523
0.00127264137975077
-0.0212142833064837
0.0752672228282929
-0.030204250927748
-0.0305650104746851
-0.0193981654296806
-0.0582043205506443
0.060843408920053
-0.0473497464816332
0.00800685934116039
-0.0751510703933549
0.0703101168118778
0.0370427935889139
-0.0345827445313276
0.0253576993447697
0.0236954370327946
-0.0570157613051709
0.0165451776439163
0.04343665605638
0.0159884789711783
0.0110446697392121
0.0891169140188276
0.0338950554319299
0.00132226808932263
0.0605839833848213
0.0459922479269035
-0.0313827902584909
0.0633455847593021
-0.0553918951676138
0.0032235185527308
0.0232413977954283
-0.0213920231602173
-0.0419287994994067
0.0303737235360454
-0.0783398570619152
0.0224509411833448
0.0285900107425448
0.0157333461583241
-0.0267098027139237
-0.0289215906713001
0.0491549537660512
0.000670814115098753
0.0426608884501326
0.00168660433102411
0.0317406676403062
0.0634714117396327
0.0636257249642094
0.0182103962477286
0.0565548191123739
-0.00176254437836524
-0.0418462270537872
0.0144418053356683
0.0413764339119232
0.014414074427634
0.0559716934341421
0.0144602505538367
0.0484825386458891
0.00631605999059833
0.0159767401781656
-0.0260499899626907
0.0177598790151413
-0.0337315999832154
-0.0358441923677091
0.0166009773167222
0.0372193956827686
-0.00269335881858065
-0.0297520796760879
0.0484666534092969
0.00960007257154398
-0.0164335873216209
-0.0223573741602646
-0.0021685695214712
-0.0271405259330343
0.0143952638409628
-0.042565277264679
-0.0201692820720307
0.0141724794642352
0.0702579735720604
0.0631727418909461
0.011583094311288
-0.0484503020765243
-0.0329566729094463
0.009307207149883
0.00423347788287551
-0.020072832702056
-0.0102846118691217
-0.00566385701491965
0.0662815212854874
0.0128088937630529
-0.0715562413903452
-0.026653170711462
-0.0123507686397897
-0.0643805531077191
0.0728484668502476
0.00688802884457477
-0.0243954370585813
-0.0306633163123243
-0.014334358236353
-0.000884108286982847
-0.0653220364758854
-0.0119894089668873
-0.0537400510691464
0.0151075454305012
-0.00731316696227147
-0.0468140390371665
0.00237115230550801
0.00948010265637238
0.0207691938099614
-0.0259455009291224
0.00686221710453114
-0.0081930929102456
-0.0141374502535287
-0.00224968794139429
0.01023821471381
0.0809256030635758
0.0522099960512674
0.0120567096429952
-0.00504552359630082
0.0335065521135462
-0.0499108908615637
0.00251025583612954
-0.0150237755670496
0.0353172676650467
0.023102429194751
0.0463652736770249
0.0686476424686569
-0.0257253367181714
0.0228897500371659
0.00516631512288698
-0.060987942349741
-0.0181689718459481
0.00546006478205809
0.0278026045792412
-0.0159553502534226
-0.0691043723890913
-0.00909907276346699
0.0298676545845619
0.00528407152226485
0.0291451457934302
0.0659468122810697
-0.0300009834814153
-0.016511407739331
0.00331657521832304
0.0378982176430164
-0.0223783346469857
0.0539973142535098
0.00271851923699981
0.00128403083558669
-0.00975467668658478
0.0205741083188705
-0.064982984382244
0.0851121486448538
-0.0194135433101868
-0.0205476959381197
0.0630178859604035
-0.00853672750111953
-0.00721898157786512
0.0281272235556518
-0.087066870282453
-0.00558422587668289
-0.0279450753379319
-0.0044321505455308
-0.0170867218950812
0.0278774050443363
-0.0101088909565632
-0.0343248811071624
-0.0780053090794715
-0.0650483763690242
-0.00704703634405048
-0.0035862404797045
-0.0242249054093421
0.093411348438812
-0.00468330971486315
0.000387824735074809
-0.0730406605778647
0.051982493172046
-0.00404634817757354
0.0185600645306486
0.00200346955382761
0.0104613628597702
-0.0446328260793092
-0.0388224970606474
-0.0270022167973596
-0.0145261995102968
-0.0190174508497564
0.00487716422978065
0.0130612984490753
-0.0475158905252914
0.0194220075930692
-0.00301681750162753
-0.011796793582152
0.0602883648168268
0.00331229090805347
-0.00213684943973232
-0.0150578470019037
0.0258686026269504
-0.000673011391122534
-0.0426085849883915
0.0284622934995986
0.0397873538299688
0.0593641822683017
0.0575770262800593
-0.00750562614966821
-0.0201014814694253
0.053978014524038
0.0210943765863231
-0.00831604961083155
0.0125122201228721
0.013354114316259
0.0720153697120265
-0.00556267230542382
-0.000887715989371689
0.0293499071607133
-0.0302012697956892
-0.00378347988161969
0.0202676148247152
0.0280358443020804
0.0154086815148025
-0.0467691634243692
-0.000681158396601192
0.0602360499434117
-0.0475020776628744
0.0377603222731372
0.0290197040323866
0.00281690764884225
0.0154254034158941
0.0596968468034062
0.0581631256449967
0.0281937807508279
-0.0404494115663394
0.00212323543768088
-0.0345536798883729
-0.011786115750149
-0.0367160145838256
-0.00385148849386001
-0.0888794457309162
0.0742706101588195
-0.0629093337793824
0.0104537518415586
-0.0147388879520749
-0.0364828779904006
-0.033938912832039
-0.04843575889791
0.0296423285418056
-0.0216263719488417
0.0253517137061804
0.0205702688908035
-0.0681795869975952
0.010409667114978
0.00899356517580116
0.000669241735416302
-0.0693275891921134
0.00253866344089025
0.0300958855782216
-0.0511470030338631
-0.0164359305701934
0.0258361840817584
0.0338378589247909
-0.0506326346582286
0.0267282423548647
-0.00351101044653685
0.0215254351474983
-0.065841393207235
-0.0421802380353407
0.00647118754286165
0.011088572674604
0.0239572580537861
-0.00442347593866357
0.0135345548384841
-0.0082837142250384
0.0329361878967142
0.0349224690874423
0.105986845665064
-0.00895743255352297
-0.0211422516044953
-0.00693201829973429
0.0883934959718547
-0.0110970310676519
-0.0153926729653749
0.0381742074541895
-0.0126800276293911
-0.0299721387035878
0.0394522449701208
0.00288030072141604
-0.0525997263397991
-0.0175275278732619
-0.0105279642426023
-0.0608708902230074
0.0240043863797122
-0.0112116042316741
-0.0183082147587585
0.0171020383402668
0.0169484848946796
0.0460310382316871
0.00742159457960713
-0.0158501968637384
-0.0142506944665674
-0.039362661383572
0.00896144034324003
-0.0297047558854467
0.0631385664930335
-0.0355366132331199
0.014501999526179
0.0138894692003718
0.000587491253938121
-0.0554959197171566
-0.0194997008214477
-0.0583965662685335
0.0345059104043607
-0.0120397900690097
-0.00637071833713807
0.0491627399625724
-0.00122291311814649
0.000535836290458606
0.0250547138899959
0.0140725502082682
-0.0326718204274452
-0.00785407289623689
-0.0679859587953323
0.00645079780816155
-0.0234332960736759
0.0347073600550788
0.0180000115146752
0.034719264967847
-0.0315421226048837
-0.0243299224398907
-0.00364418510983171
0.00781616223548217
0.0738523418186724
0.0291930523196595
0.0208506835322298
-0.0113184569399591
-0.0537250970982907
-0.0556893846914542
0.0250765258292136
0.0301536015717532
-0.00130287993232432
0.00911405406530761
-0.0510586414275739
-0.0537521413591209
-0.0343103153982726
0.0543792001678027
-0.0173824349736199
-0.000727102090427969
0.0201936270938611
-0.0189820233007725
-0.0698476151679669
-0.00561929036651397
-0.0414042786785549
0.0130906188038233
-0.0135108462861673
0.00719122748215628
0.077025307601094
-0.0193550102270026
-0.0620059408257278
0.0388795306128282
-0.0493585906077186
-0.00377257668208058
0.00569083818544923
0.0189215672763978
-0.0262369498136281
0.0148247963556263
-0.0524339414940805
0.00432554029996478
0.0184458103518643
0.0144979696578382
0.0338863476698982
0.0189325655073094
-0.00382753227219381
-0.0138476978137719
0.0574817136475711
0.0449959806085121
0.026906190586879
0.022470590096725
-0.0123408503016892
0.021477729728672
-0.0459052603023468
0.0683637083568606
0.00661126151118675
0.0713833283960687
0.0992270463698788
-0.0390857690856971
0.0119847630547865
-0.0273417627639821
-0.00340565649294186
-0.00108509662996091
0.023077280867484
-0.0401468534870749
-0.0274287071574541
-0.0334905186832009
-0.0296902164923451
-0.0312537228689439
0.0285669112185405
0.00993391644190455
-0.131767349791867
-0.0143794925208171
0.0167142433643311
-0.0206870566610275
-0.0197741752268249
-0.0415873440452638
0.0126350368108352
0.0597300442145785
-0.086094974799777
-0.00381084447715728
-0.0410887898244481
-0.00201629661928137
0.0731678036352764
0.0580171302142365
-0.0232866197034908
-0.00288230038833606
-0.0614890538255615
0.027311895863166
0.0130016907401834
-0.0429978123233506
0.0175616225573612
-0.0215618519152103
0.0409678761213794
-0.020905010173279
0.0152778096615267
0.0198667634862687
0.0188126948351365
0.019815311295244
-0.00790530793741443
-0.0176834771266753
0.0094574420679123
0.0573398482971583
-0.0130628554110241
-0.0144441605351876
-0.0195595293884372
-0.0464558195065731
-0.0271633381201268
-0.0258534821248224
0.031293555350579
-0.0412035021782076
0.0228758127688701
-0.0178773171413405
-0.0527491383306729
-0.030136282995132
0.00795787792021983
0.0426664992519127
-0.00326631048960611
0.00326015412232418
0.0116332805839413
0.0211983928861109
0.086612036132403
-0.034450153721453
-0.0177895818795007
-0.0231744192517997
-0.0548001637687621
-0.0298662102326836
0.0248240499703738
-0.0325261002179403
-0.00050612114527768
0.0168121271496489
-0.0796927416307876
0.0113435098602045
0.00459078231615958
0.00907391630294839
-0.0502973750555425
0.0305207503450353
-0.025433928488875
-0.039269391969494
-0.0360512248580323
0.0281803019553267
0.0403094301135167
0.0225996212616593
-0.0235693348370066
0.0241294846208056
0.00291722506943362
-0.0232169358920366
-0.00578987626647715
0.0186704525578631
-0.0558294325770313
-0.000793171895285961
-0.0450771905287411
0.0334859162776818
0.0482395322727854
-0.00908394150590505
-0.0208385675162549
0.0208997634637489
-0.0162128368567351
-0.0225094560722506
-0.00729975175831834
0.0343120730932035
-0.00131456670941272
0.0100185809282517
0.00982085192734126
0.0345204409745895
0.0289946229487155
-0.0150902210531091
-0.0729495972243368
-0.0347234637817491
0.0235086931895814
-0.00423340815079501
0.020081439563592
0.0221459279629286
-0.0104053771373779
-0.0180548914651778
-0.00357393848864331
0.0348812970070726
-0.0241907622309989
0.0231233749564021
-0.0222582125647959
-0.0177225923795735
-0.0315906114273358
-0.0170825769892103
0.0663349363795164
0.0836851650674872
0.00633099281760604
-0.0617475921139765
-0.00980622285573977
0.0528681358306504
-0.0553150940559631
0.0260194083250913
-0.057592576738279
-0.00886465036415121
0.0287712064227891
0.0116431527973911
-0.0857802479711511
-0.00371659749603105
0.00353937292916837
-0.0012247263871238
0.0434984224685094
-0.0315764663758279
0.00414250316763407
-0.0570654840962441
-0.042520193561317
-0.0178847591138926
0.0164300298383743
-0.0207260661743423
0.0169807820504718
0.0182388010391603
0.025674884451401
0.0215703144916344
0.016224325899663
-0.00317662654169954
0.0651763308523761
0.0272159327682066
0.0239480266214493
-0.0119101323629167
-0.0592832987427614
-0.0866669700335587
-0.0148214998959191
-0.032225031538343
-0.00935552495640409
-0.0178981951447132
-0.00563128430823634
0.00506066454692246
0.00192380594478011
-0.00533648923857132
0.0184577486840804
-0.0234044351285122
0.0629089731507291
0.031015019338848
0.0747114933901292
0.00614740344291098
0.0380562158780855
-0.0138327658941599
0.00114798740375801
-0.0313151431472544
-0.000425710062304716
0.0367520843334995
-0.0454184507333795
0.0282706358001011
-0.0320577432678625
-0.00578000672450602
0.115159629588179
-0.0488802732040436
0.028005421991839
0.0526156072690252
0.0256435664085299
0.00271450793114616
0.00713771340361102
0.0867623521670869
-0.0402141119004194
-0.040699069117178
-0.00883438014074962
-0.0260119424734851
-0.0649802966668951
-0.0151875012132214
-0.00676572353863794
0.0589129718264928
0.0443180092946602
0.0261629942075806
0.0139555814529534
-0.0205221234060803
0.00817929062845763
0.0218810221911959
-0.035171578866773
0.0133034760651675
0.0857984677207253
-0.0921153180041775
0.0492755954441603
-0.0444408116024556
-0.00538422851370211
0.017510390669645
-0.0567305883448682
0.0298542086289992
0.0345080332756717
0.0245665456426247
-0.0287217082803837
0.0387583420727017
0.0326750423009062
0.00392089563153283
0.00717924373365154
0.10667886297149
-0.0596156710289263
0.0968312537313825
-0.0385160942228362
0.0654113010097757
-0.0540470799003435
0.00539325782668637
-0.0525842847429691
-0.0142398911645634
0.00218432220259104
-0.0401585332329961
0.0645536689252029
-0.0323983732035904
0.0219605877332974
-0.0178583023935622
-0.0073790720983957
0.00193649050056692
-0.0356958795662877
0.0113818972577947
-0.0127809012357272
-0.00999787388635916
0.0482380240492862
-0.00619227359393169
0.0686260095764491
0.0212972473007812
-0.141402680910364
0.00439831773010238
0.0220752188272172
0.00284843107834997
0.00730111169779278
-0.0121869963768815
0.0610696351203546
0.0186096426184194
-0.0838527456556576
-0.0172796243359436
-0.0323561910198835
0.105212989363012
0.000270027471852107
-0.0221491581478853
0.0553598506873624
-0.0216125072899015
0.0275415043293316
0.0160205510863346
0.0400708457759716
0.0430186758188355
0.00489030900003781
0.0484983570140127
-0.0166477285587605
0.0518270789094943
0.00276609725901667
0.0375851707988601
0.0674210710540453
0.0443309313512825
0.0194388293994001
0.00890259253707085
0.0124613389780557
-0.0035575122142384
0.0713946018281977
-0.0128711718387747
0.00163741746586178
-0.00902128412126629
0.0758553080868988
0.0196113585112778
-0.0329742988917092
0.0689919661477869
0.0418320649569758
0.0159489320018176
0.00713071594485353
-0.0154714448455457
-0.0276261111054263
0.0376110170927283
-0.0307375715960135
0.014924685200286
-0.0133905567322476
-0.0480812750928768
0.0921392620345953
-0.049171834519829
0.132181149907868
-0.0264434741102883
0.0593849515097782
0.00866929385058652
-0.0314388164783895
-0.0295636885838735
-0.0404609049350407
-0.0545426373848293
0.0087563243781129
0.0582387546494185
0.0479271995960097
0.0898061801401586
0.00102830894865454
0.0665205281231944
0.00329640094299395
0.000210169715154764
-0.0481624696613955
0.0380360556910461
0.0194736948616343
0.0572799508606858
-0.0149315389470424
-0.00809929096839738
-0.019084194925645
-0.0253645492860331
0.0433662190277676
0.0306592436014013
-0.013346136927778
0.0473010411198979
0.0031849702655399
0.0365604605830933
0.0696111615651889
-0.0327417902376989
-0.016488128187151
-0.0787373245027074
0.0538719524418922
-0.0863435349412236
-0.053430862840062
