1059007
-0.00200614960452205
-0.0222872539675036
-0.0464937391795311
-0.0225570522798223
0.00892241087308947
-0.0125269955669086
-0.0409903339625291
0.00521183940260063
-0.109298479210741
0.022307721127108
0.0139469456020939
0.0337854709798223
0.00124691303298951
-0.00825400784952984
-0.0344884338775651
-0.0281576583621575
0.0719329446762137
0.0227379319641305
0.0282190406931668
-0.0407460191253673
0.0180003063710974
-0.011734509000344
0.0334464405982203
0.0393037433821347
-0.00774881420749772
-0.00671609443948707
-0.0561958168878031
-0.0120048722491475
0.0219622721093974
-0.0107389683597995
0.0217172984083394
0.033759016765324
-0.0217247017461818
0.0055049840972641
0.0683535229417101
-0.0565887163631492
0.032647836411377
0.0238947226840963
0.0332279819397897
-0.00459904291004903
-0.00529182172599379
0.0102281937927291
-0.0343995172506119
-0.00851348726278815
0.0202411613546536
0.032511261710943
0.0379993590219544
0.0187637541148099
0.0514714112865699
-0.0590662545049734
-0.000640682398689674
-0.00190172065380797
-0.00524951444322158
-0.0138225854080102
0.0209400999095315
0.0018214628499693
0.0377822374783387
0.0108690106238466
0.0230055836151865
-0.0288099484796201
-0.0381605554308374
-0.00331981371189966
-0.0116793954513163
0.0141679840263225
0.0738310766910947
0.0123483940342925
0.033340309501672
0.00822379579326591
0.03907611579335
-0.00186161157308338
-0.0126152672065918
-0.00480993239899731
-0.0337318947240005
0.0166219546519066
-0.0512381997899844
0.0725114569113047
0.0164496967697903
0.00156130656076077
0.0427054286952363
0.0255162108592741
0.0200080871219551
-0.00730914872121629
-0.0294943988491056
0.00108603299836157
0.00130623037781718
0.011934970704741
-0.0324451096661467
-0.00381085695478704
-0.0606038017458425
-0.00761616908174166
0.0755754123633858
0.0587071265585405
-0.0601049850855294
-0.0279260887089352
-0.0273859321303293
0.0601849518178188
0.00860304106983796
0.00159288103063633
0.0844062788877204
-0.0582513513377474
0.0387689053139685
-0.0406694748338209
-0.00891792799639033
0.0139693523112378
-0.0239157909982454
-0.0142550149635744
-0.0439567607702044
0.00518784315207291
0.00674369686181067
-0.0252732313881132
-0.0760238094013533
0.000809882893507465
0.0188395847916214
-0.0456784363764342
0.0101195441085875
0.00523552059312388
0.0141396851833478
-0.0405133996192108
-0.0103050986401347
0.0680911723469538
0.0122206706607049
-0.0655665443783383
-0.00753360727866775
-0.000663718901112222
-0.0675509581408152
-0.0124863103676445
-0.0119127689783594
-0.0213864795719951
0.00350909745362821
-0.0388242812912626
0.0204690014546907
0.0140509694457943
-0.0464187217219579
0.0589906831445247
-0.0296492188006865
-0.0403777921222716
0.0172740714319058
-0.0253698334170532
0.0292843058410165
-0.0637706776430877
0.0233473155446071
0.00470021437756654
-0.00615118078430885
-0.037539409384363
-0.024410736008271
0.0539972509727643
-0.00856834032631688
-0.0316720311807994
0.0607655378895405
0.00274460259700191
-0.0150915368916669
-0.0114029227363471
-0.0384035966577863
-0.0593481194217044
-0.00394634240085697
0.0143205220026272
-0.0328880908714754
0.0687756421169884
0.0384655280793439
0.00906459497463436
0.0320473938588365
0.0139722246889467
0.0417401379929402
-0.0422947725675475
-0.0223300278812748
-0.0154820767066659
0.0165070135156582
-0.00815798809641677
0.0144699166233634
0.00685383431856543
0.0192916704582706
0.0201609338830287
0.000772808506111718
-0.00756435048334811
0.00590768000839961
-0.0486258563039067
-0.0334542890122312
0.0503737068409929
-0.0129766666858426
0.0519932783718535
0.0327846411860072
-0.00823099210773717
0.0438054110603075
0.0311921248333545
0.0434761771871874
0.0241671484690099
0.00934684493321663
0.0341261430036362
0.0180080416066152
0.0570940064970532
-0.0412451414145484
-0.027349325067919
-0.0110615753317418
-0.00979064270401906
0.010420561673293
0.0060290022490569
0.0254564084269907
0.0452181245583572
0.00264392445273283
-0.0544692896696511
-0.0317016033205702
0.0545199938131226
-0.00556631153932082
-0.0144472875780588
0.0322501118640745
0.0744258737391029
0.00570349639096349
0.0726601687698811
-0.0064586751150055
0.0352525866124117
0.00528596357294127
0.0531367997471821
-0.0128425684685211
-0.000181769879935535
0.0664279074743005
0.0437961469709955
-0.0397863130668852
0.0137835956914155
0.0255353035153651
-0.0726798684596022
-0.0682321271162287
-0.0306730297259753
0.0932570949601098
-0.0284018970283804
-0.0202099623497335
0.0198680460273844
-0.0324854521996548
0.031674415829897
0.0260276917824451
0.0419023701589327
0.0249654585638646
0.00370900177131019
-0.0137310266325979
-0.0164394998010415
-0.0386259986719532
-0.0158027179016034
-0.0432245429811792
0.0442416889566089
-0.0122913787090172
-0.0431946616961591
-0.0159694821894896
0.0531852981628566
-0.00859838723718755
-0.0104448554923182
0.00765650185575359
0.00257528062272361
-0.0339590623657917
-0.0352397029552575
-0.076237766343196
0.0071096944891224
0.0225453653050691
-0.0115737899475928
0.0263223916608783
-0.00513011150584259
0.0399987778291687
-0.0157582299253544
-0.010406157646203
0.00159736544637616
0.0593212634262953
-0.0521775730734467
0.0425500880554915
0.00357874139352362
0.0288665932237161
-0.057778506985124
-0.0453888535704469
0.018999971764543
0.01679289553382
-0.0534522563913133
-0.0420813431098104
-0.00255393852291418
-0.00664623512067943
-0.0506396142944035
-0.000979269366532608
-0.0390633078472722
-0.0512910321755074
-0.0386471245247906
0.0136056308815411
-0.00196178679901993
0.0420902298898845
-0.00871657142698085
0.0669640020056725
-0.0406154202079104
0.0162861918528016
-0.0452701595745074
-0.0287432912274749
0.0989100754394771
-0.0240808631790655
-0.0086128621100067
0.032613451771516
-0.0663949537676209
-9.81223851472074E-05
-0.0364864992158399
-0.0365302269621565
-0.0168479209583074
0.0452883988248329
0.0358944554110172
0.00459201257370497
-0.0501032138093956
0.035120086065048
0.0259954208267847
-0.0205140986100289
-0.0580961830839518
0.0224531894945944
0.00317374311338335
-0.0612712298731834
0.0247695946135364
0.0387351086456457
-0.0538137836234023
-0.0203414742272685
0.0153958476912291
-0.126696514182815
0.0449644449008073
-0.0464567767511456
0.0508721763003848
0.0604726047231691
-0.027643585789072
-0.039928308072202
-0.0145853150499159
-0.0551237686907016
0.00529532628249412
0.0149535100064316
-0.0105195130872091
0.0250269983707399
-0.00704273327746775
-0.017101238877195
0.0375475989635854
0.00729181246165846
-0.0219451106349713
-0.0209792646640281
-0.0200949335158894
0.010099808225989
-0.0191651339558829
-0.00160937963144265
0.0174530318270205
0.0811231011376194
0.0209402640674184
0.00297840687496803
-0.0173494934329111
-0.0290222376322074
0.00980641091467724
0.000771554831499689
-0.0183055737215375
-0.0467453369002696
0.0150090956487413
0.0320978073175062
0.0198594968969911
-0.0267307885590453
0.0398195624740768
-0.0218555628454461
-0.0103774768066843
-0.0240114973635495
-0.0203289452752851
-0.048003845798973
-0.0145351263716517
-0.0105213526835327
0.0288527012880153
0.0313001426683227
0.0845938152956743
0.0307609040053239
-0.0372061696844389
0.0453672322323836
-0.00372254122759389
0.000849184097098177
0.00891958748504103
0.00251437661002323
-0.0169851261997992
0.0392203420162563
0.0288691006345802
-0.0313984866446156
-0.0133166488298208
0.0655710716028872
-0.0221419840242667
0.0171158194802514
-0.0570670023800184
-0.0114639510450961
0.00620983378812567
-0.0695975340942837
0.002119532006449
-0.0231521744014832
0.0544250598554068
0.0948096486582924
-0.0203582496888468
-0.00105892556518802
0.0036004160952826
-0.025724167627079
-0.0102920673315677
-0.00373824707389466
-0.0273400509435905
0.00783006752287555
-0.00539953893522567
-0.00592524681230426
0.0592964405262457
0.0288180170489922
-0.0412414292523196
-0.0186703861446747
-0.0287426550143161
-0.0165476267532183
-0.0135825259758061
-0.000112578387688845
-0.000144923587490968
0.0239865034682501
0.0734662788915042
-0.0226541495059309
0.0398940325003717
0.00933306991399697
0.0825525362293858
0.0453433260638438
0.0207838013807525
-0.000213513637084471
-0.0265556270357889
0.0246479745129455
0.0337627910596746
-0.00389720008386371
0.00605091950233876
-0.0124909262926515
0.00450181042414118
-0.00730895995857553
-0.0493857411129564
-0.00596689461372418
-0.0262010368931079
0.0181887053663956
0.0346054077721927
0.00262179470668826
0.04727623183825
0.0175157291706532
-0.00568176112705506
0.00214087083159327
-0.00150389264654876
0.00118715460533062
0.0546745756872593
0.00391200015565423
-0.0247072272149799
-0.0277721726184366
0.00532487110948371
-0.0160419438594591
0.0407632231726379
0.000458823524050511
0.0239552167150978
-0.0287671287983925
0.000239141650820775
0.0385968435629301
-0.000586812019112647
-0.0017999862764671
-0.0487800575221682
-0.0101285771292514
-0.0184794943657055
-0.0268854033574009
0.013698798191379
-0.040575190720429
-0.00355869727546044
-0.0625225287628272
-0.0548417631396489
-0.0631704434042196
-0.0337036581253987
-0.0410409812676528
0.00685993875702453
-0.0399796874993006
-0.0232754078335428
-0.0100580447548842
-0.0229113190439962
-0.0488556252162964
0.00341776923742531
0.0120659949285915
0.0236082222379114
0.0264451187893685
-0.0273289373158619
-0.00976189873322247
-0.0375009606295095
-0.108371021237342
-0.0143604885910626
-0.0139237014423251
0.0107808993895432
-0.00471858184308158
0.00566386463888476
0.00254363769318447
-0.0473847461069249
0.029369956033597
0.0163824925485684
0.0543241693115455
-0.0137491036040707
-0.00117668507146599
-0.00675593906026957
0.0152866195144315
0.00264593971058471
0.0464474481713984
0.0253749401159317
0.00387513846363296
0.0136218829271297
-0.0104088727921222
0.060230498589117
0.0620267264854119
-0.0189188867940238
-0.00695224235889694
-0.0704131925472686
0.00670952386534576
-0.0516132606552394
-0.0036826827401039
-0.0198138441440183
-0.0111760156138847
-0.007106724457202
0.0260843483688843
-0.023025843719784
0.0509832517430523
-0.00872094347631945
0.0319611266335367
-0.0572323273365966
-0.0552992999479306
0.00355402646637835
0.00917655154395568
0.00835133853904721
0.0163384425239513
0.0617949900062212
0.00453015328150473
0.00581329618473262
-0.0325648809062141
-0.00908647516359355
0.0128090272001853
-0.0500590915344253
0.0349329364920297
-0.0627371710545418
-0.0375031574965235
0.00391408234546783
-0.0101846001995918
0.00630400698397963
0.00182886284312565
0.0196802789686012
0.0057947888284993
0.0245914842919549
-0.00708311339808348
0.086662398971316
-0.022302402006281
-0.00551072858705561
-0.0279622562578255
0.0750981310139887
-0.00396464221077231
-0.0412628805810758
0.0640811415245622
0.061586140501176
-0.0664800249241708
0.0450437733474088
0.0307309618003581
0.0191527755805768
0.0169679061266458
0.0163188518844637
-0.04902805250205
0.0197362716649828
-0.0309867514966588
0.0066467510179665
0.0272897376432984
0.00929760709759187
0.0395900730111131
0.0367754196706626
0.0633955495740845
0.0272375845882021
-0.0562714769920549
0.0419286274450422
-0.0777868399522053
0.00620769513854349
-0.0127178880781857
-0.0450915456168754
-0.0199625501543033
-0.0073757977480397
0.0516555498777396
0.0443095773180971
-0.0559263159733684
0.000709802498482111
0.00609418131636254
0.0280582471202085
-0.0082875406448642
0.0714866152691702
0.00283038836385473
0.0107929189562357
0.0324615981481201
0.0549854054490642
0.0155412589706086
-0.0233285647013962
0.0102810601417287
-0.0545812099896224
0.0299633969326511
-0.0139167487046583
0.00181242471045223
-0.0118382547000595
0.0725528092969902
-0.0430897471964473
-0.00304341268819234
0.0200836588181072
-0.0173964662006392
0.0184547766183595
-0.0123292074670002
0.00239244069496638
0.0222900283920452
-0.0680950743804033
-0.0560449174026629
-0.0678681417251686
0.0240515635365069
-0.0732029338421377
0.0342224088390702
-0.0429398204212823
0.0224965562104032
0.0546759168337678
0.0127681783871363
-0.0462114396022022
0.0149143655292824
0.0097472325501943
-0.0349541948172998
0.0232688143615353
-0.0388055710557998
-0.0350694207209443
0.0138125990557607
0.0359050156555712
-0.0252397593398952
0.00423112875225425
-0.00167266653961095
0.00544775895558208
0.00922805884641013
0.00172860854403353
-0.00497441822929862
-0.0442996592020424
0.0116863111176018
0.0771154937043094
0.0143091205141545
0.0395830076187125
-0.0502700915690713
-0.0411132473616832
-0.0216632177129714
0.00584779536858966
-0.0659215561179515
0.0600791093157105
0.01960879325675
-0.058192916544458
-0.0513916839014646
0.0367388979923355
0.0120874481779739
-0.0341558813584345
-0.020164507171861
0.00521993079287756
0.0241195372144459
0.0147860915610919
0.0963385654948034
-0.0107751129787684
0.00564058664615214
-0.025014569255498
-0.025025007515872
-0.00963867298842802
-0.0482616569632955
0.036251549503537
0.0651680229751099
-0.019842726537879
0.0433682325577619
-0.0346225238926453
-0.0435107512545013
0.00420865097705101
0.0263897456617746
0.0154230987637624
0.00153021050251078
-0.0285948666094041
-0.0367864403141864
0.050284364230806
-0.0092010633616078
-0.0188979390900645
-0.023973758646979
-0.00730777346939905
-0.0307003312476574
-0.0146924328276843
0.0220746267293041
-0.0320469085306778
-0.0111784198640399
-0.0433397808496823
-0.0781716625624118
-0.0574620670056469
0.0564874562775158
0.0618681748030472
0.00884597562757675
0.00154044503658687
-0.000389171613788577
-0.0197105209248541
0.0382154631081486
-0.0256371378412168
-0.00467285775526918
-0.0288240871778522
-0.0659253916586534
-0.0151258083727212
-0.0158058489129572
-0.0247010450351747
-0.039039098606554
0.0575636105274248
0.0357706266780484
-0.00471650541649099
-0.019236546879197
0.0298685461417231
-0.0228876607231042
-0.0095145327984635
-0.010513954048664
0.00351006381292057
0.00464972488091227
0.0404863154203655
0.0430508771245207
0.0292712090228336
0.0589832095298419
-0.0392007615310316
0.0257862250454921
0.0759542446468927
-0.0231436552447013
-0.0581448866380494
-0.0351758744452384
-0.0424925360463058
0.0339834748126222
0.0735680567193624
0.0153458319025175
0.0251670922517915
0.0106522441324219
-0.0134487713614993
0.0330054767960697
0.0615350341052942
-0.0109289993574356
0.0290247103663549
-0.00476579281783364
-0.00816853970182081
-0.018501105923806
-0.0364244228520715
-0.0243180567638112
0.014583789659326
0.0282629970522154
-0.0285384313812294
0.0114684319588252
0.0239630476477357
-0.0262503998559816
-0.00216398330334371
0.0182741867323129
0.0121910488844389
0.0128880620858867
0.0101761608605195
0.0350281927317422
-0.0108826607125052
-0.000534397375044054
0.0444662545155323
-0.00663455399601641
0.0342843159739772
0.0544027970191656
0.0235869383459642
0.0354683147831108
0.0156533829694483
-0.0491663545759179
0.0364715043896587
-0.0365101578663006
-0.0200149845521016
0.0108966703244907
-0.0688053837478418
-0.0256975123315712
0.0432129804824384
-0.0244223668501779
-0.01721058844511
0.0792051118013485
-0.0443495428334488
-0.0813764739150194
0.00719437933741751
-0.021493230083999
0.041936854017449
0.0186161058081865
0.00394045668667388
0.0139961999810099
0.0480572654529778
-0.0249798070866132
0.0450047597846155
-0.0196545689162267
0.0163980109340421
-0.0774963863506686
-0.0169672111197808
0.049431698049778
0.0152198312437565
-0.029534554909958
-0.0619845075421364
0.0334200582743808
0.0479850639434616
-0.0117096489004363
-0.00465245904419098
-0.0994823773657677
0.0341794047365993
-0.0470862413647301
0.0165952741647323
0.00650935448065104
0.0190621528061603
-0.0580694425807421
-0.0434509566817575
-0.0207251440559028
-0.00197222335105176
-0.0147281109116792
-0.0283463486106409
-0.0375610976620298
0.0130809721471055
0.0106011460796675
-0.0171443357228606
0.0344736058337702
0.0480591727364921
0.00273885026489025
-0.030847978948827
-0.0251417136883851
0.0568600397906499
0.000221068733167081
-0.0355642685473064
-0.0103122789402085
0.0473556146235486
-0.00712693473050755
0.0326403755407179
0.0141433138624104
-0.0845437016185742
0.0009039433467713
-0.0263015656675025
-0.0165779478381477
0.00556366451966582
0.0445499785670052
-0.0162765000904831
0.0174749298737679
-0.00540968332979334
-0.00415351145185927
0.0404885269659797
-0.0333905499972931
-0.0271185527855252
0.00800153302779458
-0.100095217021717
0.0416967947609203
-0.0108027602477067
-0.00750827809440932
-0.0246784716987491
-0.0189626708032189
0.0265933874292774
-0.00960877868126824
-0.0488710796728098
0.0177786418866606
-0.0403878454013875
-0.0117412134138098
-0.0121164860039385
-0.0377389094900869
0.00930511448384346
-0.0111908367600272
-0.00603952709463712
0.0154337033716303
0.0359940908270105
-0.0417337210962943
-0.0160137817724011
-0.0357837234733857
0.00159655783838096
0.0322783490327249
0.00190015835740258
-0.0189429936211418
-0.00150258020781681
0.0334610352810182
-0.0225577253476392
0.0326472928012443
0.0345021802354297
-0.0436383535410121
0.0111201228402041
0.0084281428099105
-0.0578087611725915
0.00125564893804931
0.0281561296588653
-0.0157005917764737
0.0326071551420083
-0.0149300873901461
0.0543602286979038
0.0295656604497702
-0.00117670133359755
0.0106447725849612
-0.00382259601646307
-0.0430319730651174
0.0302308735256836
0.0386898522396099
-0.018219039295848
-0.00270753518138066
0.0423302149914474
0.0522333522809775
-0.0244962176414794
-0.0103876491890031
0.00106481695927089
-0.0586309434260231
0.00601641250727124
0.00562604028835133
0.0229075522980038
-0.0163190746070989
0.0330148325763296
-0.0625718977172397
0.0463494335508343
-0.0661263637289581
0.0313308900524108
0.00893720613394036
0.0555285031124222
-0.0529367253321908
0.00609394593048971
-0.0359496979481322
-0.0246810992341146
-0.00838236005664448
-0.0439006428314637
-0.00200913496282964
0.041428368827504
0.01499789173956
-0.0178562524227197
0.055891690880196
-0.0118719639153152
0.0516177258459507
-0.0522548941471576
0.00269306103862209
-0.0524941150150191
-0.0396647466359678
0.0250197136211145
0.0109869023289598
-0.000595479696015322
0.0570413141728875
0.0117665854048569
-0.00522608732020859
-0.0318504956587153
-0.00924782809720124
-0.0228426941576433
0.0303231356677621
0.0424822043042273
0.0115161894014606
0.0562367547571348
0.0132356429780755
-0.0408419408285354
-0.000835742316845964
0.0302505734362637
0.0892142555906393
0.0153259231701173
0.0111542912926585
-0.0451543382552173
0.0449978024102773
0.017788495571216
-0.00165596100427923
-0.0541160798027895
0.0161822709111828
0.0422063816812548
-0.0192068737527286
-0.0202003390619578
0.0450392747372055
0.0136211763590237
-0.0055911480762519
-0.0671915315895838
0.0680595796473965
0.0240852637123957
0.00500695838706616
-0.0090967763123685
-0.0410245314247004
0.018571268797982
-0.0866286972685457
0.0282327201276607
-0.0267663662924135
0.00450516787000906
0.0589515096570459
0.00738317208404145
0.0147446139768954
-0.000476957657566957
0.0251674185072822
0.00583633963960988
-0.0583746815822612
-0.0490185954671026
-0.0426331364189603
-0.0423391514861203
0.0106121848561326
-0.0617662619232019
0.0202851325383706
0.0157191332400553
-0.0497848222333264
-0.0509758902179618
-0.0587392789032477
-0.0292002261220583
0.0329861181332408
-0.014120846368763
0.0321808275563464
0.00390364882586069
0.025181995821801
-0.00782176708122364
0.0143925950034583
0.0529894379703469
0.0109241582667988
-0.00871328440710751
-0.0649390788936117
0.0617208363565631
0.027284046162968
0.0651066938241143
-0.00740047876336143
0.0395491788299029
0.0088569501245357
-0.0218263489724608
0.00873178920551165
-0.0606537405348508
0.0366501641705393
-0.0363355582490988
-0.0039044642244029
-0.0672421659539725
-0.0337225680179673
0.0131207432715669
-0.0031366937913271
-0.0207283934073051
0.0119008679410685
0.0519611398320986
0.00625384785765473
-0.0538037661958388
-0.000890947498611643
-0.0388814629380141
-0.038638901035203
0.0684178362986359
0.119077344251563
0.0593527839999215
0.038345356573825
0.0441416711032849
-0.060311101362694
-0.0126940831955971
0.089151352720143
0.048907978175999
0.0252325149177448
0.042407125674041
-0.0421814734786779
0.00438982543146547
0.024608549311775
-0.0269086539623457
0.0232964388395452
-0.0092923331499205
-0.0067412832188504
-0.0686454172614138
-0.00256559210681915
-0.037186670946184
-0.00171222982019844
0.012148849911843
0.0378214000312898
-0.0144277696215372
0.0246463141825389
0.139009197192815
0.0255215922573835
0.0850109814707608
-0.0239405226574277
-0.00491803129085444
-0.0100648824128283
0.050677721858467
-0.0637329988211731
0.00534026507272677
0.0142273399976368
0.0402127402049744
0.00221483786598806
0.0276661524413944
0.00913451657822243
-0.00276557755651978
-0.0418433626233052
-0.041792892759694
0.0130396232691848
-0.0529913558686688
-0.0264761248983946
-0.0376252295381841
-0.0729428712444832
0.0206378719285779
-0.00220769036860466
-0.0599895807253266
0.0198983794062406
0.0400246800003888
-0.0322773248984716
0.0617735428010753
-0.0486406070573903
-0.0391838731954657
-0.00328377766836381
-0.036590433037331
-0.0646872619685952
0.00160359805966052
0.0455560114218296
-0.0274597430774605
-0.0076766492673664
0.0661683802727508
0.0463703796205454
-0.00698234143314239
0.0488022313352529
-0.0483443679103804
0.0393207988095082
0.0566039467478091
0.00586098496265778
-0.0344473666148314
-0.0471027729602818
0.0403474897789884
-0.0168483279327572
-0.00852844900028555
0.0117577621136734
-0.0108165012490198
-0.0108581266494097
-0.0838153488350852
0.00552370467281439
0.0421030480511314
0.0537523615558804
-0.0404089557026572
0.0348430877163946
-0.0184304588718715
0.0218382225608706
0.0512910544798394
0.0840739084192084
0.0403284979334599
-0.061981332563913
-0.0309530309203369
-0.00186937716174556
0.0120452735185521
0.0714384115831003
-0.0166186574706846
0.121157960281566
0.000705600474260245
0.0403344408386188
-0.0161818197457205
0.0333809884975416
0.00336583937203156
0.033114978635433
-0.0524323751825994
-0.00860351524233989
0.00258672127560681
0.0305338973422079
-0.0728937208337456
-0.000878354559685795
0.00951097419331096
-0.0147945422617581
0.100487156028723
0.0110256841494228
0.0158793297717142
0.0246836006065756
-0.0350216983228099
-0.0533984552594265
-0.000650699246431385
0.000357040335207075
-0.0666694901515478
-0.0232829616020522
0.0467268913097282
-0.0253573450478298
0.0332176682869706
-0.0166610048694454
0.104994613136414
0.0245531213583817
0.0565857776166449
0.0374702298021332
0.0131601571470122
-0.0534732500673767
-0.0622776926592999
-0.010896521198665
0.000301635572665539
-0.0499319411361727
-0.0266747219287248
0.0402289079896818
-0.0712026790509891
0.0409200660514161
-0.0120932633553374
-0.0149173241896127
-0.0436937592043685
0.00840264949867017
0.0281742005451901
-0.0580404488076631
-0.00123886258580278
-0.00952547104063843
0.0228915786947163
-0.0112388130069358
0.0564045946517483
0.0626264640705857
-0.0106555199008121
-0.0392357821827117
0.00359227313148105
-0.0180739651922125
0.0269351472592745
0.0517144527541796
0.0172774020203201
0.0642462013684437
0.0235801584062509
0.0173974503477358
0.0615110525544066
0.00732430886028793
-0.0223943143325546
0.0182855085498095
-0.0749989533903717
-0.0228258076918975
-0.0147999503122007
0.0420378476031919
0.0183675273984922
-0.0531355186195899
-0.0886339771183438
0.007408566127859
0.0112710049367938
0.0504837873281948
0.188518458846225
-0.0191618720220145
0.0560412945497214
-0.0612740155133699
-0.027711117718526
0.0741758933487944
0.0826631176107858
-0.0698777379097261
-0.0633918202600249
0.0630536663748265
-0.0134932588208213
-0.0722758174279488
-0.0555173203377658
-0.00188005786684801
-0.00119148513333122
0.0209649007827976
0.0360667615388337
-0.0155685568861913
0.0140031443236498
-0.00916419587912624
0.0352916831183185
0.00822367896816818
-0.0366907110234145
-0.0637181788793323
0.0430585755356768
0.0496737228809934
-0.011374839332697
0.0142708429134239
-0.0161235015477949
0.00205617672492234
-0.00843278505997383
-0.0214483710337926
-0.0825438273716986
0.0345371753806384
-0.00803512960349026
-0.0749782065057996
-0.00344547753291957
-0.000157961731362183
-0.0479765475430059
0.02038333254178
-0.0080124895397995
0.0190731941410556
-0.0109551086158758
-0.0285763462371554
-0.0349441182614329
-0.00418390277024048
-0.00649913264925535
-0.00294726267983079
0.0221354240579661
0.0518729165781099
-0.0176660496085782
-0.0376759075288398
0.000743356174247085
-0.018992140764388
-0.048734028613052
-0.0732875196843454
0.0165158850854437
0.00870352316940245
0.0154876322190966
0.0836425879194309
0.00836985878184036
0.0224404379024754
0.0484086268329606
0.0388014688812072
-0.04564736528774
-0.0614664548109057
-0.00881076195693767
-0.0172840656720104
0.000775059073325648
-0.00957979940758875
0.0150406163157084
-0.019738735012462
-0.0170119570701692
0.0191412723014998
0.060332910842228
0.0592967056078899
0.0508462209381308
0.00954257298626169
0.0690870096392182
-0.005298326859025
0.0112541224711299
0.038283275011913
0.0282029583307728
-0.0269120042107879
0.0222464024856615
-0.00910178834567951
0.0339830436061871
-0.0195845450700487
0.0369846463816168
0.0329462963086598
0.00970018350151847
0.055477510357927
-0.0592000002039737
0.0285266443351974
-0.0210925823809423
0.00293845692709174
-0.00825706236847611
0.00779895775819557
0.0093716123239345
-0.00593279170744599
0.0442007826191388
0.00541836255635706
-0.0176458872277171
-0.0113841464405492
0.00403733417830392
-0.0241660115658409
-0.00168694139470565
-0.0263202333144024
0.0247031443073046
-0.00355763145521533
0.0333330869720535
-0.00317313153736812
0.0298778569216934
-0.024294210889774
0.0392025488013762
0.00389565838799477
-0.00248310025878078
0.00166772703866109
0.0453184358515873
-0.0267536560401409
-0.0204768094232898
-0.00118134702023905
-0.0108997202320701
0.0303052979717173
0.0306544652022537
-0.0315394243765248
-0.0683822627835196
0.0154504527171325
-0.0332446540911153
0.00550036851488582
0.0370365560790324
0.0416491341577994
0.073614338431921
-0.0380238429373712
-0.0187961883960228
-0.00564804636116223
0.0216144570610309
-0.0376496986698257
-0.00473479146629985
0.0328388187243519
-0.0408538537892015
0.0237551001361455
0.0391493883873914
-0.000235559741992806
0.0620205515751184
-0.0196978311280101
0.0370048328699076
0.00149884425554193
0.0511634344241904
-0.015009037327159
-0.0406582706990778
0.0183165823408745
0.0201175771094222
-0.0507814847384211
-0.00103729075192683
-0.0300456515308258
0.0448058212256063
-0.0613134745700914
-0.00220351525393166
-0.0215900695000432
-0.00264130210258518
-0.00243404560837292
0.0011242348706442
0.0123112137666368
-0.0511829183963788
0.0319245139802583
-0.0389725252776355
-0.00412755200183367
-0.0187412927748253
0.0163482918046032
-0.0755318885058792
0.0139765799134269
0.0169489537615906
0.0442025466164995
-0.044208937637762
0.0240774123377393
-0.0249368031665875
0.00671190754584228
-0.0361116898484292
0.043498122073514
-0.0493138393138512
0.0233424914316512
0.0405085775590043
-0.0272769622680668
0.0264360543571786
0.0150234420873264
0.0373063186815673
0.025538910795632
-0.0530430483242466
-0.016012744978371
-0.0544594873624443
-0.0246513353488182
0.0617220977100007
-0.00115163547682885
-0.00105326555092018
0.010016402053751
0.0214590552822894
0.0622301531174514
-0.0516382082322
0.0259977028078039
-0.00886397351499776
-0.0909748441563332
0.00633971019167398
0.0353188406857243
0.00398428821376187
0.0259597928700329
-0.0482881434901106
-0.0299675834527442
-0.0144163690961536
0.00897795275408248
0.0220768738645833
-0.0152842980289992
-0.0169624146178989
-0.0296750366043528
0.0134733065876192
-0.00127014241350293
0.000334201015026806
-0.0152496987032642
0.0327591617918728
-0.0527969059217203
-0.0895194691845093
0.00210009518226418
0.0369646053263234
-0.0398506144546085
-0.0473478705376326
0.0288730210176205
0.0200400655305089
0.0079756710823511
0.0345071580885001
-0.0123365797829886
0.0160050083617333
0.00779174597330483
-0.036752592416853
-0.0313408982239137
-0.0436071182127276
0.00203383391445927
0.0240915780961671
-0.0498768351335282
0.0212495094280821
-0.0397133117369826
-0.0472533085612626
-0.00540555081722532
0.000255896347736557
-0.0165357032413623
-0.011603238452682
0.0128460530752102
-0.0109662984148219
-0.0277725025669976
0.0172356161009084
0.00168581898554832
-0.0314914113879114
-0.0230733747714477
0.0109496807528728
0.0215693427803937
0.0715198304264347
0.00928167440309109
0.0155934398218788
0.0567896728006835
0.0211779205331418
0.0256330536943436
-0.00855955308514704
0.0870863963671263
-0.027009145703342
0.0053689962759074
0.00397143569121361
0.0256324145648955
0.00967506161147486
-0.0626272319291085
-0.00100516441744155
-0.00817937699875148
0.0113505810113417
0.0377534168420133
-0.00580331794571851
0.0314388901004799
-0.0183928694728213
0.00176431737133618
-0.0235260176153225
-0.0301271656507197
0.0262868159846056
-0.00227767369169683
0.0373222098468251
-0.0193749391196184
-0.0429481533218271
-0.0303273099632931
-0.00200129681615246
-0.0681844431121956
-0.00118004163654868
-0.0242599571105849
-0.052171422495442
-0.00852345155790341
-0.0578804156737266
0.00368079120538781
0.0490115766527576
-0.0428184342507887
0.0406235068671286
-0.0111647027184404
-0.0487490456101664
0.00794429082317854
-0.0312747818000752
0.01978522886569
-0.0708126762472783
-0.0511643217874429
0.0152981478383898
0.00718270382184055
-0.0125251429003803
-0.00199391736270193
-0.0368796716138938
0.00889404894932062
-0.0395428703209691
0.0544589140712994
-0.0101165613068576
-0.0563433888247504
0.0334053296902234
-0.0260608996972237
-0.0318620921941334
0.00050233838873693
0.00171950028293612
0.0134487321487788
0.0411422986660659
-0.0146155432220938
0.0516568788451216
-0.0310836771334802
-0.00772195941726609
0.0218211064187759
0.0355425299762131
-0.0143661109872453
-0.0323652040039119
0.047187811573397
-0.0202229018024694
0.0610736411241248
0.0149747936692749
-0.0338528897997536
0.0019630546554324
-0.004240398373181
-0.0677858035690083
0.038575655848756
0.0576735148847135
0.00662868262376149
-0.0143118689244731
-0.0699681299802184
0.0168598877941597
0.0342288764720473
0.0116124890312997
0.0128321589990364
-0.0744781679869301
-0.0324653952908848
0.00457653029536709
-0.0304485068559201
0.0294611264970999
-0.0286690130596868
-0.0220095038577685
0.0298122463479226
0.00463537331521006
0.0343564071040986
-0.00929367274829802
0.017282462104412
0.00074607792603759
0.0134408131547041
0.0113846144574361
-0.015082843203952
-0.0278235622698523
0.00453164557583459
0.0275577306746742
-0.0416922705517968
-0.0143348768414586
0.00624075199143608
0.0482481729005373
-0.0209776352330858
0.0475726122453433
0.00769341447710964
-0.0397908193905071
0.0227240904965874
-0.0110798152693665
0.00722945458216084
-0.0192770702649574
0.0612452921142859
-0.042040045387529
-0.0262836722122596
-0.000753560366379067
-0.0550453330465509
-0.0806197493098078
-0.00830756327399243
-0.0632932714618698
0.0801719834305417
-0.022366631944845
-0.0434798214020544
-0.0177124115822008
0.0249650930345747
-0.0283439456097844
0.0121535323959136
-0.0184450084655496
-0.0615173433490748
0.0263534100828544
0.00646237010766171
-0.00602229381479161
0.110238000640719
0.0126454821279244
-0.0494432569042495
-0.0232776773190052
-0.02475933524797
0.0287059908695836
-0.00629939776795013
-0.0156822301834635
0.010621981864384
-0.0143176841013383
-0.0261832433619556
-0.00535077882390778
-0.0107100723086597
0.0235406586903857
0.183670953201291
-0.0246652804478669
-0.102495126792988
-0.017933686433473
0.0055731829335804
-0.0608904234997843
-0.0239248681401786
-0.0501624059678363
-0.00390345776950717
0.0411551849759291
0.0700468233760436
-0.0105267279450611
-0.020910009869874
0.0191834751457694
-0.0457438637549598
0.0374115375607496
0.109299197273883
-0.0250410438241015
-0.0762978816275429
0.014306327705316
-0.0825439664066732
0.0257477175676855
0.044352743427837
-0.0367771978591486
-0.0281883242777634
0.22842254145641
-0.00448628473407107
-0.110107291675796
-0.0544330292500429
0.00813880342730334
-0.0649379077977951
0.0603100614205521
-0.0141475754703536
-0.00688606655629869
-0.048551318390686
0.0214005348249143
0.00399982634200564
-0.00929408423018672
-0.0291143064532762
0.00277390870814228
0.00951190675658316
0.0792062664449547
-0.0294140936242732
0.0428089971233824
-0.0535436097321633
-0.021354627686994
0.088948903590343
0.0605457848311749
-0.0264925007886238
0.0375083832206297
0.17836788964426
0.0122849578414394
-0.071805555456324
-0.0374068569684615
-0.0341145620447881
-0.052407642955809
-0.0147591137547667
0.0682855777889529
-0.0670165982227123
0.0152613517324957
0.0276518446326055
0.0323679641661555
0.037707093994726
0.0637153534976695
-0.00206226313720896
-0.00190695473587774
0.0257213004618477
0.0198212384751634
0.0368427145848536
-0.0281100160174459
-0.103848423478086
-0.00723766897592299
0.0397268670761543
-0.00507763711393551
-0.0623886814113512
0.103428040547352
-0.0548609424777758
-0.121788996435493
-0.0756906042994781
-0.0378677064628499
0.0142557998040645
0.00576663632315774
0.0320535184033344
-0.0980376355963294
-0.0374869834024399
-0.0265484423298456
-0.104473656366615
0.00773120267318923
-0.0303438014946619
-0.0131176448017897
-0.0059024306359972
0.143684339757163
-0.0139734734286973
0.0592447213442908
0.019480127444266
-0.225807173127821
-0.0404538424892594
0.140925614412501
-0.0683263632253414
0.0242412152341399
0.432874700588821
-0.000290099319322
-0.0348513037051892
-0.0325769509719867
-0.00221017542746625
0.00103517488271763
-0.0572033177248137
0.071130916417027
-0.086285751131154
0.00868663566648661
-0.0377595808217405
-0.0345299853502694
-0.0241309555448787
-0.0509102930989469
0.0087027624401882
0.0237690206243182
0.0849736958475891
-0.139001558539438
0.0888102878084325
0.127613299943208
-0.173727775614522
0.0157820528695226
0.261444589451499
-0.220851450152108
0.00102895721776169
0.418996997097119
-0.00178831631923954
-0.0832589000960006
-0.0561489005932231
-0.0991898851213746
-0.0939106592389636
0.0223422624428867
-0.0757987077067827
-0.171978314194868
-0.00163001280200066
-0.0014818654546074
-0.088517279386279
0.0340058129097595
-0.0752978222989128
0.021282146791204
0.000729267050526607
0.182478064708174
-0.215695857322246
0.118861622219214
-0.0103355296683133
-0.290277677718694
0.00350544505544239
0.198979930002561
-0.256609662256631
-0.0148785702311458
0.325896373513664
0.0337881594070268
-0.0893637913803271
-0.000687922530261879
-0.124816331477907
0.0065146632954381
-0.0161591589915064
0.0283309168964628
-0.142010014416495
-0.12673558273276
0.00970826496438674
-0.0239946380801487
-0.0911053265109021
-0.0208162402782586
0.0407514882315483
-0.0618492851352914
0.29078076198666
-0.0625108961579133
0.0611384898303364
0.0324624911710271
-0.291536840651559
-0.0182325560915587
0.089252317820428
-0.213896559283592
-0.040894711364173
0.341910002759102
-0.0249207511273665
-0.0566293914269084
-0.0185485894606217
-0.0124802614074744
0.0409182815795835
-0.0128675805835487
0.0908266347815236
-0.203687948249243
0.0384786491827318
-0.0258523903976274
-0.00654302038653796
0.00118461525028482
-0.0404976059719142
0.0659962300315244
-0.0701623194863772
0.130561205881497
-0.0191927055264944
-0.0622068580606271
0.0164082829602136
-0.286161962136377
0.0244873238466128
0.0444118206472814
-0.192624489183183
-0.000564161153487022
0.304965148516308
-0.026301399108582
-0.115853417648008
0.0732047647273401
-0.0653163496479806
0.038720057786697
0.00286919522328725
0.0971767219919922
-0.169457472891694
-0.0776241040450843
0.0011740373845945
0.0186748434084888
0.034438864056643
0.043154619958316
0.10491685521463
-0.0832496906256725
0.162681710833698
0.0710088590348958
-0.0434441163700835
0.038282320235771
-0.273929783248618
-0.0101943219888527
0.2330416893163
-0.221263091579175
0.00182060033688084
0.394507835991415
-0.0606184007443128
-0.225646693362721
0.01125308056237
-0.111120024406406
0.00825182865895687
-0.0312699016550851
0.0905681841141409
-0.220996998104224
-0.00109586956808014
0.0564647795484512
-0.0661686292130966
0.080669465343119
0.0364485019959207
0.0898048581672786
0.0385274493705966
0.25975536416131
-0.106084136647947
-0.0131780011107959
0.0397307183950228
-0.237787257183012
-0.0723659579770956
0.129171979731241
-0.00259268788309237
0.00932477545472012
0.201472989279378
-0.0115065809163921
-0.10206262583899
-0.0459844989601304
-0.02095442252443
0.0261835369989326
0.0583978872580161
0.25273772969862
-0.0269986305567291
0.032721998107802
-0.00498342076524745
-0.13708036382199
0.0527899632624652
0.0773913553922284
0.0826663993721175
-0.0152655003497261
0.348988149719212
-0.0544226924347067
-0.0239270365571376
0.000350429357715874
-0.185135326433509
0.00756817384077421
0.0502797116604758
-0.0289988072499365
-0.0817313649830708
0.152251040641112
0.0826798361691345
-0.0971412770653027
-0.0261004515807828
-0.0107045930760327
0.0481723561501533
-0.146201663896465
0.232827340558945
-0.0127420091988792
-0.0146869865051371
-0.00441833504146702
0.0378437531909857
0.111905542682986
0.0383640075688118
0.0401530883752796
0.0993314655894219
0.396261884718039
-0.0842622860165693
-0.00458238304902233
-0.00777921265819578
-0.0791948135923115
-0.0183312321530759
-0.0640385997541229
0.000223262310997364
0.0170760716398562
0.189579984555278
0.0165524975206381
-0.0604750833672169
-0.0290787658955774
-0.0693442330115098
0.0480587394691857
-0.0547634477338187
0.167687892050068
-0.0251728287282635
-0.0322703861938157
0.0188020804454086
0.151649596718366
0.0440375710492104
-0.107683659064798
0.0422439725573932
-0.0380673852638503
0.192415061554738
-0.0050068933423667
-0.0206089448740833
-0.0377217495893405
-0.0590604886546769
-0.074112742540194
0.0138671894353268
-0.0662467773675531
0.0019183709565488
0.123759171351503
0.115352198405858
-0.011997554445164
-0.0178005917791963
-0.0245420402809731
0.0275518168367631
-0.0576121140379069
0.21619251090251
0.0916882115888117
-0.0144040409206059
-0.0329409713347289
0.097720284956381
0.0158597044872816
-0.0525933178215845
-0.0290129594994805
-2.49442523902905E-05
0.30359934714627
-0.0427381203675249
0.0184752734784795
0.0764557792461209
-0.096717941448875
0.0540056145927838
0.0198935672868861
-0.0781593345095958
-0.0546016666045561
0.130646436778542
-0.0141591375534627
-0.0857960511444305
-0.0749665452740763
-0.0489928629370492
0.0413916122542058
-0.0960985315998641
0.25018026280126
-0.0077487684803316
-0.0413214556768275
-0.00821763827831001
0.0970216237126339
0.0683546840227223
-0.0585655966945016
-0.0256572117131979
0.0329545208935428
0.24698422102635
-0.0464298311132718
0.0710468410700833
0.0436980744811603
-0.0640810740653005
0.0233308871892533
0.0212402240630209
0.0499734966335061
-1.62076000769383E-05
-0.0206154701511407
0.0164346367646603
-0.0251352982439672
0.0558257131802883
-0.00836396320678213
0.0442576126051894
-0.1455109175316
0.184881995744754
-0.100795910345238
0.0160193336389619
-0.0118229757192428
0.0331774039606477
-0.0419625498605075
-0.08729059681902
0.0264805971626307
0.0299249176502485
0.0777312498475752
-0.0487579533813151
-0.00867924965341236
0.043799055212934
-0.0620351086282948
-0.0414791081702033
0.0863794526647349
0.0181379080042804
0.0427152600204189
0.0456688894718736
-0.0549657446623606
-0.003437702030294
0.0353886659320098
0.0206596345258892
0.015918646944134
-0.0831953762921383
0.0238906836162282
0.00319391526867424
0.0380221412730857
0.054209207325668
0.0386203567531005
0.0697182276897788
-0.0266438857333377
0.0769860338582375
0.0496344553737314
0.0418325034870949
-0.105946523459145
-0.0254039155852094
0.0400370474403952
-0.0245708485303683
-0.027582579742317
-0.0618756764949422
-0.0677820809249917
-0.00952137414534378
0.0771062880533955
-0.000681924297833005
-0.0766529971218698
0.0373219293223791
0.0239023904021376
-0.0302480576967106
-0.0199679143339732
-0.0277676920911798
-0.0166126442059747
0.0263981661480478
-0.0367787440210318
0.00658847082207769
0.00890239605506109
-0.0156123530175061
0.0541023871117684
-0.0977270249666684
0.0174690479869365
0.0142573014360723
0.00456674561459158
0.117600661584214
0.0636549579545938
0.0536150868206721
-0.0340461970404506
-0.0234377623248385
0.0234003713789911
0.00234494068565667
-0.0536219995692176
-0.0204915474373923
-0.0575877050986632
-0.0243987142194244
-0.0118272999359491
0.00804597630670009
-0.0329490280231817
-0.0219827727222428
0.0459613467563364
0.0185209845192447
0.0289914222190994
0.0139559283479471
-0.0299668145582482
-0.0474983200897764
-0.0086848134742496
0.0140146837128449
-0.0232302130018915
0.0278379606290017
0.0290915796755493
-0.00903374465128005
0.00997498123433603
0.078856162765673
-0.0121137220047723
-0.0102245723097298
-0.0257382345840825
-0.00648342188369
-0.0126550290307046
-0.0146729943507939
0.0266936776321164
-0.0609436697912945
-0.0361031082340344
0.0156802233132911
-0.0864402032707646
-0.0749215601597475
-0.0245597459542595
-0.000555423556529587
0.00666935371254221
0.0408293460974901
-0.0526419211222155
-0.00729987257536028
-0.028809753280479
-0.00553882555924708
0.0268516916620608
-0.0314189035493327
-0.0176936967594902
0.0236958515989517
0.0672199337610338
0.0163960462520516
-0.0321392185609076
-0.0360637200786101
0.0191586102454891
-0.0458132276854455
0.00477885987812391
-0.00768332234437532
-0.00599187973349705
0.0171250618850117
-0.00130039146020994
-0.0106567715501336
-0.000621831568237869
-0.0227809829867985
0.05041928120152
-0.0130746014767372
-0.0309904255034531
0.0121862907492615
0.00389857675491292
0.0180269539595133
0.0433326715308042
0.0137844889597276
0.0354443808629228
-0.00257000338125853
0.0519714351490871
0.0319730037511128
0.0104763154182924
-0.00445401948011854
0.0141650437628584
0.00359893691768345
-0.0151739525693868
0.00550259569832584
-0.0209852013067599
-0.049138881828647
0.0227236838934444
-0.0139418072468271
0.0277455255043146
0.0338300126173245
-0.00390201405000508
-0.0497660421514693
-0.0359300064842971
-0.012056747245005
-0.0253510575191262
0.0231368201375555
0.0189088348505613
0.0127786470452336
0.049797591141577
-0.021266896143263
0.0270597467663236
-0.0717166050671013
-0.0210163210647101
0.0189635995865594
0.0247185860594458
-0.0329040120358948
-0.0319034842637902
-0.0223215695690526
0.0638122203774667
0.0133415163957504
-0.022987432043084
-0.0206378484056488
0.0011510325424626
0.015715411766939
0.0578812787697285
0.0303105495053721
-0.0780048885578946
-0.0276451799802066
-0.0186545016148293
-0.00779611020566674
0.023139254378134
-0.0302259517929446
0.0584972538309289
0.0182571319038131
0.0387233124957469
2.1850857891094E-06
-0.0300355371884419
0.0159098588996144
0.00782706454034969
-0.0809073974967646
-0.00109473055220204
0.0203523136872347
0.0141507268635534
-0.00267735537055764
0.0524592243018303
-0.0142625292081559
0.00367705659119934
-0.00565618723776558
0.0646253929128024
-0.0260173683291295
-0.0476056142794114
0.0050146986642916
0.104241750931028
0.0961243519174047
0.0253671197692034
-0.0250234502535053
0.0293470583037304
0.00674528315757001
0.0305572733173244
-0.00133777780774752
-0.0317657931044394
0.0247589075676481
-0.0201011617370693
0.0210352450017047
0.0148954710019136
0.0654644210694496
0.00506823991854685
0.0701066230512917
-0.098515102023453
-0.0498622578203101
0.0204333905287359
0.0136052337774096
0.0602393779570871
0.10521191892138
-0.0407135753870647
-0.0997252974958217
-0.00957168024359357
-0.0812324073313278
-0.0124581345472363
0.0598979614883139
-0.0218332321504364
-0.00440849915214906
-0.0554625743219191
-0.0098912689238461
-0.0312037992786846
-0.0322507642324881
0.051128805204688
0.0090864049785808
-0.0469621103506271
0.00342378439898532
0.0237067044061942
0.0449646992679374
0.0454280941154456
0.0057967497974725
-0.0461692513739917
0.0570113878968141
-0.0285735366369457
-0.0134782126337697
-0.0589830155485838
0.0159844801673777
-0.0273533223770404
0.0340546002508067
0.0493562242379505
0.0363229031530427
-0.000790583531305513
0.0492726608748728
-0.042348842543767
0.0408433422241316
-0.0900991362107548
-0.0579862196311663
-0.00496851330534788
0.000743671026892097
0.024040878546405
0.0482713040744126
0.058809595449798
0.0155317440267619
-0.0041210290376768
-0.0843772803809388
0.00343749233028934
0.0492986708277998
-0.0224137939125579
0.0190762274278668
0.0219808075658943
-0.0336771707914759
-0.0500413798522375
0.0555540771668215
0.0575313780172688
-0.0192994498624275
-0.0327156867717681
0.00989819878149174
0.0240374942419199
0.0719300022744852
-0.052853592498146
-0.104082810724051
-0.0340906003431404
0.00093499676431531
0.0215654597117888
0.00848259835234438
-0.00808780612246078
0.0217904533827679
0.0360148862345939
-0.00283312559819579
-0.0638926424795986
-0.0521664999265749
0.03364570096622
0.0299561142448659
0.0104038378683264
0.00719088822333682
0.0102685638870403
-0.0571646862737696
0.0110230876350449
-0.0309667029811454
0.0365796917128661
0.0412712249667913
0.0252893179300861
-0.111906347496542
-0.0201825084369326
0.0114144090551966
-0.119154442176993
-0.0269533787701557
-0.123418735320829
0.0108854389000031
0.0659158077119041
-0.121858942424194
0.005305456674418
0.261173246641449
-0.0428202556895225
0.0176279039213693
0.0239391149470794
0.0456219800687172
0.0161622291453593
-0.0398632430246506
-0.0429608360616355
-0.0894285612070316
0.0554215238946788
-0.0686509195863667
-0.034341686941593
0.0454413878142123
-0.0699414318473344
-0.0730675936618118
-0.0142630967866587
-0.0493326854406617
-0.0708350294971411
-0.0514378423880522
0.0224302886893552
-0.0590188403946636
0.0209083645998634
0.0972763271545913
-0.0476751302947252
0.102386383937502
0.288089486195135
-0.0496135206459649
-0.0512073877785049
-0.0761405392113023
-0.0148278022168598
-0.057788814043295
0.0179060633165208
0.0422493651168742
-0.0894086803968221
-0.0427383995261332
0.053981499586896
-0.0415164537921994
0.0789075596898955
0.0444111279722912
0.00550058014995754
-0.0176609037145743
-0.0631808816198645
-0.099634289949894
0.00149587815701347
-0.0456700145241353
-0.0690203070716522
0.0319125239636895
0.00159968648930032
-0.112398446349795
0.0274745003993516
0.270758194201018
0.00818454570186168
0.0417822108659848
-0.174739188524754
-0.0193301242424966
-0.0190275188996992
0.0431188407940384
-0.109817952765156
-0.133871803215443
-0.0205085597839269
-0.0138023657809681
-0.245749299768145
0.216858487941433
-0.0291241864357532
-0.00473705896057098
-0.00369137860254648
-0.19105504017697
-0.125822687668056
0.0600200563098566
0.0069633557646303
0.0175890542734075
-0.0570573977550708
0.0543261438678551
-0.242668033829525
0.0116502618740881
0.43093397241526
-0.0298324738272281
0.0175966156147443
-0.270817766570179
-0.0967748556193256
-0.0198056984104355
-0.0605132380811118
-0.149320662461602
-0.164196909986111
0.0809195958804669
-0.0056678383358496
-0.307195787137616
0.0784258680312036
-0.0389396741973454
0.0663533677887574
-0.0167634420020317
-0.126067274456547
-0.203527187609778
0.097356992961303
0.0471562311724799
-0.174508257455106
-0.113037579676082
0.30942911372896
-0.141355446957012
-0.0147304644670076
0.604242415668104
-0.0413475936279912
0.085457799958627
-0.274331264001904
-0.0657114735809242
0.00537021730768598
-0.0919377304095966
-0.255548183805803
-0.171100711043065
-0.0252691187662023
-0.0620777394516878
-0.387861738822599
0.254163451941385
0.0283016365146636
0.0386102002307667
-0.0164395267115322
-0.198716692075974
-0.00510560810260226
-0.0233019827550531
-0.0696481115442403
-0.163468633744577
-0.00791212155330388
0.331799626916344
-0.306223852854664
0.0776229586239433
0.705867541669071
-0.0861956288416831
0.27711686737804
-0.286923334065398
-0.0345850351453836
0.0139875250947386
-0.0460332122719558
-0.255937191231526
-0.206602574635679
-0.0312779988119768
-0.00834475756037236
-0.341700343475568
0.378843269713405
-0.0145779701341025
-0.0728964563759097
0.00520993466441831
-0.188189535480616
0.187603064192247
-0.0341088968756431
0.0445088131924485
-0.17156608841089
-0.110868535725571
0.317098355086806
-0.411000504805483
-0.011134992806308
0.596371488980122
-0.0345059641783373
0.393528735809707
-0.204439735923437
-0.0711034118796897
0.00549112163358701
0.0413066842319907
-0.00734913400982333
-0.144870486337078
0.0866297181695129
-0.0188263836434351
-0.220694730540557
0.246253644321093
-0.101393355772347
0.0636345197966069
0.036896762150601
-0.107992050729921
-0.0541779204406638
-0.00472421992045888
-0.0344190264784429
-0.246628710838358
0.0495979964396968
0.243277425114639
-0.371433976985811
0.0255177975458243
0.502652773345983
-0.0260511007987062
0.478130348335739
-0.158704918440251
-0.130606340350532
-0.0563835186716443
0.00512313960302463
0.315368126985259
-0.241949925812673
-0.0538065760514469
0.0381984667553296
-0.12666222612729
0.188055469311862
-0.160723231232383
0.171003843470873
-0.0221488065634881
-0.00221636681348249
-0.0268025881574691
-0.00656792251714246
0.0703354591099316
-0.534640667472341
-0.0308782658810078
0.189168055888805
-0.413233560670892
0.00550636521609118
0.560349074967738
0.00053408429263224
0.451036323817773
-0.14273085935061
-0.0416635686981117
0.100188833943826
-0.0686924200380571
0.533364414635556
-0.221258881362722
0.019091109310799
-0.0521835337510099
-0.0204923971913337
0.192896030141148
-0.103854288534872
0.338835037578822
-0.0347618039239807
-0.174591680717103
-0.372337016306566
-0.108952250533209
0.0430736797184313
-0.660171850203097
-0.0309599265959575
0.428179084255403
-0.318898653612894
-0.00114289662746617
0.526588250934041
-0.00372862747745455
0.0983222669671477
-0.161716958743057
-0.0152907629201835
0.0156061468073273
-0.197966071186719
0.498701041746957
-0.139672431960642
-0.0525261357722105
-0.00780403986975875
-0.0233893016100661
0.123477458871636
-0.0834677985103905
0.182349797484013
-0.0140777475559334
0.0828859292663678
-0.63942401786376
-0.0442296509222341
0.00650707309011146
-0.388903688844272
-0.039098093340356
0.283374824533278
-0.307362541285072
-0.0168935802358651
0.442127172466883
-0.0651341312895642
0.0318161308622661
-0.162334741529501
-0.0281839421789205
-0.0048413881284197
-0.227383726190267
0.852294126427408
-0.0701226417212339
0.0137450737219535
-0.0169504701346425
-0.0125374284136796
-0.0299031803603827
-0.192619957423581
0.138616089124748
0.0645556567574467
0.183940749660151
-0.532014688397534
-0.116058407313774
-0.00478126476470174
-0.369392181894305
-0.0748131899030352
0.0286108640552517
-0.119674252075796
-0.0381617784754675
0.382673738992515
0.0126106978548936
0.0145717514177522
-0.14136242361836
0.096743431169026
-0.00506604007956657
-0.0753531700473589
0.950802128552321
0.0702643478928969
0.00835921613688775
-0.0325595319898932
0.154873147451192
-0.00628683844932029
-0.2633753956836
0.156762913487226
0.0315242233014526
0.162520676972299
-0.451042344939515
-0.132551856915508
-0.0101618202410855
-0.274386199416077
-0.120199301730322
0.111212711538551
-0.296771787964171
-0.05580895924274
0.501739597797841
0.0581209565939238
0.059434632665543
-0.152939688676882
0.00817911230687604
0.0793956729063852
-0.179095253828072
0.521168590908273
0.110812851933322
-0.00842657055251985
-0.0172202016823757
0.171622751665124
0.039829655014824
-0.251592062262352
0.0820420292306455
0.056738016067061
0.377211804719587
-0.349928298573538
0.0126667320481716
-0.0196291097047421
-0.158070446112794
-0.0553824909970801
0.151101919908716
-0.243295758692404
-0.0381868530186811
0.685367941178031
0.123840028642143
-0.204297652920087
-0.0280431428438611
-0.230431028533151
-0.00815081295811271
-0.112669401236597
0.546011781573613
0.0667435540967108
0.00117406302825328
0.00862531579804243
0.285867048265562
-0.113270006981572
-0.175740184396814
-0.0965728958687228
0.0643333517611461
0.339428952774379
-0.363304366817723
-0.00504237601678988
0.0092977359352422
0.0572168793863268
-0.0195622932173835
-0.0222996759125301
0.0255080230095049
0.0145237458083862
0.513505022941503
-0.0255910206738429
-0.280161515389811
-0.00837603189116037
-0.147163705611091
-0.00512653425494302
-0.145526903950752
0.427258399301394
-0.023789190605475
0.00414496504489022
-0.00184248852631201
0.251046065119316
-0.152772510337414
0.000820539864013597
-0.00146859620194997
0.10377637266562
0.241625552331327
-0.196344536478742
-0.0130723490461846
0.0206326745397993
-0.0286401827134684
0.00720536238818798
-0.0178721334288947
0.0473900819245274
-0.0361971154042511
0.248160160676934
-0.0257261194448599
-0.131446098579603
0.0281273793941117
-0.0809233508585278
-0.0224772466368305
-0.116500176370338
0.241541130216859
-0.0569527193479818
0.0767865765021274
0.00934439424585475
0.143741438007234
-0.112179992810606
-0.0275750896617789
-0.0466850541238897
0.127515704440307
0.166098018257911
-0.217560767734198
-0.018622786593869
0.00650864911562167
-0.0138621464101442
-0.00884620980913019
-0.00892829999750177
-0.00617419543995689
-0.040052262883338
0.253490531915823
-0.01232958825283
-0.112482843858438
-0.0123891584861394
-0.0604975764995745
0.00248507754614587
-0.13315289942785
0.0908524341997981
-0.142489843534887
0.0175251301474122
-0.00498635217813416
0.113421363599522
-0.0329050891687078
-0.0262508140096989
-0.0919962839420918
-0.0343465652624648
0.0875719627634581
-0.106374028062733
0.0114328038985219
-0.0828170472059179
-0.0383318285152307
-0.00713784791932562
0.0163841471605764
-0.00971291834779013
-0.00771891429462436
0.0951445681053526
0.00237653669473882
-0.0400208188195684
-0.0534621962341477
0.00169477601750243
0.0565010560689692
0.00266070969882694
0.0278488953050439
-0.0351885952919234
0.0332795526439307
-0.0562250730678841
0.0648505602545732
0.0210284426728616
0.0100813697347617
0.0226047193039733
0.008788320208231
0.0546153018927694
0.00142074671838717
-0.0198354486480831
-0.0268774410833876
-0.00206511794958114
-0.0293841823847124
-0.0105518469092557
-0.0455246445685848
0.0434236373359091
-0.0262142559122413
-0.0238479153056148
0.0216495584530489
-0.0249097407143
-0.0222724177070021
0.0209537399258821
0.0329495432678527
-0.0167755120284049
-0.030438915609724
0.0304042243937656
0.0342920690913049
0.0198285126536168
-0.0119776933622671
-0.0138362438822809
-0.0309098572241669
-0.0733160058048285
0.0712499259276481
-0.00557250135831364
-0.0108268100780091
-0.043991510577156
-0.0169122605750843
-0.0232210402026061
0.037052241451954
-0.0273856321267807
0.0226741314664862
0.0172687829713138
-0.0352904524632951
0.0267875725335182
0.0248311969788252
0.0241191202136199
0.0225876390979908
-0.014393748986628
0.0245192634801832
0.0117168449497828
0.0075776324927141
0.0303161230621711
-0.0280949514359905
-0.0425438763695935
-0.017067185209936
-0.0158920800767738
0.0212655846979229
0.044117742685586
0.0131439231395282
0.0142189847479553
0.013733309224965
-0.00931228793038737
0.0132090779981113
-0.0306347097631034
-0.0504260031479905
0.00293977664006157
-0.0313481706056982
-0.00133504379635573
0.0402571139095858
-0.0135534724102637
-0.0521574385345278
0.0244493895247094
0.0123208897285278
-0.0270155282931526
0.00724959474853114
-0.0192466883573371
0.0229537062233614
-0.0494504441791029
0.0180446459718608
0.0498356183375598
-0.0617440430070509
-0.046425442003931
0.0010451751323006
-0.070431990790909
0.00440367340399193
-0.0119295200912446
0.0470559013595829
0.0175793581335117
0.0368154754658778
-0.0276536391714585
-0.000443497128270424
0.00338899592065696
0.0628739171300011
-0.000925905770353124
-0.0363293589618931
0.0577753155554086
0.00628318908171824
-0.00731440089136098
-0.0380458405189941
0.0325245850852603
-0.00741048177318291
0.00119902942765314
-0.0404097485240387
-0.0429067260166321
0.0558728417520491
-0.000642215519368589
-0.0147692050905716
-0.0379703547043603
0.0759593499768409
-0.0110374840560723
0.0297056980596412
-0.00637149890615618
-0.0168342138607158
0.00128409205632062
-0.0237917195082884
-0.0225724464980701
0.0220929879045804
-0.0154084772404939
0.0370036255671733
0.0415255860374542
0.0143390772648703
0.0288873329409277
-0.0394010296841307
0.0101386334446253
-0.000608568493544996
0.0470522110717799
-0.0134009242922804
-0.0195829652004688
0.0212651878751147
-0.0134527496831691
0.018581553301934
-0.0469474018048633
0.0246168426733069
0.0206395096388391
-0.0281530851185064
-0.00417023510165545
-0.00790583016220544
-0.0102581893912876
-0.0350284908330333
0.0016274963929405
-0.00588847022975601
-0.0285322805037074
0.0593556960811763
-0.033420083106975
0.00481387062215086
0.0621154719681051
-0.00523846701215191
-0.00246382754599693
0.00664850908304575
0.0388319595386714
-0.0885169954464549
0.0228284800503005
0.0142385118047087
0.0402036397776576
0.0504381719918802
-0.0443786567487157
-0.0300014302619456
0.0590013105517048
-0.137272105464907
0.0186664292938998
-0.0552914919437232
-0.0321854365002491
0.00664400701159816
0.073582300077584
0.0406460203710282
0.0130981385498371
0.0480557613606075
-0.0194869599916891
0.0065542222248703
-0.016762193791116
-0.0189299062164145
0.0431283811362562
0.0159811763410356
0.0219432714290136
0.0309176543073382
-0.000861628930083094
0.0259186090166115
0.0170348565577605
0.016265412708806
-0.0286469116224502
0.0313260707676573
0.0227137460032614
0.0237357042294661
0.000259668769991959
0.0246715051148687
-0.0114244025764967
-0.0136392230909291
-0.0237283209699754
0.040195084265147
0.0793630127711938
0.00272016638463277
0.0360286586925297
-0.0387473792362151
0.0355683324461265
0.0491432153676701
-0.0194044352698867
0.0482465061895369
-0.0391070711335328
0.0192895707897257
-0.00449514372654917
0.00653082403884605
-0.0145014224155499
0.0267281675167042
-0.0353018262840183
0.0231462416782814
-0.0979704549980275
-0.00288451584389381
0.082055576370107
0.0604148530220705
-0.113321726058437
0.0633852798262907
0.0628126458599533
-0.0373558508480336
-0.0314539715309659
0.0577787442911098
-0.0622401006990153
0.175760097067845
0.0186420436670799
0.036566462680943
0.0267809131341448
0.0327536313989223
-0.0193606697323255
-0.00305381496065203
-0.0284812919067191
0.132370229524138
0.0366232412056487
0.0217436219505619
0.0486194655874241
0.0734417892804446
-0.0321133169029523
-0.00625693064534104
-0.0168008920117969
0.0572606467442707
-0.0182510679875564
-0.131459363071903
0.0776679563036838
-0.0553171841196056
0.0173039850015312
0.00213783261700247
0.0461001170497419
-0.015398040227315
0.214900671267209
-0.07128182809816
0.10927235684398
-0.0136067024139928
0.0385751473290138
-0.0132272637911574
-0.0726712920674049
0.00500032179529762
0.0733084476472628
0.0351989983151126
0.0359111310437448
0.190249380901097
0.13986576553483
0.045685221879783
-0.0344118231337995
-0.038352612485624
-0.144493154214811
-0.0569421522809519
-0.117143134767758
-0.0744741361843506
-0.0137191921966089
0.0157190824621363
-0.0279152289950932
-0.0436739501078417
0.00608601589149228
0.401357618265433
-0.0582837676388694
0.108100737210056
-0.0667646557563496
0.0281758876222439
-0.0715980595529254
-0.0564741889072685
-0.095566051440679
0.117369786434702
0.00328533939332258
0.0700066928875743
0.055375904931137
0.21135593267455
-0.019265946581841
-0.180125846089334
-0.0549564476863568
-0.0721050175921212
-0.095746954247083
-0.0260627277294135
0.00751085798098177
0.250089303105069
-0.0373038215527213
-0.0291973876096033
-0.232065887853791
-0.00281426472171802
0.259217406809483
-0.0149467972239844
0.366183283766528
-0.26533522473802
0.0211335511613662
0.0322444255230241
-0.030833200650474
-0.13828396636478
0.0665425693224518
-0.000917080487121648
0.0155576084010232
-0.142781930772969
0.520143384414166
-0.00266755820059747
-0.193065286338494
-0.0278343504388298
-0.244021320675764
-0.158395066725664
-0.0303472556655913
-0.000640909046867516
0.0711364630396078
-0.00591906071165833
0.116858971175767
-0.325980432471816
0.0820728530828702
0.229930700159103
-0.119452073929605
0.623674065884976
-0.35024059340349
0.0451467303891847
0.00698680850136995
0.0920788420545079
-0.292337039239817
-0.0802641207196655
0.0509978586681842
-0.0367285663086208
-0.25742795114677
0.717432998534782
-0.0316604398790739
-0.135528777341827
-0.0338962116262113
-0.370438638667413
-0.0205258414833882
0.0829531532153829
-0.0751822213959479
0.0499542199921187
-0.0815746866492551
0.292686400958604
-0.28828841812205
0.110838158461184
0.723078294643102
-0.13747423283522
0.558858043894455
-0.331247874618488
0.0937351047711502
0.00871670619250853
-0.0909322954179458
-0.369946085812776
-0.203254077178604
0.00874705146046928
-0.0441979989160874
-0.360785166371927
0.695914919665189
-0.150183355023001
-0.162596090145528
-0.0152567987508346
-0.345398106525356
0.0342106825981348
0.0238790785236837
-0.0482248506279455
0.0808789161984299
-0.115226720786735
0.488578342348046
0.0566164922606496
0.102779323860131
0.601371574326859
-0.141441786096295
0.717805265287481
-0.26609500747528
0.120539510897848
-0.00768120560285773
-0.18850191017425
-0.540053870201173
-0.0619606491812186
0.059512044511243
0.00959574203735866
-0.389351949800713
0.775086159074971
0.00531824848382938
-0.0652515441940155
-0.122711655232292
-0.417721316851334
0.313416269311434
-0.00100672938593207
-0.068117593012185
-0.0703240609502716
-0.143880522382043
0.406649779435004
0.0100698494254791
0.12537780524319
0.758027480008737
-0.118012784554579
1.09098812902151
-0.241074907029566
0.0966430489820936
0.0402115243266062
-0.105609842270571
-0.461108480851677
0.0180813047077721
0.117411434299271
-0.0148762329794817
-0.168574310616992
0.799292939220138
0.238503991343426
-0.059840952006409
-0.0842274005974469
-0.204120731597723
0.133325770524869
-0.169881709276984
-0.0986779891788761
0.000372055966431648
-0.079280632334229
0.234414560179738
-0.202341459613827
0.0669880944017273
0.498037727526018
-0.0442347417370492
1.01364298951343
-0.379141832746971
0.136210046722459
-0.0127895427097976
-0.0467398684894094
-0.280662038446642
0.0128496484929412
-0.00640178014022806
0.00440063661287171
-0.0293208288591809
0.720122988110086
0.107590061835212
0.00776265662118913
-0.158653209483665
-0.168640190381641
0.120873351978228
-0.178696913044931
-0.0811245898172173
0.0870750560381817
-0.00491452517225462
0.245168986923333
-0.0577813769108383
0.047791021329482
0.487217675490085
-0.00986365919094896
0.792996098722682
-0.0714831145335027
0.210456768068677
-0.0174872975704214
0.0850891718143671
-0.145346676771936
-0.172762498722428
0.0202907788785789
-0.0137105670695319
0.0175204344623896
0.594276757616447
-0.0984903043916242
0.0280382065382119
-0.0736665528939022
-0.192872269324474
0.0258830769573798
-0.0804305133386393
-0.068952211185776
0.215118711710476
0.0035727971736236
0.474872324404891
0.213754325215147
0.015085030665898
0.395135207597944
0.0468118512683355
0.549726010243481
0.0102488608123252
0.112706366883171
-0.0333446262543023
0.112056145832024
0.0221042088299323
-0.0932542680602439
0.0142640032943047
0.0495067889716663
0.0200476156416514
0.364100472946415
-0.140168629768785
0.0696977319655479
-0.0873222276344066
-0.292356150015348
-0.192466743412195
-0.0725777813246714
0.0611272561589811
0.480412446771548
-0.0421483591082632
0.412013417941116
0.417097369779252
0.0280014022926079
0.190590724848243
-0.0311493999213659
0.29669278139223
-0.0588117253049149
-0.088537041238668
0.0436264286384821
0.116745592003444
0.540330713872671
-0.120638809237625
-0.0197290130215805
0.0927180177192479
-0.494206652933831
0.104951027454655
-0.163446960323954
0.117593102925406
-0.0589688234527015
-0.129365532490254
-0.238139630067417
-0.0944550976585447
-0.00105948154066489
0.238198621930115
-0.0712240517962333
0.233194756845062
0.0108551642482609
-0.04529766222176
0.674931419883917
-0.061943049905315
0.509791564632441
0.00779934872434163
-0.281352630822706
0.0451943651933429
-0.0103255535332071
0.685716707400182
-0.201131738359237
0.00784102402179725
-0.0212245380826343
-0.328587392140208
-0.376720606200952
-0.274196051051613
0.194259865583471
0.0228179789160163
-0.187363642378174
-0.0729654890899726
-0.180378995542554
-0.0737602007192331
-0.0706459007796332
-0.0517360003335277
-0.0602565762542871
0.0547212771908608
-0.00709890227740648
0.933321012932102
0.0521160355695377
0.117481068841384
0.030694889016797
-0.201480420001566
-0.0231326787376151
0.0312486901850596
0.859799837069079
-0.0360428425712058
-0.0353576777067022
-0.00887262298547977
-0.139160341620869
-0.201979815042316
-0.358209605400715
-0.169366607110725
0.03779982735949
0.0578336923929438
-0.252400846035276
-0.0622936796776029
-0.00252704928091063
-0.156504780179626
-0.0283844668716838
-0.0623345144581773
0.0434000731619674
-0.055333907393338
0.980825294351378
-0.00512929335483592
-0.200739332866328
-0.0570376318118723
-0.347210520380493
-0.0134880613600963
0.0535101986649991
0.829798895143528
0.0204477425893312
-0.0153246767155331
-0.003802780369141
0.092141552081753
-0.10471860344126
-0.153629625861234
0.00838169054542391
0.0194986302133345
0.196496466378966
-0.208269572429598
-0.0750654234221967
0.0173022955531788
-0.321096017316394
-0.108612498995332
0.0758238254789602
0.0159975468235604
-0.0522160510046129
1.08494118434139
0.00962521045508295
-0.4195506182354
0.288548088456439
-0.486341068049356
-0.019584917642832
-0.0265005534038421
0.55727884513955
-0.0299867376335141
-0.0493877406515163
-0.0275934026149368
0.0781882556953329
-0.174854150480763
-0.00178587565630777
-0.00507243786185221
0.0152178450806476
0.21068510240957
-0.301487690595591
-0.193051219196334
0.0120692421633811
-0.123295529129992
-0.0348611770055787
0.166978235089902
0.0168908164252714
-0.0198493096063931
0.763678329305414
-0.030421020978562
-0.461853333526485
0.324446502305539
-0.267531447775198
-0.00867951859803278
-0.0966936748015193
0.296295779037458
-0.0470701130272337
-0.070515717297702
0.000759847621419363
0.158579826000322
-0.353794216163541
0.0501412276958471
-0.0721534717365997
0.0559919075163529
0.27270557675472
-0.332691129428497
-0.17742083549217
-0.023924958589848
-0.247915874009662
-0.00040710247857465
0.0389095292081774
0.0114147150133562
0.00936900604970058
0.396969218623281
-0.0133558692527982
-0.390970603634957
0.142137576317802
-0.0135387686919231
-0.0339069970321188
0.0108393654273494
0.296699635485985
0.00576887639362932
-0.0300738927850177
-0.0370813135087326
0.143348215326013
-0.140940737424945
0.0787951837612471
0.0543338052369208
0.0772928674600768
0.167401258875685
-0.234163822552944
-0.081080578589501
-0.0311503076245316
-0.135419815531368
-0.103817542202886
-0.165773972705396
0.0882109134716678
0.0215035305658781
0.13324188957457
-0.00585237932265158
-0.251963363834086
0.215013466605934
0.152210133355843
0.000414383814355399
0.0387401656360359
0.263010234285617
0.131117916981139
-0.0141853461800207
-0.0586197677440282
0.0826518982946659
-0.0605016203238702
-0.0349759035643009
0.100135696105151
-0.00781090829214641
0.13233470297735
-0.187184652606244
-0.0191781049592956
0.0740312053822126
0.108614421049808
-0.00277617844097868
-0.0277984732999472
0.206510944963643
-0.00687009714426045
0.0290203188290724
-0.00490658143266162
-0.0633125873358333
-0.0168816843471078
0.12711734904738
-0.0224071636231658
0.00972942806354619
0.195743852559782
0.0634974621303938
0.00558021187661753
-0.0170080578984927
0.0819148759501857
-0.0140963725304223
-0.140206520768232
0.0961778752648194
0.043495263013667
0.0303556254645403
-0.082166816461378
-0.0560809781376959
-0.069505956795553
-0.0272755849013873
0.00550220762225229
0.0229452115645316
0.0542042861662908
0.00273138327003817
-0.0201332035017729
-0.0185735078146368
-0.0420272780883402
-0.0464032920009283
0.0112781279876409
0.0447760660795511
-0.0648007813847968
0.111942990531527
0.061438418677065
-0.037534363042079
-0.0056216529465995
0.0169972870207019
0.0265765284014696
-0.0759167415765475
0.0200762310891142
-0.0616126601773254
-0.0242811901058013
-0.000985509702955596
-0.000996256733502267
-0.0586095348790533
-0.00720054778112499
-0.0072751173906986
0.030600684491729
-0.0587433905185292
0.0192836648397005
-0.0267498739449774
-0.0244614069207693
-0.0319147482653959
-0.0431200447147982
-0.0208258099562644
0.017067525131159
-0.00953102808765686
0.072892259932914
-0.00516009444411997
0.036907808452003
0.0577680544993963
-0.0107641627330004
-0.065112757839581
-0.00964976762521443
0.0277143228844753
0.0583302970622552
0.0417126170216013
0.0656072638247335
-0.0399742435209288
-0.00243087690186246
0.0217423186365062
-0.0225259323215405
0.00163640699802284
0.0796027345181503
0.00589840148799398
0.026240696029678
0.0464037135420807
-0.0152176077522905
-0.0109339981517345
-0.0323864707079812
0.0182144130646276
0.0106901761354226
-0.0517881260873841
-0.0372248413932173
-0.041837966397757
-0.0315009840501844
-0.0238461023065244
-0.0245260945882692
0.0444756016838597
-0.0133648367142917
-0.00650262833748884
0.0134801085013926
0.0455167097929211
0.010082098561414
-0.0681965960519387
0.0492841892325776
0.0373325128755936
0.0278437928223056
-0.0743425295566701
0.054538089591734
0.0158711954520485
0.0145122447256829
0.00864992346652485
0.05295502806029
0.0385023795221209
-0.0353050367976415
-0.0244886369838063
0.123159912597638
0.0431614842508887
0.0127106823219406
0.0144385132765229
-0.0275467980604245
-0.0291872395188567
-0.0230244733661514
0.0354229451347141
-0.0269066137393765
-0.0048927092535674
-0.0107732998576545
-0.0330117069314463
-0.0598692064900722
0.0414797658460241
-0.0110064307833169
-0.0357600726034218
0.0432312832315713
0.0345735617773529
-0.00737699296310153
0.000370325723364778
-0.0535395164023233
0.0139542053703466
0.00763977678395079
0.0217125632134233
0.033070312350071
0.0240716743355284
0.0268767976965522
0.0206314721087225
-0.000155288223867508
0.0163687401568347
0.0145379277824235
-0.0211627109985312
-0.0330993205438083
0.0310301873205835
-0.0224185340393171
-0.052676810361861
-0.00164000905366238
-0.0149680594160689
-0.00539974501269495
0.00551279608502403
-0.00969361350593183
-0.0395709521701315
0.0640319286238037
-0.0491727720489617
-0.0659483042460563
-0.00805223491563223
-0.0450539210719218
-0.0201918512997134
-0.0328844613700039
0.0202755397585286
-0.0219560263761432
0.0454511657426727
-0.0224490705724541
-0.0251677506480738
0.0909433320339996
0.0119136190713853
-0.0389016008343573
0.03936426619043
0.059789287859141
-0.000818363337319939
-0.00854874424556917
0.0427693665864381
-0.0875075219113215
0.0330402715265579
0.00848345421711274
0.0460941045969032
-0.00879081399926861
0.0175313968079531
-0.00886273504573153
0.0699721842211463
-0.0172807099426256
-0.0107917505498277
-0.0632193373315399
0.0606753521598908
0.011307732170285
0.0293010961336316
0.0011791014101371
-0.00824254145820158
0.0398360662758271
0.0395786002254907
0.0916725575403506
-0.0203496322540014
-0.0280940962833869
-0.0555845230515807
-0.00547922425027821
0.0482084991412943
-0.0248579856201861
-0.0491046783451993
0.00866451953312345
0.011908034711594
0.0165737702650375
-0.00200151912441909
0.0225675924069636
0.0279852143918181
0.111596956851432
0.130131771950893
-0.00662245690417995
0.0506134087219546
0.0589911976661848
-0.0431660572073598
0.0393481270330294
0.11164805328206
0.0183829621734562
0.0862060625253642
0.111183873785208
0.0864432461847344
-0.0471628399262605
-0.0563216520788251
-0.0057047291526413
0.0127249206034249
0.0583334450504845
-0.114000179060544
-0.094261194363495
0.0388937398291817
-0.0192188438278145
-0.0711905299847455
0.0686960090806133
0.0184636848946271
0.153220901359147
0.0504198448678303
0.251610431498429
-0.0734810629438095
0.0706504381179127
-0.0254995541768726
-0.0330475531703348
-0.125761049083216
0.208280708881723
0.0770792771854203
-0.0253215259948013
0.0186572769195036
0.141660362005129
0.0185699552277146
-0.0778754608522589
-0.00274536417836957
-0.100827145132736
-0.055643181721866
-0.138587630885725
-0.0281617833392562
-0.0509587839663266
0.00586424829869359
-0.189200584583015
0.164156188297574
-0.0219056873400214
0.38010193002426
-0.0111297269392314
0.17156258367193
-0.161401793646914
0.134584516599527
-0.0069668357004405
-0.105382063378374
0.050789745325334
0.288168487794468
-0.00882144722905512
0.00532948571300042
0.0784216380499695
0.308331980042474
0.0480613153958739
-0.0984066840575472
-0.0124784411142482
-0.159203242032106
-0.0421830729627991
-0.160840675301575
0.041128678010619
0.21966547746539
0.00408012757545926
-0.264807052223306
0.128138578408592
-0.00205089153371604
0.400238169933357
-0.0356078941716917
0.297017407722054
-0.24751826563819
0.0650241542614125
0.0822128306066403
-0.1471899154114
0.0312008193956434
0.284195932093921
0.0507025126810294
-0.0252791662754615
-0.0111837438136593
0.464123670194634
0.0417273742406536
-0.197496142010096
-0.0426967684276191
0.00984585226331411
0.0236296933057218
-0.111743370387948
-0.0456882094865309
0.0438851043049401
-0.0486346087821681
-0.0537230788972875
0.08681172874101
0.044194041113597
0.271348904582187
-0.0886433191666445
0.671117387977017
-0.382314048853356
0.130183973836422
0.0414621859406255
-0.141988847473759
-0.0733182112174153
0.210485401618389
0.0598082634031376
0.0270984251721705
-0.222280382591229
0.69953267404473
-0.0873516637911388
-0.413598577329918
-0.0319211330912812
-0.0591797321185688
0.195309736513715
-0.207439868926058
-0.0291687511864033
-0.00807124505587733
-0.0877161409874363
0.0326414833688666
-0.0455118323130839
0.0571937570374182
0.156539023444528
-0.164224641727748
0.710523072195415
-0.554633417528732
0.0726144576587797
-0.0424758457416433
0.00188977346157548
-0.100639711319107
0.25828788994998
0.0497286137147667
0.00343406967903011
-0.0869816768870355
0.736580834431018
-0.115758104493321
-0.429426273382324
-0.0126640780308505
0.0124447601850052
0.116810319352659
-0.193797157532064
-0.0586818315398849
-0.0967382937693682
-0.133734400610635
0.19146266870974
-0.0750219527340475
0.0530250748044433
0.561290388325003
-0.177950116618593
0.713318607560004
-0.422649780257019
-0.00184492577341092
-0.0155815634036418
-0.0131049794737093
-0.202678792063744
0.0696750849451045
0.0958633173506236
-0.0385670074454003
-0.357761206994039
0.641329785660831
-0.106582477531124
-0.215423454392788
-0.0140587538034069
0.0182055127929207
0.332915092559421
-0.102150337313409
0.0285210704663299
-0.117877855084384
-0.052334883977532
0.353767379920523
0.162663627637863
0.0508800013677236
0.44930587444708
-0.0471174779330662
0.719392025777354
-0.41861848760971
0.110650135460053
-0.0618813671043945
0.164108479300714
-0.365567225848105
-0.00858698951279257
0.0709212913138898
-0.094777196121072
-0.390164193450873
0.671240762598749
-0.0475834700516862
-0.289598721858549
-0.0364146113323625
-0.0236914779619
0.519508511377851
-0.040403489920628
0.0649518101152685
-0.0976774472179423
-0.0625411010287263
0.339833720431406
0.0833020365597392
-0.021286460782074
0.316676201820371
-0.00480865515608144
0.639560286148084
-0.194519048651099
0.124548611503992
-0.0377730911982694
0.227287059808165
-0.525495602939972
0.0726871481505764
0.00055425450440605
-0.0480003308915373
-0.496256866073691
0.837563156208335
0.0805914352331428
-0.122385091596415
-0.083999851450835
-0.0197347791063125
0.294705995260753
-0.0432452877478532
0.0410489249468297
0.0216669975813968
0.0381049912550907
0.394723691427455
-0.199929092351659
-0.024484290420351
0.55480553077626
-0.0744893607836607
0.801980528678623
-0.366595880461646
-0.0281152612741312
-0.0151929994521157
0.153687052167684
-0.948763934930465
-0.212636295748576
0.0428058656674915
-0.0368359218718494
-0.286938450034185
0.498738918992239
0.104309026023525
-0.133012902699533
-0.0570824687284942
0.209078163977614
0.215811566142648
0.147237602974052
-0.0220905174353536
0.0684058708009033
-0.0639309231633912
0.576779140608589
-0.596610928516578
0.0519817246261776
0.898578434497766
-0.0434723774389301
1.04671603110846
-0.34954859409008
0.126381267182983
0.0144391790937564
0.332950827467322
-0.341025826982977
-0.180297872548955
-0.0610701572899199
-0.0260990390626839
-0.358593537739176
0.496489883913449
0.200511186513224
-0.264812115446746
-0.120485455337161
0.0617944466314657
0.353951868494188
0.141696926710702
-0.0350195637482903
0.188328970152903
-0.0990319622171478
0.691587818585701
-0.353335052312812
0.0978370871972022
1.12152488209104
-0.0960431924871144
0.743690669570757
-0.423889788119803
-0.120246451625343
-0.0383480162066961
0.565167538916978
-0.0548779614409792
-0.116979626881512
0.0451209182422871
0.00469596091743895
-0.397543997580839
0.234478675395213
0.211832509594157
-0.586501347907015
-0.0202169483077943
-0.198879022174773
0.610964471930864
0.164064177893055
0.0198517105495662
0.294408889796582
-0.126284823436001
0.539807291849464
0.0101801626772689
0.115148387660497
0.997043405545869
-0.0730253109341444
0.811962182306995
-0.183251794531559
-0.312377939465441
-0.0843793772881748
0.679642427042235
0.260816024502093
0.28336437751134
0.00270495030514558
-0.029509951503855
-0.265845272819068
-0.354172816987602
-0.00729008777446914
-0.676792580962768
-0.0755281381766222
-0.23099022846453
0.588261580771279
0.0378938263771004
0.00545820584180861
0.16959151611801
-0.0910476665701799
0.604566643387369
-0.311572845665659
0.0324350331772036
1.08962873830306
-0.0929724247645902
0.705866892564008
-0.466562735305868
-0.395448997665928
-0.0105545005111728
0.816189959425553
0.451858369983741
-0.0803563039669644
-0.0490292467859852
-0.0852300325867651
-0.0933146223618928
-0.61191465823279
-0.185372031519541
-0.630596031626715
-0.0207180404202628
-0.156680785282412
0.693842384470868
0.0130016022300949
-0.0676741921211662
0.0418717729424516
-0.0427800058994035
0.423464296376584
-0.309383996911719
-0.0258769832844868
0.868668652301243
0.0412586957076489
0.138492835330486
-0.501505754173051
-0.393336629977069
-0.0962272992359275
0.825179540246817
0.438549675655173
0.0163990914144659
0.0602299797372356
-0.0344307794296801
-0.0221453192427642
-0.426998880855297
-0.363738195196784
-0.468880881310358
0.0401108390558814
-0.00785235182290454
0.547064470807743
0.201658623291452
-0.0814178661590774
-0.11262560491496
-0.0203266725206978
0.312920601723998
-0.172101189226834
0.00215569501884852
0.977272999571754
0.0769614141536593
-0.145780846370087
-0.305763321230957
-0.322233245787902
0.0576738560278883
0.888712267555546
-0.0130971722722097
0.302703981349306
0.0125485403348032
-0.0283756276508078
0.111304998182058
-0.559654796696084
-0.284233603262443
-0.384934795274722
0.0171628981599138
0.125836809991019
0.38846316811823
0.0262873245165894
0.0297511987629732
-0.337698415483984
-0.00620270929287415
0.0477926835224733
0.0283571198251381
0.0140865802934387
0.854535099213116
-0.0986248707926331
-0.111961007193134
-0.176578353915744
-0.344072344789724
0.0153829778280559
0.51465753805797
0.067046399444866
0.236029918368228
-0.0630979738250908
-0.0091237137281777
0.163201320034953
-0.584057193037528
-0.21991462358625
-0.244522029479897
0.00307124858758362
0.0152592760357354
0.0365931205079909
-0.101519726874515
-0.0653308970961178
-0.275344283531231
-0.0524647763743277
0.195780236786465
0.124228482700384
-0.0535970489674923
0.286463774824077
-0.0586212372012293
-0.375882710165628
0.0977182252546873
-0.0872015547320283
-0.0259577184160808
0.155499952040815
0.392662402180876
0.201191940998628
-0.0267387975487792
-0.0131746026589922
0.0106659350423258
-0.683201156705161
0.0399105719394757
-0.13614820232129
-0.0336544225462789
0.117240331010906
0.0698260406560603
-0.128702571697679
-0.0596225706360462
0.0130363021761643
0.0212559906257374
-0.0690854286129197
0.0918844648848594
-0.0123326177126992
0.111956638132365
-0.0934767975529175
-0.448576344603003
0.303883343637736
0.130281385316621
0.0190276475199244
0.12237947162225
0.363637201771779
0.141239657191
-0.0165086539922446
-0.0461570645164163
0.0799038161466963
-0.594763481513877
0.0174229433127162
0.0449948477045142
0.0281810279981457
0.0840929597725249
0.136586764324239
-0.178124203632847
0.00616878878614587
-0.117723449868295
0.0535158226880396
-0.141852995495857
0.379049289073877
0.0325375411260551
-0.153805174363634
-0.0692648639241257
-0.398083431471675
0.347330541830404
0.0895265367056316
0.00890579599137924
0.0215833114375067
0.35972473621109
0.38268679761708
0.0259766330620312
-0.0274980796133649
0.237164818975258
-0.328700860322216
-0.0720765998641989
0.142447634699214
0.0287399820249955
0.163913339946958
0.0464029910488399
-0.0551029776357741
-0.00720945524376978
-0.0194024652938462
0.0731750271985389
-0.0917116111609702
0.498554593434555
-0.0158020263217481
-0.0519069525924835
0.0241883915490246
-0.140351242678971
0.14042740422507
0.0586329416378705
0.0129665138341008
-0.0520083714779038
0.132873942744336
0.389267679848961
0.0681132944836466
0.0249481428896211
0.132126347464352
-0.276470259285353
-0.0932856712615577
0.0463803844217623
0.000308065996109108
-0.00792966517008127
-0.0107144199395561
-0.105421983317181
0.00775410308879708
-0.0243344086607197
0.0146314364085264
-0.0175118834556761
0.286636980225901
0.0204569603692306
0.0394703883303717
0.0221774788862111
-0.0527640125459686
0.025648385167086
0.0396402403709911
0.0343749946268563
-0.0995484932383042
0.112832713781836
0.0603706112147542
0.0263965808068185
-0.0184489673298034
0.0537052459752318
-0.163850959359144
-0.177643635977513
-0.052164643714644
-0.00466287358945222
0.0272300399040519
-0.0148618049800713
-0.0177678976070792
-0.0282083910087446
0.0300718322765176
0.0472134003689479
-0.0120189283429619
0.105120152893695
-0.0170935867721391
-0.0392426285116326
0.01556663173264
0.0468316532535442
-0.0156087584941286
0.0284682233646105
0.010412065547
-0.0132236770035018
0.0212536028526986
0.0496201645115876
-0.0104381163523269
0.000124913883411221
-0.0735806870348073
-0.0318653879413966
0.0131408211833113
-0.052632511278851
0.0246692626120873
0.0226299529532984
0.00624939163422925
0.0249725236511203
0.0329861387536031
-0.00242603730155313
0.0129223383615217
-0.0573570736021537
-0.00987487863441542
-0.000731111254096126
-0.0107801120455253
0.0480623908538553
0.0229632854556161
-0.00841659113804012
-0.0229111194447543
0.0161012069726869
-0.0141986044408837
0.000336820561420844
-0.00788381105807671
0.0544067331104939
0.00639142947334603
0.0251746956223552
-0.0348307452189298
-0.0738716366370901
-0.00817198580644444
-0.00503189873215888
-0.0226309329548094
-0.0293704912838661
-0.00784355674455373
-0.0557235323978355
0.00231797519765336
-0.0190416990609221
-0.0388815075555959
0.0174938524710718
-0.0241527069853117
-0.0294337313577789
-0.0089448433987495
-0.00632194130183592
-0.0116987719956743
0.022641631436968
-0.0202885848760593
-0.0103266949719281
0.0121670726320585
0.0150152189688469
-0.00648173134147639
0.00866848563263506
0.0137429173837455
-0.0374819087676251
0.00891966497613881
-0.0125537321356774
-0.0852117501160839
0.0127799312510931
-0.0281858724759454
0.00472295458865658
0.0348230226982929
-0.00616569378229589
-0.0161057282276599
0.0371223377303387
-0.0414149127591583
0.0255248464078576
0.0578649289095243
-0.0298067119382509
0.0168464280533797
0.066769952296601
0.0301648844560034
0.0192979553283388
-0.00382798286741949
-0.0445332549634332
-0.0144956922795797
0.00518504238388505
-0.0180868970031842
-0.0154768957969289
-0.00592870953200247
-0.0410234416590158
-0.0109382584976968
-0.0109749965945547
-0.0111082270671758
-0.0463018408685573
-0.0341441549747275
-0.00464888255819084
-0.0287612315070136
0.0185848566714089
-0.0250435552550487
-0.00868664532142583
-0.0346693145803743
0.0350198016206327
-0.00593359605478905
-0.00639336741073131
-0.0422777911109196
0.00466926290184337
0.00427672737337548
-0.0573900735019966
-0.0544124707205777
0.0363214310419051
-0.0312564833238466
0.0315003400014956
0.00517398202641681
-0.0441952389668878
0.0108787997261134
0.0445639745868132
0.00608244273527895
0.0389119105785239
-0.0116031101302184
0.00791891552866221
-0.0105072760521622
0.0616685187990359
0.0106070267004768
0.0283711963663482
-0.0369041791774937
-0.0603154315344644
-0.00822671246355855
-0.0115174919589841
0.10944951486668
0.0149272610229136
-0.0142195051976253
-0.00378168108533641
0.00711919421866516
-0.103814656048794
0.076113624295066
-0.000271211165274846
0.00242671448721707
0.146972038406299
0.103199275475753
-0.0800901960444969
-0.0148177275070736
0.0457286650196444
0.0326410139290987
0.0671388206830342
0.00539124597403675
-0.0158391446417573
0.00253802372830877
0.0867029941312576
0.00585090399194082
0.0478097569063822
-0.068597554800137
-0.0271544784666546
-0.0549529801171678
0.271859666347056
-0.0280962104429018
0.135953678627442
-0.0567612223162991
-0.076223592430094
0.0498668424092509
0.138845571237709
0.00284428853609943
-0.000719245163726976
0.213000156415007
0.155761057485037
-0.106274473601019
0.0110995262207819
-0.01481940232724
0.0732527282469277
0.160077391112688
-0.157332111681261
-0.00820535849638497
0.074807088045295
-0.0337151573876155
-0.132089334310688
0.246860839355635
0.0131664179761916
0.0568081161853225
0.0436867979801651
0.312442236236422
-0.142340092714773
0.184319565286436
-0.0945056841774632
-0.0630306476402771
-0.112868320534634
0.188849017536123
0.087354416402782
0.022478027319452
0.149468744924975
0.187808056542433
-0.0329164878288394
0.103908763901175
0.0231755376023855
-0.0743325089796364
0.108998448549794
-0.115084162296489
-0.0540170357124655
0.267122914100746
0.0375004570681129
-0.131917475836494
0.303430727524851
-0.0322232256969753
0.281084113862771
-0.0849774093357181
0.42792007037582
-0.239689272408844
0.174882615122464
0.0645733005260805
-0.137593904847125
-0.0888555171363148
0.210637688674718
0.064635657246194
0.00187527674755564
0.194505556295966
0.468599397451093
0.164713229403534
0.0342194659471784
-0.0277113139510289
-0.0399793144112813
-0.176431776581897
-0.1332370829788
-0.037473155517043
0.250568366283073
-0.0661546222154139
-0.0662297320323858
0.320316735710682
0.0994047630500416
0.131378626332204
-0.110844150030446
0.639370451407775
-0.450352979971231
0.224695969149844
-0.000685378041579474
-0.072106317180784
0.130630358649686
0.205562724934088
-0.0184245198246345
0.00934936641442064
-0.0994316694168988
0.63504185896733
0.111439813620843
0.111305497335507
-0.0559349559070499
0.192797137471131
-0.147572370525959
-0.195437809180823
-0.0906641763858224
0.126852609561251
-0.126622500976562
0.055830733134029
0.36454807199476
0.149838720639625
0.0922805552364291
-0.11252656078912
0.543739558209593
-0.79273857864185
0.189308741738154
0.0290897341502221
-0.217631840027381
0.0718758271674318
0.200701221664371
0.014940129083614
-0.00536123539096467
0.0947248487254992
0.764206476318463
-0.0055487495458108
-0.299330253776128
-0.0121575231719263
0.223898510694347
0.315641731301747
-0.307754366137731
0.029161075420506
0.143089699845136
-0.0449994656998561
0.0115867502309857
0.215895341700335
0.0701848165393534
0.00660159145590664
-0.148246793909101
0.584294937626833
-0.85867079611328
-0.047106677288929
-0.0916417393470181
0.0590852572668918
0.0386798988724715
0.187601343088724
0.0571120728783622
0.0145723625302308
0.0426756796195983
0.475384001979256
0.137438854798429
-0.430868456332228
0.0123248064148614
0.21528173351958
0.275266229669206
-0.230823936208741
-0.0414232113698128
-0.0243848151137073
-0.115473620501286
-0.1605754057865
-0.00756427158491932
0.0754195927220668
0.513117671516687
-0.057936610795278
0.409717155767195
-0.587959884706553
-0.0792699954317099
-0.104926974721658
0.045383038414999
-0.337717058377497
0.125318433563511
0.0486310634423717
-0.0957647900532096
-0.206488184230848
0.427518189806327
0.137884801321807
-0.133636243716855
-0.0491573704328872
0.253990062834873
0.535550200923523
-0.0210395373491781
0.00126151112151882
-0.164153833045514
-0.166223191346832
-0.0220471054599841
0.19271256200996
0.00440891758123989
0.195747139244578
0.054714672466676
0.180436254663862
-0.310776611022569
-0.0895893632554895
-0.11000065470384
0.185293017931215
-0.606770373827476
0.0220905430944768
-0.0178496387895149
-0.0484967341248962
-0.356946240746821
0.366843451693707
0.143273405760935
-0.0343840055858736
-0.058274902918396
0.247267221585623
0.556759065215274
-0.266883677267044
0.0381821825690793
0.0462150728695381
-0.153643076295492
-0.0904101169951605
0.122902565496257
0.0394105565459371
0.179410616670818
0.0650282792304403
0.218310422712342
-0.267117138813941
-0.265944742164791
-0.0657292308521764
0.203879754383173
-1.03191136009906
0.112336754256574
-0.0525450219242658
-0.108304406802608
-0.307546694325077
-0.00499464878631712
-0.0504403774384025
-0.179020198860615
-0.064557614160948
0.17941988927459
0.363650476283586
-0.12124008159238
-0.0304088122019481
-0.00790599433423253
-0.0829826414291267
-0.279386395117723
-0.146530002772078
0.0462204442930354
0.558439732524463
-0.109319759208497
0.553427954111793
-0.225070644352595
-0.150233314881861
0.00478031658857355
0.0852664598284988
-1.24434422428391
-0.140827992653835
-0.0158519513138656
0.0468106514509242
0.134506426535359
-0.0588723828598482
-0.0179186474605614
-0.53865640126917
-0.0694802536273287
0.360132283193343
0.216072356306948
0.146628192027316
-0.046329363442556
-0.0303567864085255
0.0543485979690626
-0.232507880483422
-0.480088990538034
0.0720900918271695
0.275326529179595
-0.312978989860182
0.326677281523415
-0.365634991490667
-0.15922201449871
-0.0180998704592128
0.0905365316091044
-1.11450964518893
-0.322429266695999
-0.0366932216446807
-0.0499388166773591
0.166700263490888
-0.409261245532824
0.0240434115832247
-0.167467732438021
-0.0507058686564649
0.0317015356583595
0.508532938661944
-0.0546926596812014
-0.0636902075137236
0.0353954284770165
-0.114421786680727
-0.105836523292706
-0.247274342638561
0.0647076683955003
0.0182750892379143
-0.267332253833296
0.348641630386683
-0.529923755757946
0.0205379162866015
-0.0633735235913133
0.239577170979173
-1.43061859064532
-0.208820687916805
0.0469012681907217
-0.0167889232394011
0.123059571130905
-0.294435548781517
-0.281530903759364
-0.0864632235900571
0.00550705046391213
-0.252529872379874
0.446594111691725
-0.258174911719982
-0.0979371249740195
0.000932241797704319
-0.135649795067806
-0.210964996240434
0.0867930475384027
0.0872653850614055
0.135963765419166
-0.188492082944338
0.564951672355128
-0.0686548687977332
0.332508306302259
0.0172024621728251
0.283721452085523
-0.827539808418154
0.0382258980113678
-0.0353618961051288
-0.0305885834095759
0.406210020173871
-0.34629582733251
-0.175286754694893
-0.0407603564567653
0.0613662716059239
-0.0999933240701334
0.238110749013779
-0.0418654897089827
-0.0249244083031177
0.0703746350663301
-0.0725182329097276
-0.0727596383346588
0.156373491184426
0.108939086896957
-0.00907964696632173
-0.118743726415056
0.240785098780384
-0.304042089823158
0.143533707218502
-0.0362818615079667
0.469191349270407
-0.905114165095561
0.194617369913396
-0.0623457245275144
-0.069165186973188
0.589683745732036
-0.33616224457855
0.0799533196208536
-0.306303581762412
-0.0569858329559135
0.0501775012130291
0.475922046339453
0.100266304996895
-0.0158880587817513
0.297867635270031
-0.0463634596878108
0.0595660638541944
-0.467197450701434
0.0678671778647007
-0.110853495367828
-0.101095869750085
0.373131611791247
-0.480668169766994
0.0597353938597407
-0.0503035781265953
0.849795614643919
-0.569414203175282
0.328007198661768
0.0203958327821243
-0.0476319526113683
0.273021943948475
-0.041208615144531
0.149805627767081
-0.422386269350643
-0.0393896713478574
0.0395560650867926
0.932470457782031
0.138451561931949
-0.0127176923934157
0.0097430459264862
-0.00616987361680281
-0.0687494169387951
-0.194961553202788
0.0677117867798001
0.0304134179170842
-0.136374607650072
0.0966424990004486
-0.367818449095161
0.00790627665877533
-0.00626049115753864
1.11860849169452
-0.417343879546398
0.314998500763021
0.0240644834172117
0.0138992184497771
0.0852344491156234
-0.0719306711200492
-0.0485004225670582
-0.436302991495521
-0.0236916791153209
0.0882083217144857
0.657481932134834
0.20215392939394
-0.0235734074589321
0.0265304407390692
0.127828924611947
0.0454686594925336
0.127942440351258
0.0239907034230361
-0.405401149402325
-0.17958814691362
0.161940072644806
-0.212331659617393
-0.126286159522122
-0.075888106240507
1.1124371291145
-0.454219635441894
0.274125299654596
-0.0945041256913101
0.0162740781945188
0.0660050806871712
-0.584232357956954
-0.208434657275011
-0.104972100013559
-0.0113156819257749
0.0708440195759937
0.0998880583139469
0.112850153641633
-0.0520941822876116
0.0847313670813637
-0.016247931336428
0.0104703697432389
0.417135925623266
0.0229835819810885
-0.582941385380069
-0.166130355025411
0.174231543529071
0.0894921763382867
-0.0867330407764609
-0.0581499267379814
0.565953306516994
-0.0187873848796513
0.356023944642768
-0.0553693745199471
-0.017568106558034
0.0901543719432589
-0.85734190653489
0.111322102798374
-0.218146774591558
-0.0661848809038499
0.163291898013671
0.22680799842021
0.0371412215951607
0.00723906872166116
0.0637226041243411
0.0440379217684383
-0.0231176910848781
0.450243288668233
0.0215677720523128
-0.56484943106157
-0.106092885920068
-0.0717413189096257
0.179609670625673
-0.0424086914976414
-0.0304771452118336
0.200234141080801
0.467314126048417
0.395847979958878
-0.0039822373999658
-0.037514226023772
0.0791085249492687
-0.785162474438382
0.0615545896448082
-0.202121476586861
0.104233901507575
0.164356321196228
0.2758687683159
-0.135037059554664
-0.0225288789880643
-0.144269003995859
0.0697280823237752
-0.124183381972411
0.691688396537756
0.00282869012631459
-0.521461280578519
-0.0016250492696623
-0.558983388280522
0.27243647665871
0.0267515342809097
-0.0416958983624623
0.0855413345141476
0.710824897096651
0.694277295983289
0.0306750036074974
0.00883069902330068
0.0776229763498081
-0.637936157643029
-0.0301773941592224
-0.385899551389364
0.0423211243332265
0.137691909317041
0.428778321842547
-0.188762217553903
-0.0110898537152884
-0.22845288367552
0.0271936363978406
-0.219230594470784
0.94636586191801
0.00644859501189364
-0.197695040910503
-0.0417888414240345
-0.543015193104473
0.0609335215162606
0.0301762901472934
-0.0100315509922927
-0.136379964026546
0.288899876241839
0.53334369656228
0.0405412178775891
-0.0429506718042215
-0.0558901019543753
-0.389848172847594
-0.203994594839169
-0.21812520677276
0.0275817257048831
0.0523286607690204
0.354942157074355
-0.183901184436376
-0.0399649084701327
-0.0981798860992561
-0.0060756879887827
-0.00218970968378399
0.443898528187158
0.0133571680211774
-0.109315312173135
-0.000116900419421461
-0.364522445582877
0.0313233409868851
-0.00430908292887692
0.00925543586131875
-0.0908196619261341
0.0422825634993422
0.275175470272342
-0.0328413009871859
0.0279007260920513
-0.0834232341924139
-0.150840928071236
-0.1032838812146
-0.115362979966814
0.0215359569140555
-0.0550145048047136
0.0717861784736203
-0.103153788837645
0.0599846757944927
-0.0531545433773842
-0.00152555129766013
-0.0354358042311932
0.116238043429112
0.00768211961840149
-0.0121762065647809
-0.033468262349768
-0.0300714775393642
0.0628472987274479
-0.0143893990492352
0.000802211960669839
-0.00844775497299888
-0.0120469661570162
0.144950055680251
-0.0306327881789689
0.00860243565126423
0.024871612811
-0.0306592289184952
0.0163658141470621
-0.0610651394785459
0.0294304009367802
0.0311780012512871
-0.0628429259951219
-0.0348040830453657
0.0055944313282979
0.00409991331393756
0.0509322467030158
-0.0211546798076026
-0.0605025563517052
-0.00323273508403751
0.0469227326576479
-0.0230556711370112
0.0478956834185847
0.0321526710197335
-0.00778816953190659
-0.0519027220989841
-0.047066880496599
-0.0391675771459417
0.0093410324048634
-0.028568393772453
-0.0034808720745098
-0.025725778852159
0.0270385613076107
-0.00164714603161854
-0.0154477799199524
0.0244839376931161
0.013456296227108
0.0309170762440409
-0.0488470551611229
-0.0885010146719405
-0.0179354150334587
-0.0326053034345472
-0.0664745788087146
-0.0226127365061112
-0.0140175018731046
-0.0242879636865962
0.0181304527145951
-0.0342968776002341
0.0311110622717353
0.0433282233433399
-0.0294037591597554
-0.0222261221501118
0.0300689319278482
-0.00796477784901961
-0.00773542967089211
-0.0544046971944943
-0.0446279799356777
-0.0195666833982772
-0.000235386305572731
-0.00940236602657555
-0.0231766996102323
0.0238381321742675
-0.0319868269204462
-0.0221092914563075
-0.0645317899787064
0.0222295229560429
-0.0555169595186984
0.00812054096596294
-0.0367611056028274
-0.0638151669849746
0.00378222419436493
-0.0146710461086934
-0.0363852101555984
0.0133055004738928
0.0180040881484321
-0.0186129762123375
-0.0158122711758976
-0.104296049917964
0.0247392807071609
0.0159424117880449
0.0445958138681848
0.0131583066735254
-0.000907998957537914
-0.0483418585582487
-0.0330863049653442
0.0441437748293836
-0.00383862569583852
0.0146944461739759
0.0288563986257126
-0.0312967063764693
0.0339341704289588
-0.0344773350112976
0.0295536270229066
0.0252028463940325
0.00470778346001657
0.080984613481974
-0.00630424642734099
-0.00653486172614396
0.0363085767203908
-0.00750193938715234
0.0228827376908067
-0.00196826807921158
-0.0418751960541646
0.0144573143863609
-0.0617745132829212
-0.0358622685573021
-0.020026360743989
0.00450055817850196
0.000536981970646448
-0.0119230731029763
0.00486517013512023
0.0267731160376678
-0.04104546126781
-0.0227269234668842
0.0295792622030133
0.0364492279840533
-0.0292559151707174
0.0187212968504696
0.00441711478238157
-0.0378357131451699
0.0517536534261336
-0.0291698263428671
0.0774690360782999
0.0222889873295718
0.0700770958440824
0.0158727492163031
-0.0438016344773633
0.0238330159915032
0.0251618895088113
0.00481660689044971
-0.0100397663759543
0.056096711697759
0.102330974904622
-0.077378827091615
0.0269599501937739
-0.0343820172272747
0.0869982241089236
-0.0576954041060881
-0.0957636634304382
-0.0684645313021476
0.0640570744977155
-0.0381705501643043
-0.067245019990401
0.0722581931176036
-0.020159945436688
0.0601744363307393
0.101836786804105
0.256296940136587
-0.0549172729757915
0.0380658359344019
-0.0436276480006233
-0.0494442941832541
0.0141747034019618
0.0872891093790662
-0.00428653702824184
0.0219068704101374
0.183857562356917
0.480700021130362
-0.117473757934337
0.0576440293003605
-0.0374183362162254
-0.0281098888731562
0.0224921790818666
-0.121186653138988
0.0338231689240009
0.126475530333013
-0.0176062666753161
0.0939482292024859
0.0481700908988136
0.0146679485908638
-0.079222243900943
0.0410361645702584
0.498350249364229
-0.154354360669414
0.177303866708359
0.00245113238015363
-0.0689965656575097
-0.18839476553565
0.121073406902811
-0.107829953382795
0.0255992362326065
0.0911388939324383
0.708005522815832
0.00940682140152029
-0.0782697123947205
-0.0126910306553903
-0.0280367857865011
-0.0870894102506286
-0.198327358300487
-0.0266454851262306
0.276098233248324
-0.113060500479629
0.073921328654946
0.192725797052569
-0.00850384155165558
0.0119567757961648
-0.0620732431190454
0.582154010886832
-0.363605554633189
0.194586880863676
0.0205494142373994
-0.181440162764562
-0.0749751975093146
0.33309066032561
-0.124476495394322
-0.0196669239536278
0.0922336115676709
1.03726041335865
0.132106855693701
-0.19771322336062
0.0328799853343167
0.151642374430244
-0.265285638725213
-0.129492857527984
-0.0615016942967496
0.327516031765385
-0.125274056353081
0.289661064394083
0.206690137847101
0.0255176604801264
-0.0522467568034993
-0.0804587622054369
0.385856024092549
-0.549577478078479
0.24153520382923
0.0287404997333591
0.108620921964241
0.157883539573911
0.0234969033625974
-0.0728284839088926
0.0410807622702855
-0.178981235925745
1.00082659414183
0.115408840701384
-0.265320030459605
-0.029915916893964
0.261838603588656
0.0147961536367461
-0.261314945150757
0.0382369955320215
0.0746607886994926
-0.108182945799195
0.346296469058137
0.477112904760937
0.0897956753587452
-0.145585681889342
-0.0456623084983134
0.329927536543518
-0.664316616487936
0.0829185369832846
-0.107032718557891
0.186943350354765
-0.11059740883528
0.144089185669435
-0.137658632563662
-0.0201973567787599
-0.051233353075614
0.520893248084551
0.158815619713581
-0.378247315953581
0.0522362520922398
0.306574479776149
0.0798277740474848
-0.157282934721919
-0.0124089547564002
0.198336303387522
-0.108870975079774
0.224058107984036
0.418479345486036
0.00429353755508208
0.0460899417354372
0.00843440838250065
0.424447460558057
-0.757704872251303
0.0274635554497347
-0.0531005568198441
0.370415069381222
-0.545250202414976
0.163305173821675
-0.126927745441032
-0.00687453943714885
-0.102908037120804
0.145521872016391
0.236444265689506
-0.166260283208532
0.102132701077896
0.0304062826322005
0.31268444398052
0.0873850702418612
-0.0235073066950554
-0.303751624412334
-0.21049233371198
-0.0684287447029453
0.389761505723563
0.0135801406047987
0.185521909605822
0.0897799462276047
0.157447455080968
-0.709483586041926
-0.174346665952592
-0.055013901160299
0.309380522419885
