1622652
0.0310813380966576
0.0576717426304477
-0.0733740617853084
0.0535057814596092
0.0482524776133267
-0.0166351367425245
-0.00111811285056704
-0.0400610004254618
0.00741377798386053
0.0766442887917353
0.0270974750777269
0.0262090863121691
-0.0101459642264726
-0.00793674976559702
-0.00143866337662509
-0.0664023168351883
0.030685600292674
0.0390479578733574
0.0122322502062271
0.0116858735576634
0.0536635006150059
0.00177096553509063
-0.0582446022093976
-0.0125315044566191
-0.0107807226296132
-0.0563509315228709
0.042844110318709
0.0298991626344641
0.0119386490310023
0.00386630140478099
-0.0367881935108286
0.0269409384300282
-0.0387414025552531
-0.0128682829247384
0.0448365654420777
-0.0498008145624666
-0.000185585695119675
-0.0288817872801711
0.00944748283959339
-0.005648675783315
-0.00493324272310852
-0.0337567764683091
0.018457657979662
0.0238615729763658
0.0132071577062287
0.00562271048156454
0.0754697274388465
-0.0143830778888287
-0.0372151142702879
0.0273995481386866
-0.00710965488838011
-0.0729991610763123
0.0281758170041639
0.0121709631711282
-0.0126285096992268
-0.0655811750211648
0.0279323760236441
0.0112112756858774
-0.0512027884913511
-0.0224860474619268
0.00250160465611615
0.000388375228872669
-0.0155954891019343
-0.0109651724767864
0.00665630964845179
0.0418540244843424
-0.0291195718047409
0.0169776962321561
-0.0425992005526144
0.0271491993041953
-0.0222733611764583
0.0506696883739581
-0.0170623923404386
-0.0547854005617517
0.0304094794933495
-0.0508810287902493
-0.0535019709613184
0.0366437130636972
0.00570700510939044
-0.00735257699309027
-0.0259877287305601
-0.0156210064297435
0.00576558886136473
-0.0440962002554342
0.0238428131964553
0.0222408296868139
0.0238841822625353
-0.0205965245229952
-0.0558735588262767
0.0217984760015541
0.0285150259949751
0.0377794538729152
-0.0638308793677917
-0.00650984193704409
-0.0396038526702342
0.047248247098515
0.00491056298636646
0.0184801354655016
-0.00843835445478798
0.0967350749641825
-0.0175380370206191
0.0346266315928958
-0.00589112952536923
0.0485246436082855
-0.0197957433178306
0.0746818387790484
0.00194885964443142
0.0127269713459113
-0.0700019805678689
0.0066858312444261
-0.079130237400007
0.00869640562298654
0.00392536729360132
0.0304435803876259
-0.0409275809646833
-0.06080433300521
-0.0028955164187638
-0.0283605239092374
0.0472726208333909
0.0375976090257861
-0.030511282661216
0.0146702465853881
0.0401993909900061
0.000279660763802062
0.0131596772847269
0.0516879377387284
-0.00153442628606963
0.0396121399945374
0.00219033732839516
0.0725074711345308
-0.0325736823181204
-0.0149659613185067
0.0291494101414348
-0.0453846167701785
-0.0124014184402728
-0.0479428172325538
0.0298657253153332
0.0192717080990568
0.0111237422263394
-0.0411123557934613
-0.0288558392889987
-0.0283647835921675
0.00251669269370169
0.0322770788516612
-0.0510991786125465
0.0170973209947166
0.0413714603214261
-0.0144021005541236
-0.0368845415588063
0.0153896877354438
0.0100395872460508
0.0676399133456828
0.0989551108097468
-0.010264996273199
-0.014704281485197
-0.0309642725854255
0.0337934149278701
-0.0179404259229055
-0.0104491184475039
0.00408620777081322
0.0182925786586034
-0.0180079345527033
0.0304172368601716
0.0352696199914197
-0.00947388502520644
7.61349493535198E-05
0.037990816345898
0.0178908347489164
0.0225824611775852
0.00111668062863784
0.0336177601540836
0.0151498750951072
0.0258662178976011
-0.00561400855168622
-0.0381981307797174
0.0026123024524962
0.0117152888133721
-0.0436939598263646
-0.0198460770636957
-0.0202095725858398
-0.0140721461639727
-0.0274601736129351
0.00982240143471018
0.0503956376925042
-0.0051777161175881
-0.00840715313991028
-0.0303384112690572
-0.0390663135103865
0.00887413666281318
0.0268197428145383
0.00870691556188988
-0.00594865298877085
0.0844510814963787
0.00772646369467849
0.00333061346091556
0.0206558537463887
0.0348446049821665
0.00310767104143298
-0.0504906380827131
-0.020211037826629
0.0467736596499711
-0.0444754830129965
0.0131208539848497
0.015673260014826
-0.0741922039070707
-0.0343835998131394
-0.0470367423419108
0.00186953060285339
-0.0202254024224522
0.00636797253160585
0.0505647928360699
0.0066295841781324
-0.0191644623335589
-0.0349772111005951
-0.00296085778693542
-0.0566148261279629
0.0361695784403717
0.00228569424168257
0.00535390043816427
-0.0591749189936756
-0.0517749704775704
0.00704376136205933
0.0161721196128353
-0.0116639297287332
0.0239841673224338
-0.0107071109909716
0.0774021982495471
-0.00224052012558497
-0.0100330628700229
0.0048066429294659
-0.0185964502071338
0.0534985143659825
0.00470100654584589
-0.0153557689657755
0.0223085915346185
-0.0408389167197738
-0.0242659357539065
-0.0224687087199541
0.0451657370699246
-0.028749700970797
0.0754101885187029
-0.0225688008166692
-0.0662467817915933
-0.00125368076872432
-0.0126217507592169
-0.0027180379798059
-0.0123803394049451
0.0166689670730107
-0.0408069437582105
0.0355529174600242
-0.0211979118780341
0.0501338478454549
-0.0214118187121793
0.0238870093955995
-0.0115337803648003
-0.00158962168216897
0.0563610344905419
-0.000761856956156633
0.0224209867153737
-0.0755927729189579
0.0213906924969552
-0.039474543611966
-0.00177223159331825
-0.0362944133000813
-0.00387324390342364
-0.0373627374996857
0.0257144654831053
0.0171210177487743
0.0584192741167305
0.0518524463961423
0.00664647764931913
-0.0131162499417479
0.0536895633413912
-0.0174402864690263
-0.00277554328491901
0.00494329462748431
-0.0357296651117415
0.0051963783883448
0.0268492855575284
0.0170114934582351
0.0056104990717704
0.0404583125440376
0.0140855956595535
-0.0258501166618606
-0.0507529814321962
0.0117349152069546
-0.0759016416595368
0.0123888232042988
0.0409557911193545
-0.0158469030480605
-0.0203579479850475
0.0066852197575122
0.00453641658083241
-0.00750215025897201
0.00997831009981597
-0.0329604815143798
0.0590587502956779
-0.00583891938758413
0.0150410578836771
0.00853511040735236
-0.0115454620326653
0.0388108192396588
-0.0672962583577165
-0.00760907767008068
0.012277894186818
-0.0315988001557636
-0.016870845170918
-0.0475099842378366
0.0624138546717958
-0.0346622505413879
-0.0358638745795455
-0.0268765777167244
-0.0131212255755199
-0.0186764797675272
-0.00536151183602768
0.00501095156037477
-0.0650376568162632
0.00560983317528905
-0.0397138072701008
0.00598278480945748
0.0754861091626755
-0.0131490816516659
-0.00997253205802491
-0.0397974050519447
0.0734283833144847
-0.012899010719714
0.00806648161325178
0.0168343291597633
-0.0135732693510258
0.00838337300641392
0.0121083339661367
-0.00559460976621512
-0.00126990235535521
-0.0496322190368976
0.0148834288815655
-0.0272127869787322
0.0223620239497234
-0.000706254495439602
0.0316560740717538
0.0385442281037816
0.0376103015108279
-0.00978426794062845
0.0559422688840986
0.0160880118754385
0.0149473114269225
-0.0214751084197714
-0.0341510961047844
-0.0565164666966545
0.00116164257356404
0.00937537676674905
-0.0335404873744952
-0.0164734921950805
0.0131321121892549
-0.00679106958606762
-0.0416261573058607
0.00664598755597887
-0.0808408168145003
-0.0353571818869296
0.027630628441061
-0.0150672467903432
0.011333652577327
-0.0144497401839206
-0.00611193690655799
-0.00223052055540077
-0.0253382478205952
-0.0222434568389474
0.0318869038410501
-0.025285159455234
-0.0430264250054813
0.0225485178114996
-0.00325503270908802
0.0131401313713823
-0.0337354687054748
-0.0115447641473383
0.0404021266673435
-0.0395056355059088
0.0532578894037348
0.0413383038240402
0.0128043266470353
-0.00509855128853772
0.0345713763045583
0.0169839708650325
0.0221566358924523
-0.044936032766679
-0.107749269584119
-0.0580960269859286
-0.00782642137137476
0.00760997679871487
-0.0317511375073088
0.000892967964645634
0.00690197014029091
-0.0271518683074681
-0.0245894548826886
0.0439644506853925
0.0244801607421482
0.0105377767986046
-0.0191130994154682
-0.0585222854449886
0.05264728286484
-0.00301560112767464
-0.0146465344108128
0.00712674060390042
-0.042654926068138
-0.0614454675929354
0.0175162665178347
0.0306262890866929
-0.0529984606965774
0.0251746931933344
0.0284326939452267
0.0183968313768398
-0.0209489143510577
-0.0438555851733527
-0.00757705830325782
-0.0136373175798837
0.0396953581968878
0.0109081080144035
0.00941822043470869
-0.0481201756313169
-0.00114514613160591
-0.00244869370575156
-0.0108315557251955
-0.0126484333894127
-0.0271108335775732
-0.0208288220897211
-0.0219973714133107
-0.00242239192363134
-0.0532922218031552
-0.0120616517820003
0.0510491163851104
0.0335791173472002
0.0167354875351906
0.0291277429512926
0.0114265599189341
-0.0458069369213755
-0.0341578291092225
-0.0918416311280469
-0.0260916563427732
0.03289542245696
-0.0730061542741921
0.00246778990333153
-0.00460840649625627
-0.0230880245375885
0.0422473426727942
-0.000746940298719599
0.0137707006957321
-0.0415933023763838
-0.0223172400757016
0.0551150772934084
-0.0529768920954973
-0.0179638840114998
0.0137856925390746
-0.0451625289631627
0.0155373704918464
0.0163697670027192
-0.0577184625382562
-0.0161100026081243
-0.0221717709226703
-0.0465719104132917
-0.00754677939250731
-0.0292567974483543
0.0646223500247594
0.0381470308714841
0.0683153626657814
-0.00826601354345508
0.036450242288293
0.0108168671291832
0.0856758679078762
0.0286627444203583
-0.0389935439558372
0.0231968921286659
-0.0267310238320077
-0.0140739351870807
-0.0234655443459342
-0.0456379365743695
-0.0365554427660101
-0.0339012011217785
-0.00436770009386939
-0.0118335348226241
0.0437077011747669
-0.0337046774629941
0.00373861465858418
-0.00750128370502524
0.0130820025237605
0.022719952793975
0.00701390820629894
0.0674260291920602
-0.0530905807550424
0.0916590389668344
0.0325991505726072
0.0442173103577008
0.00407423104076448
-0.00171741690241359
0.000939323852421216
0.0377302322939551
-0.0286045630949517
0.00617121969086063
0.00349000384733956
0.0640050408924302
-0.0175699990696307
0.0786282328739604
0.0553073485048823
0.00877998976385115
0.0105450059919995
0.0215458601922054
0.0186019657214995
0.0418314109223863
0.0170594572232153
0.00132439406867997
-0.023946645670061
-0.00416611423355848
0.00300185389570061
0.0467716313086951
-0.0161478323518491
0.000985219194170283
-0.047601391733191
-0.0430611468212677
0.0721595522562329
-0.00447483216966679
-0.0374939436645875
-0.00867504283283459
0.00427894433978553
0.0279353767188965
-0.0398569075796141
-0.0304838998626473
-0.0569045210354445
-0.00669590464215297
-0.00336981123427619
-0.0437993755808681
-0.0178936904430318
0.000486013208015456
-0.00521269351184297
0.00313299420562155
-0.00191298389639991
-0.0886331599847411
0.0504503211195757
-0.00623060470982459
-0.00906750632751564
-0.00475221563167305
-0.0114895656017175
0.0238504320644277
0.0284408366335388
-0.0246168385929355
0.00700200977594142
-0.00878310803152631
0.00623740925046587
-0.0215316213451657
0.0184149851633644
0.000111833554922363
0.078526668653073
-0.0242379520516225
-0.0169149550994161
0.00917935352419549
-0.0268755631926594
-0.0137811018820247
0.0314441928123961
-0.0173172615774758
-0.0162303768554037
-0.0227867252811257
0.0232407827818473
0.0675033053370769
0.0141029101524115
0.026384080488133
0.0207385352404983
0.0604082905713607
-0.00801063244206048
-0.000705233532064305
-0.0254836553423208
0.00501992828851306
-0.0390454900837501
0.00723304068248007
-0.00533403097241318
-0.0120707166555218
-0.0405015782129737
-0.00232245680065133
0.0525123154888737
-0.056944537540062
0.0757610319390934
0.0364850330045758
0.00461050462933631
-0.0320000936327365
0.0112614529166989
-0.00784267975997247
-0.0502709218225926
-0.00266197989474782
-0.0522446087677254
0.0238798980525746
-0.0545063539637156
-0.0344872141960384
0.00942434040775088
-0.013521092513415
0.0736755991024198
-0.0167440573620127
0.036257907180618
0.0151272573970929
0.00649885895641758
0.0485068445415412
0.0688713971156992
0.0163868405591281
0.0458891701973378
-0.0470934061673973
-0.0111342118683928
-0.00501765577047026
0.0104521205832603
0.0304793557936824
-0.0183627606568875
-0.0106613368790436
0.00348733707069569
0.0376322978751041
0.0354713439694839
0.0483648531036876
0.0191748314611936
0.0501467273879158
0.0236324200357868
0.000238023587566303
0.0128789626041764
0.0114995426812868
0.0189666041591236
0.0489820588350971
0.0260578594115683
0.0218784766865965
-0.00271705414839912
0.0117264305306472
0.0653603334668739
0.030502584829948
-0.00472932182245353
-0.0209872627593155
0.0190143810703058
0.00281890960785906
0.028900081362862
-0.0204090445269212
0.0144300286282989
-0.0118589112002515
0.00412768697640114
-0.0196271939737811
0.0143514712054933
0.0291296610756073
0.0177004084714839
0.0386839140107293
0.0199266299715674
-0.00373504289159352
-0.0275545274057812
0.0398448773863842
-0.0439342115048341
-0.019200287844618
0.0556461021392402
0.0401548858223684
0.000244724831320315
0.102800508987811
-0.0344062037652574
-0.072851138236549
-0.059685398594969
0.0456523898065172
-0.0144557031557812
-0.0368172690808772
-0.00164611371144855
0.059429515355627
0.0592118390255612
0.0157847651898777
0.0358991860892223
0.0377813027724348
-0.00816522409413627
-0.0164674618436712
0.00878088107550264
0.0240935090444189
0.0898300786862197
-0.0321700967673015
0.0190663546472618
-0.0403256828096092
-0.0168899893168957
-0.0390435342039948
0.0248476218990369
-0.0027942561241487
0.0849623514291993
0.0822109656645222
-0.00532049620809047
-0.0272797115520026
-0.000326968861852852
0.000606648362825829
-0.0322773375321876
0.0202459082022469
0.00319021325926479
0.023465623831255
0.0606944682010787
-0.0729278702416851
0.0203078976700373
0.00322786256475098
0.00201659548944604
-0.02101160720715
0.00566131937297439
-0.0368205106286098
0.0259043369758258
0.00222118652686556
0.0577089828039257
0.0638362610152263
0.000789170074241477
-0.0588593505599117
0.0269951627858365
0.0246425847343654
-0.0279438422277102
-0.0384585917348016
0.0705169297023711
-0.0246220493681005
-0.0367910201582899
0.0490302481677363
0.0412981887371876
0.0112058886992798
-0.0538759309038984
-0.031422995415285
0.02457236828503
-0.0381206647478874
-0.0361180090333452
-0.049937253349214
0.063592688698294
0.00758324136437569
0.019110986842952
-0.0273088880673531
-0.0139785653861726
0.00617996350186745
-0.0592542509368022
0.00878477843907419
-0.00502730420708021
0.00892675601847683
0.00575364516574571
-0.0478334736729431
0.0815721448844754
0.0211823186908456
-0.039584410127903
0.0270027638456781
-0.0349672093828784
0.0446812115177951
-0.0370918675422059
-0.0199302108978044
-0.00129510373291906
-0.0288481819551647
0.0180052413152335
-0.0367361052362838
-0.0590832811330159
0.00938157111215128
0.0936975124711659
0.0184522659387686
0.00468565753630247
-0.0236380557691394
-0.0333986581087611
0.0399774975361097
0.0403171827223786
0.00201816379553749
-0.0438365049920343
0.00211029178385116
-0.00513824175481144
0.00825447737643668
-0.0246878421526394
-0.00255161018371552
0.0107512390594094
-0.0324011615613318
-0.00108333774759959
-0.0530976224520142
0.0208452847728712
-0.0160065683392894
-0.0239279986693121
0.0215170622141532
-0.00942097308833609
-0.0397947064961819
0.0428523014577898
0.0119029242975246
-0.0137592289949339
0.00628149925026717
-0.0504037185384626
0.045478169025715
0.0167542650994764
-0.00547602043977433
-0.0116641190153935
-0.0105088816686673
0.0379301907766413
0.0227667821331019
0.0281817037911056
-0.0128840381016099
0.0120754656466204
-0.0332205370952027
-0.0576350819978114
-0.00394216186794358
-0.0226728278937675
-0.0755732950842397
0.0158029028562397
0.0260921969093523
0.00419740958541177
0.0274791742680364
-0.0112850858494876
-0.00264182016569832
-0.00502880495853744
-0.0128468082307111
0.0317251791760393
0.0466129690913773
0.0388919583937573
-0.0367658702239065
-0.0183479019835125
-0.0123019611733056
0.0229746177591817
-0.0167620884233056
-0.0190591131274723
0.0231566677749557
-0.00822909457267173
0.0595185454366143
0.0636790596042976
-0.00409942357342882
0.0186164087996032
0.0467184805987815
-0.0103264163641003
-0.06946160444253
0.00495011503162088
-0.0378343607366241
-0.0233013535623399
0.032211187664436
-0.0096083735665488
-0.00919110605811319
-0.00403981783072166
-0.0145212028083194
0.0539771831043243
-0.0288676852818738
-0.00661154462118098
0.0343963877382839
0.0289310653745682
-0.00165788741160101
-0.0540596290000657
-0.00618419659651859
0.0280948735766597
-0.0587652707672177
0.0310227905253092
-0.0314625458406151
-0.0398269702223183
0.00353488390403933
0.0087374412497051
-0.071901423431913
-0.0407146583690691
-0.0540891509473751
0.0357539713953713
3.76846767888193E-06
0.0100318371973134
0.0494887300081006
0.0120037648857455
-0.019312121372167
0.00648837194412804
-0.0481216607758393
-0.0205150877124274
0.0454813155331924
-2.05652859098138E-05
0.0472688525555263
-0.0177773873274796
-0.00330984397209131
-0.0385353719304526
0.0359570857627335
-0.0371070039072608
0.0064148557338666
0.0474814334953683
0.0186049301067595
-0.0018347550513606
0.0108697168031406
-0.0272350847642732
-0.0360379725891686
0.0212431952580519
-0.00446277788497439
-0.0052856312821171
0.00492373303606248
0.0104778107067022
0.0289896518223216
-0.00257764994635864
-0.0777259430229727
0.0102947260603792
0.00630487969215517
0.0609484332109354
-0.0134235622826471
-0.11050083200113
-0.00165870686848615
-0.0373954290918688
-0.00539031769442707
-0.0012105872490292
0.0214595880885125
0.00781456783299987
-0.0283199809844012
-0.0200072442569437
-0.0174995120511037
0.00542991451291859
-0.0168994349017755
-0.0152657188235233
0.0947403349617701
0.0115904246507713
-0.0296616116883084
0.0235141566416984
0.0135471148290937
0.00171452064070029
-0.0607417758128601
-0.00475926736736443
0.0193093652528169
-0.00446628550613282
0.0479699328126928
0.0301504510027309
0.0495631447898412
-0.00295927762724449
-0.00559468632184906
0.018026518789632
0.0920728809003547
-0.00532051902214438
-0.00893031248247919
0.00296784732846499
0.0338914290140904
0.0160203360160874
-0.0334366745285319
0.0130740786393026
0.0453983863193714
-0.0417882660560114
-0.0105126463934647
-0.0189194405044274
0.0241728322760422
0.0639893667282879
0.0231001671223632
-0.000825192801737745
-0.00619247986836991
-0.11114083249923
-0.00387611620509572
-0.0428156443414062
-0.0364885130627639
-0.0342189529298639
0.0102656116506701
-0.0222089018148405
0.00965094453510019
-0.0438652480809106
0.00925121272178953
0.0138303650021394
0.0290933094192806
0.0119267849996232
-0.0114333760231771
0.0586425663351341
-0.00152243331875666
0.0170218303560298
0.00252949603693304
0.00603714787276127
0.0830875390269015
-0.0319762626667683
-0.00337193738251547
-0.0279043224522316
0.0171673263741966
0.0160446861591143
-0.0278830007066626
0.0396051180049295
-0.0109228184530872
-0.0412032227112601
0.0425916472082841
-0.00271956797751332
0.0312429897583184
0.0137964872098749
-0.0317019601235135
0.00372335037017304
-0.00417903340072241
0.0350971455042353
-0.0659354588132586
-0.0244175294223682
0.0170310559028518
0.00761202831152423
-0.0155276883190468
-0.0445232617349147
-0.000851380571591167
-0.0504135984196834
-0.0120513680067092
-0.0275973364419241
0.0166801645293066
0.0136400933726088
0.064131911017683
-0.0211835384990002
0.0195141774214966
0.00686287420636796
0.0475812053928216
-0.0229403618381207
0.00666413238539926
0.00580563304834113
0.0230526466400619
-0.043699490517408
-0.0230187204984258
-0.0481319816361089
0.0314833643581747
0.0223958319500774
-0.0432954034695843
-0.0345091304451075
-0.0334378454113429
0.0377337354999437
-0.0173036820575044
0.0416356572621142
-0.0284745713662488
-0.0388885286676613
0.0339430405984626
0.02191357471733
0.013723154784109
0.0424670682482716
-0.0701185237277287
0.0222331945875683
-0.00590848999366778
0.0138932668799215
0.021026547443363
-0.0678529119147953
0.0118105891921586
-0.0199322468670414
-0.00445623724815507
-0.011097703782481
0.00955007391903659
-0.0420178470898532
-0.0258929052849846
-0.0256394258890362
0.0375174188734511
0.0463570967709896
0.0543176047975842
-0.0243305571144722
0.020483890192843
0.0421554673138387
0.0045506396531206
0.0391792196927609
-0.0413818849251967
-0.00388915189692799
0.000914100611088941
0.0464298762062072
0.0145730938203347
-0.00825153625437427
0.0365232497289507
0.0212067737539769
-0.0614183845329078
-0.012249931789681
0.0182508253788414
0.025498985203948
-0.00506794760910764
-0.0273870172780405
0.0568319310477275
-0.105850621496076
-0.0299564760046209
-0.0525472735601634
0.0371144992377931
0.000100258772680786
-0.01549932580103
-0.0264266998919748
-0.0209896834471239
-0.036469963083892
0.0195598611749077
0.0115534600570107
-0.0690073885638921
0.0178343323456259
-0.0500805937093645
0.0333161735428358
-0.0545370776359242
-0.0688012119431486
-0.0386609324294198
-0.0423086178967805
0.0647645117532963
-0.0118479312833486
0.0123741618585107
0.014181932562436
-0.000120210230227632
0.0300967500573038
0.0392696585591631
0.0521224087511669
-0.05940256375684
-0.00924066758549339
-0.0388374199292752
-0.051286622565235
-0.018304987589461
0.0229648481227367
-0.0161285948719149
0.0274452636465568
0.0237980437660971
0.0399330106655604
0.0324807919047632
-0.0438553109559687
0.0159462839243247
-0.0215950298708051
-0.00596940633486844
0.0593434415127935
-0.026684446576316
-0.0287563891015599
0.00686476488368748
0.00811793919456877
0.0138757277779917
0.0308709175525452
-0.0550929731783742
0.0327512365637146
-0.00145628384784447
-0.0208660479428662
-0.0185784200189124
0.00499317881174743
-0.0228972979112743
0.0747546618560737
0.00775400608694813
0.0372605738697055
0.012079593277743
-0.0105533959469721
-0.0203368033006241
0.021717744375142
0.000693048122191604
-0.0203379961438342
0.0482371343218699
0.00489068959912008
-0.0126315381539346
-0.00819509276139347
0.0544667232052852
-0.019044779456832
0.0158574158125089
0.0159631215704118
0.0538573038921845
-0.0127946466489929
0.00442113118722763
0.01819505869419
0.0470094276912863
0.00109057039386593
-0.0499649186826426
-0.0134563702142777
0.0134667145288727
0.00999671759230289
0.0241922558352066
0.0365701694066463
-0.0120414013247069
0.0178664374660007
-0.00274568232817689
0.00164544992305683
0.0193626830034892
-0.0201430897781789
-0.0367889149802874
-0.0274229769528451
0.038934200284183
0.00247904475111488
-0.0149001100624669
0.0280078412040692
-0.01818540137809
-0.0692259089416051
0.0431041212011221
0.0252434645289869
0.0248806883295973
-0.0774390971633484
-0.0408015424324991
0.0312948760838592
-0.0433018175138143
0.0505554463282179
0.0034974992154433
-0.0691428682037906
-0.0198439557276836
0.011604808230973
-0.0141418010007798
-0.0107041950898422
-0.0155793842109424
-0.0160467029872258
0.0123136467454834
0.0196726654790498
-0.0420399132253258
0.0695431101299464
-0.00209785747677702
-0.0220249370938035
0.00264782588234664
-0.0436349880169574
-0.0137540612087875
0.0113408331420645
0.0178617166227058
-0.0699298892465044
-0.0180330366320197
-0.0232531430096143
-0.0104838759994293
-0.0030179384844814
0.0363425151910433
0.0323623677860281
-0.0201250735207387
0.0226750467891745
-0.0107153689883717
0.0104541668009622
0.0237361640733927
-0.0417762343648948
-0.0252296992653037
-0.00270403058266317
0.0359706246757011
-0.0122477510214408
-0.0461757126354468
-0.0136934763686076
0.015511357337501
0.0241957586373965
-0.0251986668020246
-0.0215874450336289
0.0325496394993042
-0.0254947552634739
0.0712590258838118
0.00515218263431493
-0.047925548664346
0.0026567742271643
-0.0131116951342241
-0.00407186205946863
0.0371865281464973
0.0249416451356243
-0.0512733356111428
0.00364002370776995
-0.0333186742687831
-0.0391857354657534
-0.101321387546058
-0.0251048031653749
-0.0228382773200288
-0.0291470021925388
0.0448508407762388
-0.0294577672642612
-0.0375392924828588
0.0354758504704835
0.0278916680428772
-0.0142643615924122
-0.0188227082486403
0.0300293841478445
0.0115943164887686
0.0400182656631674
0.0441092273517129
0.0384929608280402
-0.00895361074549664
-0.101138327474192
-0.000573091191193056
0.0207023531569074
0.0548704230789125
0.0280302086939885
-0.0114595919267664
-0.0232271912687902
-0.00868240107847705
-0.0210875209926027
0.0319783684159768
0.0250644279800735
0.0188291161045692
-0.0127985387149837
0.0338177305304418
0.0158733571240105
0.00397215471759503
-0.0177573288114388
-0.00384589503975605
0.0268158048142393
0.0310379685145772
0.00711165190998471
0.00507562663753052
-0.0166566016040589
-0.0236702763979932
-0.0127542241292724
-0.0561850679314643
-0.00209845157389891
-0.0169135569730763
-0.00110364936453718
0.00605115924349219
-0.00314154072729875
-0.0150990619083039
0.02152048352873
-0.0331045038289558
0.00732555559670988
-0.0780178277255349
-0.0333992080252505
0.0258817431438934
-0.0171056841817154
0.00904527832510022
0.00885246618450554
-0.00556452329383359
0.00970120305828077
0.034652670592631
-0.0667406902973782
-0.00236174450620454
-0.0273055250595144
-0.0335374632337501
-0.0517420346735523
-0.0652254277882168
-0.00357008250120697
-0.0297949050817766
-0.00744426859870001
0.00502421743439614
0.02500895076707
-0.0356119966823947
-0.00484947056150831
-0.0241757468230552
-0.0430165567228909
0.0247379523533037
-0.0387914397418526
0.0114227542711062
0.0633401897341498
0.00993363136966397
0.0296167553961436
0.00551412296537908
-0.0148753872464634
-0.0578250089006555
-0.0536937836838367
0.0427790604988824
0.00488184332060045
-0.0316153100931512
0.0128237407302855
-0.00803163942379513
-0.0208627262731095
-0.0250859791078819
-0.00543660555856818
0.0258304284294885
-0.0200736509948302
0.0267770429430697
0.0540597130236121
-0.0286280205181417
0.0143952635945393
-0.0286754745078283
0.0291704299893092
-0.0461716307982992
-0.004030001131317
0.00777715162603535
-0.0188134902396907
0.00604501497554103
0.0910698406608908
-0.0143686792390728
0.00850089426528261
0.000131164975206138
0.0231425382375084
-0.00687719686303629
0.0532094883736105
0.00739013771735981
-0.0111045973818039
-0.0297212135984686
0.0361280944115624
-0.030548229345837
0.0120782908984743
0.0327660986695239
0.0497255032999337
-0.0161681239922914
-0.0445871235763582
0.0244008391045982
0.0169587154825149
-0.0109891545234108
-0.00307945154834485
0.0478756904635037
-0.0744500360057522
0.0275823995334252
-0.038982565794516
0.0612777765143058
-0.0442561125117552
-0.0428202931202147
-0.0193945044322129
0.0158703863776927
-0.0743661091067995
-0.0410167936153105
0.0548227585821146
0.00237530745120528
-0.0145169403709907
-0.037863696000795
-0.0290825300216932
-0.0175200771961087
-0.0363008881216179
-0.0295650695896444
0.0163799371349049
0.016886855795233
-0.0150334969846481
0.0214845771369499
-0.000156710392305819
-0.0333267963087103
0.0168146735248832
0.0105458055012572
0.014807840995911
-0.012705929359307
0.0383053445897972
-0.044375749125005
0.0147529746241727
-0.0555375804418065
-0.0937954781764994
-0.00689581230461878
-0.00681492303121371
-0.0113666090147299
0.00722057264540588
-0.017509430318744
0.00490325799849625
0.0514942177036478
-0.0266917676163314
-0.0119678415224852
-0.0252913854922988
-0.0734275082281515
-0.0266766034885987
-0.0471862225333357
0.0206001949381021
0.0359429911700405
0.0128537626018917
0.0311555348702617
-0.00964809457757907
0.0366080966001417
-0.0213606593365503
0.0176645764253732
0.0320101779266323
0.0967445603349388
0.00160307318318379
0.0558523325014533
0.0341021787153786
0.0615436764504012
0.00419931788415166
-0.0251544341692808
-0.060415705377334
-0.0732487618013943
0.00999952247404642
0.031924679667397
-0.0187897622312401
-0.0396508671899723
-0.000299482625770626
-0.0485968791878986
-0.0258532836936895
-0.0298353854382085
0.0290144268319699
-0.0122300357932067
-0.00708466418384649
0.0156328407061143
0.0273045337839886
-0.0330776506954386
-0.0490450661432156
-0.0517031106364377
0.0121662052485395
0.0390856471778612
-0.0337961469948527
-0.0204225442677107
7.39871821098445E-05
0.0162327154268038
0.00691748616654523
0.0173380459191757
-0.00434375227039326
-0.0130528204708179
0.0135808539508637
-0.00244653827449366
-0.0341803773196964
-0.0199819104382804
-0.0580173497564402
-0.0457643181942407
0.0399141585977105
0.0484989334849327
-0.0824626395071839
0.0344108013245954
0.00468061139983831
0.0304173132728032
-0.0609996721598956
0.00921423284097302
-0.00457338687749421
-0.0232824446908501
0.00824676806535327
0.00352741584088761
-0.0148032657595026
0.00788331947739131
0.00822260371516354
-0.0334183612916746
-0.0247999331669456
-0.0109365757849023
-0.0620776323670409
0.0796165897041121
-0.0591765642501382
-0.0348339248467856
0.00372142287804624
-0.0218892760942574
0.0335454504155814
-0.0582594451779101
-0.0114479732995077
-0.0191446725274344
-0.0314133462078701
0.00133381987668021
-0.0222671028350025
-0.0204622478399346
-0.0182980856219891
0.051632940943802
-0.0180584635527858
-0.0104870881315151
-0.0219032703081886
0.0440050941487703
-0.000738618917630859
0.0383223856985301
-0.0201010559931651
0.0542580255760371
-0.0164210051126766
0.021173351431255
0.00597452402734287
-0.0232141296116632
-0.0294032611961213
0.073082461856013
-0.0640897542412733
0.0203517401541704
0.00729962247103175
0.000999025107892772
-0.0534715740520708
0.0399684711205667
-0.0316118334053973
0.00214268855222127
0.0612375764515633
0.0308045152298447
0.0221175213332735
0.00175702199147727
0.0050551661906822
-0.0579630677531889
0.0288551945328516
-0.0351382805981733
0.0357686930590014
-0.00499087401776179
0.0191793863790309
0.0684155462514863
-0.0191437084253479
0.0399081588111377
0.0132405528404854
-0.0300949942300547
-0.0371284368529151
-0.0384076891267587
-0.0149954510396046
-0.0399113487471316
0.00576706382050299
0.00922786573614062
0.0368667852709075
-0.00765099907724271
0.0218057704817563
0.013254970324868
0.0433581430358431
0.0442385634644466
0.0466222977091894
0.02145898622778
-0.0605321197731225
0.0151914378794128
-0.0511763840593421
0.0186744535631251
-0.00526957414017425
-0.00533369327538316
0.0107007422761222
0.0107247419813512
0.0161440967135783
-0.00929382626166339
0.0116187237770948
0.0184356087264918
-0.027727972563875
0.0492383339092248
0.0304025301044471
-0.00582445725256491
0.0161624753090695
0.00527873963947352
0.0544899681107971
-0.0911199670643684
-0.0353484917779923
-0.0841415286027473
0.0447496868905991
-0.00453471315033625
-0.0202061320930505
0.0289432143651423
-0.0453263351904316
0.0368152656560161
-0.0111811243326031
0.0201318285694992
0.0193835824948378
-0.0144293434277017
0.00378431845214531
0.0574374681413521
-0.00857504405128518
0.0143697277820998
0.0925394918294721
0.0692463584554587
0.0393179038937667
0.0294803136012046
0.0377232895609019
0.00613901915666313
0.0112397744522122
-0.0712733291492669
0.0359645666731399
0.0573593948981446
-0.0214579179943861
0.0451857284358497
-0.00196833897360796
0.000149357283143024
0.0866492983402785
-0.105481286710647
-0.0403252599347704
0.0662787100188749
-0.0149011888838802
-0.091639727070616
0.0195729899951686
0.0225970930417157
0.00884973404190082
0.00138843616530203
0.000999386473888419
-0.00787440975402598
-0.0152107174026982
0.0317796320768606
-0.00180435738748317
-0.00261352836875437
-0.0523885437979378
0.0168150611247591
-0.0427271486578286
0.00821133355187635
-0.0263947707085754
0.0534658273487565
0.0466121389846861
0.0423225657521105
-0.00683182704037684
-0.0483930657173142
0.0322998087998543
-0.00610894574146847
0.0193884929869275
0.0618298435564876
0.0146545061655788
-0.0211549280783281
0.0056044816119393
0.0259534016072903
-0.0638038419284125
-0.0450339222255343
-0.0271640342978939
0.0370153607800155
-0.0165344060094611
0.0218758311817528
0.0338638526294351
-0.00235738521377981
0.0344391875564979
-0.00146662515830108
-0.105455778615379
-0.031860277411723
0.012861939799911
0.0192507215844396
-0.0236778946306971
-0.00972073768994944
-0.0138241670699682
0.00673057870386418
-0.00121887926300775
-0.0737665132553448
0.0747299142274291
-0.0463600406330623
-0.0515766543063014
-0.0180698505249575
0.0296222178222877
-0.00986855757161672
-0.0271357367863072
0.013478229374306
-0.00984297363724153
0.0791464487334412
-0.00269709907929831
-0.0221863065403674
0.0690951661814595
-0.0195823018680467
-0.0283017279339139
0.0421912770986783
0.0648424707250665
-0.0186453691124156
-0.0403824579297643
0.0329076728382133
-0.00472708783265969
0.0490546293206387
-0.0278718891284135
0.00292043420171368
0.00232950531304692
0.0548113332503951
-0.0415037502267301
0.0178558034863068
-0.000468338540522169
0.0026812029551921
0.0075845410027756
0.0124707736014369
-0.0391694762179165
0.0321731381295839
-0.0201880530066774
0.0116269002585213
-0.0246815812685078
-0.00239096533641346
-0.0241564595364242
0.00611413368540461
-0.0263554380519934
-0.0586919656483268
-0.0445640060115572
0.0314828290465982
-0.0519303197322623
0.00882588174162213
0.0368344572632263
-0.0381430077605752
-0.0459232848944683
-0.0229822489439554
0.0969457824665071
-0.0196769860889439
-0.00663861268825773
0.0101601195100862
-0.0519508750600651
-0.0465148247739459
0.0454232042784294
0.00546516321194327
-0.0101894460865068
0.00888071580746154
0.0494880509076982
0.000781154702050288
-0.0286539887014304
-0.0424728067751195
-0.00473613011549742
-0.00310036661536377
0.0188240543312751
-0.0036405555465213
0.0336815684458683
0.0512843475755423
0.0298856832671054
0.00282140259574438
0.00468070419357325
-0.034842027278729
0.0697297294310886
-0.0320479133040357
0.0322522358809491
-0.0311404114997007
0.0599245364274773
-0.0299578948827519
-0.0090542672786083
0.0225089864353758
0.0276581325072627
0.012202603508581
-0.0257160541089154
-0.0421555627317926
-0.03965928836716
0.000686305301996606
0.010265016116251
-0.0226103818759418
0.00313428249177232
0.0297304929148211
-0.0523339873630809
-0.0119077614233476
-0.0282373979144122
0.0569661311584663
-0.0302108107033206
0.0240743606241808
-0.0476737981729234
-0.0386109038582919
0.0182886369147767
0.0704593717881098
-0.0163303768536887
-0.049988153145921
-0.0194064245761487
-0.0512874970016683
-0.0376858140387251
0.0488712878987286
0.0300864186258917
0.000866106196878659
0.0645996935920497
-0.0129914566608191
0.0394741021121258
-0.0617649253770818
-0.0568915515329581
-0.00194518014013095
-0.0552254426737089
-0.0318021836858782
0.0353821419984443
0.0159653836199775
-0.0381561647002031
0.0669217178465632
-1.5455764818257E-05
-0.0247824110823002
0.0165407520532024
-0.0347735798253626
-0.0194709938119439
0.0170378672932764
0.00590711864990335
-0.0125110621175861
-0.0252290489407457
-0.0345929512093506
-0.00984773748550542
-0.041302980922809
0.0205880835894972
-0.0158599045896913
-0.00139217290806883
0.0593156335517479
0.0409389387320968
0.00275371191803306
0.0294034093361551
-0.0469710460645089
-0.0342647882416231
-0.00854100837288382
0.00921539537016068
0.00896842404590972
-0.0114934241688429
-0.0250466396226639
0.0661770376169317
-0.0462425909626786
-0.00170179832885102
-0.0301790621395125
0.0261189815238662
0.0711287131676307
0.000812923441474059
-0.0137017291798908
-0.0310345981524861
0.0736489416296977
-0.0618017931582284
0.0608813917110388
-0.0127966527101388
0.020691708100027
0.0300098200411195
-0.0196323421557768
0.0272259653080853
0.0542521005213794
-0.0478498432170992
-0.028825472702549
-0.00176535826771904
0.0374732675069619
0.0312259364736495
0.0066831912032878
0.0451441588453504
0.00643395201967915
0.000646040627934133
0.0284493057964459
-0.00538275650327384
0.00618593150681647
0.0491807870472271
0.0409435535448784
0.0303856279187077
0.0258159502450798
-0.044488270627059
-0.0465488806356266
-0.00898472812750684
-0.0508325740692991
-0.028016483822321
-0.0243883735230469
0.0503472084356449
0.00249187395096979
0.0278044087850853
0.0869083759725982
-0.0197003799254194
0.0608825712376001
-0.000261930799245084
-0.0383753033806507
-0.0724440023554254
2.85127960917789E-05
-0.00306092468620659
-0.0576361532642621
0.00278940708631454
0.03229782280263
-0.0497365073128245
0.0255731038965487
-0.0162894627575291
-0.0123759773334853
0.0723035023275279
0.0137695139453707
0.0585793219421514
0.0244313665951249
0.0410414884686444
-0.0514718626437445
0.0120118217765161
-0.00243215157047268
0.00707395171714755
-0.0261119876524185
0.0571983221293663
-0.032883996280456
-0.0419274385445076
-0.0650117792498328
0.0329217727939499
-0.00838865888559507
-0.0816932494841706
-0.0244201469123888
0.0529758882997738
0.0411418661982545
-0.017224718031891
-0.0574763486452187
-0.0241904489884525
-0.0658155296196178
-0.0495969982349273
0.0632967900079748
0.0356758554786826
-0.0389585586765933
0.0595977752921724
0.0124287202516525
-0.0537786645282147
0.0643667147130647
0.0365558117035783
0.011488143653866
-0.027149908729468
-0.000136150483031508
-0.025116683607347
0.0204000244425285
0.0307442408009098
-0.0183493254949249
0.0271883219169453
-0.0113401598615963
-0.0167912320319893
-0.0371312550428831
-0.0288288895543797
-0.0190319418838412
0.0169779813000935
0.041247427973613
-0.00819278711441907
0.0330396654832065
-0.0812509160746247
-0.00314206709001084
-0.0295004940293969
-0.00526557815973052
0.0241944435104019
-0.0200068084458023
0.0564731763831211
-0.0115126243069788
-0.0366113409517548
-0.00563108506943
0.00828721701630331
-0.0540787227091939
0.00538063011266564
-0.00432293791324187
-0.0163239677939281
0.0162885442266958
9.64395765072184E-05
-0.0255146734751569
0.00674347566655079
0.0178542972122733
0.00103355181963242
0.0314175004345699
0.0492375897052397
0.0367918207609563
0.0329609258889115
0.00865623653417549
0.00428213520619887
-0.000731592364289803
0.0323056463375091
-0.0145245054475482
-0.0167239145956818
0.00999757465631903
-0.0379991948610679
-0.0279006570945036
-0.0258857417130604
0.0385571096453554
0.0279092725853401
-0.0375248841601075
0.0788672817582494
-0.028428796832994
-0.0390842633447096
-0.0531339581902225
-0.0199729643664285
-0.0247311435077915
-0.0569269990850753
0.0483217061266773
0.0424991065442807
0.0427255233454152
-0.0174430364125153
-0.00665346147145511
-0.0456662724001003
0.00483593504627503
-0.0304377461111276
0.0499097702185782
-0.0180520849036615
0.0134761001694884
-0.041906594770317
-0.00388476968735488
0.00383830544774074
-0.0549106930999407
-0.0669051789320323
0.00774016519936252
0.0441952126818542
0.0115335760074578
0.0113037812741992
0.0250591944028853
0.0231320425041505
-0.0462026407608079
-0.0709601292382442
0.0495759391445892
0.0550746484173816
0.0255942047445208
0.0204647141379738
-0.0249989296483834
0.00435495757565837
0.0322830581762859
-0.0285334220147538
-0.0208678030922833
-0.0398992483274052
0.0920850802664864
-0.00889379552073308
-0.0241956774257836
-0.0998256061958126
0.0195508847142357
0.0538681953399598
-0.0159661703696967
0.0142301952488007
-0.0368011647817831
0.0310872097424242
0.0399315646340917
0.00740840937123075
0.0688441155145892
0.0437555625946848
-0.0447757114447038
-0.0250619867590999
-0.00484490446021875
-0.0232449102468299
0.037747565613733
-0.0186197721364093
-0.0354022192853362
0.0307306242756572
-0.00378083782506864
-0.0280028845564086
0.00183391237693932
-0.0307159292956629
-0.0107146825312283
-0.0540715293555919
-0.013934953786576
0.0261745622839132
-0.0604285092575332
-0.019751703509963
0.0102985254104313
0.0267804793732786
0.00118631176423677
0.00544900205090334
0.00631618624526603
-0.000936970095558658
0.00676070944382018
0.031071605593864
-0.0093085141245235
-0.00286482275122122
0.0203757998566511
-0.00144200398649763
0.0413868320609038
0.0117195085705403
0.0165947064866368
-0.047276732368848
0.00540663424848562
-0.0039056897815026
0.0477381464808345
0.0194347849925101
0.0397886013771669
-0.0162421560661278
-0.0214409882633335
-0.0286215096870035
-0.0294158472403989
-0.0285348470559674
0.016764731615161
-0.0325159784767029
-0.0239711218375387
-0.0697182369688061
-0.0454213837143538
-0.0445148484894392
0.0319057850023072
0.0360429950489201
-0.0330666776163359
0.00821849259536915
-0.0293159995735429
0.0389442928011379
-0.00834729567886533
-0.0505578431578822
0.0401702219009743
0.0309016915591949
-0.0238363510458573
0.00468005022008088
0.00144879207139319
-0.0439243950850722
0.00192197374756983
-0.0425927917045649
-0.0227386128419863
-0.0400032704165366
0.0306776732010034
-0.0417356905601898
0.0198485860226004
0.00293501369585778
0.00644226954420815
-0.0412737790418269
0.0256766897612967
0.00696080760486562
0.0261155175790546
-0.0124066314725738
-0.0422178425922907
0.0252498421061115
-0.0106452557558433
-0.0523231560947231
-0.00192458702774391
-0.0431061367825109
-0.00801359710478024
0.00965895754805952
0.0118471451070832
-0.0440480128074013
-0.0105042659476951
-0.0374361483162731
-0.00598838972003617
-0.0501905330053414
0.00968093929416824
0.020387130489256
0.00166383605789219
-0.0431700575424071
-0.00788473068938472
-0.0369235914267974
0.0160555034328984
0.0111297855716695
0.0913028711567813
-0.00725835954981993
0.0434424201575462
0.0500459248042398
0.0695896167473768
0.0853091065894671
-0.0143496812440182
0.0425475852200428
0.000468557297541215
-0.0398697607052529
-0.0388499069285523
0.089478846442002
0.0610918033485253
-0.037288377799644
0.00681067098659244
-0.000855298167835445
-0.0376550537968912
-0.0377930931010189
0.00249095699996391
0.0535107873202677
0.0210737581985577
-0.0199681649005619
0.0414571384909815
-0.0686195240475741
0.0320139903969859
0.0354686220933764
-0.0587845037794113
0.0379430119132119
-0.0603656137648961
0.0221378394738248
0.0137282066954695
-0.0640335298589796
-0.0123594977856388
0.0102262334438214
-0.0409247816591404
0.0360371368671505
-0.0564652926471236
-0.00904319939041299
0.0116878858134624
-0.0144099229595627
-0.0198871720075115
-0.0502822200267124
0.0589468322730499
-0.0478272245258647
0.0182618296503186
0.0230029699501573
-0.000408941711716537
0.0056119940938809
-0.0397365294291454
-0.0762613643437629
-0.00104017633778593
-0.0278431521621592
0.0160394597537089
0.0534921989097416
0.0622097237252611
-0.0412017517224593
-0.0535102719818216
0.0486240810628552
0.0619288234487102
0.0372170693674538
0.0289089741303181
-0.0165851869030576
0.0800813356096029
0.0412324863665994
0.0444517011386062
0.00388694636850273
-0.0402250118830559
0.0223998414681055
0.029368156789533
0.0355141193308309
-0.00163965507702332
0.00202209774937672
-0.0119987289204673
-0.106529892766715
0.00498584304723917
-0.0290344969731351
-0.00464534368872726
0.0270118893475055
-0.0296487158021401
0.00784619925261526
0.0059642855331866
-0.0168859906743642
0.0096717124403685
0.0543833610730002
0.0382921207112571
-0.0227560146115202
-0.000179069688041566
0.0747434450550847
-0.0399403475026697
0.00661461347073431
-0.0469885416648449
0.0230010014483326
0.0208791103074888
-0.0696029352987599
0.0559124328832147
0.00781796422375111
-0.0231647070653589
0.0241960453458618
-0.0684722123066172
0.00924423845511963
-0.0403343142654177
-0.0340998805289936
-0.0175859590786446
0.00340041406797913
0.0114189824106686
-0.0130721582608128
-0.0197268610610784
-0.00750477867203242
0.00707139407943251
0.00465346148099821
-0.0398170829838996
0.0752629030641434
-0.038505449988989
-0.0120197792807927
0.00881956245074488
-0.0604154089207935
-0.0107466137019047
-0.00988498628694758
-0.0588146849197414
-0.0152191726047956
-0.0361012641466352
-0.00915604447365526
0.0474763792951085
0.00423492240416005
0.0148930880578031
-0.0337207295139536
0.00427254036064981
-0.0640351202080592
0.032184292766299
-0.0461747162923177
-0.00384585106609261
-0.0408583457290362
0.0527251306678066
0.0208014714328093
-0.00991660457448061
-0.0246694792625342
0.0102384865903989
-0.0684633013453538
0.021828913264658
0.0115559050537824
-0.0520793544688621
-0.042314874844489
0.00725365328709387
-0.0172015749488587
-0.0379803693719637
0.00356240488389033
-0.0331794928518038
0.000936274753423349
0.0663861737260167
0.0158193630948466
-0.03417217674408
-0.0525833606437941
-0.0251103445032394
-0.0182181546115076
0.0465371985651002
0.0660757658245016
0.0256697397504908
0.00587141889916296
-0.0534702207686747
-0.0566921200308843
-0.0302259703880886
0.0128260109590887
-0.0301825187348731
-0.027804338438008
-0.0383149062729505
0.0193522861131943
-0.00508063725835489
0.0377297912513086
0.0166396546749075
-0.00920518799619475
0.00870947752469414
0.0604036938661317
-0.0272967284276953
0.00838329411306786
-0.048592967565491
0.0515005352481116
-0.0173936770242581
-0.0337703604981311
0.0345503054510866
-0.00337601237539218
-0.0129503400954624
-0.0292841258395622
-0.0402906344151028
0.0427425513925765
-0.015630296094797
-0.0298149104111665
0.0193760454149374
0.0411485683066363
0.0270772461037497
0.00772471271875393
-0.0110775978781334
0.0154618931075318
0.0408103867487488
0.0254836238914973
-0.0526536512705546
-0.0674481198676316
-0.0249040879040361
-0.0302110275792653
0.024260699897477
-0.0199543118258342
0.0240150051146054
0.0030216871568546
0.0331743785789184
-0.0178308505333723
0.0568095248249389
-0.0754482709997221
0.0266487194378596
0.00345644252998643
0.00702822878412123
0.0413696650725652
-0.0300126083246792
-0.0671374435674749
-0.0233477252063364
-0.0131258472975343
-0.0210592917315892
0.110272080301094
-0.00934654321370039
-0.000431047106382132
0.00602653349973374
0.0290511071693284
0.0201585759842725
-0.00481691292085004
0.0245023055984084
0.0285264523268066
0.00455853920417445
-0.0257391529682416
-0.0610956814798868
-0.00536686862140057
0.0544301557786786
0.036033694294839
-0.0157846680003937
-0.0510128271597676
-0.0470586155995301
0.047436029244498
-0.0170151940967439
-0.0275552190453481
0.0114792761298298
0.0522339380092796
0.0209621331730654
0.0079320364665281
-0.0326855813294508
-0.0750180336743393
0.0614179216735157
-0.000846676687049267
0.046300288956319
-0.0528227338158306
0.00637629733471164
0.0372086218827404
-7.37723317547729E-05
-0.0185495886139152
-0.0513198331046647
0.037595749560529
-0.0166470169989672
-0.0130395337985946
0.00178258414093819
0.0210957389925422
-0.0264900459702859
-0.0266109045810701
-0.0122430364508191
0.0261085638981873
0.033631133394287
0.0134358876682857
-0.0226514552201737
0.0120966031091499
0.008097315095114
0.0589436755341007
0.0161920901181585
-0.00520279210891726
-0.0726014709519588
0.0423661724630425
-0.00256273810317354
0.0282446114099104
0.00161906708579148
0.00285643666731539
-0.00446883778763194
-0.00287318404905508
-0.00996291717788524
-0.0320486738257784
0.00437612409911965
-0.00316208901894749
0.0063860015458465
0.10747805771822
-0.0165335482131806
0.0236778295409819
-0.0131611383805533
-0.0260033764272089
0.00668442996750242
0.00891353830283558
-0.0337745855371181
0.0677660525710482
-0.0358336469274184
0.00946722918760306
-0.0551018939882918
-0.0544994381317374
0.0117501797213906
-0.00991396440869044
-0.0192728910728194
-0.0478472391386027
-0.00234677540334102
-0.0431569451740171
0.0204672794683158
0.0362194304447314
0.0020252469201122
0.0306062962800132
0.0248272167517359
0.0379630946510211
-0.0246541158242881
-0.00119919006313213
-0.000943217435709323
0.00553454792638737
0.00559960696866431
-0.0351404151145979
-0.0708130175811762
-0.0126093002820297
0.0774157784491835
-0.00621845391336668
0.0591123143225401
-0.0201560652064392
0.0660423818460886
0.0729072326876218
-0.0289921635050793
-0.0608087915222854
0.0259734660694299
0.0235013640342451
0.0140507562713208
-0.00389535124809231
0.0259774408493725
0.0452891046776083
-0.0367167906698773
0.0403157354151539
-0.008811481290029
0.0110425922222179
0.0111023048357628
-0.0608180846564455
0.0314881294492797
-0.0218522387445752
-0.0191762122247012
0.0132157817444056
-0.0139674928688713
-0.0640865038659273
-0.078322244525611
-0.0120967613794107
0.0257868946496579
-0.0453046545323739
-0.00218529163552997
0.00216448009528369
0.014425947419721
0.00204718785841086
-0.0318133304390515
0.0681031023892919
-0.00855939410550654
0.0145488037758618
0.00834285584988349
-0.0238504320192436
-0.00699585189244596
-0.056643534339534
0.0292649412297944
0.0205340023389578
-0.033137085049388
0.058191713310274
0.0661074523906636
0.00829884422834318
0.0365461091749727
-0.0368436470583093
-0.0124125826181735
0.0149727011422672
3.33774740125601E-06
0.00998256432635663
-0.0118930209338387
0.037422230792369
-0.0132589116947741
-0.000969159024005674
0.0305400826626683
-0.0119870839544544
-0.00889747447617515
-0.039003098238329
-0.0324574504113708
-0.0622750592073761
0.0186697092755636
0.0128381651076362
-0.0325741209825099
0.0532848119806831
0.0132667427322334
-0.00919131020238104
0.00397702100711926
0.00370168541199046
-0.0161354318357344
1.50328760164503E-05
-0.025909843597902
0.025725126567464
-0.0466467496069942
-0.0160118264481952
0.0293543169521814
-0.00197929929950448
-0.0201336263078861
0.010431548748847
-0.0302553381850642
-0.00612047351150894
-0.0584208493886137
-0.0101565891633083
0.0302786677569047
-0.00341149111489344
0.00284319873014635
0.024715166140753
-0.0239976513124587
0.0414510130747917
-0.0280835714716057
-0.0223336282296655
0.0253454981199948
-0.0155628479124727
0.0156647037902897
0.0201000943578895
0.048639200557981
-0.047684291554608
0.014636055274829
-0.0539952380043234
0.00363373659704478
-7.00360794676042E-05
-0.0134783541640275
-0.0193537880910473
-0.00687033451026524
0.0539458615592594
-0.0552064523136285
-0.0260191707134826
0.0900920718903192
-0.0382006086149205
-0.00409601057963029
0.0439741885759776
-0.0202525570022212
-0.010931732627111
0.0431862050496783
0.0464410841695981
-0.0495632557099391
-0.0556479240891219
-0.0235507121531576
0.0561217465307573
0.0238482537366797
-0.0583766620666046
0.00461673463446857
0.0217724745940695
-0.000243170134376611
-0.00167434209155402
-0.00129564076238351
-0.00901538235036205
-0.0190270261193803
-0.0364267548161283
0.0855038758873199
0.01580675001563
-0.00357220888541849
-0.00770064174158307
-0.0237184794711985
0.0683689971085953
0.0131807394490511
0.0615907042316218
0.0103891024090438
0.0497658795629153
-0.0341754980171366
-0.00119836215550836
-0.0196591228947745
-0.034507523147597
0.0354741412176516
-0.00972743401896957
0.0254302827880193
0.0799501888272951
-0.0329857769146608
-0.0289929892010706
0.0328668755853716
-0.0106829436708099
-0.0294249500968625
0.0308455485658687
-0.0160750355428177
0.0486359770088502
-0.0111057853388413
0.0011123775562738
0.0414309889370508
0.0267241162543232
-0.0118836925887647
0.0101324254908342
0.09795565515599
0.00232345793316823
-0.0404100939704173
0.029748904373684
-0.0142454679047184
-0.0333986583001771
-0.019366096792402
0.0208928140096645
0.00747665314466612
-0.0341350629797982
0.00345647222290594
-0.0324380706491983
-0.0163890370134696
0.0116899298656317
0.00193799157215707
-0.0602235575807212
0.0321192174493404
0.0132074369346471
0.00260127796682389
-0.00120303948972096
-0.00303213699711603
-0.0159800655843331
0.0206596800598304
-0.0296052603551467
-0.0521926483474929
-0.00717677825448247
0.044891531781426
-0.00922715464672151
-0.00253329813617793
-0.0178037249431124
0.0809394981475759
0.0674513791902641
-0.0225269217301594
0.0180357740604331
-0.00636129812173209
0.0695849532571473
-0.00646630396098165
0.0410408213891892
-0.00035903742440556
0.0539718004179953
0.0137866265200018
0.0554946128390246
-0.0249226296097786
0.00533024930312735
0.0398574763275139
0.00254705972507022
0.0169375124145311
0.0398373150801256
0.00828530610371355
0.0229400062635153
0.0387389242533016
0.0159278445226041
-0.0177047609096568
0.0188842244066588
0.0533951957262505
0.0348107994176784
-0.00648617219395692
-0.0949542880952007
-0.0120790125595523
-0.0346651752183329
0.0136292184339201
-0.00188149148636852
0.0105003128369573
-0.000440303054805442
-0.0132233187940022
0.0410057788372602
0.0117557030224215
-0.0331862946880784
0.0347894017861427
0.0309260231806227
-0.0514762518192142
0.00366248664048545
0.0147296057471523
0.0308752771645953
-0.0672085316070008
-0.0223292802954769
-0.0228667511033621
0.0208645813303602
0.00825518508013522
-0.0224906591716812
0.0146381124769667
0.00689323112758918
0.00037657500524824
-0.0506049730888785
0.0121526447388999
-0.0405278910033426
0.0475187113514578
-0.039895964118746
0.039527239543158
0.0105262191603767
0.013707015753724
-0.0117590216130478
0.0293631661460108
0.0270248779442841
0.009780492877019
0.0168082922417428
-0.00461561477297758
-0.0756354204092273
-0.0113223720494558
0.0806350716423009
-0.00243742518884563
-0.0654059723592423
-0.0689000906779788
-0.0242733627614675
-0.0182240954450999
-0.0314128810549417
0.0439218006248594
-0.0134189559439534
0.0241462194434076
0.0155758726851819
0.0142544791503088
0.00165274676135384
0.0180148042977365
0.0547838599645768
-0.0608647488827251
-0.00960733299594376
0.00218605729354907
0.0321865612532023
0.0540296271389887
-0.0307622653306694
-0.0240142533290165
0.030317238770376
-0.0141004368798044
0.0347536774637199
0.0184841382606231
-0.0590387775418491
-0.0605953459928876
-0.0185128558555551
-0.0194723294411204
-0.0834160580364809
0.0487947603376693
-0.0300130234806092
0.0336418459471072
-0.00254372619874942
-0.0255786428861912
0.0469684163880295
-0.0296249557423598
0.022032767973643
0.0130540783721625
-0.0347711526400911
-0.00591764796569328
-0.0311975610718643
0.0176911781259417
0.0248907799354231
0.044268506290143
0.00107983530708153
-0.0283419052164762
-0.00621546595814762
0.0339237732295944
-0.0674698761454787
-0.083971053144934
-0.00484960059871051
-0.0685741586901927
0.0362773560714299
0.0619882166742774
0.0457898149323854
0.070512200631063
-0.0340905372452513
-0.0586169429011926
-0.0398694372145301
-0.0278079504880498
0.000619254508844358
-0.0322276772350752
0.00413116731165759
0.0253126424218851
0.0220380916779434
-0.0423447986176295
0.0179201192333148
-0.052155508258055
-0.0294840407238998
-0.00552268279583558
-0.0168995630866056
-0.0349665487761277
-0.0410230710871714
0.000580022628562563
-0.0427981691767777
0.0765950885399215
0.0902677707741281
0.0311010811745747
0.0679494989746117
-0.0220468331982477
0.00485959754194439
-0.0299907406918262
0.0721872320941138
-0.0293412386085676
0.0556607327396219
0.00130273237923929
-0.0642295899525712
0.0141831962221731
0.0286247903332865
0.0327518052672241
0.0216815137609053
-0.017325611254142
0.0151357675562145
-0.00323310609465935
0.0269680692359252
-0.00671871522556834
-0.0654586011206721
-0.0402965657362662
0.0555571276493388
0.017919260126721
0.0240871373052954
0.0520536195048362
-0.0162059183147576
0.0963569076384925
-0.0213194391468996
-0.0267693726868562
0.0315105963387222
-0.0237415014837043
-0.0528374403966243
0.0244684635529263
0.00789366259955996
0.0408139794271897
0.0303659425397688
0.0499579310948385
0.00877541558927271
0.0889772469210266
0.0257187583666597
0.031147323631096
-0.000749577386571829
0.000688840789632648
-0.0284780073294163
-0.0620695267966625
0.00891534507508847
-0.0173561498500004
-0.0416968392616575
0.0105943093538912
-0.0117284658628339
0.0291099222135602
0.024202177819086
-0.00441155532389442
-0.0505635266157618
-0.00063060029981968
-0.0283856381332987
0.0719025904960532
-0.0320757806534778
-0.0222053145477637
-0.0123372635688302
-0.0554135383553946
-0.0199974454882272
0.00292469895458409
0.0142614708489444
-0.0192521406776175
-0.0247756979338806
-0.054752923730031
-0.0315929109497151
-0.0174374806248271
0.00408546055112834
0.0140376792718381
-0.0163167109590542
-0.0580438898904235
-0.00933071321356338
-0.0201438232142111
-0.0148036631700739
0.00313681291151177
-0.0277069844491127
-0.0214472696983648
0.0569362619494203
0.0636355053278233
0.0142175967803478
-0.00696717210639943
0.0381254758345735
0.0131216610218546
0.0668227687475382
0.116438861392009
-0.0996836081266698
-0.0330665646893452
0.0271118387395914
-0.0266322626124154
0.0165893314922822
-0.0228459843508518
0.0132876315607657
-0.057139711886235
-0.0266049913190845
-0.0208212051396458
-0.0420400586416742
-0.0247243549461879
0.0714219867207017
-0.0459494014444885
0.00787107914177833
-0.0402750205902096
0.00697492670451634
-0.00151315538291365
-0.00462318842771952
0.0292623935130724
0.0249872465214275
-0.0266254694453418
0.0349691696533008
0.0732410795775736
-0.0801328419838391
0.0707454379020222
0.0182976675446614
0.0226312001279343
-0.0297168911827488
0.01346888810376
-0.00844715165190663
-0.0158435099403753
0.00577981490116022
0.00442875393440835
0.0669611760857293
-0.0590499780491664
0.0453588664012434
0.0150639661112536
-0.0191931357061398
-0.00835685584862393
-0.00455003120951372
0.0306156794675847
0.0741642854178835
0.00488291190770855
-0.0335776071455339
0.0156008310249984
0.0184465504402254
-0.0545879162275402
0.0238798693980263
0.0225601319168528
-0.0504593666077192
-0.0647172110122832
0.0345100899989681
-0.010218962377346
-0.00821548536020037
0.024621619397049
-0.0438800737402453
-0.00860541871065503
-0.0510845047382103
0.0130306711256695
-0.0667621271166051
0.0173216160892996
0.016842645612534
0.00499472515195826
0.013938279185936
0.0697616310465339
0.00396444743977261
-0.017425244112301
-0.0257141228270687
-0.038410540240291
0.0162130197474757
0.00825243176740722
0.076604360140115
-0.0218298663841234
0.0267851184845508
-0.00899310618180644
0.0174694827595174
-0.0104611452286439
-0.0211054786585498
-0.0225591275497566
-0.0746879239119681
0.0275089756610407
-0.0099516806267975
0.0562469258859316
0.0954128959322167
-0.00955471443706022
-0.00523152481050056
-0.0177944814686514
-0.0187120954954699
0.0374502592368349
0.0532636491368852
-0.00875768790255982
6.16862482579921E-05
-0.0414267089627781
0.0155893238106963
-0.0149891351359793
0.00168125692257761
-0.0255077154910794
0.00713440710787395
-0.0125445708142778
0.0223739305211946
0.0290294107048734
-0.0559331810411815
-0.0474603018373971
-0.0209231577282629
0.0283723321754466
-0.0382236236507773
-0.0602960616571288
0.0399120947590084
0.00026825647473509
-0.0337615508062246
-0.0408454531498592
0.0443449056500901
0.0219773104904863
-0.0142475715524363
0.0401120881322968
-0.082974415753389
-0.0449024644151113
0.0354990037109595
-0.0177579414484704
-0.0688798965617058
0.0715082835522462
-0.021531972338206
0.00795580181137284
-0.0206742081051531
-0.0302204402261746
-0.00999600667160147
0.0115272042842847
0.00514385456375941
-0.00999714852326672
0.0805872581008902
-0.0391840506807092
0.0262376291625888
-0.0726523956666218
0.0369936070253567
0.0415689164376392
-0.017189535167795
0.0170088223494802
0.0398695366217666
-0.0661447802686379
-0.0153796969719622
0.00747839318648472
0.0406724416355714
0.0124202945716693
-0.0225312767260209
0.0104794033890446
0.00337726458293371
-0.00270744242388153
0.012790680975141
0.0272299518864754
-0.0206338695429998
0.019712107096365
0.00755547109123355
0.00789442906431759
0.0238045378094879
-0.00642507047450818
0.011345568269356
0.109376808592457
-0.0173966183266977
-0.0168253365288809
-0.00333706855332962
0.028239518612216
-0.0677422209705998
0.0206339258949135
-0.0178622749632026
0.00503736682267993
-0.0179367694465676
0.0542768055011443
0.0123950401348614
-0.00818857087063595
0.0427413384350678
0.0184331580289425
0.00932302828857589
0.046152326673378
-0.0422870154809467
-0.00374165891908614
-0.0120892889234292
-0.0442723429355772
0.080193639881041
-0.0119370408918317
0.0256636570755688
-0.0258147125947159
-0.0333059468411051
0.0269201094697853
-0.0309471161481925
-0.065344984708197
0.00393568292099513
-0.0455266782083434
0.00512339938538311
0.0473363663092947
-0.00323889070185826
-0.00413718440063752
0.0120510449896928
-0.0054854750592077
0.00393614240680227
-0.0615611305278601
0.0628535496972836
-0.0595160085152155
-0.0327527096039058
0.00184469189387579
0.0325895962937592
-0.0355948472329111
-0.00559147034078378
-0.0331257699507741
-0.0138268234515979
-0.00510344289008317
-0.0104350802073789
0.0540873860710995
-0.0168198840221312
-0.0297339310430306
-0.0501588220850872
0.0752367354782646
0.00750568035901772
-0.0255451876986729
0.00996462689313826
0.0616153153582394
0.0133909351472685
0.000254370384886055
0.0137063447791775
0.0375122611413114
-0.000352026956165385
0.0103895251231648
-0.0354429416247064
-0.00443121681509717
-0.00462794270096313
0.0047946847153856
-0.0237435570955259
-0.0155562149945822
0.013152254471813
0.0169708606357916
-0.00406965961232434
0.0277779871217853
-0.00532056606840085
-0.00351747570487174
-0.018989849691006
0.0474028969370448
-0.00460680874073322
-0.0762594398849333
-0.0474353167986222
-0.0347546285682975
0.0199434639529257
-0.00652870226728792
0.0473354544514538
-0.0453928061509947
0.00389080663372887
-0.00796545660158336
0.00282514814979309
-0.0496220863299517
0.044553897602759
-0.0561000353731122
0.0334874378921195
0.070715862070713
-0.0388815947795458
-0.0825236075568488
-0.0283919245048271
0.119267925935053
-0.00749721030206703
-0.0696811127849952
-0.0384525725667316
-0.0237090030339548
0.0473407505318527
-0.115175757955003
-0.0429309665136519
0.0106373611784883
0.0277541048366861
0.0442600276654268
-0.0723090092395485
-0.0141285910583013
-0.0680326523585367
-0.082340543903712
-0.0775833982674169
-0.0858489489179712
-0.0126756798684898
0.0416861816872116
-0.0095451106409832
-0.0213958049985748
-0.0544070373749966
-0.0387819677419841
-0.0417898747284387
0.0778302272053702
-0.0166145029120026
0.0061170369926573
0.0110789324336344
0.0284328754356479
0.0156431549441803
-0.0345761410789369
0.00643541542980877
0.0184628855363066
0.0818131837079601
0.00467309199278719
0.0845860521938674
0.0380197108785942
0.065757535759021
-0.00364115383874216
0.0631499209097889
0.005232803064175
-0.034162562299754
-0.00544887601000733
-0.0112812404289447
-0.0237716418588868
0.00606830117035815
-0.00142915487345488
-0.0302183147672701
0.0049609120347551
0.097583663789647
0.00492477079471351
-0.0154990933839399
-0.0614077793141227
-0.0616699816574913
-0.0364931248441398
-0.00897539613877995
0.0100593469507955
-0.0774103625939285
-0.0167294309239161
0.0484473100770226
0.0250627170379456
-0.0276091447835625
0.0183396125330243
0.0197711488916029
-0.011736142120848
-0.0183190201879591
0.00954224910119027
-0.00132178227116997
0.0235409257494453
-0.0215502394857859
0.0365869910901725
0.0905971404182188
0.0438248530800561
0.0165703337342723
0.0103906362919857
0.0567019434406601
-0.0923628985203607
0.0183219677738208
0.0272899621461724
-0.0112186688162502
-0.0514144715132501
-0.0337377761608571
-0.0595611881823232
-0.0733762481211728
0.015962425837917
-0.0570920765369677
0.0518256101156726
0.00665198950324965
0.058184033535065
0.0337662458385135
0.0108158180657607
-0.0117716644052064
0.0195320555393607
-0.0325714543895995
0.00161667321898849
-0.0318621414590678
0.0102472141891755
-0.0230825361333738
-0.0235762095372557
0.00214752392910322
-0.0392623060433546
-0.0256259544124489
-0.00303195945697175
-0.0935380815943297
0.0464962832850574
0.0516381856715109
-0.0088775048131724
0.00367750532923312
-0.0572987791664517
-0.00314788734370045
0.048615220114814
0.0357933837627223
-0.0250324231265
0.0170342098343014
0.0282472591625595
0.00153399088819631
-0.0529504280800501
-0.0141593920416455
-0.039449065329604
-0.0705364181560155
-0.00464547597309671
-0.0166572564716577
-0.00803876302899858
-0.0262041004042639
0.0436602243664546
-0.0245372472253649
0.0056843022169764
-0.0531728563989969
-0.00658871368399991
0.0804076191629776
-0.0148105045272373
-0.0142956933514756
-0.0508900576021001
-0.0210640181183855
0.0185750738050368
-0.0192949657798749
0.00741409577204913
0.0359763953080253
-0.0312406364549593
-0.024318371824605
-0.0262573858409796
0.00196344995114127
0.00963556958322273
0.0170698108539538
-9.10451830527071E-05
-0.0245447208986045
-0.032129516519845
0.0213363593838174
-0.114515062610436
-0.0529832903004087
-0.00965877595142597
0.0145439969414855
-0.0269897214924064
-0.0115609293378744
-0.0400961988099043
-0.0735421249222998
0.020790891656948
-0.0388034144519034
0.00187597526664351
0.0214807423809724
-0.0139296269973815
-0.00398436835974445
0.0119176763092487
-0.00611893567558527
0.0371329077565649
-0.0077420577053137
-0.00271381755418563
-0.00785122095632358
-0.00950343342078585
0.0240234485388448
0.0331198339989205
-0.0194434988235054
-0.056996264733886
0.0462035861253173
-0.0490472517085978
0.0110452445063139
0.00466322511992218
-0.0419560593797772
0.0147437194709323
-0.0128184487958701
-0.0349553258308256
0.0035428459226334
0.010341328202232
-0.0463839241165245
-0.0238307612765061
0.0232503309547873
-0.025219823347175
0.0256822089365757
-0.0376551896592846
-0.0227773961408473
0.00529222831836942
-0.00129844491157215
0.0483182456750377
-0.0618779061076329
-0.00186030724477859
0.0188439632577702
0.0479726698217996
-0.0346223141948322
-0.0542772492801278
0.0526783915552221
0.0569773249756548
-0.0144121251934204
0.049191402910615
-0.000250511288161887
-0.0716853540429364
0.0104512877199691
-0.0133217069507116
-0.043028069308514
-0.014745795874316
-0.021481516677092
-0.0216900538443397
-0.00984910935770992
0.0652326158914793
-0.0176266983634037
-0.0197146490025041
0.0271192205859428
-0.0112509846867793
-0.0183072075886818
0.0389575701190908
-0.0267328983698288
0.0782666169126719
0.0375360086439181
-0.0163948120798084
0.0158865601345386
0.0122062668843448
-0.00988926861774441
-0.00997469852313251
0.030695160164192
-0.00786246660594025
-8.22275383970699E-05
0.0131231906904352
-0.0103032223753233
-0.0095507133728287
0.0346050215054674
0.0324951888482064
-0.0227403649594589
-0.000820420035242068
-0.0606619360404555
-0.0558979957088174
-0.0345111635440706
0.00548992294986268
-0.0178757678234739
0.0083499672668064
-0.0189281127135786
0.0562869840368251
0.000408278557936085
-0.010902958987962
0.0144697423838814
0.0377177242073972
-0.0154898463863825
0.0185504029179804
0.00340996421509454
0.0212025794878558
0.0407550866630054
-0.0192908174333612
-0.0292283922071133
-0.03653558485651
0.0279974770855279
-0.049390852140836
0.00858931222814671
0.00283013500491976
-0.0158315477468112
-0.00514312672015781
0.0290650043769158
0.0193056028767807
0.0273610719707346
-0.0493760823378856
-0.0209158263009117
-0.000657509850330615
0.0086605251865753
0.0635137236929597
-0.0616383963876368
0.00840347487526348
0.0127607760503318
0.0337720611828492
0.00502455125248104
0.070881463572192
-0.04757985164616
0.0490236844041643
-0.0264389646158163
0.0409648540342955
0.0320031969200347
-0.011374628880978
-0.0230968135514572
0.013302619053464
-0.00326757294838317
-0.0799778304880851
-0.0414511325312778
0.0212071312681827
-0.0272072103602465
0.0177423909207871
0.00672042237497848
-0.0206970789477305
-0.0119637075279811
0.00322806328049538
0.0623178720636335
0.020864965718885
-0.0414981528634908
0.00658367664985519
-0.0214012591876847
0.0208551140985649
0.0423465249188347
0.0423437356826376
0.0501831962774031
-0.00872414130145527
0.0064967951724644
-0.0532949629291528
-0.00280410096613492
-0.0274980313627765
0.0165430037292516
-0.0526745778895967
-0.0469450762338165
-0.0693800917134866
-0.0329769561228371
0.0375706443267377
-0.0382169677353882
-0.0156531592802723
0.0810502004440146
0.00383321109381686
-0.0194104565169842
-0.0296065246919535
0.0240703627065863
0.0745591614248175
0.0167291523639094
-0.0577913680188488
0.0165231392116267
0.055920687992113
-0.0283418864297046
0.000603099100711443
-0.000497527902094329
-0.0312305911070328
-0.0230943761903251
0.0469480138808809
-0.0202612002718363
-0.0245253649567636
-0.0306968189698152
-0.023740185796977
-0.000131831129132347
0.022112531228126
-0.00948483854909063
-0.0286022297142872
-0.0518577807619868
-0.010951781700577
0.00559915774815957
0.0635110067360507
0.0499727620006362
-0.0454511206996814
-0.0508312100052684
-0.00573941776922788
-0.00914880606699381
0.0228230078063618
0.00866913109375025
-0.0631547546170646
0.0209219053296337
0.0444085108185029
5.93716480998025E-06
0.015121106226821
0.0276460861806377
-0.0448742960294671
-0.0602320760678436
-0.00804098864799339
0.00832927113645954
0.0377847013501827
-0.0105691997373037
-0.0185482726687745
0.0202994325138503
-0.0443291380371496
-0.0503682207759595
-0.000922631281152239
-0.0198738174223676
-0.0080340288634903
0.0248082845228188
0.0228487825647529
0.0437736853276369
0.0426591571329003
0.00665636632310254
0.0242481578003788
-0.0672717736655327
-0.0202441621229154
-0.0066779796434028
0.0210458808999278
-0.0225643482596927
-0.0288080383584995
-0.00561616475823164
-0.00392621916435141
0.0150013451908601
0.0488389646041325
-0.04796366062571
0.00659453295465173
0.0148642804807691
0.0232440731516023
0.00517522015458303
-0.033261746168245
-0.0126057876515581
0.0209352834805394
0.0556169425414798
-0.0783021954881553
-0.0373970813159097
0.040189434897064
-0.0200431006120831
-0.0142157250747761
-0.0480740297472996
0.0329707045884444
0.0187121563662338
0.0422593474819281
0.00547233431349809
-0.00781261803461587
0.0312819258077703
0.0223582314017156
-0.0183735170730209
-0.0280306301223283
-0.0702191367239205
0.0116974303075951
0.0279910484672182
-0.00870608046712012
-0.00916076537912575
-0.0284693773995693
0.0158015131302306
0.00431127615390902
-0.040089061253849
0.0110126195436647
-0.0168729189727216
-0.0518568830065914
0.00629202640910552
0.0179128037552986
-0.00648822214053384
0.00456204556705726
0.00825437345597189
-0.030035267605487
-0.0503120487796532
0.0406702915447428
-0.0114665895495601
0.0237859866352136
-0.0108820881736617
0.000976399756136617
-0.0484711024063177
0.0405220645372171
0.0550873883994413
-0.014969135840499
-0.0512081147262861
-0.0580769873775966
0.0351054627647303
-0.00958052569112191
0.0034832241531196
0.0314034329562992
0.0231284165883915
0.0181841336003996
0.0262725034837686
-0.0238001000702011
-0.00586512010382611
0.0119453573211279
-0.00543093991277782
0.0670255963736863
-0.0267254077782157
-0.0140359943109394
-0.000926610111989943
0.0242831284745841
-0.0302484014777956
0.037943660777891
-0.0206325104572527
-0.00640101691755153
0.0272372858661367
0.020904056417237
-0.0041765518786679
-0.0195216469858694
-0.0154086341946531
0.0166467303635658
-0.0377187256952855
0.0197149901178391
-0.0550753494100389
-0.0886921600472588
-0.0654243988346991
-0.0370647852248722
0.00332108326203235
-0.0015093889158316
0.0196094166561776
-0.00728522960377712
0.00167459632330367
0.0106853469373563
0.0144399909054304
0.0439477372701028
0.00339437891930488
-0.00197782929772978
-0.0533837813311067
-0.0444294284108862
0.0205243540659952
-0.00682275677168164
0.0287610668163721
-0.00993295286798008
0.0102778938818189
0.0392766368887917
-0.0544442205960022
0.0035102174366381
-0.0550789286855007
-0.0135741576039729
0.00592831265995482
0.0758056863978045
-0.0460725364305535
-0.0194209833149968
-0.00148256427232262
0.0225162245569867
0.017578094004388
-0.0571923537026765
0.0244195888586617
-0.0695264286491823
-0.0224173794922402
-0.0282057721110342
-6.45068493670094E-05
-0.00162460040083022
-0.017618125412287
0.00228341521356813
0.0171715135916862
0.0777492171445231
-0.0807510431111134
0.00312503300586558
0.000828786882356638
-0.0287805552892151
-0.00530020409227943
0.000615378556941888
0.0305861627115455
-0.00908412906071606
0.0140873371108574
-0.00346760551134233
0.0156685346882076
0.057434469458168
-0.0367661321247854
0.0598222495996986
0.0120684149823849
0.0222468190375614
-0.00175501782206219
-0.0256998109600398
-0.0015491692909945
-0.0462939727429867
-0.0199364772498477
-0.0151995564256919
0.086593215345383
0.0453732602428002
0.029828705192009
-0.0131284418875486
0.0045089462819928
-0.0364630369050249
0.0233625683226009
0.00614396798447328
-0.0142160534097714
-0.0250332785555589
-0.0432760237652686
-0.0383702195493164
0.0242517590917041
0.0188277936275471
0.0161760774964383
0.054095407419974
0.0808147568360105
0.00878391635633884
0.0207069405087751
0.000864445064681242
-0.0188225868988189
-0.00833030616717963
-0.048408142416974
0.0522565370284191
-0.00832491460013193
-0.00764070566861688
-0.0247687644771864
0.0173527085708589
0.00596016015550717
0.0456987184984186
0.0108265127146425
0.00615875037153235
0.0181586768763605
0.0201566216025391
-0.0623426659188083
-0.017020970438826
-0.0370988444160737
0.0521437357880218
-0.0179337548381864
-0.00198498969012499
-0.063173590203167
0.0670286027223091
0.0298001571047539
0.00858906959771964
-0.0334054224896081
0.0394457552705892
0.020787273990368
-0.0691739314012358
0.0317529392014308
0.0472936494078623
0.00969991479257759
-0.00672271834987786
0.0702568875087062
-0.00934993157773531
0.0312755317872914
0.0541423489416114
0.037153285198793
-0.0292356208483254
0.0525734194925313
0.014352325919965
0.0383123565490461
0.0598646416126174
-0.0660756151622425
-0.0933022830462795
-0.0196634881205209
0.0146504451778165
-0.00377714782537057
0.0652889226391149
-0.031637035476635
0.0590581477734355
-0.0309349850483687
0.0334686234884754
0.0298056424415398
0.112137466949322
-0.0495648510294658
0.0306235849588607
-0.0342302341034317
-0.0543433006199546
-0.0468364599071652
0.0683483975911527
-0.00542243777088305
-0.0362509888385998
0.0401902082869511
0.0216930165466849
-0.0311227184467275
-0.0827317332208319
-0.0684862404253224
-0.0111794231924841
0.0421124631401162
0.0186468859881284
-0.0247359808105733
-0.0397429694443488
-0.0747454263364538
0.0204492986036473
-0.000428824608284423
-0.0275525896020735
-0.0357484877323005
-0.0228544053204981
0.0235099749232315
0.0323533659487965
-0.0440846289504621
0.0116945192185735
-0.0326844543628964
0.00447869030884875
0.0147747554789925
0.00818805577323168
-0.0238195794568429
0.00858762659825636
-0.0214736094989094
-0.035148725887368
-0.0164148271002317
-0.0561394342647823
0.0750238771819918
0.0468733140145835
0.00153653580675536
-0.0532309874038731
-0.0135084555074855
-0.0464415428488662
0.00313933549872485
0.0834535960635776
0.0161897261398567
-0.00935896003025669
-0.0853418179380721
-0.0171791322842202
0.0403253632839429
0.0863803505487148
-0.0129644790469566
-0.0198014832729009
-0.000957096638335194
0.0367358748041647
-0.016031256628227
0.0533150342533275
-0.0422908777134913
0.0433358957705794
-0.0304176697183713
0.0108244012781256
0.038302611291468
-0.0101775017370367
-0.0315211479822916
0.0246986383297169
0.0496452478415667
0.00942732259028606
-0.0124963284072924
-0.0114609555239195
0.0108137827111599
-0.00971790199708693
-0.0389008739274553
0.0335407682878484
-0.0117040683088044
-0.0157853520257652
0.00878568180680762
0.0271034399774324
-0.0221994050521599
-0.00843207722673807
-0.0119928132062492
0.0395907040249904
-0.0173436288826468
-0.00031080584537268
0.015905886668393
0.0334746966288764
0.00510666954733854
0.0349224212953268
-0.00352095748613885
0.0305439672938716
-0.0307272472693846
-0.0165445337745081
0.0484393625531078
-0.00294587168728683
-0.00367031630883116
0.0356071617827246
0.0194973243877143
0.00213789053519476
0.00705786555974528
-0.0285701210511308
0.017585857991102
-0.0216013463413516
0.0388056496074073
-0.00186015985951865
0.00221032769630091
0.011382596834556
0.00345251007119829
0.0165026118760547
-0.0362682759912811
0.0148572750962804
-0.016474161500154
-0.029519399918346
0.0366327510478214
0.0411605345072197
-0.0203475450516832
-0.00193676252718801
-0.0153231936102956
-0.0215187677154097
0.0142643042833974
-0.000754286313847736
-0.0385156789865765
-0.0135028876150664
0.00765737770631236
0.0257924768407783
-0.0346860107717439
0.000826815446012541
-0.010848695731727
-0.0269168522797038
0.0338780280544972
0.0387465055433904
-0.0200434694413729
0.0464911522272453
0.0964751913763507
0.0245568888640385
0.0333986455938289
0.0442999341207502
-0.01634298431915
0.0168500294294475
-0.0179113895907364
0.0230276400299823
0.00416450134567573
-0.016529001533983
0.0148061698003751
0.0367132084063321
-0.0686104673282279
-0.117229259862481
-0.0526345696623072
-0.0559908116261983
-0.039702896126688
-0.0116360521828045
0.0170590568885577
0.0231933761514415
0.0385368415714522
0.0168351672018834
-0.0168137527911078
0.00531536720245438
-0.0175012173303096
-0.0413028557720332
0.00124066566150654
-0.024099761624746
0.0249287730205121
-0.00411894150119357
-0.00329124562780059
0.0369441175336134
0.0294249522982724
0.0139102718317533
-0.0166195643814251
-0.0114125701578522
0.0406881942475383
-0.0428561133590854
0.0336370641985217
-0.008841196659696
-0.00316402389888011
0.0529130579124956
-0.0155548066588636
0.00453771089348642
0.0225401651064173
0.00693849135535638
-0.0357241271081473
-0.0404234188261527
-0.0542969813411128
0.0275589364762905
-0.0137418091608257
-0.0245533323045465
0.00825370999627471
-0.0280926353046418
0.000640165737672632
-0.00395982749733388
0.0105153934724419
0.0156016350939188
-0.0417823183906344
0.0184788844839553
-0.0279409829372466
0.041529887831723
-0.00685355545052599
0.0121034359077268
-0.0240058182342517
-0.0358541983764362
0.0303553985282529
0.0275087948492701
-0.0318694114098303
-0.0816941627106836
0.0323357740293113
0.0719202558991082
0.017122465766656
-0.027495118376624
-0.0940439104813464
0.0130385848248083
0.0105877645875229
0.0238893283649502
0.0540561446626586
-0.000313579031700258
-0.0145846780360562
0.0230470572165063
0.0414144810509565
0.0125380255741901
-0.0216313813739205
-0.0187525272011906
0.0132490521360752
-0.000329211244425134
0.0293036879504926
-0.00129890854680737
0.0986094262761406
0.00522834742430805
0.000343196861768575
0.0119920495634785
0.0377410839248293
0.0219269915718116
-0.00186379930052183
0.0765866117352217
-0.0145274941129409
0.0426910959164314
0.0341163459632938
0.023533403179693
0.00652792138988379
-0.0292383065579571
0.0474872471350558
-0.00559651133059875
0.031513298105648
0.0124266178402279
-0.0350673849166436
0.00395629161479556
-0.00499094432604847
0.000532954014040648
-0.00133552697187457
0.0336872859340029
-0.100226921217936
0.00273549944094596
0.0542652077520384
-0.0127372944496986
0.0330482618638465
-0.0223567631044761
0.0270804834045603
0.0110879097336219
-0.0255191836047679
-0.0222264600395592
-0.0607220100828388
-0.00806309109887293
0.0452089801209783
0.0262837136012193
0.054144945379817
-0.00275472204549095
0.0271941331305101
-0.0215760742176089
-0.0321962196514262
0.0259969461149938
-0.0526983651389608
0.0376694911507438
-0.0256292021353685
0.0109547992490528
-0.0379124078069646
0.00997330731992846
-0.0246425369052125
0.0510683595253601
-0.0124391398733188
0.0107444748051542
-0.0676797954118608
0.0195952745226223
-0.00748768361085066
-0.0104041474609852
0.0577636009922004
0.000993418988594453
-0.0184871168581735
0.0160621011376654
0.0347043912172653
-0.00279961275490583
0.0433669094070631
-0.00785892902079169
0.0434176167603169
-0.0157262559017617
0.0155632870789776
-0.0247066020063997
-0.0179165261979768
0.0525727510659536
-0.0130703406700672
0.0172838374262446
-0.0835096458582694
0.0207155505714686
-0.0667746826827201
0.00990519381843076
-0.0691096908787049
-0.017865714543655
0.0362488242316645
-0.0239926732904617
0.0102905140787732
-0.00766618441691737
-0.019807455960563
-0.0285626846854466
-0.0375215450318396
-0.000979406447847741
0.0473765024857129
-0.0333681736944979
0.0282530486536929
-0.043871002060628
0.0412108163821016
-0.0378053939750547
0.00445866776758534
-0.0103886929300497
0.025788573489582
0.0315200149889082
0.0133671058463531
0.0388973416612132
0.030848238025182
0.0364850704939762
-0.000331003036961733
0.017127879483184
0.00966901368851058
-0.0147721519852329
0.0440701297343527
0.000828236215068966
-0.00615208617433696
0.0401063456947841
-0.00924686708996449
-0.0598631325253019
0.0352904726765387
0.0674009176578544
-0.0239804171907048
0.0298790203435237
0.0607841001790022
-0.0246465558596125
0.00489547482407774
0.0110772996263871
0.0486184386703419
-0.0683892770660883
-0.0128315329720485
0.00752186453303559
-0.0333951276526427
0.00346885645123486
-0.0175340694354403
0.0246499245328119
0.00532932399607119
-0.0312725021053687
-0.0110952849430385
-0.0734158306278181
-0.0158871559536843
0.0265347506184776
0.00778895204368434
-0.036634770969161
0.0067712175817406
0.005600999356907
0.0100750954610419
-0.030988474336287
-0.0807125665892018
-0.0632398009687048
-0.0145239469875217
0.0373819296436797
-0.0207743004208188
-0.00478538262760989
-0.0109848344066853
-0.0341494868790534
0.0170257808945356
-0.00190078342818755
-0.0011357963292194
-0.0377963443800098
-0.0339341279134895
-0.0187987207565923
0.000869040360024553
0.0120244641664523
-0.041305732115558
0.0214525610073565
0.0340448676859722
0.0694871452566405
0.0506891604062749
0.0320405897179612
-0.00106636230171005
0.0247500856751788
0.0447438934785263
0.0299343467299612
0.026410176718529
0.0226987014027162
0.0685361734010105
-0.0733174751563695
-0.00368279973070028
-0.0464460114964731
0.0554942055020843
0.0494324072381218
0.0455461876649411
-0.0613686651226105
-0.0332023528258426
-0.02796688599809
0.0134771751357832
0.0226766765109222
-0.063160572578029
-0.0500817789779744
0.0210675153184024
0.00611403568578042
-0.0336022599427302
0.0699132481422652
0.0414558595039766
-0.0293340328224869
-0.0084662370092408
0.00975049451974331
-0.0428410539544111
0.016929306804222
-2.28412898914221E-05
-0.0745110066176806
0.0304490151411795
-0.0436413378166488
0.0222546228142181
0.0151467203850096
-0.0593728995332288
0.0728706216628754
-0.042160074726208
0.0358617956085826
0.0143549622113142
-0.000764797565407178
-0.00469974780142905
0.00997455500839901
-0.0312422632353849
0.0196759913351492
0.0350644838881685
0.0256182270928534
0.058210756880746
0.0244375397653062
0.0302582639418155
0.00913419916822
-0.00848800874398292
0.0287181191185007
-0.0317133482300787
0.00483296071309947
-0.0668469106759746
-0.0077418040185071
0.0019889911051952
-0.0190225280836829
0.0321123554423607
-0.0116717426244867
0.050098897880181
-0.0357952927419939
-0.0117763726410747
0.0604599794715416
0.0796364464220314
-0.00439852651056256
0.0665853707199783
0.0194802639288238
-0.0452842646274309
-0.0021858763592986
0.0390616418948121
-0.0620143934483394
-0.0334138702789005
0.0204963667975756
0.0277770080095392
0.0081784747347157
0.018548987155215
0.00782416429266193
-0.00412573854764906
-0.0423685149696559
0.00643493998227527
-0.0176779999844363
-0.0226114140126874
-0.0131367572421215
0.0135393383565906
-0.00271369951679941
0.00971311753084646
0.104584130983794
-0.0792454605170945
0.0415235863240264
0.00524476915400232
-9.31813391404059E-05
-0.017815925600575
-0.0284067364251485
-0.0346252456722163
0.0421022694049535
-0.0233963586871024
0.00238397181243932
0.0238823761794258
-0.0111856996841528
-0.00870148235728271
-0.0430081844756016
-0.0417846433699247
0.0562137281336751
-0.0391387341768464
0.0425320283778311
0.0273043349613942
-0.000417922384088483
0.0363215491695424
-0.0336311979543686
0.0622469455866811
-0.0377265286494025
0.00454737622015174
-0.0267015072400871
-0.00243255862825889
-0.0498091281980443
0.0138122005628334
0.0145802182027213
0.000305165567633146
-0.0300118007175486
0.031855417086179
-0.0509866023038557
0.0435749542109334
0.0306349942616355
-0.00786385778853173
0.0359549888319018
0.00627142835893523
-0.0321485731149501
0.0287540587370804
0.0022702712695565
0.0424901798090734
-0.014366274176764
-0.0384365192338298
0.0486429633560048
-0.00132411659906876
0.0201113786244691
-0.00322807907324481
-0.0282095557676942
0.0896457650378661
-0.0377875028287741
-0.00414875273244365
-0.0156327338258972
-0.00432794838976149
-0.0166991933581561
-0.00204898840707561
0.0326087844576735
-0.0114979346130194
0.0198037396795245
0.0335871245699036
-0.0335677296420469
0.109105240903054
-0.0136171188513766
0.0659654336128202
0.0304111488952499
-0.0198331239862855
0.0338018350842968
0.014929078310629
0.0188750143610445
-0.0173890846650844
0.0261371871448471
0.00460265846449116
0.00579271569024081
0.0111709814964034
0.0704816466167265
0.0028017908823446
-0.0559607596278947
-0.0231242408939694
-0.032336404137893
-0.0182620632092641
0.00504056290735461
-0.00289721970255999
0.00269033597302579
0.0169428320481101
-0.0360387354418854
0.0295256550235467
-0.0299525516623873
0.0402643459677584
-0.0141748860392712
-0.0318059390650735
-0.0287567954756332
0.0698565668232641
-0.0280476166263444
-0.0367204374433929
0.0389817050406329
0.0329497194343504
-0.0466860148450526
-0.0546299556322622
0.0215992555739899
-0.000643986316469063
0.0219650095138508
0.0895477106646044
0.0153072709518252
-0.0248077441226504
0.0250242112721641
0.0289674091936132
-0.0667142013809293
1.98230543769537E-05
0.0134068712575967
0.0196835805387469
0.00256464568582468
0.0206365971132034
0.0343783849481019
0.0297884299944972
-0.0443310348687256
-0.0367534111771004
0.0472273403652493
0.0262119794981358
-0.0231810683219048
0.0323702300862427
-0.0386420955454384
0.0220291852192797
0.00963147010430419
0.0634743693136716
0.0608081671376452
-0.00611040862879365
0.0432289873681046
-0.0113746609574799
-0.0351226281491238
-0.0132170901445806
0.0113856816221284
0.0266247713975297
-0.13211352029931
0.040055269282961
-0.0123915660680162
0.0114567887307472
0.0514208317694679
-0.0245344476313052
-0.0418490263297294
-0.0403434813087902
0.00160066989391106
0.0114955207532612
-0.064482493853838
-0.0450394477204946
0.00650190134859193
-0.0719797128335545
0.00199743505782356
0.0447582393287597
0.0299675439164272
0.0158690051586718
0.0217161021778293
0.0333680483098213
-0.0168149531899414
-0.00043359413943794
-0.00670093787459699
-0.0562326728985719
0.0235370602779543
-0.00870804795254794
0.0157427066941999
0.0299775206338499
0.0435534876663414
0.0206921926081338
-0.0208778550699327
-0.0261286198347426
0.00479385816588791
0.0620076929756121
0.0254676413497193
-0.0296903620307604
-0.034053003074175
0.0618315527812878
0.0176405833070959
0.0762010024732211
0.017098789893309
-0.0423891044229605
-0.00607695043942234
-0.00938431078715773
-0.000287567208804675
-0.00233974686981682
0.0176100385356426
0.0434763793700384
-0.00605444551562616
0.0887620848194663
-0.00312510923172924
0.0361276798804735
-0.00507590055730203
-0.038581510258726
0.0181266497458205
-0.0256816189536323
-0.0103087160340045
0.0121352157770342
0.0435699279894053
0.00516038590672552
-0.0233132250012357
-0.0162021869969318
0.00052447844238785
-0.0150345738251553
0.00574586651139687
0.0216529515847164
-0.034989980632021
0.0375997845363405
0.0456319823304068
-0.0431195917018419
0.00680943543104351
-0.0160855893653831
-0.0116664104452458
-0.0293725298954028
0.0192695165777753
0.00350308123986228
-0.0596354777578624
0.0262482101109626
-0.0128983961031836
0.0275958043658057
-0.0358310209348363
-0.0357636424644677
0.0320397556347407
0.0250179300597602
-0.068516693906135
0.0947501888768715
0.0124531026911874
0.0411403535125004
-0.0194988094302782
-0.0422420942896175
-0.0121665969776115
0.0260181430038034
0.0371412390146739
-0.0480371249378996
0.0535228155291283
-0.0247633454052859
0.0256260428800309
0.0436029042993424
-0.00742496760302246
-0.0443418096311145
0.0371993491497386
-0.00664213483607609
0.00228570532666941
-0.0386118770027775
0.0438544089299268
-0.0486039932380384
-0.0508417252006623
0.0237062210147234
0.0127335222648843
0.00879275832131453
-0.00590809572929818
-0.0472887752130634
0.0228288372127948
-0.0369907344621174
0.0558574730486636
-0.0253904522157383
0.0163417251897841
-0.00268493875739215
0.0340465765989753
-0.093657601719845
-0.0314276706743802
-0.0332668307214066
0.000425877611657689
-0.031025440355808
-0.0158965670673629
0.0661959390444578
-0.0227737489009695
-0.00345475936343515
0.0381122531751317
-0.0639234740675056
-0.0146204506177691
0.0113026228128845
-0.000882208794042608
-0.0117833134743172
-0.024759752758284
-0.0527892791314353
-0.0420399457469608
0.0149145811546341
0.00138738511410298
-0.0332630264559833
-0.0293780434054428
0.0114536242623889
-0.000145463896287837
0.043964369788534
0.0331117941935032
0.0325006017212576
0.0572169461118175
-0.0209911913142068
-0.00547747499709556
0.00272158082005121
-0.0573659726328039
0.0174644476628584
0.0336387527224964
-0.0131810416352063
-0.023946189222604
-0.00273921164255675
0.0244106162827811
0.0709975873590558
-0.0056463644043943
0.0777054802844477
-0.079834402871076
-0.0338093548189175
0.0304038135701641
0.0365534561627594
0.00395156071634585
0.0329008581011667
0.0385236908519995
0.00925827503211273
-0.0218028011059192
-0.038891760980063
-0.0184708920242148
-0.0380626832682219
-0.0418531901361076
-0.0240093907133415
-0.0562770288411385
0.00612338224052212
-0.0340572616358079
0.00229613183887086
0.0127564548519179
-0.00709235839251105
-0.00431677360762088
-0.0141383760759641
-0.0320444802956284
0.0689018431863644
0.00896183948086154
-0.0120103355589888
0.0703995302681067
0.040319805446178
-0.0563936290504062
0.0150672973674823
-0.0484856237105608
0.0598559336883498
-0.0186852933784206
-0.00613392654232233
0.0126382772497702
0.0187932823834504
-0.00515216790645521
0.135876195853318
-0.00768801544131491
-0.013201075771351
0.0105847709757072
7.05181956143901E-05
-0.00146517763275746
0.0344395465239147
0.047839849384687
-0.0241832608397464
0.00735785689377079
-0.00899797112237796
0.0474992416255832
0.0441393931046728
-0.0150331817218813
-0.0381190680890561
0.0265173865765719
0.00541106323149629
0.0480936025361523
0.0144980992436679
-0.0279100072823416
-0.00690207385342126
0.0135456120826073
0.0484151684136771
-0.0379094731730954
0.0262615675349227
0.0289219167596657
-0.0190091789394137
0.00283831798666443
0.00565237590589735
0.0355185650616064
0.0178119063353757
0.0184050672446184
-0.0185014758194611
0.046734194520349
0.0256035312731386
0.0462377329691611
0.0117367234380434
0.0370106442834514
0.0510565737501902
0.012112046925618
-0.00929075253410543
0.0338151069524798
0.0120355332212086
-0.0569998344734334
0.0512153411309862
-0.0402402855577092
-0.0169461245217608
-0.0163143122919066
-0.00208706689079063
-0.0481138828603797
0.0141630238673437
-0.0216888766921351
-0.0156572112115357
0.0177515067160826
-0.0371148282239335
0.000793832399483287
0.0617113225304843
-0.0260766097890886
-0.027514068940229
-0.0685513464669856
0.0144825300428303
0.0421321732448512
-0.00388330471184505
-0.00582237151361347
0.00121879437512517
-0.0739812672893221
0.0933834745237291
-0.0125753672722723
0.00388016822949157
-0.0179727190011847
0.0413118351467498
-0.0157661676161607
-0.0245204339754052
0.0267074960763199
0.0406802882372956
0.0208721825380243
-0.0162943779938493
0.0109849505772846
-0.0611550694180114
-0.0135154290568948
0.0145132242543461
0.0422223579185062
0.00374288025037667
-0.0359347124823594
-0.0481452243683714
0.00782840666723559
-0.022673881158511
0.0409105457319835
-0.0533967155614318
-0.0102286899961151
0.0173668231814391
-0.0868894764384508
-0.0606752330572828
0.00605029176163864
-0.00540609081493557
0.0407023523657863
-0.0132701860168288
-0.00560711797664701
-4.11691260478768E-05
-0.0424764229648131
-0.0205425569931229
-0.0255835840754856
-0.00119083062775994
-0.0316873909752349
0.0186856504725031
0.0183321162301529
0.0220185530962657
-0.00662473655225669
0.0286198218721226
-0.0672687927497982
-0.00330290002236727
0.0200712576307123
-0.0413782207333236
0.00539631861515418
-0.0279385481002862
0.0208389064974165
0.0370208201010649
-0.0333863786572478
0.0050325485855209
-0.0388897006674173
-0.0683400495595688
-0.0135160772356303
0.0157665855938587
0.0246780673640944
0.0109096386671552
-0.00173532615139702
0.0210161277497355
0.00395392528332719
-0.00701715049699555
-0.0199909568338409
-0.00765568994535623
0.00208971328063611
0.0249147488235072
-0.0101044384628749
-0.0167260632917594
-0.0513133784327035
0.00606565735016124
-0.0160242805473698
-0.025712683313493
0.0201910480892327
-0.0446128782376704
-0.0180946921957866
-0.0232012619189646
0.0588333858125341
0.0300607849669517
0.0256497584471957
-0.0013769381428462
-0.0327796772816961
-0.00176765769823279
0.0343134396695971
-0.0367266232116643
-0.033887618869673
0.00762795157066841
0.022263705514489
0.00853172064955309
0.0160528497655
-0.0603855072882223
-0.0393918047419861
-0.0660181945593806
-0.0178661689747558
-0.0287810299842639
-0.0325875704717185
0.0527055792581586
-0.0322380239665516
0.0161384149830571
-0.00592576481590276
-0.0288650832057435
0.0669958226307978
0.00662522198270679
-0.0621860186219943
-0.0551821236916088
0.0334303740011099
-0.0232573668387196
-0.00226816161381973
-0.0119026857665473
0.0471345172920065
0.0490686886403628
-0.00456610205728801
-0.0348767198562371
-0.0152909046745016
-0.0323856899948449
-0.0460498899886879
0.0701664854633737
-0.0136613215558
0.024682249624917
-0.064724346498183
-0.00601532670071878
0.0286696797442048
0.00786979339200504
-0.0258558901499241
-0.0614191449305471
-0.0326292204447609
-0.0336692519439473
0.0505916162162431
-0.0052144366137386
-0.0268858547338836
-0.0188494728199019
0.0277123778319991
0.0046885748036052
-0.0480048356894413
0.0518430239191112
-0.003787640550064
-0.0468365963176075
0.0197210620158657
-0.033269669787478
0.00178205548401273
0.036558378671145
-0.0368842508702392
0.0127852812012164
0.00528555822405174
0.00584342875723901
0.010335192561399
0.000885674315557925
-0.00269363188042338
0.0195493762200062
-0.0214419278152221
-0.00178741039612964
-0.03487781241632
-0.0254366697197811
-0.0229731887651974
0.0319344602969243
-0.0070197091678887
0.0299596716178315
-0.0382513949851602
0.0651317378970803
0.0100891519793631
-0.0769790990202428
-0.0126492070326966
-0.0266116154247121
-0.0432953221382286
-0.0271418126409809
0.0364119964779722
-0.0663724780240137
-0.00809964482420717
-0.0396775795655107
-0.0130847287712775
0.0171017979939391
-0.023259529639342
-0.0192524176227915
0.0456884871074379
0.0530020531260823
-0.0243250041548211
0.04903335563915
0.00946715782706595
-0.028604720494531
0.0306605783495417
0.0210028888294744
0.0635973116172672
0.0275998838929861
-0.020684563904601
0.0160591730478948
0.0136511329830956
0.0511719626881937
0.00468640792268698
-0.00960391205752991
-0.0525558340177498
-0.00869169360692221
0.0168569053904174
-0.0916109944666029
-0.073164504203232
0.00981859895381242
-0.0596311298616897
-0.0301047695114922
-0.0626213592420843
0.00583357558227701
0.0580172444935352
0.103725392129899
-0.0391506167313955
0.05801186073444
0.0320400333857413
-0.0500320697728291
-0.0195722323278956
-0.00654295451878377
-0.0231353451590804
-0.0266263942249166
-0.00686642707816925
0.00227805290701265
0.0568611615625137
0.0209834295144836
0.00591340734057572
0.00658232657003013
0.0467306830406478
-0.0203521669132923
0.0385841742726426
-0.0321017139871795
-0.07328180913882
-0.017946263243684
0.0249668572293979
-0.00971915372078469
0.0038193736262627
-0.0339356887833956
0.0547567126962427
0.031377489418813
0.0320686123942726
0.035978354723181
-0.0198596404695018
-0.0199985002625502
-0.0374150326168266
0.00909442432603584
-0.0109095947425504
0.0057643690224647
-0.0396031361251855
0.00940102622196772
0.0356984840004712
-0.0211810701229082
-0.0118518308212954
-0.0296501490941096
0.0656683724770271
0.0798071442568909
-0.00150324856805561
0.00564490373628377
0.0730599552613301
0.0652547223430595
0.0243576314361539
-0.0400880068699725
0.00721408085957059
0.0340114147392002
0.0719742743855334
0.00355569718935377
0.0430494191732612
-0.0212957547810383
0.0296156860985028
-0.00873324393345126
0.0193835596177812
-0.0330223999515127
-0.0244024586671586
0.00365621977267311
-0.0202274511324498
-0.0635472690854713
0.0218987425748653
0.0907649533565381
-0.0400475409080663
-0.0278080721123748
0.0714298737751368
0.0048419408297494
0.0183553981189874
0.0336868543088794
0.0109038407598324
-0.025550803120403
0.0706185714042326
0.0136092196803325
0.0401100946297781
-0.0604804772274163
0.0630503040521094
0.00341950951500666
-0.00401282136983256
0.0148309479225384
0.0391285890500579
-0.00508190388569496
0.0233227225107139
0.00416979653449892
-0.012568563821841
0.0127819579017498
-0.0754776748976627
-0.0189249247372108
0.0107834418550848
0.0533700087811939
-0.00101506010923714
0.00331455301941767
-0.0216882569124611
-0.0186813784435909
0.00644464267793254
0.00612264920401919
-0.00720100689509636
0.0230738338318728
-0.0249895339870722
-0.0120852980598815
0.0634071323523176
-0.0437461970178257
-0.0636046628013489
-0.00542497960455675
0.0649030262473049
0.0166856025285671
0.0759923512060759
0.0522708058932491
-0.0291736234726832
0.0481933920760653
0.0190443592160731
0.021839759345349
-0.0117692880423898
0.0222376642710985
0.0245208023392762
-0.0277433175099137
0.0498120028834189
0.00941859479807621
0.0126571267166261
-0.0381397147965121
0.0302097472893056
-0.0528406389031737
-0.0453783342218862
-0.022797272071364
-0.0601855500130606
-0.0050473269044137
-0.0783639505435481
0.0603214738629241
0.0221030164120556
0.0261573839879067
0.0122596178116067
-0.013646142493545
-0.0404001810230041
0.0947646907348906
-0.0555871907248846
-0.0154198169495436
-0.0420184556975084
0.0337331595731302
-0.0278685111434347
0.00725004776414697
0.0131038240747715
-0.0562206911237311
0.0639225227896264
-0.0316989299407707
-0.0350990050764602
0.00728526060461198
0.0132934440354929
0.0437493288531392
-0.011812750349876
-0.00486449881059432
-0.0269341698836555
0.049881101883185
0.0136274213150956
0.00561321871267241
-0.036504442760701
0.00437374087120569
0.0925420735113461
0.0264830301980229
0.0324627438926112
-0.0801545747140438
0.0689929773761191
-0.0154491666591129
-0.0980506627041398
0.0513069341199325
0.0806745228700016
-0.0658376153300145
-0.00927129408790779
-0.0716497573823003
-0.036980782621284
0.0139553926741375
0.0294089435804158
-0.0390100218746237
-0.0399060683741348
0.00399762138527661
0.0485989787653527
0.0997827835878406
-0.00775246749974027
0.000867648558740714
0.032853731156732
0.0750598008220571
0.0238604646675349
0.0517969116349878
-0.0286767981288588
-0.000167649180961443
0.0387794458810013
-0.0142605138379157
-0.0564432320895122
-0.0342460472046156
-0.0743544835620004
0.0422423003180755
-0.043686115196849
0.0669935787605285
0.00353056388959815
-0.0167430484027807
-0.0201740231453992
0.00503632088205938
-0.0461798761420653
-0.0337168542986967
-0.0519869360550275
-0.0354636005141087
0.00154158031044349
0.0424272159979002
0.00941778612217341
-8.07830262324726E-05
-0.0155197794064741
0.0348461095442316
-0.0981961239553695
-0.023949984197301
-0.0689264905740959
-0.0391042277965467
-0.00500497386097828
0.0241203093997846
0.00977580228743633
0.0631602902819481
-0.0205877193693678
0.0219741360077876
0.00201116220885689
0.0300362683854175
-0.00891531793097736
-0.0256858591859841
-0.0504774694620972
-0.0652515369991812
-0.0244874698429944
-0.0224700368123189
0.0705257269968669
0.00920682219823684
0.0574784765059239
-0.020679530581412
-0.0360776577136335
-0.0110960911525805
-0.00891088879462577
0.0418609288195685
-0.032373675944665
-0.0113908754161126
0.0140749076587464
0.0745737508131604
-0.0830632962883697
-0.0357501568744132
-0.00522235627545531
0.08221558060837
0.0333567897134846
0.00774635882232547
0.0339675151716227
-0.0120432657413742
-0.0159953501243226
0.0140780653859669
0.0450395750456714
0.0386152820965174
-0.039530939980563
-0.0245590734680355
-0.0244532381898129
0.00763035885874501
-0.0175600408243253
-0.0241676055849816
0.0229035274390068
-0.00808124885721602
0.0448607679973041
0.012523035373434
0.00243573528992564
-0.0890496102186323
0.0634478786786709
0.0290878989776138
0.0139013037641109
-0.00666867450943357
0.030898539919625
0.0127240022052065
-0.0746294321102244
-0.0280065054899963
-0.00716094013347455
0.0601049412952875
0.0760507266225705
-0.0471988441401665
-0.133178992250386
0.0235319390466633
-0.00730252195954427
-0.00108714539189578
-0.0593713827424227
-0.0239885498388084
0.0669945414785099
0.0344362772442542
0.0923650050903313
-0.0381249791233086
-0.0935542966669598
-0.0304674223489838
0.0660486527285449
0.0406505375287122
-0.0271287883788309
0.0473062500718787
0.0184841823866869
-0.019650201626676
-0.0428161204221539
-0.00841635372285213
-0.0442765943457237
0.0365014045043267
0.0184536353127339
0.00276569819842615
0.0406273749064633
-0.113601940212321
0.0557563093012457
0.084475106633001
0.0166872585211151
-0.00426554975384568
-0.0282278978810916
-0.014682638177278
0.0237873352204349
-0.0180607032576258
-0.00318654872123814
-0.0188591548261804
0.0306893528040857
-0.0710180976268941
0.011690142633299
0.03057640223102
-0.0145299622814421
-0.011351609781672
-0.00755160453479028
0.0765378517133713
-0.0101751329767734
0.0548541719614177
-0.0389224657402779
-0.0516396125409331
-0.00785629115324201
-0.0144862407979526
-0.0101344389456149
-0.0321830103969639
0.0300934609832892
0.0177711121699551
0.0512147968487781
-0.139434949635319
0.0765407539017753
0.00625118240722253
0.0162980197084465
-0.0616333257838316
0.0720685534566461
0.0866620160134805
-0.0518248594771429
-0.039737070580843
-0.0555331566275439
-0.0136899365911818
-0.0131521782190227
0.0128862930025326
-0.0894584783738332
0.177865414480315
-0.00414560041218843
-0.0434064167133677
0.0039042213930051
0.102294496895588
-0.0451226602545001
-0.068953215924716
-0.00393805785166431
0.0399894212482123
0.0255550535091604
-0.114227932605008
0.0235335490784412
-0.0201839003821423
0.0116066503482033
