1090242
0.0266611236534948
-0.0375649844165594
-0.0822693205645682
0.0444042325935233
0.00134297395558207
-0.00663395096364869
-0.000812895090245932
0.036693453008775
0.0603760807950412
-0.020351201085407
-0.00100831990597322
0.0717192909154565
-0.0867700661697525
-0.0515955412067182
-0.0136521148835082
0.00978298204065441
0.02815264553033
-0.0473499264036003
0.0383643447739655
0.0280999181191199
0.0124975398611521
0.040170535208294
0.0116807482356468
-0.0212021125621348
0.0236160586780671
0.00856616854155832
0.038203840248481
0.0315170023032171
0.011134417675863
0.0198188643951156
-0.0378181284623049
-0.0069744135788337
-0.0145805072996862
0.0414222772552732
-0.0191995213268825
-0.0164737024676199
0.0275711802765769
-0.0226561774810487
-0.0293495444970749
-0.0148801571576569
-0.0555521490064822
-0.00931861304005288
-0.00841824797355054
0.0418699602344562
-0.00554308918248215
0.0142152934910288
0.0398637307398282
0.00181662977433792
-0.0126525443755987
-0.0176519128788507
0.00313107252086633
0.0146812547908
-0.00456683219316632
0.0446395962083553
0.00787052392360056
0.00943727910115809
-0.0216040255891531
-0.0855900593066152
-0.0300368192931228
0.00712850218416843
-0.0145360312213576
-0.0291238499012243
0.0182716778083124
0.00149385455917484
0.0464915146874949
-0.04488617622195
-0.000429696273066116
0.0824538716285404
-0.00800184648364218
-0.00522077553217761
0.0576885586574565
-0.0241125953704315
-0.0508847985089125
-0.00862437549723131
0.0734315450499313
-0.0204224728737091
-0.00613947214624885
-0.0173344409173267
-0.0056198466451916
0.0257611585820275
-0.0144150830860328
0.0244975093999216
-0.00700595609281129
0.0293867863793933
-0.024771169536523
-0.0227495838295398
0.00523088318022571
0.0200419135015364
0.00241679313773207
-0.0264528351266396
-0.00052619395281839
0.0481176337314143
0.0432355792886903
-0.0455673057563944
0.0033698753803613
-0.00223658224567751
0.0352315323678318
0.0374694978105662
0.00459357956789119
0.0267282819246652
0.0696057722540048
0.024215983747052
-0.0154759899851069
-0.00949081844692046
0.0182481760907216
0.0237303517235418
-0.00623971871017557
0.0162933338356145
-0.0149437678689213
-0.0238012817028162
-0.0269679119364096
-0.0456525433957741
-0.0194969378459321
0.0428230215599406
0.0140338500738487
-0.0331154421009925
0.0530531307375938
-0.0156715383393627
0.0270800741821499
-0.00336562826666447
-0.016977613868255
-0.0580510133466479
-0.0234369459452462
-0.00892301017136394
0.00650543343286372
-0.0110431632659838
-0.00709635376008296
0.0231618011374412
0.0894854256746101
-0.0378058204403942
0.00295424075377535
0.0801169240460536
0.00223581125125081
0.0344813459971763
-0.0179416388065549
0.00819863814119717
0.0245607259635923
-0.0160557504187138
-0.0175898108270864
0.0595728582386963
0.0400217543059163
0.0251159061967934
-0.0294715220835022
0.0799808531898051
0.0106861107570875
0.0269544924424294
0.0237892916946404
-0.0106321684406498
-0.0244955453930522
0.0112791272591695
-0.0119812944281696
0.0666980158098974
0.0193919448986166
0.0400364820519468
0.0585774555431853
0.0380605927419259
0.0175298947882884
0.03934068104113
-0.0269278698746696
0.00624449454775555
-0.00755397335731043
0.0315312759636374
0.0449730190047117
-0.0163387544346001
0.0109838927310338
0.0103178251202863
-0.0210149133850638
-0.0192277460693901
0.0440001928586345
0.0193026620631291
-0.0287520193922908
0.045757867775563
0.0923579216473675
0.0280509991976797
-0.0346732769257547
0.0488035146244852
-0.0614600825461098
-0.0425581392727474
-0.00741383660604716
-0.0594439352075476
0.0049782186850384
0.0243145471694342
0.0545700640985309
0.00493513230207485
-0.0327358401457623
0.00259715798360019
0.0778613282011256
0.0364817683296485
0.0433666512303989
-0.0517004932153279
0.00703368826810764
-0.0522172639539348
-0.0251952202838382
-0.05784176424647
-0.0229445293153218
0.0151549480493925
-0.0171383558774095
0.0474869824089226
0.0361342724497661
-0.071390544620754
0.0323008416521949
-0.0087394564567275
-0.0231664767240653
-0.0537907268593963
0.0217048116779687
-0.0508205802933012
0.0159497676782592
-0.00299361735030333
0.0116434817119869
-0.000121363071279668
-0.0457821121706735
-0.00749621425388786
-0.00883201384554265
0.0352486486846443
0.0380258809772479
0.0259983771184973
-0.0430810840289168
-0.0349050090771837
0.0420776472917525
-0.00186012931107495
0.0219853475557414
0.0304241180689357
-0.0252492731740461
0.00451376839077541
0.00750488966126121
0.0229370614721787
-0.00874580220652349
0.000943926317464351
0.0125455007488252
0.0397457475260843
-0.0622324439960306
-0.0035749092752482
0.0345495372215253
-0.0162295480237404
0.0406608295788441
0.035470756831384
0.0320460767100345
0.0202075725153625
0.0723487081454549
0.00656402459753917
0.0251923491960265
0.0344188380845397
-0.0210903458965067
0.00980450127280648
0.0491482811346507
0.00345248701449344
-0.00402760029724688
-0.0155679024510262
-0.0158678701331475
0.0277474001781768
0.000123310127672817
0.0196160318970904
0.00476060484711532
-0.0375667508489791
0.0235949193035191
0.00798929129686748
0.041630884329339
0.0172071877446924
-0.012983559816055
-0.0517077709916831
0.0229457163711802
0.0242849213893911
0.0173778971144122
0.0365372692201888
-0.0152866276817805
-0.0107013497104189
-0.0124916557351684
-0.0458777133442087
0.00153394598498965
0.0368353460456859
-0.0537507042837641
-0.000606010548158727
-0.000817111269379272
-0.01513322014486
-0.0181851489228914
-0.0211593252020587
0.0303120281312491
0.00467847570993821
-0.00106089031009376
0.0801370369673327
0.0707304695114502
-0.0573451548270522
0.0423152654604686
-0.0247335645000889
0.030997388603378
0.0733429403231158
-0.00405105584409237
0.0337960336510586
-0.0407934167716622
-0.00616243683856866
-0.0175182994487426
-0.0508306912454225
-0.0401121322245029
-0.0612107808029325
0.0103153656634309
-0.00918282867992805
0.0430156290939652
-0.0470823733887532
-0.0351853430725473
-0.0133024370197
-0.048223770257157
-0.0410488196419616
0.0307842874015488
0.00703727213935125
-0.00128446938468272
-0.0148256131639034
0.0350124143289116
0.0568475827087606
0.0789888418100893
-0.018206571187011
0.00517294144911112
-0.010323979445673
0.0223938016173428
-0.0127487404939184
-0.0158254772717342
-0.0298135887071158
-0.018286202003039
0.0295512025909942
0.00456344944752814
-0.00796746950601396
-0.0123374610410724
0.0169276290775821
-0.0369097323123559
-0.00683189320876562
-0.0255800435140749
0.0198672650057524
-0.00437710931265024
-0.0199021847857913
-0.00233396150354071
0.0442964086493568
0.0451029558027455
0.02576086900975
-0.0149752605754344
0.0374272150194438
0.0214333158722983
-0.00503621090383656
-0.0192344261608146
0.0333082022937815
-0.0306427319212274
-0.00923139718501285
0.0542415712343508
-0.0480684768608197
0.00675858741580723
0.0466042179797414
-0.0289713766437175
-0.0313105994950352
-0.0375743363009528
-0.0039851772591887
0.00750403078065592
-0.0433286332652365
-0.050078199733108
0.0187544710255944
0.102720456373297
-0.0723492960661248
-0.0257244095013864
-0.046547573403356
0.038781725534822
-0.0667868898088011
-0.0633319440737658
0.0172839775553856
0.0413822921540616
0.0318202481218663
0.0261507935885219
0.0705458046641709
0.0200473960682508
0.0632735952418877
-0.0522392409919995
-0.00809794790930627
0.0258875191577278
-0.000481019353727325
-0.0175082870758989
-0.00251557241991415
-0.0203948288722723
0.0244712328185846
0.0122483031169952
0.0408011263207917
0.00521456086206189
0.0489988626244207
0.0200585629134832
-0.0174212857180209
-0.0420494183476709
0.0729593078664097
-0.0228681121779528
0.0090130043339604
-0.0262988275306743
-0.0835927491166847
0.0323620447801528
-0.0275846702600706
-0.00636316262056582
-0.0360296750388706
-0.0481078079093293
-0.0242033849797894
-0.0203406843013198
0.0496510080816218
0.0154718832078429
-0.0155957383751596
-0.0246605094300684
0.016940953909392
-0.024986652494914
-0.0356203441928718
0.0909245880037969
0.0120747754194105
-0.100549908036188
-0.0638537047966768
0.00769636872420399
0.0236377032260487
-0.026639784248224
0.0320105220764182
-0.00743647657299972
-0.00675076538064005
-0.00311924204791624
0.0238717894003671
0.0119129155056723
0.0908703812637208
-0.0220137371278417
-0.039283419707464
-0.040322377226743
0.0215180593986871
0.00779395520426507
-0.0359818252551501
0.00974458066696485
0.0446653255511908
-0.0264214260022342
-0.0719851856317194
0.0036647391046651
-0.0477575523483529
-0.00359344052627019
-0.00846886139705413
-0.0571448888090395
-0.0274972640836126
-0.0209272951475457
0.0607945456429688
-0.00605233974073019
-0.0233526052843055
0.0369185928373939
-0.00254580972126381
-0.00962104117981197
0.0268525790573411
-0.0268449491545567
0.0312878181676737
0.0547900646603985
-0.012274391945698
-0.0228722966798626
-0.0120390405736574
0.0435508812473083
0.0109076602966288
-0.000251827648843044
-0.0373427499332519
-0.0448474032453201
-0.0521075017568228
0.013692626956539
-0.0167938900248636
0.0136988133843649
0.00404821179273779
0.00971870141415005
0.0601991486617355
0.0444166105137946
-0.00544791933544229
0.00639344901205099
0.0238076296986009
-0.0645986214734263
0.00390507381119803
0.0394993604432793
-0.00534848310205088
-0.0196019000876028
0.00221429201322139
-0.0272242489658974
0.0147499534546522
0.00270100063600893
-0.00956618675220942
-0.0332528631063461
0.0699135687932481
-0.00439052175625913
-0.0280406626381331
-0.000826343729722004
-0.0679712832610711
0.0659385508145646
0.0182832045573308
-0.0114652540176004
0.0459186438370562
0.0141491468451767
0.00103764044761539
-0.066812884091299
-0.0253184341421233
0.0858283794532857
-0.0110317330760793
0.0537858740392918
0.0358752423549561
0.0193903112291148
-0.0514430154095824
0.0181240867427423
0.0525232693198239
0.0041605388550668
0.0227244727019097
0.0592983362593656
0.0249811816571072
-0.0325015765386893
-0.0299610235531577
0.020315552348305
0.0681859767160437
-0.0162656768138446
0.00363032913192659
0.0231056714870047
-0.0317831767937606
0.0331814121457616
-0.0494090650304427
-0.00405843635273738
0.00935038910961364
-0.014629824737286
0.046878180345018
0.050281815407516
-0.0046141762712721
-0.0903460617337853
0.00195357047272732
-0.00739530367195049
-0.0222106639870371
-0.00928498267288377
-0.0859812463238387
-0.0544049530522966
-0.0253490324470605
-0.0123281168488029
-0.0221776003421057
-0.00326048945845652
0.0185663947349551
0.0552134709390942
-0.0210056652861671
0.00291993188980638
-0.00560788306022525
-0.0956864298178097
-0.0381042356387103
0.00902810792181951
-0.00445515271845292
-0.0355874166886658
-0.0281930732683617
-0.0378081382655114
0.0125887584069486
-0.0256484650764415
-0.0313457474609997
0.0285966016253569
-0.00400584691532695
0.0565908278339821
-0.00540451203289361
0.0415073291948489
-0.00864728048457546
0.00384838920645663
-7.20608927406484E-05
-0.0431792376434581
0.0113650295678356
0.0290432811245485
0.0297427626284615
-0.0245324172861202
0.0286304923544033
-0.0348365146690529
0.0415115155068612
0.0402622712250037
-0.0492077458748634
-0.0139770745663434
-0.0166850221124669
0.00426362834582123
0.0153394441186059
-0.0175698179975452
0.00109055627823436
0.0912250416881008
0.0220645003261159
0.0292490727034033
0.0474331088992154
0.00850568218549922
-0.0061323325261179
-0.0101158626545002
0.00631661183275649
0.000439554869296144
-0.0357771412176845
-0.0294264488400821
0.0124546896599208
0.0543468326731939
0.0160761509584941
-0.0349972339673177
0.000761164415986097
-0.0106432870032512
0.038022977918298
0.0103445730845036
0.0203925315616625
-0.0146755261995062
0.00401791717975853
0.00946773053170529
-0.0130107527695791
0.0205055841272973
0.0156442177216879
0.0613125251820913
0.0272274099300251
0.02417976458002
0.0385759042677596
0.0283562875056694
0.0269936153677152
-0.0107506190113649
0.0112777109038998
-0.00696552532323254
0.00465530511999069
0.000743386797797045
-0.0221672525254341
0.00274578845106525
0.0699783784316238
-0.0426831338882761
-0.00512053472828101
-0.0141937082038365
-0.0172742092254095
0.00822045536417444
-0.00528055473008006
0.0604343460437594
-0.0430430673219215
-0.00936697168168377
0.000409800965536816
-0.0397943609493831
0.0140890164488672
0.0322322899502417
-0.0425296436835817
-0.0203502811379312
-0.0489031581195782
-0.056433649138189
-0.0793247071306186
0.033793514024949
0.0422948511436888
0.00638509231979438
0.0228545090661402
-0.00288388843368356
-0.0506044101863177
0.0189825133914687
0.0289042756309314
-0.00727234285976455
0.00105343352420332
0.00391178018891986
-0.0069368389662992
0.0278407832840979
0.0148026811672183
0.00369255964710097
0.0459802427773266
-0.080011234976346
-0.0715175055774621
0.0397211015633183
0.0373170043989371
-0.0251265411688652
-0.0233331671273292
-0.00945229880550727
0.0205250190252489
-0.0235239537269605
-0.0130550406173403
-0.0138172961895986
0.0636436804764167
-0.0551466155429563
-0.0207204270546751
0.00679442626143026
0.0425544730189402
-0.000263091742633288
0.029268230028783
-0.00148094087932536
-0.0131545085474901
-0.0805777406198496
-0.00876292638777644
0.0121688820509133
-0.0254522042215285
-0.0418227251717645
0.00732974285971371
-0.0259533096599998
0.00648151245626629
-0.00475276783522454
-0.0377636199033556
-0.0392336482362629
-0.0475069851651866
0.0584958682955823
-0.00467046393374179
0.0596126620545902
0.0423637237845843
0.0780462057054055
0.0209467025968437
0.0137679898466134
-0.00977955451179235
0.065672084340954
0.00473320946794272
0.0347732854357619
0.097117912483953
0.0454751927615135
-0.0153190623510879
0.0373929442218196
0.0765459867727806
-0.00282571448299346
-0.0274380356297462
-0.0353382099684658
-0.00144288851151792
-0.0317873330969743
-3.84616086189355E-05
0.000859724585283847
0.00636502050352563
0.00680427486120655
0.028335167338269
0.036790935436382
-0.0332579274479116
-0.0476268056584121
-0.0376040425967782
-0.0119805507028343
-0.0223044985956391
0.0617791874710351
-0.0149159260537706
-0.013644579128911
0.010720627727996
0.012864318342663
-0.0221453382301794
0.00432624904102108
-0.017747103240901
0.0333011929881055
0.0373316573350062
-0.0301646952942001
-0.0628525401364773
-0.0364157263247172
-0.0378480086590812
-0.0692239444226654
-0.0556119622002437
0.00747726157197519
-0.0243498831895155
-0.0292869116674409
0.0962748852133335
0.00372582176013908
-0.0173876038088192
-0.0208387320902947
0.0461135542665435
-0.0222030380022592
-0.000730370278089736
-0.0228677709497091
-0.00840871278780695
-0.0408992250785461
-0.0331124232755296
-0.0568849588540244
-0.0523506994425273
-0.0464927729604952
0.0265967468445465
0.00508335017256195
-0.0213588961927533
-0.0161537699184875
-0.0399611133215965
0.0133925256110866
-0.045414656063509
0.046430468280423
-0.0114980146415795
-0.0336631016507688
0.0390349631440208
0.0174097751341808
-0.0429184825948098
0.0327592917463225
0.0665675212594627
0.0089887793059147
-0.0256762111077776
0.0347390074927293
-0.00117572065779581
0.0547233988123129
0.019324409092246
-0.0299523074789178
0.0257130121491921
-0.0315785099477419
-0.0370008173737962
-0.0575618619757678
0.0473791280381878
0.0369141679144387
-0.0086240164093831
0.0166794683986477
-0.0323419651807092
-0.0186675488830707
-0.0174267435730318
0.0347151518630408
0.04147816832952
0.0203952253482016
0.0363839499010028
-0.0161975044017056
0.0167567934463441
0.0326073235573354
-0.0114096175530274
0.0608074163362055
-0.0305419962600362
0.0129312131222604
-0.0411803269627362
0.00489529170311381
-0.0132531366531545
-0.00390357653797659
-0.0341225529174415
-0.0247073075650829
0.0281554054667567
-0.0337266079355581
-0.0304452109262573
-0.0375458557097804
-0.00520127435632061
0.0414753414266634
-0.0520699577265683
0.0356633640014958
-0.0321456837724066
-0.0151832379127288
0.0111784232267751
-0.0489918831594754
0.0296508078285205
0.0239733668743669
-0.006922067761412
0.0493353878254064
-0.0376564431785292
-0.0319337511610297
0.0615636006138682
0.0380164574445543
0.0480371847509178
-0.047618419703166
0.0112140838932035
0.0275459083905599
0.0073834036982428
-0.00900343126079964
-0.100250407976728
-0.00753680925199484
-0.0565223920370925
0.00629181113230598
0.052284222384983
-0.00309965361930948
0.0639719847864572
-0.00474506678220099
-0.00520175678209006
0.013426184691107
0.0513904404849706
-0.0374148763791947
0.0282690108779841
0.0665696607998875
0.0306004506435433
0.0141738580632186
0.0188889272967181
-0.0538865822420091
0.00262121060247565
0.0130776865062651
0.0133704495146428
0.0788316657160588
0.0247808077252443
0.0345302171669231
0.0203392441966836
-0.00737661863125443
-0.025145513488807
-0.0216994292337629
0.052455820810327
0.00599916022759204
-0.0014656781472272
-0.00610901777947674
-0.0289062560245117
-0.013611586066628
0.00644284767178894
0.022447735364993
0.00120282177992623
0.0476602008323412
0.0423175333617296
0.0440343123264205
-0.00686868517246314
0.0353650269128764
-0.0281168234061246
0.010956765623606
-0.0118955397962933
-0.049713602549611
0.00316618625537725
0.01086517904357
0.0756307153796443
-0.0137225626504367
-0.0312149356490007
-0.0647001472177349
-0.0173281290833849
0.044641946782027
-0.0275197321282447
-0.0232318089116611
-0.00721827305476927
-0.0325580691921204
-0.0232036877160339
0.0295280844732962
-0.000232882172348668
0.00159722404821093
-0.0246343633361376
0.00177203132205361
0.0242766103660733
0.0569731206322567
-0.0454517350246634
-0.0233566126674635
-0.0200856725854707
0.0129693884787255
-0.016365858057892
0.0716006658711908
0.0199275612223498
-0.00681015673870542
0.0778572710110879
0.0108600947408292
-0.0122880305092202
-0.000126722327842743
-0.0184034371239043
-0.064010756034342
-0.026493390177513
0.0442438528935012
0.0399532357543009
0.00708354071845233
-0.0187590872639651
-0.0108411178204774
0.0194442054764841
0.0209904752348698
-0.0348325076171897
0.0580525241360488
0.0159022774129653
0.0353064339086323
-0.0251245940359397
-0.0278620960495112
-0.0202174020445088
0.00441682199674804
0.0271392397602625
0.0368351166190713
-0.058466211596679
0.00323159049473983
-0.00346987581955752
0.0027833788582523
-0.0310761077664413
0.0144563536409654
-0.0707769625988512
0.0053584427035296
-0.0111753414669468
-0.0246699210834261
0.0357321992971152
-0.0177964254132908
-0.0176576417403027
-0.0236682261873686
-0.0139526681966811
-0.041340532947384
0.0167543704482801
-0.021991156440338
0.0484978466537684
-0.017509851310687
-0.0266093895130887
-0.00135060349262062
0.00185342838143426
0.00252156529331955
-0.0374661219398694
-0.0123106460525691
-0.0475880987051787
0.0560550260277907
-0.0818865664644037
0.0425337650100292
-0.00744541690003896
-0.0183853956585524
-0.00254208773197888
-0.00243418470525057
-0.115376944044385
0.02164754684507
-0.0254850905773815
0.0528105549778792
-0.0710881372060341
-0.0115730378134437
0.0206702485626476
-0.0282349346926531
-0.0446261831245913
0.0202709260841798
-0.0133515011824415
-0.00290824177608239
-0.0124316308258207
0.024553247424943
0.0587537348234802
-0.00357602458795531
-0.0503817364754544
0.026350696553936
0.0722429768571512
-0.00318567775620721
-0.00607887971220681
0.0632904006005457
-0.0165772577880619
-0.0186654795144542
-0.0242566904673143
0.0433040732073988
-0.0274762189988666
0.0594676453695541
0.066001178483651
-0.0353253772661606
-0.0120241943650512
-0.0785417813461301
-0.00214983129212859
0.00233258796784307
0.0651573926923214
0.0129344123103362
-0.0867508065374969
-0.0159630896615116
0.0363724598296499
0.0215583744437731
-0.0385524001850597
0.0696042985151036
0.0024469849632922
-0.0418140891622976
-0.0243075059054795
-0.0505368483732624
0.0129955421308788
0.00449116714557078
0.0161003143920873
-0.04267959014459
-0.019417864074237
0.0231656581526618
0.0654065082644248
-0.0387979421160734
0.00954391775168537
0.0175755974793167
0.0318405803309235
-0.00182866629839765
-0.0212323131281972
-0.0189258236515229
-0.0342405629640268
-0.00475862228991993
-0.00784585723343572
0.0273458750236588
0.0172762641015679
0.10150237035492
-0.00939335063771596
-0.0883697014869653
0.0242123334132119
-0.0956148307827119
0.0381989759628009
-0.00506548415047402
0.0123062292472202
-0.0387992645692485
-0.0246612893296434
0.00954342910737429
-0.0137419055333956
0.00775230767844644
-0.0295801976323822
0.0634501138545546
0.00918230671049962
-0.0051405500818878
0.0238352982455659
-0.0533782556229987
-0.073813158769629
-0.0231234595359524
0.012434911043167
0.0506466292518611
-0.0846831001751467
-0.00999726529282165
-0.0279619450241924
-0.00150791962100287
-0.0106447282268603
-0.0137126636653927
-0.0085544131407034
0.0408845295132288
-0.0159780024545784
-0.0131158857308396
-0.00873476708944041
0.0180307124617536
-0.0488043720015231
-0.0273510437515525
0.00214406264904921
0.0458584767117579
-0.0304882266970256
0.0204055451115673
-0.0362004362456717
0.0318258714536383
0.00759838246614693
0.0687601182553398
0.0365585304307759
-0.00570076180280718
0.000323156792287769
0.0122860028283235
0.0189433029036835
0.0124203584770195
0.0421333950389228
-0.0171985570340421
0.02521883310782
-0.00641879923081225
-0.000423741544234466
-0.0143884929305048
0.0016696896605157
0.00390615333555648
0.0151593503953363
0.0270497200628646
0.0155828628767277
0.00953104633434607
-0.00312103162677902
-0.0383222455903295
0.0495711905351924
0.0865031499021702
0.00396759456290365
0.0550307851267425
-0.0496979082036868
0.0109602794439161
-0.0392060935714752
0.0180796008998667
-0.0105772894489939
0.0481212513452855
0.00119455737717595
-0.0731512005900048
0.0290852769408737
0.0540833927659965
0.047530454478915
0.0747074742201234
0.0274787986107292
-0.0262934976931474
0.0292250502181292
-0.00741880760661497
-0.00979567812322805
0.0102737934525005
-0.0294426960332907
0.0590939383907839
-0.0328482353794627
0.0041789714317069
0.00884982179768646
-0.0720683401940269
0.0530233898602032
-0.0238398901547224
-0.0998642950939611
0.0215670212945434
-0.0227883359748211
-0.00988280000190369
-0.0302887098452911
-0.0340532283630995
-0.00339641265106456
-0.0374386517588157
-0.0311637311068506
0.0358841464276819
0.0239623232837857
-0.000951555274384284
0.0515597936821289
-0.0333853438892235
-0.0504739131877481
0.0356255435219183
0.0477918745576635
0.0172764191249669
-0.0841396929222955
0.00144421921402004
0.0647913465651709
-0.00987123476053075
0.0537638176632972
0.0268556990299186
0.00182150672971847
0.00722532527238764
-0.0149138109729639
-0.0138646507205095
0.070674077047401
-0.0149001073224519
0.0151321910408382
-0.016862285332776
0.0437455784223232
0.00512518104587272
0.0294880009818643
-0.0339567803681237
0.00115434416859042
-0.0702536120765144
-0.0190010171073055
-0.0514524049513416
-0.00351485480222552
-0.0644658805588029
-0.00964509675875921
0.0165828062647964
-0.057273178890501
-0.0892033747969825
0.0367488234661682
0.0415902475950393
0.0410632890576102
-0.0029757885209107
-0.0330874632699352
0.00919332092014201
0.0124391980185899
-0.0254165442013389
0.00405765032603759
0.0157554293618524
0.00271007968590098
-0.0366221618633162
0.0968066209389475
0.000338982243033132
-0.0390546356380277
-0.0443018353964059
-0.0620135851573186
-0.0564684141464064
-0.0156712961794291
-0.0447665188760101
0.0283017108093547
0.0679652314626695
-0.0190720626132519
0.0213729653455343
0.0307623912088432
-0.0432961203245258
-0.0584210273953404
0.01131609905578
-0.000361847746401769
0.0773638847358213
-0.073476866414756
-0.0334684855070015
-0.0181407515260495
0.0337639561842396
-0.0621537810970977
0.00480106729388162
0.041530650414002
-0.0457667926656448
0.0502492973766273
0.00585245073318159
0.0167972526028346
0.0476746868519636
-0.040022719169695
0.0242099732557325
0.074794450892693
0.0769651086674476
0.023114120575854
-0.00728049919308416
0.023259167666079
-0.0695756374218151
-0.0300898314496682
-0.0171607905177452
0.0437538955031453
-0.0102245676627966
0.000622131248537166
0.0245217099578925
-0.00553475628404956
0.00964246695933898
0.019680635282825
0.00927161139095192
0.00657335979294195
-0.0705114414850445
-0.00526982055463081
-0.0554562090833682
0.00916015562922399
0.00666029501031313
-0.0386227831394975
-0.0153986983696458
-0.0444728426350401
0.0535637461465332
-0.0550113051055226
0.0119101942475466
-0.0424889614528617
0.0490077486436254
-0.0276265075185922
-0.0515439215112693
-0.00523780167490536
0.0170918236906847
0.0339260902048986
-0.0269601522883165
-0.0159798113498737
-0.00103597027202961
-0.0581511740916439
0.0379166344584098
-0.0492470499143826
0.0401929033044425
-0.000921154820679775
-0.0277967742745097
-0.0235855384679162
0.0128679686755677
0.0222584939030618
-0.054306324908753
0.0686268621354898
-0.0624616776702336
0.0236196149671969
-0.0398910174638443
0.01750608611814
0.021906947555287
-0.0533579981372711
-0.0852081321538554
0.0341160508431748
-0.0231803501485258
0.0368406325348662
-0.0051552676847018
-0.0130945408706779
-0.00706106816943129
-0.0238479450996736
-0.0331714865100991
-0.0429419001418036
-0.0164623760183142
0.017060418707968
0.0667866445740587
0.0483120400517899
-0.044743579410157
-0.0325203914988215
0.0137632544112202
-0.00188543885988398
-0.00561959792039895
-0.0045760199053168
-0.0381078049617354
0.0358712104996042
0.0139009214716071
-0.0815611132993223
0.0549078492828438
-0.0161367273097785
-0.000887780232369865
0.00849934888757496
0.047157423267888
0.0193030388729133
0.0253811410180226
0.0574808135746802
0.0185251235976881
-0.00973716142092716
0.0301048667175878
-0.0184348502307681
-0.00778325273302573
-0.0123367315385039
0.0474236768248854
0.0165521557046758
-0.0228913788524534
0.0551568778739088
-0.0171039287754586
0.0101235193579885
-0.0430591063358144
0.0683016473856047
-0.0210990693500175
-0.0822255172722635
0.00636897017795198
-0.00927611709277763
-0.00758373830147149
-0.0795613603681118
0.0228546558235523
-0.0158685000466481
0.00103247756782473
0.00780292399916895
0.0507179038741403
-0.0427278575016736
-0.0426621369736865
-0.0375237143055305
0.039703390551415
-0.0400441658291667
0.0369994216390469
-0.0276189933599154
-0.0153504566306586
-0.0501903392910613
0.0206008842429587
-0.0541911217505977
0.0367413039686243
-0.0149290201646239
-0.00672122913253846
0.0153500510666684
0.00542087152431752
-0.0769552125325333
0.0305109867803912
0.00829524327533747
0.0318434854774225
-0.00491489119556369
0.0341277433918429
-0.0315635775556809
0.0397829420847976
0.0670814690693018
-0.00519879753423563
0.011631457040028
0.00743923346084447
-0.0159191790045344
-0.0387356010216208
-0.00855340166366099
-0.0591028286712347
0.0017883879573911
0.0241415237764411
-0.0680121378538424
0.00610372600472658
-0.00890563218489845
-0.0313789196374979
0.048746308603263
-0.0183010667969932
-0.0455253107878363
0.00463993267133549
0.0133205395840327
0.00653064780666027
0.0161978326313104
-0.00989132111278906
0.011231165216744
-0.0361980857959962
-0.025553554476901
-0.0514014431381084
-0.000131380930149594
0.0681922665115935
-0.00614218130534922
-0.0466746545860931
0.00654360040574523
0.0175243334003249
-0.0186922949660059
0.0290283340932456
-0.00637319765641594
-0.0415750999274706
-0.00675465148465079
-0.00637796343334375
-0.010030744472738
0.040131660802645
-0.0583457613637846
0.0454976937096815
0.00738233657567127
-0.0008269928541962
-0.0158067981774536
-0.021682648870579
-0.0183130521026835
-0.0257687179911924
-0.00814531055655656
-0.0157277129004158
0.0122061063789442
-0.0149057927404811
0.0234908264585392
-0.0567630998735211
0.0336048838381898
0.0429299418687963
-0.0246845971866481
-0.0226391355933453
-0.0226298986681783
0.017840325937453
0.0789865939723122
0.0174592602622982
-0.00620248918201747
-0.0389135150125279
0.050802174327588
0.105825600893969
-0.00522040667604044
0.0372083331868532
-0.0389443341151716
-0.0253439844610823
0.0214228794553225
0.052522711693972
0.0030510542111401
-0.0193457426271825
0.0162406761260453
0.0507075838801248
0.00106266212041773
-0.0123405301772817
0.0334353689658699
0.0276770153583123
-0.0589540713390062
0.013149319618077
0.0600497741372823
0.0107710887495934
0.0199145458239341
-0.00898546862554102
-0.00229772491827959
-0.0171619644208033
0.0585482720028795
-0.0140049722962728
0.0242419130451018
0.0471150127261723
-0.0430529661563361
0.0226898819379961
-0.00608839668979858
0.00677341470966376
0.105069963632841
0.00544063914100224
0.0193472195719358
0.0169214576478626
-0.0535482705536018
-0.0379856135203359
0.0056820238221522
-0.0173913376880482
-0.0124487204033873
-0.0160900239028873
-0.020731204560998
0.016426215599186
0.0376370295494628
0.0182595230909854
0.0243793444549432
0.00697126568820386
-0.0248969586752717
0.000625026916121605
-0.00208888495845947
-0.0309843182893937
-0.0512131415557069
-0.0403682694485165
-0.0340006716396713
0.0108666305472709
-0.00725593704997394
-0.00284828778616413
-0.0209019335524912
0.0220546043899158
-0.00133277923602463
-0.0182800367027899
0.0175658359549438
-0.0085805118774667
0.0216837625768776
0.0511215782807757
-0.0628408703326175
-0.00783765176395229
-0.0272354669034911
0.0216280681296561
0.0342893536198735
-0.0286225315711832
-0.019563685882381
0.0702975290277567
-0.00906691558971634
-0.0100619595700268
-0.0269056215967954
-0.032519286486861
-0.0135561698452971
0.0157268614159858
-0.00810606842063145
0.0082963060044284
-0.0142645061560942
0.0193579361070871
-0.000460820679243848
-0.0237755436087782
-0.024786599128094
0.0325006167786269
0.00638181287580757
0.0129831953705303
0.00199419166672006
-0.0336637881741873
-0.00428951688623485
0.113293492898689
-0.055534089988368
-0.066552527485197
-0.0147242556341736
-0.0171296648148547
0.0657194076002229
-0.0503453510160443
-0.00525419603305223
0.0418501204237265
0.01928435982502
0.0209083973739357
0.0561370216520669
-0.00996123671545344
0.0238620003126253
-0.0313921854093351
0.013026662931692
-0.00884414701033458
-0.00781663175103966
0.0915789190603695
-0.0177774857812208
0.00609497869868614
-0.0601947368164643
-0.0448842048118969
-0.00749834625463313
0.00567960290762615
0.0265883004290778
0.0372288110662159
-0.00493734254142291
-0.00156218246136394
0.0107896313962772
-0.00929491966084651
0.0294637149892016
0.00059134383795625
0.0687367746145786
0.0101542215885311
-0.00580162760088446
0.0017240624174105
0.0631034723540217
-0.0258204309504286
0.0558875797297843
-0.0148993634803934
0.0184635900021298
-0.0192376791172787
0.000736610330989222
0.0905288576094318
0.0105609953961788
0.0275872691916027
0.0142378617753163
0.0120096418264283
0.0177525361921785
-0.0405740579430119
0.0497688586728451
-0.0644267480213285
-0.0114290511752341
-0.0786530627536775
0.0264312770214715
0.0159962570339621
0.017997374687922
0.0141162809481059
0.0485567537594442
0.0359827677679554
-0.0329530766716484
-0.0260561778460037
0.0485765428585525
-0.0362978789911733
0.0269650712746666
0.00403784399992106
0.0154331909983588
-0.0189132082349111
0.0121041205339606
-0.00644808714619183
0.0105688592297876
0.0136600543534091
0.0612873773553624
-0.02229784555628
0.0125513422158719
0.0130929652254417
0.015048695722738
0.0197680196974229
0.0437371090658854
0.00647344035742217
0.0507518289000398
0.0359552009337559
-0.0352869146570081
0.014642582595276
0.0251345088562135
0.0467116247339946
0.00112160804543085
-0.00563810428593822
-0.00044051351963971
0.0287432716886866
-0.0465058165248433
-0.0430626735808797
0.0281840510300159
0.00724367661511816
0.0108836850307602
-0.0382736459607652
-0.00128521052240161
-0.0424255657594017
-0.0175021583894837
0.017002324057304
0.0253748970164078
0.0176526238373605
0.00948243242228561
0.0727550409532685
-0.0140674312255515
-0.0229861272354715
0.0258269618016924
-0.0558714941257011
-0.00796113350474414
0.0794337801607634
0.00491738612367806
-0.0224597866048703
-0.033902884048092
-0.024455980376309
0.0127350037073052
0.020094790459188
0.0184936514225243
0.0264709235431609
-0.0463636366434978
-0.0222038327690774
-0.0358204620911987
0.0306106879559509
-0.0186873678490945
0.0158974297015996
-0.0404887588331421
0.0058139082488258
0.00247796288113183
-0.0213938366947556
-0.0329001984170336
0.0217592452319815
0.0267110825151271
-0.0586291868801579
-0.0586235699728912
-0.00312624982820692
-0.0055528145226433
0.0196801027547013
0.0192441572541251
-0.022091183366403
-0.0261156313425143
0.0157336282879044
0.00653854473244982
0.0497236502694737
0.0265294790111175
0.032542917677659
-0.0504926188912541
0.0364253308120397
0.0190058711142815
0.052693566669394
-0.00251603845957037
-0.00266477631586641
0.0302342331866024
-0.00112513920793283
-0.0414353498010354
0.0552532076316347
0.0185558781904311
-0.0131459805177718
-0.0255978821816951
0.0396109270961023
0.0016087474749428
-0.00106713586212592
-0.0434069392653897
0.0476416699122636
0.0477191448127543
0.00532043983267169
-0.0672397197464847
0.0769788945347022
0.0108272002062834
0.000724625237270437
-0.0628614211649371
0.0101644805014499
0.0631070623241227
0.0306750467190714
-0.0224738749552251
0.0328857075070887
-0.0105768100975474
-0.0369103389219978
-0.0253736281294381
0.000442246395980291
0.0721516640992282
0.0565465237383997
-0.0311920565261496
-0.0163329970150988
-0.123382648309302
-0.0142391666634258
0.00167641322348083
-0.00704624605048972
-0.0504299544678291
0.00646913101471993
-0.00483173969380255
-0.0213179931847962
-0.0200591880697146
0.0288092133405481
0.00249826767007189
-0.00283863820743963
0.0296913908482626
-0.0496887432526637
-0.0276213587735689
0.0412946782333773
-0.010116410573668
0.0399705712630897
-0.0142029270649721
-0.0313718365576698
0.0415358529666972
-0.031795388147934
-0.09231159150521
0.0748494043212847
-0.00535608973366782
0.0174470786040717
-0.0502768814388529
-0.00254333029320448
-0.00563768808403801
-0.0203209032701921
0.00297159871498641
0.0488791806322521
-0.010791841182757
0.0740396277868655
0.0307249557430842
-0.0250653643894272
0.00211789108759583
0.0160613591876434
0.00242796388996523
-0.00715016087688732
0.0491137318524084
0.0189566926197549
0.0403688193764443
0.00359023889477992
-0.0612456013530267
-0.00820553436668389
0.0197476806363211
0.00553484873875192
0.0756764112853191
0.00320852755531893
-0.0252323893122318
-0.0411280711749627
-0.00916110774573531
-0.0372846079439173
0.0140815796357277
-0.0328481645981002
-0.00932578027301
0.0126147077722623
0.0136897037795851
0.0438679895086978
-0.0154095064696016
-0.0040181976334345
-0.0827271993483163
-0.00749271642755682
-0.048225779335009
-0.0569587262748317
0.00373516921080755
0.00122732613835127
0.0199608468834998
-0.0559658974946558
0.0129748900590857
-0.0296648868133028
0.0548089717837783
-0.103769711188952
-0.0305757221526043
-0.0117061039306641
0.0459438464636939
-0.0109335027415335
-0.00829859141270565
0.0305613061353183
-0.0227793523777076
0.00812238980525364
-0.0609689735370245
-0.000386025316633204
0.0211179768929388
-0.00673246634359081
0.0206651008093096
0.0412325890282678
0.01025908384769
-0.0306677736315013
-0.019972093024762
0.0841292399605555
0.0390847055218068
-0.0259101506117157
0.0390663698606074
0.0223670892848956
0.0152497167097681
-0.00910014037446364
0.0413421881674342
-0.0105640165275497
-0.00297476261472635
0.0874926577644081
-0.0661588554731732
-0.0673177584843173
-0.00453118660432541
-0.00245588451306302
-0.00412424613556016
-0.0270494751086652
0.012215807801844
-0.00992292132648596
0.00996359884340275
0.00178533686684714
-0.0317454320192263
-0.0746676765796162
0.0194739796695062
0.00127512628015347
0.0378889973812944
0.0443646067730577
-0.0357230534468049
-0.0606710526497847
-0.0173884093677879
-0.00431078144905667
-0.0541039126153771
0.0123363739720039
-0.0319324788785019
0.0507982111933213
-0.0301743461546223
0.0340973648723939
-0.0187971455324263
0.00702741508113988
0.0142357916364654
-0.0146354165883393
-0.00206096711426762
-0.0380738546526385
0.0235532703406903
0.0845055309077681
-0.0521885665723564
-0.0032390785473127
0.0106836941743709
-0.056578504775903
-0.0348109689511531
-0.0027132280561336
-0.0676322631792318
0.00165297547498262
0.0252004450586853
0.00306179580817454
-0.0109236927651826
-0.00543324836488636
0.0736246813913686
-0.0517966852127067
0.0334333931219683
0.01417025521559
-0.0127901917013753
-0.0138917350138434
-0.0164668357492697
0.000293061846368475
-0.025212498892178
0.0011843482187856
-0.0305414145730765
-0.0315174190327986
0.01210834766595
-0.00547000192590728
0.00270889140752772
0.00939693505022877
0.0164808850054116
0.00846903432854168
0.0248288139437019
0.00817739077724536
0.0159359144257519
0.067735553916703
-0.000548299806940499
-0.0324876428997293
0.0616294851150202
0.0106043247580354
-0.0164003152853619
0.0342027791592369
0.00429470928748506
0.0457005723099269
0.0625390427761984
-0.0453574875111131
0.012451561520323
-0.00390946589788067
-0.0152385737404727
0.0144452323822618
-0.0176031634618197
0.0244245737495886
0.0213918849294846
-0.0112911513466582
0.00419393569616861
-0.0251075005912098
0.0411031013989826
-0.00429529168637412
-0.0167534024687597
0.0409904278750184
-0.0307505385986333
0.00434801973419997
0.0232668571097863
0.0103588454248063
0.0341054977053448
0.0850397412603871
0.007064278780048
-0.021948654295273
0.0271799938573436
0.0499296822120665
0.0230048229007222
-0.0247053785145955
-0.0129441642572868
0.000308377526969113
-0.00606327779223687
-0.00224658727517355
-0.0162453160967568
-0.0148767484894028
-0.0825954216764771
0.0271300887236358
0.00165067453759551
0.0220741839415556
0.0436411046856074
-0.0144387139889118
-0.00584479192030362
-0.0117023054499199
0.0471014417997231
-0.0260449960995543
0.0130229163932474
-0.0169814586786765
0.00296342368041215
0.0127247955757502
0.0172321603976921
-0.0206791421945627
0.032483450100181
-0.026734002689389
-0.0275756958581329
0.0132152140580469
0.0266045517937091
-0.0639137596691753
0.0196798769657557
-0.0667874828613091
0.0243767845453772
0.0235632098492827
0.00224672213978674
-0.0299751505006789
0.0291656998393557
-0.0455578676355358
-0.0115320417626796
0.00501918055438237
0.0294185413633111
0.0444433778886932
-0.0206439031143109
0.0130421224546429
-0.0164844853155099
-0.0681299409560086
-0.0759461353380506
-0.0195261393852157
0.00666214626296245
0.0432648061387703
-0.0420401228793172
-0.00644793108790155
-0.00164596163697361
-0.0260245793461847
-0.0391814754759426
0.0494536896480992
-0.0512325570086692
0.0470922310088419
-0.00769852156886558
0.0169436049311304
0.0271321684661209
0.0568526282888607
0.00319504604299405
-0.00405120867468719
-0.0588893995411784
-0.0175799353804405
-0.0723648402604127
-0.0142715642439537
-0.0454775499008039
0.0317373820569438
-0.0406048508301617
0.0104861814159986
-0.0336969813384688
0.0495441609021465
0.0401591225950069
-0.0190431956881954
0.020240552589419
0.0264344204545814
-0.0455668837297644
0.0101777984907852
-0.0108366735993343
-0.030178006370695
-0.0166756939940252
-0.0430718199867266
-0.0134691109831251
0.0244502958826602
0.052652643816259
-0.00398111685158834
0.0449498930942646
0.0041767187291773
0.021979589428736
-0.0519599748965251
-0.0295951772370669
-0.0886861895830366
-0.0415485270761163
-0.0583809219498833
0.080809454637322
0.00933107789215864
0.048440514262889
-0.0425196364828701
-0.0231842166671051
-0.050793945177148
0.0395344212909377
0.0197116947915475
-7.88184978033173E-07
0.0653844976859417
-0.0151590554218917
-0.00626536661641746
-0.0145263692197521
-0.00694670200068643
0.0204455769627494
0.0304693047849772
0.00967216248580584
0.030375179811848
-0.0354214818380978
-0.028432075735141
0.0192410476523114
-0.0406127194856356
0.091625948144472
0.0441079716520773
-0.0404305834343882
0.00495914562109888
-0.0229770446483401
0.0062900433932551
-0.0140669609251153
-0.0612359774035278
0.0894764967419531
0.00422420980727034
0.0044857899125557
0.0317210900653436
-0.0028169838736801
-0.00960615292067094
0.0302374571585697
-0.0178511178309651
-0.028599207882878
-0.0058516313102467
0.0123112791632321
0.00519502535420485
-0.0298717091113208
-0.00202260695448704
-0.0628216561602337
0.0273109916834966
-0.0174667034035746
-0.0090402914432176
-0.0490550281282809
0.00201133741950491
0.0022594328622097
-0.0541861117064187
-0.0407041161311337
0.0518995864834509
0.0419401634874143
-0.0210870293444602
-0.0813874368051015
0.00193907799520205
-0.0117718463667007
-0.0421824851411243
-0.0729396869799078
0.0347162571609267
-0.0177582347816154
0.0119265579029107
-0.0372988005786448
-0.0209519333597556
-0.0271333657905127
0.0287431817327681
-0.0100571959826537
0.0349982585891179
-0.0581883642140586
-0.0640042085910977
0.0165848537054008
0.0118646491097916
-0.0598110420303332
0.00149001948712851
0.0103848638123855
0.0133952370234098
0.0217393185157422
-0.0187401179760952
0.0143055962434388
-0.0105166524408191
0.000102160818777858
0.0272546516599244
0.063804095087816
-0.042789411632005
-0.0107010430082876
0.0320916847203798
0.0201597677712054
-0.0513087114264272
-0.0436141116647622
0.0127327777988264
-0.00873432587276538
0.0844153338020248
0.054926108043526
0.00171524131300206
-0.0816715278948665
0.00463116168457452
0.00419928308087748
0.0216761520865177
0.0247265889244171
-0.00513230902144513
0.0289411582240143
-0.00611062902051518
-0.00659677409122211
0.0121179464620417
0.010175909209238
0.034178412134485
0.042742775875827
0.0186988705254634
0.0336512674352586
-0.0606554126575067
-0.0827521940900127
-0.0354998815952053
0.0267606080413631
0.0389998080455477
0.0220663772905997
0.00419401787364422
0.0207191653189295
-0.00136736809659374
0.019647895990236
0.00505588954003593
-0.00488048812034155
-0.00432254444569866
0.0443949935322353
0.00521334478227633
-0.026615134577172
-0.0199874845954649
0.0521373477686214
-0.0324786490157829
0.023676674048413
0.0994188107857099
0.00343369891706495
-0.0140657084497628
0.0653106397771268
-0.0351188016044691
0.0415860695129845
-0.00145346618428339
-0.0198512854159018
0.0310471322967642
-0.0337999599915515
0.0570648204126397
0.0170922915405372
-0.0369578390765029
0.0457876957685299
0.000924884836849586
0.0235359407751547
-0.0277362598237772
0.0446903161192569
-0.0368875371941408
-0.0108436584435085
0.0181781439298374
-0.0510814937753276
-0.0017040757387509
-0.0336774999018974
-0.0454191260337286
0.00712446979341731
0.0350280834086667
-0.0121967396146879
-0.0150860763065117
0.0219138208315448
-0.0436022947895534
-0.0593813743639891
0.0496744155729616
0.0409914288000491
0.0344611381435378
-0.0696392547760723
0.0500058455136681
0.00474323996022756
-0.0510852582416551
-0.00831165979699462
-0.00833813990377567
0.0306063992712055
0.0252553423924953
-0.00223272493612519
-0.017097266701243
-0.0155414978408842
-0.0547171863916724
0.0345496260716904
0.074054578924662
-0.023665024551198
0.0747577755009902
-0.0590480048208807
-0.0268995378684654
0.0632191554150949
-0.0212428216339703
0.00893762688828529
-0.0164341552355315
-0.00431224338217852
-0.0441695968356875
0.0172927194440414
-0.00342308779473206
-0.0307551865939937
-0.00637145269985113
0.0167713015222623
-0.00420161206841205
0.00248682666905839
0.00279508823882996
-0.0109258549793228
-0.0270172868406229
-0.0104304587857726
0.00480033649348146
-0.0413294481037204
-0.0209657966515602
-0.0133759826184522
0.00802604853629152
0.0298376620675412
-0.0603087769742691
0.0116812250092985
0.0138056371510064
-0.00313054457468564
-0.0544901423009141
-0.028498748681865
-0.00166050529753549
0.0564804767734329
0.00961166147546298
-0.0210897090073698
0.0206699297063489
-0.0267363716461027
-9.04661756985711E-06
0.0240436035799585
0.00271368974697119
-0.0159778369981018
-0.00963753032325559
0.0136732659647857
-0.0295972657155274
-0.00334800484169741
-0.00317013005818705
0.0365502116055644
0.00315253207631853
-0.00374069868341124
0.0338435522603008
-0.0148769709317291
-0.0275269960368469
-0.0229419191181872
0.035267494792776
0.0493914171059123
-0.0372185579251211
0.0694048376594433
-0.0565554512846708
0.0051810328210212
-0.0352429712683293
-0.0184488365840079
-0.0817114282461631
-0.0465748596562079
-0.029004363007702
-0.0260880372077899
0.0390006213592896
0.010380926166813
-0.0562052438520416
0.0187347278499366
0.00237194812593829
0.0228833063379639
-0.0165653410093732
-0.0437742314443803
0.0201896227735596
0.0132563605622763
-0.0544746130504442
-0.0104561565123872
-0.00365695667493676
-0.00183182053591995
-0.0316335203174525
-0.0570035952511242
0.0294889290138761
0.0147614583381924
-0.0868525595656274
-0.0508679278220755
-0.0148149500127704
-0.0405395688343421
0.0570880278691112
0.00998631060775984
0.0191033328270286
0.0935162562323508
0.0154069716470743
-0.0147231940528616
0.00200800435252455
0.0190149289542142
-0.0165345365824027
-0.00184498754806998
-0.0111711053351842
0.00364283499509245
-0.00399056705545069
0.0183106013396559
0.0627528019291372
0.0496516128481262
0.0380821157432597
0.0309544239739719
0.0208973922883681
0.013807167693541
-0.0154738399060987
0.00989681441495296
-0.0129128036262433
0.0156769016368483
-0.00534720141833249
0.00998160293649997
-0.063667600915811
0.01167996020289
-0.0252344805234175
0.012091315943599
-0.0255122087928716
-0.0366251783473463
0.000244328693975777
-0.0245280628523199
-0.0342931425526301
-0.0173929996074809
-0.0358663235714458
-0.0168434393058104
0.0830833210771498
-0.0949774679809521
-0.0193624475825376
0.0563440456988207
0.0364970628220503
-0.0734889756728379
-0.0181152661047292
0.0331767926781884
0.0308404359114728
-0.0463972885498692
0.0269433490402612
-0.0102444049891516
0.0420150170927432
0.0297350822252483
0.0343263943347427
-0.0082171389413312
0.00977594886536725
0.00017913088421245
-0.0107837660102824
-0.0285907358386885
-0.00774300379707365
-0.0626057154133277
-0.0496394726526933
-0.0460873434991836
0.069968074230269
0.00428975146053502
0.0451644805936943
-0.0819700537939615
0.0101292039969709
-0.0445006008480261
0.0048361593553026
0.0290068660041636
-0.0157758409918906
0.0081120619279439
-0.00452450092597507
-0.03116205949638
-0.0143040385486066
-0.0664576424011741
-0.0465300904708749
-0.037027753837689
-0.00841297527438771
0.0442794471837282
-0.0595516185255025
-0.0462924104737338
0.10963923778627
-0.015489857719814
-0.0170799191933357
-0.0123796359179173
-0.048028602580623
-0.0665740948605299
0.00450618006041627
0.0484214230612439
0.0229427292735057
-0.0267415915940893
0.0108964271128731
-0.0239913833735987
-0.0184204599397057
0.0123058360062838
0.0177370939464308
-0.0704914399782583
0.0658351599813811
0.0484185527065165
-0.0395322081775478
-0.00403914152150932
-0.0124540634730931
-0.0120627671996408
-0.0277026926083958
-0.0139392280728071
-0.00299530234772093
-0.0229688418433708
-0.0643315819453991
-0.0275608253432779
-0.0243659365542903
0.0302286593702873
-0.0830346278333577
0.0231091506889987
0.0330474907517035
-0.0162105375043911
-0.0071907402776668
-0.0130996543666787
-0.0423433186201421
0.0143281847207771
0.00173449542688034
-0.0670955006537912
0.0243227015676261
-0.0295303699762962
0.0392141051951103
0.019250952748879
-0.0362798796095213
0.0246934626067753
-0.0117578755226376
0.0154668375435668
0.0185594671365119
0.00467929417831403
0.0594284138251889
-0.0754486039125014
-0.0722450782335517
0.0335856343440362
0.0111981043286013
-0.0170172080603481
0.0173926828478812
-0.0244578591567256
-0.0522606435086803
0.0330745639381569
0.0278725039935934
-0.0126277258530908
-0.00694050931560021
0.0328787456148562
-0.0615650574016086
-0.0187414050899601
-0.090116686754225
0.0353683730547694
-0.0836941814615133
-0.0221249566806245
0.0279208236135695
0.0311533216201999
-0.0160211902123307
0.0227865829297076
-0.0410213893475383
0.00813670728042126
-0.0255324182555863
-0.0186774781114129
0.0431843821545596
-0.016514383518806
0.0128158767029264
0.0552962436030702
0.0188007569744693
-0.0110866776777195
0.0163183120384184
-0.0117720180658923
-0.00263193068622976
0.00408442460186588
-0.00813569090501946
-0.00322520923068485
-0.0207928151781118
-3.93701252022128E-05
0.00189202694090272
0.0113134558144894
-0.0748229532074986
-0.059587317297897
0.0542002402118711
-0.00789080114970598
0.0586747902478481
0.00345081252210943
-0.0600081964143653
0.0278733614046241
0.0195947341008387
-0.0784527278551817
0.076320540358793
0.063010438892171
-0.00978271621174354
0.00920521749511416
-0.0515385127652043
0.0381725105073745
0.0475573565919224
0.0137185883989244
0.000472712281633694
-0.0541524052416278
-0.00713947177822351
0.0346914848963384
-0.0294413384994806
0.030172295487916
-0.0254256945931625
-0.0293247876937029
0.0224689674977438
-0.0361249408282545
-0.0402650156350575
0.00237983182716416
-0.0201408630490858
0.00343742147547669
-0.0477991901848219
-0.00632948098254895
0.00899992541875978
-0.0509341622658069
0.0166947438299723
0.0128999171171687
-0.021457523499178
0.0343628825594547
-0.0278360807383311
-0.00855111221942519
0.00886400065213249
0.0891001579734151
-0.00102042493165545
0.0258216413365642
-0.0718265937526845
-0.00224304668730599
-0.0330600212953816
-0.0607203107589979
0.0346976704194574
-0.0625280338238028
-0.0458854534962673
0.00423184215646755
0.0580643811509786
-0.0850807639048711
-0.071733647906668
-0.00873834039402996
-0.0464647601035771
-0.0318269378417827
-0.0202196589441879
-0.0577351327809144
-0.0125889777451575
0.00406423988963067
-0.0373954537632489
-0.00872352473103366
-0.0328738480075192
0.0321290541602074
0.0401373883951681
0.0338874888160991
-0.0131834927004711
-0.0672784597132803
-0.00961114284602416
0.0414087405781795
0.0116421899528663
0.000545457155723377
0.0459849848245842
-0.00715371472198667
0.054337801934192
0.0101424990283276
-0.0372071384659088
0.0160706469338515
0.0288464889486323
0.0708309774994007
-0.0473416573305414
-0.0337426394724103
0.0159186396512025
-0.0272587413926272
0.0368597005164878
-0.00426906479072755
0.0211902251136723
-0.0507827127355289
0.013534918307295
0.0354332033961824
-0.0200019526929791
0.0460895385595692
-0.0245969481775281
0.0159031424842214
-0.051326927314358
-0.0470339615649656
-0.000539966807054676
0.0420824466247549
0.0182381627787764
-0.00888225409542603
0.00769862043172565
-0.014730462016775
-0.00277151067819303
-0.0259746729753544
0.00146585659948011
0.0488091804174238
-0.0331534455646785
0.045698900556506
0.0240977864935818
-0.0323736314422855
-0.00499046843727002
-0.0190113019399183
0.0100515707074053
-0.0491460154020983
-0.0806479863692405
-0.0686867546425045
-0.0451717294792219
-0.0465716000369637
0.0283015139604637
0.0286077777410765
0.0571195721567866
0.00892150387928791
0.0314554769391568
-0.0343754516811063
0.00928529249280313
0.0155819804112466
0.0378598360094784
-0.0269917215081228
-0.0393398841343238
0.0959902033175939
0.0143362337102159
0.0246090336295358
-0.00295819874644234
-0.0207210871736328
-0.0346755477259431
0.0127408747460326
0.0231635666213307
0.0198849652812559
-0.0489064063320099
-0.073450675141237
0.02166005990554
0.0165805624879779
-0.0177249767481787
0.0522774383111702
-0.00943561442533335
-0.0293614459661324
0.00459770365945929
0.024741734041936
-0.00090969964881139
0.0165216293298898
0.00214190022930187
-0.018780802601302
0.0304182892875171
0.0233038512856977
0.0113025905595812
0.0406620076545711
0.042409465198171
-0.000694279046744595
-0.0485536091306106
0.0454729930395511
-0.0409996229479633
-0.014899487918682
-0.0287625866811124
0.0492674675661046
0.00828296935106877
-0.0410020724770393
0.0180629137100208
0.0414152504448264
0.0147831801398471
0.00649829001341872
0.0718196778163745
-0.0409444871949022
0.00380364026758991
-0.0427613782125936
-0.0289575567256141
0.0580692699754798
0.00621340228068353
-0.0230953836600692
-0.00270999527911555
0.0191252362813467
-0.00602395468832357
0.0606688174836924
-0.0754449617955443
0.012852513144066
0.0127554904662779
-0.0186711211178933
-0.0239836166289643
0.0347982692145391
-0.0281810079351769
-0.00502103466694517
0.00373446327931159
-0.0085202433498868
0.0519765531928915
-0.0270428997627243
-0.0538430451503373
0.0366367378002227
-0.00357109665767832
-0.0140135517309183
0.0117560467011358
0.0308014241810211
-0.0143178584229365
-0.0139356999690949
0.0447485109426691
0.00678476715911144
-0.012880964367109
-0.0164158630650219
-0.0182514677303577
-0.0203130274792139
0.0478929394373278
-0.0110436848463177
0.0610645067462966
0.0459097121173792
0.0331923609689557
0.0338286069004778
-0.0106904366646566
-0.0433832915843579
-0.04033866684306
-0.0249955866433632
0.0328663961782457
0.0293302479343177
0.00895593443753762
-0.00470711905087124
-0.0459233558487778
0.0210069742560402
-0.0242147437786592
-0.0686528604445474
-0.0491483171438507
0.0694038675185218
-0.0129476119954994
-0.00524988531968425
0.0567529266349524
0.0512607426666959
-0.034884447025731
-0.00880559738886772
0.0312868808148436
0.0671279710300346
-0.0393676919061954
-0.00074704898697423
-0.0291441600170147
0.00354708683423362
0.0381398236599392
-0.0369990571834714
0.0249370674206225
0.0113256959469436
0.036588444631947
-0.00819990119150037
-0.0248868310126204
-0.0219265071436858
0.0824001715689
0.0110071769335847
-0.00508752494510355
-0.0943085240630514
-0.0270241479298567
-0.0099636835466485
0.011086899735812
0.0244621429034202
0.0129364847822025
0.0465904414363913
0.0329236624905594
0.103738350888937
0.0663030943569756
-0.00429819505286431
-0.0334448643836057
-0.0348985098430385
0.00645742050722984
0.0113204249828982
-0.0273262314312133
-0.101015251674992
-0.0564121516138138
-0.00609834651998245
0.036787892414795
0.0401411023555741
-0.0245039421527479
0.0194163461039867
0.0245856770090407
-0.0532013508342116
-0.0561088314871995
-0.0510431696542348
0.0129072090565511
-0.00942241776220093
0.0570102775907256
-0.0176873979735295
-0.0339744101221953
0.0408498752103484
-0.0567316789300641
-0.00209938266303726
0.00414701711044601
-0.000872933636743596
0.0270262819289319
-0.0422560581822535
0.0106473579819931
-0.0294877333620229
0.0308606707562742
-0.00331005011790692
0.0449843525588295
0.0412007271394498
0.0676388154027441
-0.0361789598544607
-0.0125776683576113
-0.000468474442920626
0.0121190572978905
-0.0704018892146427
-0.010946276807578
-0.0392875055297106
0.0249704862078222
0.0115873392950201
-0.0327394771598977
0.0884566314476842
-0.0221422950935358
0.0260186308438123
-0.0170780465438591
0.0181630730931894
-0.0723722743227601
0.0108656246781243
0.0105674468070991
0.0382917734942412
0.0337880064351528
0.0125295872037414
-0.0388422998771907
0.0486744297415725
0.0147384025671589
0.0430206660920689
-0.0697463818178132
-0.0369497390354612
-0.0378475485160031
-0.0613546670831539
-0.044560256759628
-0.0273137545265859
-0.0218654440836226
-0.0358766720809258
0.00423337135146772
-0.0579638876060277
0.00397120085322781
0.0410727159955255
-0.0385963696899863
-0.0545059104053776
0.0214765660661133
-0.0384179228661104
-0.0500549704275912
0.00244227293813692
-0.0466039299122761
0.00689626999628189
-0.00101226666439474
-0.0119912250804564
-0.019971904200657
0.0250385605998195
-0.0173112926502711
0.0200814865705246
0.00299996029846996
-0.0155895401405629
0.0653798514205055
-0.0063663954378826
0.0261997533292423
0.0610312606342829
-0.0230665643609596
-0.00192091768268273
-0.00118157542916133
-0.013016066579902
0.00935031874779722
0.00262682206695413
-0.0336253356445847
0.069295550222292
-0.00460382263508287
0.0146795666978081
0.0608857922529841
-0.0779515269159243
0.0355544281800171
-0.0298764969737832
0.0462004094018137
-0.0168909944960395
-0.0192955975064063
0.0345013499452454
-0.0297422876024116
0.0309971313705413
0.0400834213875507
-0.0171802388338332
-0.0373032717062707
0.0327286991996935
0.0640895769413879
-0.0288581621561823
0.0419957847086934
0.0852019162896904
0.0205888040789176
-0.0194647955433415
-0.00906005195139126
0.0424694170713992
0.0497057023425589
-0.0687519460747474
-0.0213120099068231
-0.00315291345188227
0.0255774497473967
-0.00191843287211098
0.016801605974694
-0.0549632318197324
0.0260070290383101
-0.0227169453679616
-0.0190900492599472
0.0181237449478577
-0.0367291182576313
0.0205910084046563
-0.0321507901949237
-0.0143241881444998
0.0491909284123513
0.0549589252480004
-0.00884386139805161
-0.00348953415615964
-0.0385036461908905
-0.057555499619345
0.0566417253420127
0.0278184289637199
-0.0550227289240557
-0.0353222201179044
-0.00136831346008023
0.00700695063656384
0.00533494357480344
-0.0150340480365225
0.022189616961998
-0.0255517929123001
0.0401674034218285
0.0225018230535606
-0.021866475657864
-0.0103720016628559
0.0340512332827609
-0.0335093993498796
-0.00780118005036019
0.0182504995566124
-0.0581587517096942
-0.0681803832719282
0.0172469495705035
-0.0131460538887101
0.00595816837212189
-0.0138350301284326
-0.0027873737346711
-0.00249203156847999
-0.0621877634831369
-0.0328323708489186
-0.0183660564503813
0.00528847046187815
-0.0155247797164021
-0.00838093776540893
-0.0267501735627975
-0.00771048788516864
-0.00733474608887544
0.0182578738153707
-0.0651274987454003
0.0232480117042302
0.0341806409844416
0.00633745611113199
-0.0572182596794967
0.0196287687821143
-0.0223915502024406
-0.000941500977647673
0.0033915159916819
-0.0083407489005989
-0.00493686393950544
0.0954973191288791
0.053481127977206
0.0680464317858779
0.0170505578911204
-0.0493252442029336
-0.00728181077959075
0.0453440214313318
0.0197335575374606
0.0347522319271115
-0.00296308686560921
-0.0790235140861772
-0.00650469150810254
-0.0749720520624211
-0.0198381762727679
0.0765078445202061
0.0467491377221927
0.0263528265647598
-0.0173290107978936
0.0359921710173827
-0.0182208347850689
-0.0246684286613325
-0.00262523747638154
0.00425496888439567
-0.0090320208429284
0.045617359901684
0.0285872440194304
0.0485167899989969
-0.00650420848146901
0.0249303158318378
0.0695723627083487
0.00920237360236116
0.0546544810384201
0.0403733721601711
0.00601432006410461
0.026146685357628
-0.0571415066128678
0.0435772233405463
0.0129359390021358
-0.0366321161170563
0.0285687931530711
0.0345733760860863
-0.0215104130803413
0.0244087604380637
0.0484704341029589
-0.0133862849245948
-0.0558181266967109
-0.0478612921990447
-0.0143057925104431
-0.021079690005404
0.00654642709341982
-0.0413733536595775
-0.0145113712253365
-0.0557380402837814
-0.00866600818380048
-0.0682856823038614
-0.005999667014588
-0.00249846994166407
0.0300449303852436
-0.0353780905087028
0.00898226868170245
-0.0388834403570524
-0.0697027303663912
-0.00113899616679207
-0.036706774737135
0.0123666376965497
-0.0345367445394712
0.0509210717399875
-0.0835578719639147
-0.0424144993679715
-0.00621444264906854
0.064125781729217
0.0275044639057343
0.00370964965169624
0.0219147318554058
0.00293166316914495
0.0374556838325007
0.0086856790532747
0.00478860572283386
-0.00526220413869694
-0.0315275930463503
0.0430685675902031
-0.00886961425750713
0.0583846048177664
-0.0158001989175701
-0.00804836150136471
0.00374820046062331
0.0388101920596743
-0.0311738553934276
-0.041778635078685
-0.0261068343381697
0.00653006284474726
-0.0305386725016076
-0.00385647725514753
0.00503436120095686
-0.0491902139718227
-0.00578950522020475
-0.0712529693592056
-0.0157453342988881
0.0591941767268171
-0.0573829688357559
-0.00198042093422435
0.019516232768176
-0.0417604956061354
-0.00908609577266687
0.0209652269558235
0.00208800153243704
0.0105054357488153
0.0250950309254657
0.0385933060639734
-0.029401611419448
0.0219491382443728
0.0307857091876669
0.0206988952936667
-0.0250547637601605
0.0586300558616935
0.0293659659665232
0.0329663891784
0.0227877794124884
-0.0169607080791555
-0.00251105374301176
0.0234561712218962
0.0961830663369619
0.00544116623962245
0.00101640928692208
-0.0281253217091563
0.0432548290985273
-0.00237624886889371
-0.0716086108417377
0.0189592869750027
0.0191238727014064
0.0669447989958144
-0.0509937674837342
-0.0420516308693758
0.00504093430385092
0.0105567462505584
-0.0061247353482808
0.00996406119638563
0.00236728445895569
-0.028385554122357
-0.0306639368457371
-0.013780571811514
0.0304976071190082
-0.00483690049595778
-0.00957200737421517
0.0681698736671959
-0.0168056531911238
0.0462735276106239
-0.00954073540341611
0.00133803059850908
-0.0233928130641573
0.106923875937132
0.00997743191491314
0.0234251205508305
0.058652634959174
-0.0550346933946057
0.051479349483369
0.0174301621180319
-0.0274965124408748
-0.0286936302157617
-0.0563406159157598
-0.000106003538276135
0.0284416286208072
0.000855387334026832
-0.033614888868752
0.0081866807963162
0.036705951593412
-0.018103091627542
-0.0258093576445579
0.014447799286516
0.0593314604820297
0.0367188280470211
0.0203264633063672
0.0122916674889112
-0.0296697458650484
-0.0188735446109506
-0.0134099131825821
-0.0816397482746814
-0.0376309832693221
-0.0235052883334135
0.0373727150001638
0.0198360402880266
0.019775341134971
-0.0103279203273686
-0.0593784140244039
-0.0639848488406766
0.0191225982969509
-0.0163026907992919
0.0308240277673288
-0.0225160847147888
-0.0380640325260036
-0.0162903428945089
-0.0100956538827041
-0.0281108478340301
0.0269955961504623
-0.00306449074750338
0.066474401414058
-0.0251170708067843
0.017268425617053
0.0379021492524762
-0.0223888377726286
0.0611983374893074
0.0157899886710628
-0.00538504365986672
0.0304724355481771
-0.00396729729053786
-0.031365547258046
-0.020787977812024
0.0323792212085435
-0.0414972989042057
-0.00561726195696992
0.0151880476611498
-0.0101469964817379
-0.00374957819924947
0.0053210353603637
0.0386817791464953
-0.0352998765897995
0.0785594849317982
-0.00934350255711487
-0.00409620699827229
0.0194597541499838
-0.0357179784680729
-0.0289398240940026
0.0167035896808519
-0.0257941121043012
0.0162394274451478
0.00975251935777235
-0.0193189382213092
-0.0465587728687359
0.0314458663986102
-0.0263255272009608
0.013678383099148
-0.0327594414819253
-0.019415260733405
0.0248336923396748
-0.0569122445787383
0.0168077179408167
0.0118792578249505
0.00528104271619099
-0.0369244371394534
-0.00344954845749693
-0.00100172469568709
-0.0321738358044044
-0.0154376749847405
0.0481431257339948
0.0437699917998839
0.00514230213362021
0.0330023837703671
0.0379234915208967
-0.0488033405960374
-0.00488349261185099
-0.0205105247920663
-0.031669212749022
-0.0418673712358968
-0.00703164415984659
-0.0118849238658022
0.0788260899082782
-0.0176805453671499
0.0127600855831985
-0.0392780137141216
-0.0229039348721142
0.0387742291577572
0.0130261613914724
-0.0555236838499892
-0.0326983045380293
-0.0914356133047225
-0.0175855080975883
-0.0185210080825494
-0.0288859416443036
-0.00100368990087192
0.0399385358281612
0.00580740374566513
0.0441646236886067
-0.00835487552287412
-0.0224015599414613
0.0397314342381353
0.0126506533079808
-0.00701604334747715
0.00516473348623218
0.00679846553283508
0.0260799173375482
0.0501863447643104
0.0293912867184351
0.0147307361820896
-0.00478283131875792
-0.0117362986783752
-0.0418213005204613
-0.0663354818007383
0.00632599748310631
-0.0523379248866338
-0.0714866403298369
-0.0748122193146372
-0.0443721390218284
0.0152003510198664
-0.0802210142432959
-0.080566578103949
0.0391965347100583
0.0462633116807535
-0.101936873480689
0.0308535048021676
-0.0370745325985604
-0.0689531740024597
0.00413217050089235
0.054944895013376
-0.0116728893607121
0.0152406140839619
0.0418324638950052
-0.0462539857162896
-0.0165643446182476
0.0102377765953005
-0.0489202392331227
0.0326375267990229
-0.00352234485058268
-0.0218070309725732
-0.0671059716480566
0.0214478646791156
-0.0214649267467761
0.0522147886879605
0.0502002318859253
-0.0246680459535321
-0.0246179900440395
0.0120311435228837
-0.0167516086159146
-0.0227015222798811
-0.00890216983392228
0.000333653484748321
0.0455120338775694
-0.028091330618655
-0.0312567275561958
-9.67020039240236E-05
0.0381439749319894
-0.078829997058012
-0.0769156351733678
0.00923908293304825
0.00781650238653074
0.0391164158096479
0.000153481252122077
0.0443075897377366
0.0206295703869668
0.0430753830762075
-0.0248358988635161
0.00966103204968366
0.0137327145997319
0.0324139582706392
0.0441133769693344
-0.0338664683386042
-0.042723211673706
0.003948292608062
0.0114888689087275
0.0456706113438897
-0.0121533001824621
-0.0605572774348305
-0.0392801354971777
-0.0220964583377042
0.0214995734775367
-0.0275694369212092
-0.0648172756552521
0.00413913839005481
-0.0314203950667499
-0.0285756152792575
-0.0229815437438738
-0.0351700545904509
-0.0195305021083197
0.0178174238744542
0.0451328830822215
-0.0102164541119149
0.0204922725981115
-0.0350788257911128
0.0334963740327841
0.0215106722709737
-0.0193476362324704
-0.0247760483763088
0.0125330685610006
0.0178925887307898
0.0350107261521846
-0.0639947956746002
0.078887099357761
0.0220891409160931
0.0161061961357661
0.00186115175626842
0.0043533333779019
0.0479833824709782
-0.0206325621915144
-0.0379616715093979
-0.025429640830843
-0.00388254914687566
-0.0300161955293982
-0.00409756996738612
-0.0169826282750067
0.00189242962254789
0.0146741908458963
0.0542355231872579
-0.0375424513690834
-0.0206307452799856
0.0140059807995355
0.00810763862591951
-0.011986842751419
-0.00754412236480308
-0.017442794222031
-0.0671809326679029
-0.047886497031772
-0.0584375577881046
0.0347182242538223
-0.0424345617985665
0.0430512940908362
-0.0311080941147695
-0.0225669050612724
0.0109629388247711
-0.00387913206382306
-0.0503274664519761
-0.0462607591353623
0.0721298361934734
0.0472792901170028
0.0472066443747377
0.0366231547992559
0.0848035344163128
0.0511555336634982
0.0210739975666072
0.0354884927841552
-0.0152450327415503
-0.0126102735082796
0.0501710252253638
-0.0251819013060885
-0.0600515492712425
-0.0509649199804554
-0.0185258456518728
0.029401381021023
0.0053019298552102
-0.00867329369170312
0.0206538452420847
0.00661197830186736
0.0186601113211814
0.0587939051620903
0.0443480966477491
0.0460022702986026
-0.0529572660595326
-0.00434875084048636
0.0389615097577949
-0.0371198152400704
-0.0398447731205375
-0.0849528520531842
-0.00253417112660428
-0.010884529629468
-0.014827782926584
-0.000147855092578589
0.0198338409763267
0.0702148400956465
-0.00782140055865748
0.041588955290273
0.033493790786278
-0.0605589744066665
0.0676041201210774
0.0112015995671371
-0.0330635544310267
0.0419483275819696
-0.0134995173254799
-0.0427062617584474
0.0217898204509446
-0.0263973201211476
-0.00957179114080509
0.0560154169256838
0.0291937546095208
-0.0424710191227485
-0.0236429197297828
0.0116230331351219
0.00432795344959777
0.0400443080483512
0.0329342350518272
-0.0350193076918895
-0.0176572934155857
-0.0261641110229112
-0.0175086070556893
-0.0763588878758324
0.00379245850803668
-0.00474297215103195
-0.0247506088468138
0.0371942273077519
-0.0423542724725901
-0.0302293949834268
-0.00128164335753706
-0.0326121657538397
-0.0840813256988945
0.00283603958409691
0.0489341260260579
0.0765181505467641
-0.0402067523305914
0.0881519569967857
-0.0193400100142337
-0.0221306978282522
-0.0516084187658801
0.00851844903806588
-0.0201370180312015
0.0750386872597842
0.055856602381584
-0.0138754209542799
-0.0180622463543242
-0.0540549003115048
0.0712998714889853
0.0407894616127884
-0.0203360605960591
-0.0535016272709878
-0.0676224919344375
-0.0140061080233725
-0.0170094694474923
-0.0226024827064528
-0.0457099843807898
-0.0367873600502524
0.0590300715982291
0.0143126358601751
-0.0245204832092193
0.0429622227750498
0.0346611124810086
-0.0402421463578985
0.0247109144685626
0.0579340492305994
0.084060234502216
-0.0918070090286439
0.0363730243466075
0.00575685286978303
-0.00528650310254327
0.0267484224519865
0.012077971477904
-0.0341100765977524
0.0541035965821621
-0.0347712693590676
0.0442118292518918
-0.0274009785767358
0.0508026584380831
0.0191101857571028
-0.0331450421726633
0.00315689318367801
0.00528763666895076
-0.0114099577164174
-0.0176166068824341
0.0308769103268414
-0.056688877757103
0.0319205010990027
0.0197472649725567
0.0111690873379685
-0.0344020681956332
0.0172204058873456
0.0216472887888808
-0.0282340492352227
0.0268901005490605
0.0429352453128838
0.00418597842349973
-0.0241027200652032
0.0241408310658234
0.0154408927445163
-0.0447105020592983
-0.00691152252470024
-0.0205863123575186
-0.00472458253819377
-0.0150644552713876
0.0395863564156418
-0.0365461066962605
-0.0159540925223693
0.0234321373576789
0.0176428225218168
-0.0172751180518332
-0.0134928622962552
0.0213576610676143
-0.038650266226489
0.000381535196159967
-0.047470784362274
-0.0114995925761362
-0.0331290184617735
-0.0239260163321986
-0.0137699060912738
0.0355219651150449
0.0274537642732113
0.0268817458212612
0.0323294181063344
0.0297489302351462
0.0380995363197274
0.0340696451807654
0.0251538805213581
0.0363383135696682
-0.0620941251305236
-0.027234784211089
0.0157417667353484
-0.0667728326357084
0.00461709190294266
-0.00273911983807158
0.00582633492363429
-0.0154938782202462
0.0104532895131997
0.0365425206878646
0.0125983984390833
-0.0333864691635543
-0.030820767203411
0.0442669355037605
0.0741506841407654
-0.0633856622142034
0.0208327196187386
-0.0393958917039493
-0.0390717274116388
-0.0123506488579215
0.00114679263213025
-0.0429909397474777
0.0293130187238113
0.0275227348935575
-0.0148783815929246
-0.00670380825061897
0.0185191833096274
0.0310307520543927
-0.00597757400510664
-0.00502762027673549
-0.000772569714987249
-0.0331948950133275
-0.00868262524521167
0.0364518731994913
0.00781171192562117
-0.02961745351554
-0.0261142992026274
-0.0600387572753259
-0.0243217404930044
0.00892598293688093
0.0338282827825221
-0.0182446670470629
0.0454104220195522
0.020885654289513
0.0250039124002113
0.00443146020448059
0.135259279969029
-0.00283104023163119
-0.0554019398131797
-0.0238585413719995
0.0328179943584738
0.0396106489612902
-0.0578430563078133
0.0541363613675065
-0.00745522593112768
-0.024512617384213
-0.0519387843709905
-0.0696316231678258
-0.0787108031851526
-0.0556024578354465
-0.0614427104844544
-0.0360314587080471
0.0539620402880064
0.0123966378093933
0.0274037143078831
-0.0492023323498055
0.00162123622716202
0.0171391069883116
-0.0573037176555106
-0.00540307811816699
-0.008114837953656
-0.0337868974512054
0.0296444626433263
0.0464900055064761
0.0594672581237851
-0.0292366786163131
0.0264395336210828
-0.0121279236049524
0.0215318830255817
-0.0867990345668463
-0.00376775027426087
-0.0327665407419456
-0.0743474792293063
-0.0825660527000311
-0.0157154977617576
0.0469704087604208
-0.0656693058751531
-0.00584622723145884
-0.0518132399631278
-0.0588205885331213
-0.0151116425247155
0.0226217053369329
-0.00662006262737495
-0.053099628742878
0.0213849808453082
-0.0166737119289782
-0.0211612880892649
-0.0172348275592897
-0.0670532665179979
-0.0334765589770507
-0.0296553438274014
-0.0225759812470534
-0.0113719762068294
-0.043535713707029
0.0291443691832797
-0.0524621873577808
0.042787354174134
0.0583164493367472
0.0626042697081969
0.0460754713667898
0.0348329981118818
-0.0050459364998865
-0.0114626696573769
0.0350120191538793
-0.0374285354793913
-0.00411138590200825
0.0256231497584198
-0.0393520497385818
-0.0178746368093096
-0.0356947089059149
-0.00100435621362038
-0.0449078245880043
0.0426954716041642
0.0260557437981398
0.0205272793286719
-3.8214396859249E-05
0.0187184489402744
-0.0331927464088985
-0.00558775044939164
0.0209019880877867
0.0870378754105767
0.0301829285009468
-0.035429892367975
0.0529792801595111
0.0400893476021348
0.0585116231834453
0.0168050090561186
-0.0372885430930443
0.0134332847972315
-0.0369073434036387
0.0668380702504766
-0.00184730272865301
0.00704108059739173
0.0570040300265017
-0.0262156163619457
0.0245752140376048
0.0295991250746189
-0.0479387516635061
0.0297059368822681
0.0679726955339503
0.0254451060508633
-0.00626877187617936
-0.0299772994365959
0.0176538814636878
-0.00462017352124599
-0.0108178796836016
0.0364886994064028
-0.0743893593443449
-0.0202794887057825
0.0305521764560983
-0.0128107534844915
0.0285826639106039
0.00477052201290374
0.0440601617750604
0.0425242650409356
-0.00558990948202665
0.0920513036625779
-0.00312445216349008
0.00202180871095702
-0.0199204349033511
-0.00532415667781056
0.0293979758960875
-0.00211419108597056
-0.000654397831189079
-0.0634093569394813
0.0634671236114035
0.00960146173712432
-0.0383419880431782
-0.000327597582252337
-0.00363100996500366
0.053217115902304
-0.017236005005337
0.0280834224022109
0.0366327943263772
0.0669772829133585
-0.0441876380561811
-0.020866498082829
-0.0596946374387744
0.0067266720548806
-0.0103563111102764
-0.0204128571378285
-0.0669061930328593
-0.0386301278465315
0.000848659154829097
0.018360807979473
0.00790090017770578
0.0832429872944522
-0.0262259944333764
0.00503293490013835
-0.0180866868386321
-0.0457438718709575
-0.0354012415993046
0.0244102007951231
-0.00471260441414535
-0.0195962346038083
0.0308827842135508
0.0196068107156598
0.0201294510113945
-0.0342495224862562
-0.000571061166813169
-0.0181146045271558
-0.00333972997470186
0.00759433059759396
0.0211180815130829
-0.00482785139976839
0.037342977186382
-0.0108929926262379
0.0584709387340327
0.0382381391197163
-0.0380128046694155
0.0224174786348359
0.0549030263974372
0.00937142018700558
0.0179455540929435
0.045678118287573
-0.0119839080536848
-0.0292976435128849
0.00336262859041609
0.00767552344333512
0.00621121967029385
0.0119322830309426
0.0887456850048195
-0.0370089980096982
0.0541700844746516
-0.0411750303758197
-0.0187000148685969
0.033413166036357
-0.0358414541385256
0.0087121828185422
-0.0319780150358292
0.033926359426452
-0.0503402242428808
0.074463271423841
0.0207446218180107
-0.0419973740900454
0.013033701853457
0.0499308933758444
0.0502965146876331
-0.0175400562514298
-0.0224375620473878
-0.0724373875348618
-0.0370725945999019
-0.0344710885886094
0.0270982108035694
0.0199288607243099
-0.0190559257001403
0.0591529209076591
-0.0212178328846526
0.0207583774373145
0.0235659879639157
-0.0591871376403199
0.0107921172294859
-0.0773011597718288
-0.0124427599172115
-0.0566103568689998
-0.0472221035382809
0.033427660313386
-0.0118816156977078
0.0275347374104656
0.042125877571363
-0.00913216847649962
0.0110091193132353
-0.0938805811562043
0.0169900184987881
-0.0101647952839421
-0.00762877165581499
-0.0270091172355797
0.0285868249047819
0.0122798491403367
-0.033926687618435
-0.0637999455146836
-0.00680072135232561
0.0229841385638428
-0.0414427277280491
0.0266669604762153
0.00809908261887213
-0.0494693377112232
-0.0232657573075756
-0.00622225617701634
0.0544259255098784
0.0275546379846314
-0.0499676528346081
0.00998207721486179
-0.00347966018222519
0.0224419821577938
-0.018676152464724
0.0226097133021747
-0.0825966573526794
0.0514561026624019
-0.0413601072999643
-0.000630086824500954
0.0262792233992782
-0.0199611147694305
-0.0222402006027893
0.0444311561079899
0.00846748951090238
0.0176736393817993
-0.0328730408023065
0.0457283830536973
0.0145571329318052
-0.0476428298412275
0.0593410060981542
0.0410482550176981
-0.00557566115405414
-0.0292811835484381
-0.0963117141117411
0.0248389890507968
-0.00344153752421507
-0.0325126839694164
-0.0477301417053301
0.0220786517657414
-0.017967860646138
-0.0579546214556723
0.0383809800286292
0.0187106659440497
0.0365059644889709
0.0380900134091028
-0.00188503892320713
0.00277327296778363
0.00535743939177981
0.00986204144178177
-0.0266312995623224
0.0248933192085338
0.00774170175502657
-0.0465302286643545
0.0065824191467908
0.0327138083780103
0.0596912027904528
-0.0192282488047086
-0.0563620566858475
0.0113390051312651
0.0428667057251778
-0.0508266431002982
0.0211808097298954
0.0113350671577379
-0.000487973451810569
-0.00305046489739534
-0.0377616774017213
-0.0298482764425913
-0.0496549535143937
0.0690323531828633
-0.00493515267435605
-0.00989765025847722
0.0509141200557963
0.000347801248483347
0.00961218298003443
0.0167799393661799
0.0092141025189333
0.0706294005018688
0.0155871317146622
0.00753949278946963
-0.010527131441112
-0.0286339400428452
0.0322636059104172
0.00097492694899188
-0.0395001071258689
-0.00919276915624694
0.0308865687504054
-0.0402757743079044
0.0388172130075468
0.0500094566567908
0.0463809922284935
-0.0418723368751203
-0.0448440625658072
-0.0324046324933026
-0.00648661583369021
0.00585858489583608
0.0101586555651626
0.012299660603663
-0.0659663371505905
0.0415838829679594
0.0032440663083551
0.076093229992585
0.0694240927605517
0.0234240696314268
-0.00302004073487997
0.0117373535696114
-0.0452209231875358
0.00521314465993552
-0.028643168586047
-0.0223639099535322
-0.00971522432726021
-0.00486483512603819
0.0380539442367288
-0.0169981870315127
0.00178765236455374
-0.0392152953949366
0.0147387637645066
-0.00643460871424543
0.0577885511175816
-0.0194118367359348
-0.0481809070303075
0.00855680506869606
0.0151373720596038
0.0159743121810425
0.0177439555559172
0.0352252719943945
-0.0407334063531885
-0.0593492209085592
0.0245091971700645
-0.00328330032456742
-0.0323500317212442
0.0229967571374961
-0.0313558836401253
0.0102424377195432
-0.0215398837083473
0.0494192321861799
-0.0631734014005719
0.0615040528139871
-0.0310986808681569
0.0419836654465337
-0.0319037268639431
-0.0620830972493832
0.0440889084128805
-0.0227251069227923
0.0021513393458589
0.0307750018467019
-0.0370061868538668
-0.0173370002899935
0.0600410557074203
-0.0404538311597921
-0.0695133971819368
-0.0496692846150461
0.0115178192786831
-0.0242828333592357
0.00780532179642074
-0.0278442532515654
-0.0724723136013274
-0.010363990953246
-0.0151287240365035
-0.0110167513260736
0.0354756364959804
-0.0629037103859095
0.0439201032324215
0.00617675208211305
-0.0411692368117051
0.0385372135773037
0.0109889550946992
0.00134468913678667
-0.00355745756932069
0.00104349438007837
-0.0286145378959569
-0.0547238782635868
-0.042027883504785
-0.0481778338233361
0.0557690468931194
0.0145113460361882
0.0598136287245176
-0.0465344076928808
-0.00496693139856225
-0.0405777952744243
-0.00454394311212695
0.0113131257740765
0.00356016487737432
-0.00925656473436643
0.0322208354434373
0.0234623002954981
-0.039087093381346
-0.0264210982283529
0.0623441258923525
-0.00799214413320332
-0.0702987320506989
-0.0117801679035155
-0.0161861891440257
-0.00914059005006289
0.0309917283203481
-0.0245016318828035
0.0729065841351332
-0.0659409590152274
0.027144385098542
0.00397948473979799
0.0522889996832656
-0.058819669681152
-0.0284882055870561
0.06625040046626
-0.0151335902065082
0.0307290121626729
-0.0487637600147473
0.0309887990286406
0.0776838360210221
0.0165323980697994
0.0297941653431878
0.0321522005001635
-0.0157380842603589
-0.106927621588033
-0.0224111068226839
-0.0136087617964843
0.0418840454622227
-0.00197158958847384
-0.0396661653902799
-0.0128403587984964
-0.0197106979294212
-0.0241290435841562
0.00536976077783432
0.03969149442615
0.0060994017918583
-0.0047315211486221
-0.0123326933744467
-0.0234660017589856
-0.0180073787858719
-0.0520824435964284
0.0124951142929884
0.0414738996482976
-0.00787882100076526
-0.0114062175867186
-0.019191435666267
0.0148942887404622
0.00670080582405022
-0.0169724238289828
0.0248351736760338
-0.00387125598391762
-0.0479590404973078
-0.0848012123503348
0.00576655821204606
-0.00943857894855249
-0.0079193215831201
-0.0426450099348519
0.0140629605754172
0.0603821121866818
0.0144487890114613
-0.0151399611025739
-0.0238501776470621
0.0142869800693767
0.0534832080013702
-0.0246965738605037
-0.00427038453851864
0.0176382539337734
0.0707572250426942
0.00432231179769706
-0.0499542653638214
-0.0469046219087795
0.0203154081633178
-0.0679947745247693
0.0286257778309101
-0.0107246421110744
0.010110313527635
-0.00298113326465612
-0.0117078495949868
-0.0521613077977604
-0.00870199302283744
-0.0475030172856703
0.020575113211307
0.0638810534157396
-0.0758694160777608
-0.00604495931217469
0.0737068529518359
0.0108827319042767
0.0615608001900268
0.0185531791340518
0.00843451345103544
0.0283433412179243
0.00989778292482903
0.00614848320242765
0.0027088013602175
0.00811479062568528
-0.0525844305944655
0.0241199918528539
-0.0072632418648329
0.00352605629576475
-0.101717339280363
-0.0262128396022589
0.0250559197762062
-0.0200052767094626
0.0041374468147935
0.0257210558831065
-0.0107938818446472
-0.0495301134793029
0.0582924799260517
-0.039254647033172
-0.0183496959521819
-0.021744269712919
0.00257269266988423
0.000624936752250171
0.00452914344848978
-0.00913956570955183
-0.01750023069431
-0.0448093162008176
0.00835534070079837
0.0131983714761564
-0.0140441672383011
0.0457527120971317
-0.017996399779222
0.0589297984923325
0.0502490867412688
0.0561192405843131
0.00406437267462139
0.03036096128344
0.0512253908583848
0.00576899927344428
-0.0228940907853861
-0.0103234782903635
0.013627270395196
0.0110524705735671
0.00585685232923771
0.0344909827882709
0.00677045816253963
0.0643404395378866
0.0235570554815262
0.017465421322218
-0.0527814182342813
-0.0703280416043619
-0.05954760571702
0.0281610030029095
0.00875456582396284
0.0301822544734156
-0.0524453613239634
-0.0121368098565814
-0.0293378752967704
-0.0288558196703344
-0.0294263169229213
-0.0192826583759998
0.0125963504441857
-0.00084991244686352
0.0131732331851726
-0.0884493969680364
-0.0543432173008592
0.0192457522829221
0.0141855290893093
-0.0517309524284638
-0.0388113341343664
0.0451713744966148
0.0115257502213032
-0.0690397468443814
-0.0083945452773377
0.00195151000078231
0.0248264106195676
-0.00727099745664662
0.0968667193843985
0.0808696494809268
0.0805381438135938
-0.0322689485921776
-0.0540924509864245
0.00503797202363801
-0.00287040131985795
-0.0110828729668421
-0.0246960062417875
0.0199265274903856
0.00983146910744093
0.00230038579919967
-0.0789777093718151
0.00865500821898774
-0.00902692236919288
0.00365604574122363
0.0634635780019441
-0.0118285596989468
0.0748599236250402
0.0207263966200506
-0.0532052532411967
-0.00349400793400603
-0.0224841195428203
0.00227732897440946
0.00271159420970279
-0.070158899994164
0.00670387011818489
-0.0230767579186492
-0.0542351687359446
0.0713353234226702
-0.00423474302524694
-0.00298052465134463
-0.0115424816129653
-0.0544296002175969
0.0639770519534617
0.0405995405110488
0.0614099551462232
-0.00693526474134317
0.00217474467917181
0.00649854797089765
-0.0109964297423423
-0.0304369023809049
0.0244115356924762
-0.0638008125025691
-0.0855377177991789
0.0416282866858171
0.0257987553636016
0.0209464518739524
-0.0120019964499387
-0.0650295251840355
0.0536347834291473
0.0111083603494906
-0.0419128402065855
-0.0248547940818962
-0.0222736950932946
0.0554542908927838
-0.0191287574265012
0.035278461719355
0.0482419360610512
-0.0904536861217016
-0.00736332879800319
0.0239783458305065
0.073954650302914
-0.0614256837757522
-0.0082444669573663
-0.016231257266013
0.0121384834218161
-0.0431231120768786
0.0913509737562839
-0.0622185298040592
-0.0185434913260329
0.0354869967669284
-3.32044049806758E-05
0.0309370939583023
0.0190841025417665
-0.00926565290858529
0.0321704773016647
-0.00340602157171066
0.000758489814525926
0.0408676680210224
-0.0285749148266403
0.0405049534007227
-0.118257307480571
-0.0401837028617781
-0.0386052765866212
0.00881555468900773
0.0107919307544308
0.0241302648526038
0.0449926949152004
0.00398148327751222
-0.0266167086205378
-0.014054978608917
-0.0312683947538006
-0.014703924525215
0.0515710154721025
-0.00134605920859966
-0.0113735884736495
-0.0359994628459047
-0.00946719486309867
-0.0457822166512248
-0.0195795141776164
0.0207746201351925
-0.0274029971148266
0.0153074339689889
-0.00909259050398745
0.0345147196135416
0.0294481533074766
-0.0258121069692399
0.0591757704708105
0.0318567596228142
-0.0165391984742596
0.0453793216350063
-0.0238929308353562
0.0383868134610459
-0.0775638635561419
0.00434539111921689
0.0112168906620428
-0.0503554647980016
0.0688519913201765
-0.0159423840390131
-0.0142456180855961
0.0214893950299151
-0.0643976233205315
-0.00737588841596105
-0.00174375893554997
0.00233126170892149
0.047154899406396
0.00236851103924144
-0.024744281521875
0.0361634707647486
-0.0218902379586088
0.0354378770577678
-0.051582694538938
-0.0120282007600347
0.000549720225011
-0.0289383524701638
-0.0159653511908939
0.0724229334815833
0.0166514285454711
0.0569819319969365
-0.0039119667815075
-0.00580780452062171
-0.0504861872481745
-0.0208648814395125
0.0704247598185949
0.013805901021366
2.61771668961824E-05
0.0220948388034448
-0.0593500266412305
0.0570245326012843
0.0790492394314427
0.025122527825193
-0.00666750751305091
0.00614725229188681
-0.0645539836562823
0.0493782940880385
0.0335566490449104
0.0466229152199723
-0.0248178275850797
0.0137469999201537
0.00584031972921424
-0.0389863303664996
0.0226404074387179
0.00441301465015725
-0.067221999630464
0.0481108397931232
0.00149926316099566
-0.0208003193712163
-0.0111689562638914
-0.0275615797790392
-0.0299814357583914
0.0253188371805825
-0.0470753023115906
0.0408065445226037
-0.00516727746552395
-0.00608315304335329
-0.00859842618927414
-0.00603271029758668
-0.00630804806422363
-0.0495747336195529
0.00204836773683769
0.0423524260637974
0.0272423570830386
0.042947379653043
-0.0476008513151153
-0.0189467247154582
-0.0012979514861045
0.0658536263728514
0.00701421821145072
-0.0283518411976744
-0.0550192950382019
-0.0109316202296305
-0.0107092461977803
0.0720581362207524
0.0260516236745561
0.000633742308977818
-0.000771832567133612
-0.0558739796153539
0.0134160772921424
-0.0121700373742411
-0.0386088921269973
0.064421449876057
-0.0414638114572617
0.00937311528284938
0.0277090772595767
-0.0385209525030373
-0.00142430615160613
-0.0227213314512392
-0.036026479872495
0.0483313014820621
0.04652939117731
0.0114210608480976
0.0518486381261176
-0.000311457766445326
0.0167858198360365
-0.00573500191968554
-0.0526637950045226
0.0391825056980386
-0.0422325069042836
-0.0357484731692744
0.0730505014489668
-0.0144525911670823
-0.020762370158293
-0.00722300346751211
0.0276906405891402
-0.0177335519841759
-0.0110477179280547
0.00319519879273584
0.0596986023339411
-0.0931520889349592
-0.0133554550758902
0.0348898017281731
-0.0674281270709554
-0.0300688186467164
0.064436749151885
-0.0281649738616536
0.0201433336933225
-0.0287202839002844
0.0153216900181272
0.0217405040170504
-0.0015824133244485
0.0348701891703123
0.0263412496318028
-0.0164835898447869
-0.0213147812926222
0.0545111205841146
-0.0257942711481029
0.0075072620585702
-0.018499242749559
0.0332478760645101
0.000746171254345118
0.0198244521387211
0.0109842282582472
0.00229215133498208
-0.00998552124304584
0.0197696988993823
-0.00616182961035186
-0.0499332418125487
0.0131893385989464
-0.0171440002053681
0.0153635367792805
0.0140133291145251
0.00848555468439246
-0.0327662626703312
-0.0104831989356789
-0.0594803821806426
0.0178991735517573
-0.0508970277652487
0.00364914414303119
-0.0164156744554782
0.0667579399879179
-0.087118869386958
0.0289453841386261
0.028425695174877
-0.0255523468607285
-0.00552807884597266
-0.0282749462423245
0.0575510327944598
0.0387556711063488
-0.0640033717768675
-0.0824130751695314
-0.0171751679604535
0.0211870582878315
-0.039198943769298
0.0139060040186376
0.00720863189134423
-0.00703641182899009
-0.0284334562328314
0.0469285264145676
-0.0333559014934157
0.0177913044476492
0.0166803817507786
-0.0797842992117283
-0.0505703432792474
0.00290196600733332
0.0340027975724333
0.00380332758223891
0.00950879708228277
0.020545333936363
0.0614448488775285
-0.00420441705933656
0.00711048868414482
0.0769310634328888
-0.0332383374190562
0.0755291373606343
0.0263385392177224
0.00703363665314147
-0.048615496353171
-0.00688978824663828
-0.00238410352977359
-0.00622382399014527
0.0152567833919841
-0.00566521184103767
0.0442619157647593
0.0843077303403206
-0.034907032721954
0.011466722165946
0.0153834591086839
0.0100187776145672
-0.0284915192892367
0.0788156122192599
-0.023544927785539
0.000320504671546661
-0.0320271094488527
-0.0110559899007656
0.013114393613874
0.0438254504596775
0.111394236075393
-0.0279148282030613
0.0202551225078402
0.00415738190379195
-0.0152289682023718
0.00266348542230527
0.00853517503369612
-0.0393499473164584
-0.0220983398215091
-0.025550107790064
0.00861966160057056
0.014947445641502
0.0436058992386182
0.119464997329226
0.00793581697626019
0.03823105248832
-0.0305253954625157
-0.038368841559415
-0.0293615284043137
-0.00765867603150032
-0.0085635465250395
-0.024961194683411
-0.0250884727587349
0.0215738291825619
-0.055122590430594
0.0441905314705556
0.0292726672402765
-0.0290727721121096
-0.0216648189669248
-0.0378640815568
-0.0410816110500376
-0.0426280802763652
-0.035404033327249
0.0356382499440928
-0.0287898898724976
-0.0126870982708858
-0.0107438838736074
0.00420079482831074
-0.0345638364934546
0.0499387846227479
-0.043444669811485
0.00535167023796562
0.0276249110625602
0.0361012442527641
0.0279040990633608
-0.0123886939089767
0.0614620307038717
0.0735472748636199
-0.0302872090725092
-0.0230779379270306
0.0321628559248923
0.012883763332606
0.0265907300185845
-0.0348407407071044
0.0431778228301008
-0.0513441080860687
0.0571821521886602
-0.00353171285887279
0.0250658522865888
0.0160291625276107
0.0567193369303688
-0.0253047662042645
0.0180199655962426
-0.00892451818283265
-0.0205386185975921
-0.0369950930900615
0.0274252687019308
-0.0338693489886367
-0.0550633520910541
0.0274446855119323
-0.00839508085816878
0.012146019765803
0.104211196553669
-0.0278779700670707
-0.0282245716659926
0.0340444425470321
0.00967449623622811
-0.0129417443894626
0.0152805283965071
0.0285456718427383
-0.0357131902218316
-0.022621155648351
-0.028473465282439
-0.0370154428480661
-0.063106575064245
0.0284674143328846
-0.0107577323852585
0.0439512125780509
0.0407170725145329
-0.0132905143702552
0.0215716167798357
0.0644621411184698
0.0668798196917749
0.0270710065284532
0.0221632470990649
0.00101125886329655
0.0717273162061204
-0.00172832517346159
0.0526910693053994
0.021983588247212
-0.0117196444476158
-0.0206688304544647
0.0346472000995749
0.0133710443642896
0.0202747703636567
0.00782873553918921
-0.0381811565243495
0.0104752719362792
-0.0188914751861891
0.0146138278871376
0.0110224112339798
0.00912354390054839
0.0143205610063423
0.00311891489675711
0.0187783258376366
0.0621557068145578
0.00790433672382705
-0.0269737435225693
-0.0216775836398413
-0.0786916035736207
0.0414159022372419
0.0228827191129362
-0.00832859804382543
0.0254096829684931
0.00338287279941787
-0.00823932615116254
0.0367973575372326
-0.045370590043638
-0.0203858375241823
-0.0443006817689281
0.0258937670863571
0.014133860774536
0.072195809426539
-0.0455284185301628
0.0617370048618334
0.00563637244736062
-0.0317886314636109
-0.00147823187031672
-0.0258013636724132
-0.046285916075066
-0.0305443894770461
0.078642978941808
-0.0722369659129758
0.0267595797542784
-0.06247108879836
-0.0102243279923294
0.0325758843606317
0.0113652686749253
-0.00421871548180577
0.0330047895743245
0.00235201812464578
0.070827233431925
0.0395951063087119
-0.0965708414885899
-0.0491690966208626
0.00352727399638117
-0.0544141982115903
-0.00589305577034852
-0.0250256239114549
0.016673333288189
0.0369293655943136
0.0234500354299127
0.0404982650352821
0.0108524714761262
-0.00897458443234937
-0.0905426773583995
-0.00348379940506482
-0.033417649590587
-0.00581728408850649
-0.0290323616475534
0.0140647725999619
0.0101233085998634
-0.00706625356486869
-0.0075648114935495
-0.0367591090659011
-0.00293544804126639
-0.0273679251266515
-0.00590612772776368
-0.0468691310212991
0.0126775179704232
-0.026894012647675
0.0582527573197055
0.0249159785434176
0.0360106523217886
0.0772997905557146
0.0101803953626581
0.000378256343460721
0.0131919271318419
-0.00198653059913781
0.0351982472216127
0.0334927536490374
-0.0174353314122733
0.0183445087164128
-0.026834446754692
-0.0691290665176625
0.0315207399963401
0.0661386262238321
-0.0436503760609188
-0.00710889634985172
-0.0192644454492826
0.0426804317219244
0.0342152836258589
0.0263833656687702
0.0761210780232296
-0.00234649708652238
-0.0279681879019938
0.0194288837979165
0.00275602398791039
0.0584171940167958
-0.0836013260298451
0.0179893978645274
0.0325418466740915
-0.0171701173321724
-0.0607488050369101
0.0176543857459108
-0.02580562430302
-0.0321088349168916
0.003296950649141
-0.0031490223068098
0.00919449644159307
-0.0226404543119375
-0.0175396329766457
-0.0101473150007946
-0.00881957493369539
0.0163401692138398
-0.0412288071657059
-0.0383537232625062
0.0446891099072339
0.014227446464501
-0.00738585619446762
0.0848888079947349
0.0151155059313196
0.0662400558764264
0.028573442415246
-0.0410871491307465
-0.0696192803329029
0.0208675703465257
0.0274337081087021
-0.0238807329715355
0.0426384440728999
-0.00244094159505683
-0.0214488704145612
-0.0405319922752634
0.0694729273036863
-0.0381435549341652
-0.0844324317083985
0.0506405831000239
-0.00696457908331928
0.00499270241951443
-0.0383304073447324
-0.0142602096724234
-0.0487420652693429
-0.0522272280739838
-0.00102812764176182
0.115023184614565
-0.0128958935611077
0.000728518905087205
-0.0104922687720321
-0.00555551348756978
0.0513648659311498
0.0618910755407104
-0.0306741774037456
0.030901024562918
-0.0320764517157196
-0.00146107451438951
0.0251084883087442
-0.0755525861107693
0.0147248222205492
-0.0580714512075549
-0.0578765600183269
-0.0247564691164217
0.0507533509572077
0.00488296225510455
0.0534261481006373
0.0334982247373431
0.0241032983524065
0.011400277397927
-0.0122037155922848
0.0074120433674758
0.00143935266593765
-0.0496404407782435
0.00254920824217797
-0.016798947999221
-0.0341341422176963
0.0221286381866181
0.0535635563022988
-0.0533494494590796
-0.0108183501596465
0.0624379707764289
0.0214499059540814
0.00673641624159587
-0.0108106163567034
0.0334637368575389
-0.0528292519831169
-0.00822672912841226
-0.00724672766968791
0.0264616735456495
0.0506444600218857
0.0671812820556442
0.0481173939495413
0.00317285283767255
-0.0234154280505653
-0.0416134302584911
0.00835814046948947
0.0153638477155291
-0.0349746048444889
-0.0329459569884913
0.0824458443330685
-0.0135711300528427
-0.0197904812285174
-0.0284079692821531
-0.0116811777027662
0.0069456885403387
0.0209026321985924
0.000435485471935897
-0.0427012394539765
-0.00371063727147116
-0.00548338516864399
-0.00517695820280692
-0.0250708163507352
-0.0086470821856586
-0.0140329530587676
0.0581923008086719
0.00719279375327825
0.0573896119903023
0.0514336092879968
-0.0318263899567833
0.0266535180585588
-0.0369669941277488
-0.0270288247754368
-0.0435657422570646
-0.000634875171625258
-0.0212784976112856
0.014070302889645
0.0467000800812059
-0.0180434725106075
0.0454420602299214
-0.0113917110349697
0.00610839044239027
-0.0289434138819384
0.0263549633259771
0.015895180744394
0.0254768947848308
0.0552429864923851
-0.00335320359901074
-0.00203013516601222
-0.0550914775078553
0.0473870241875831
-0.00695163089185167
0.0776336499190863
0.0178768522046226
-0.0283112576746431
0.00717688851996089
0.0204492639718738
0.00679444131032135
0.00326715730469249
-0.0458966852824781
-0.0515164480798513
-0.000399099281810041
-0.0372953836479538
0.0215212218029931
0.0108233500436057
-0.0245156788236532
-0.0334204844005365
0.00874503020557225
-0.0544078713662271
0.0750533381432445
0.0536583432798035
0.0206203557398968
0.0221230320044344
-0.0450138937373605
-0.0486696342144326
0.0154468991169312
0.0272786300128988
-0.0352063503374518
-0.0562461737379497
0.014592310386624
0.033135298591027
0.0136014576779908
-0.0454760323578827
0.0136082420338603
-0.010079698014155
-0.0129397732980195
-0.0537015241929728
0.0243490433909666
-0.0137102709042171
0.0202323058430507
-0.0437763512127209
-0.0309381922382771
0.0628444449190694
0.0681956041229828
0.0445695571269114
0.00726128940528933
-0.0815270386469705
0.00592501590633647
-0.0430317626295857
0.0567753952597916
0.0518300207863229
-0.0470780581918628
0.00570752722920182
0.0167338378413622
0.0215210720727896
-0.00324491316080107
-0.0268210524002006
-0.0686231526097444
0.0458114310027767
0.00561667146271492
-0.0154498291233891
0.0260890386251022
0.111854207693049
-0.0214513488512553
-0.0711441636346689
0.0208266551605323
-0.00506912750598954
-0.00941824809457586
0.0338958488196617
-0.0231318308915936
0.0503168284347213
0.0121727716570445
-0.033666243306892
0.0243915284869356
-0.0277078367512744
0.0233555590347977
0.0191839604620633
-0.0233282693196739
0.0113422883085492
-0.00197459242075208
0.0156034066058457
0.00161698550276591
-0.00381476706696386
-0.0868137882320118
0.0336629979532798
0.0201189127189054
0.0226115352708517
0.0100343342598698
-0.0226860364161475
-0.0179572722821852
0.0751629169977953
0.0539185299306793
0.00946709809867765
0.0275589085459125
-0.0191806685856571
-0.00822955903920051
0.0280752049185141
0.00381096809474104
-0.0490162934591016
-0.0188905394620551
-0.0199573372957803
0.0287760222037981
-0.0269812220161698
0.0250604486560881
0.0262023207698806
-0.0152371436335946
-0.0535505895712716
0.0744040103201234
-0.101122528895982
0.05503914397903
-0.0174533082082112
-0.0231643573136984
-0.00597540662591877
0.0117435428757797
-0.0294192972964953
0.0548578125982219
-0.0494888604081336
0.0483547602890466
-0.022041276562882
0.0358896529549361
0.0112017930299727
0.0374040818291526
0.0122493532552229
-0.0395889899676519
-0.0249185181879091
0.00107548942141616
-0.0165229797720952
-0.0198361662936781
0.0186044410176485
-0.0314257699904834
0.0264986094482002
-0.105889614180309
-0.0255104441987317
0.0235606257310008
0.0098990328924511
0.0122087936734347
-0.0461361260489939
0.0928466717141905
-0.0372159617896489
-0.00398578346794585
-0.0285220477008044
-0.0416108213468526
-0.0566493048234534
0.00715111944620322
0.0665944765202745
-0.0256854572593316
-0.0755656978121921
-0.00256141326127537
-0.0616709201928008
0.0603414251896288
0.0176334806668829
-0.0851033210014665
-0.0845378611299076
-0.0273217083672691
-0.0581254402588816
-0.0224348910107433
-0.0200646379101428
-0.0334227806280601
0.0409083097496495
-0.0085276323524225
0.0248704242607891
0.0168316687340821
-0.0708617125026534
-0.0304619116152673
-0.0918583138267745
-0.0900052582945231
-0.00636606658298389
0.0101410151949091
0.000399487185134029
0.0197257218270242
0.0823527561686165
0.00488720427368058
-0.0522966008422295
0.0331272230489463
-0.0109625764840883
-0.0403347378541283
0.0707711629969743
0.00894190487581129
-0.0149805149280725
0.0409893471201956
-0.0126158607020659
-0.0165494708414922
0.0480898816631837
0.0524323827206322
-0.00134527186711234
0.0284671843608464
-0.0182872923878404
0.0676363122532044
-0.0327292644292031
0.0264365720011783
-0.0456087942735835
0.0309596265279505
0.0440115302904786
0.0153142437161885
-0.0201811636916442
-0.0362017665532749
0.0273076104289336
0.0562697127046926
0.0261380589290353
-0.0416542977323607
-0.0384223933955847
0.0379362111155941
-0.0133117697365888
-0.0013285270687502
0.0252596153805832
-0.0108814374205824
0.0205385494201763
0.0154328063217682
-0.00799295849890558
0.0340285331116345
-0.0270706598289756
0.0375504933734217
0.0863861722766204
0.0139707499589913
0.0299005525719596
-0.0376892031940656
-0.0290062359278216
-0.0437142237877839
-0.0660484866433074
0.0220886000354166
-0.0664707362237836
-0.035516023457344
0.0444065521350177
0.0583512101172602
-0.0114417266036647
0.0525687857659612
0.0428150191227216
-0.0083788910012913
0.0610016895572058
-0.0115350203026064
-0.0534867474010942
0.0394842973240387
0.0277228357688744
-0.0374364862368474
-0.0362565573523855
0.0364437243160113
-0.016472835773674
0.0476894142004193
-0.103151340334948
-0.0632190388669266
0.0305905310928261
-0.00132616796659419
-0.0570681315377906
0.0296804993161848
0.0316549755501188
0.0646336067498907
-0.0294791680086992
-0.030773954479867
0.0503070724456925
-0.0504302767980547
-0.0467996299566791
-0.0498099702937069
0.0185976900149909
0.0563185625329178
0.0127486831479822
0.00223818780565277
0.0429971290378671
-0.0191419011107084
0.012157030072239
-0.0562295326436223
0.047051634493252
-0.114499656120983
0.0377939087155987
0.0266360045066648
-0.0454011160046301
-0.0251041887931553
0.0217948283755995
-0.0313238459307076
0.00423463692984398
-0.00416637175310708
0.00678626250692608
-0.0431182453277321
0.0421534971103512
0.0410722427109909
-0.0512621762291143
-0.00153617927360118
0.0104479067661489
-0.00756795040792466
0.0824749188198396
0.0110498202282408
0.0260525015644106
-0.00572678139575291
-0.00563673086734402
-0.0207771271518431
0.00314535968433215
-0.0445426540801308
0.0719590330335718
0.062653353952882
0.0076963485606224
0.0617553417788302
0.00618134414830722
-0.0722000916786571
-0.040989446177872
-0.0300342316658753
0.00158149537890994
-0.0565717445913061
0.0136950439797795
0.106921161244105
0.0249893902793911
0.0256661414375283
-0.0419464681174989
0.0315907502712144
-0.0659963228163685
-0.00567046285726071
-0.0144807120989944
-0.03283966072915
0.0699718854123858
0.00648058656413158
-0.0778984899983554
0.0333185918663701
-0.0173633545565758
0.0149591205119501
-0.0491220729111526
-0.068552771022541
0.0158796509241898
0.00655464149087188
-0.0144334462070393
-0.00697151875146693
-0.0341934816593335
0.0126489387364371
0.0344857467897288
0.030878113951928
0.0469374133535881
0.060040205418452
-0.0131674885035506
0.00956816269464028
-0.0403790277180127
-0.00161547602810363
0.0871063970847016
0.006726991662926
-0.0105739296385784
0.0152361485399814
0.0427654940232225
0.0430586988982046
-0.039445492429256
